tree
version=v4
num_class=1
num_tree_per_iteration=1
label_index=0
max_feature_idx=29
objective=regression
feature_names=material region unit_price lead_time_days late_delivery_risk shipping_mode day_of_week month is_weekend day_of_month quarter week_of_year month_sin month_cos week_sin week_cos day_of_week_sin day_of_week_cos quantity_lag_1 quantity_lag_3 quantity_lag_5 quantity_lag_7 quantity_lag_14 quantity_lag_30 price_lag_7 quantity_rolling_mean_7 quantity_rolling_mean_14 quantity_rolling_mean_30 quantity_used_diff unit_price_diff
feature_infos=none [1:22] none [0:6] [0:1] [0:3] [0:6] [1:12] [0:1] [1:31] [1:4] [1:53] [-1:1] [-1:1] [-1:1] [-1:1] [-0.97492790222167969:0.97492790222167969] [-0.90096884965896606:1] [0:10] [0:10] [0:10] [0:10] [0:10] [0:10] none [2.2857143878936768:5] [2.8571429252624512:5] [3.0333333015441895:5] [-8:8] none
tree_sizes=537 573 484 572 572 574 565 573 574 576 651 650 571 654 654 571 570 570 573 651 575 575 575 576 574 580 573 573 582 654 576 569 571 576 496 656 573 574 580 575 576 571 576 571 571 493 575 573 576 576 492 574 491 495 492 573 579 572 578 575 572 496 492 575 572 490 490 574 579 580 575 578 576 656 571 576 659 578 581 576 573 574 570 577 576 577 577 581 577 579 574 570 575 579 570 490 659 659 574 492 576 577 576 660 652 573 572 655 568 571 658 659 657 582 579 661 657 577 579 662 579 662 577 664 492

Tree=0
num_leaves=5
num_cat=0
split_feature=28 28 26 25
split_gain=175.321 28.151 13.7755 6.4
threshold=1.5000000000000002 -1.0000000180025095e-35 3.5357142686843877 3.5857142210006718
decision_type=2 2 2 2
left_child=1 2 -1 -3
right_child=-2 3 -4 -5
leaf_value=3.5139880946704318 3.703483892785234 3.5811309535020874 3.5675595243771872 3.6211309530550526
leaf_weight=21 34 20 28 20
leaf_count=21 34 20 28 20
internal_value=3.6069 3.57001 3.5446 3.60113
internal_weight=123 89 49 40
internal_count=123 89 49 40
is_linear=0
shrinkage=1


Tree=1
num_leaves=5
num_cat=0
split_feature=28 28 26 27
split_gain=158.227 25.4063 12.4324 6.20944
threshold=1.5000000000000002 -1.0000000180025095e-35 3.5357142686843877 3.6166666746139531
decision_type=2 2 2 2
left_child=1 2 -1 -3
right_child=-2 3 -4 -5
leaf_value=-0.082842261450631283 0.097178744568544279 -0.019756548330187799 -0.031949403882026675 0.019643452391028406
leaf_weight=21 34 20 28 20
leaf_count=21 34 20 28 20
internal_value=0.00542719 -0.029624 -0.0537606 -5.6548e-05
internal_weight=123 89 49 40
internal_count=123 89 49 40
is_linear=0
shrinkage=0.05


Tree=2
num_leaves=4
num_cat=0
split_feature=28 28 18
split_gain=142.8 23.416 28.6096
threshold=1.5000000000000002 -2.4999999999999996 3.5000000000000004
decision_type=2 2 2
left_child=1 -1 -3
right_child=-2 2 -4
leaf_value=-0.074293260631107153 0.092319809513933523 -0.047290549675623579 0.017601157213960376
leaf_weight=21 34 33 35
leaf_count=21 34 33 35
internal_value=0.00515583 -0.0281428 -0.0138904
internal_weight=123 89 68
internal_count=123 89 68
is_linear=0
shrinkage=0.05


Tree=3
num_leaves=5
num_cat=0
split_feature=28 28 26 27
split_gain=128.877 22.3767 10.5335 5.41139
threshold=1.5000000000000002 -1.0000000180025095e-35 3.5357142686843877 3.6166666746139531
decision_type=2 2 2 2
left_child=1 2 -1 -3
right_child=-2 3 -4 -5
leaf_value=-0.076156211963721687 0.087703817359664871 -0.017377568185329439 -0.029311044673834531 0.01940351448953152
leaf_weight=21 34 20 28 20
leaf_count=21 34 20 28 20
internal_value=0.00489804 -0.0267356 -0.0493875 0.00101297
internal_weight=123 89 49 40
internal_count=123 89 49 40
is_linear=0
shrinkage=0.05


Tree=4
num_leaves=5
num_cat=0
split_feature=28 28 26 25
split_gain=116.311 20.195 9.50644 5.15062
threshold=1.5000000000000002 -1.0000000180025095e-35 3.5357142686843877 3.5857142210006718
decision_type=2 2 2 2
left_child=1 2 -1 -3
right_child=-2 3 -4 -5
leaf_value=-0.07234840102138973 0.083318628135192044 -0.016979628950357439 -0.027845492746148795 0.018904277980327608
leaf_weight=21 34 20 28 20
leaf_count=21 34 20 28 20
internal_value=0.00465314 -0.0253988 -0.0469182 0.000962325
internal_weight=123 89 49 40
internal_count=123 89 49 40
is_linear=0
shrinkage=0.05


Tree=5
num_leaves=5
num_cat=0
split_feature=28 28 25 25
split_gain=145.394 32.3531 11.7359 6.90863
threshold=2.5000000000000004 -1.0000000180025095e-35 3.5857142210006718 3.5857142210006718
decision_type=2 2 2 2
left_child=1 2 -1 -3
right_child=-2 3 -4 -5
leaf_value=-0.069634536990234933 0.11725430056791415 -0.012141954308996599 -0.025383483181739677 0.025796123143906398
leaf_weight=31 22 24 29 24
leaf_count=31 22 24 29 24
internal_value=9.6177e-05 -0.0237694 -0.0482465 0.00682708
internal_weight=130 108 60 48
internal_count=130 108 60 48
is_linear=0
shrinkage=0.05


Tree=6
num_leaves=5
num_cat=0
split_feature=26 18 3 14
split_gain=32.8089 16.5114 15.6263 5.8678
threshold=3.3214286565780644 4.5000000000000009 4.2500000000000009 0.40966403484344488
decision_type=2 2 2 2
left_child=-1 2 3 -2
right_child=1 -3 -4 -5
leaf_value=-0.05138632323592901 0.024511887464258406 -0.016304169858203217 0.058894277953853214 -0.011220294190570712
leaf_weight=25 27 34 24 20
leaf_count=25 27 34 24 20
internal_value=9.13684e-05 0.012348 0.0260687 0.0093067
internal_weight=130 105 71 47
internal_count=130 105 71 47
is_linear=0
shrinkage=0.05


Tree=7
num_leaves=5
num_cat=0
split_feature=28 28 26 26
split_gain=128.3 27.6709 8.98649 3.67324
threshold=2.5000000000000004 -1.0000000180025095e-35 3.4642857313156132 3.5857142210006718
decision_type=2 2 2 2
left_child=1 2 -1 -3
right_child=-2 3 -4 -5
leaf_value=-0.070400140045041401 0.11014262373474511 -0.0084564761324461713 -0.030245341046860344 0.019230852879583836
leaf_weight=22 22 23 38 25
leaf_count=22 22 23 38 25
internal_value=8.68004e-05 -0.022332 -0.0449688 0.00596401
internal_weight=130 108 60 48
internal_count=130 108 60 48
is_linear=0
shrinkage=0.05


Tree=8
num_leaves=5
num_cat=0
split_feature=28 28 25 25
split_gain=115.791 24.973 9.66265 5.13903
threshold=2.5000000000000004 -1.0000000180025095e-35 3.5857142210006718 3.5857142210006718
decision_type=2 2 2 2
left_child=1 2 -1 -3
right_child=-2 3 -4 -5
leaf_value=-0.062127431121564686 0.10463549210266634 -0.010694444204758232 -0.021974805665427241 0.022026058876266085
leaf_weight=31 22 24 29 24
leaf_count=31 22 24 29 24
internal_value=8.24604e-05 -0.0212154 -0.0427203 0.00566581
internal_weight=130 108 60 48
internal_count=130 108 60 48
is_linear=0
shrinkage=0.05


Tree=9
num_leaves=5
num_cat=0
split_feature=28 28 25 25
split_gain=104.502 22.5381 8.72054 4.63798
threshold=2.5000000000000004 -1.0000000180025095e-35 3.5857142210006718 3.5857142210006718
decision_type=2 2 2 2
left_child=1 2 -1 -3
right_child=-2 3 -4 -5
leaf_value=-0.059021059513813069 0.099403716149655263 -0.010159722866956145 -0.020876065538874989 0.020924755837768316
leaf_weight=31 22 24 29 24
leaf_count=31 22 24 29 24
internal_value=7.83369e-05 -0.0201546 -0.0405843 0.00538252
internal_weight=130 108 60 48
internal_count=130 108 60 48
is_linear=0
shrinkage=0.05


Tree=10
num_leaves=6
num_cat=0
split_feature=28 25 28 6 25
split_gain=60.184 20.893 12.0123 4.52319 2.40611
threshold=1.5000000000000002 3.4642857313156132 -1.0000000180025095e-35 2.5000000000000004 3.5857142210006718
decision_type=2 2 2 2 2
left_child=1 3 -3 -1 -2
right_child=4 2 -4 -5 -6
leaf_value=-0.033307664110325277 0.037252801834117798 -0.022843901921183834 0.025465187023986469 -0.066532259540898461 0.061485143490135674
leaf_weight=20 21 31 22 21 20
leaf_count=20 21 31 22 21 20
internal_value=-0.0014759 -0.023524 -0.00279107 -0.0503251 0.0490735
internal_weight=135 94 53 41 41
internal_count=135 94 53 41 41
is_linear=0
shrinkage=0.05


Tree=11
num_leaves=6
num_cat=0
split_feature=28 25 28 6 7
split_gain=54.316 18.856 10.8411 4.08218 2.60047
threshold=1.5000000000000002 3.4642857313156132 -1.0000000180025095e-35 2.5000000000000004 7.5000000000000009
decision_type=2 2 2 2 2
left_child=1 3 -3 -1 -2
right_child=4 2 -4 -5 -6
leaf_value=-0.031642280644737189 0.03433098118929636 -0.021701706104701568 0.024191926724531437 -0.063205646971861526 0.059523027092218399
leaf_weight=20 21 31 22 21 20
leaf_count=20 21 31 22 21 20
internal_value=-0.0014021 -0.0223478 -0.00265152 -0.0478089 0.0466198
internal_weight=135 94 53 41 41
internal_count=135 94 53 41 41
is_linear=0
shrinkage=0.05


Tree=12
num_leaves=5
num_cat=0
split_feature=28 28 26 25
split_gain=49.268 19.6452 8.2637 7.94901
threshold=-1.0000000180025095e-35 2.5000000000000004 3.5357142686843877 3.5857142210006718
decision_type=2 2 2 2
left_child=2 3 -1 -2
right_child=1 -3 -4 -5
leaf_value=-0.057072848797990731 -0.013743497710675002 0.061307039976119998 -0.019123039045371118 0.025470712129026653
leaf_weight=26 24 25 32 28
leaf_count=26 24 25 32 28
internal_value=-0.00133199 0.0248833 -0.036135 0.00737185
internal_weight=135 77 58 52
internal_count=135 77 58 52
is_linear=0
shrinkage=0.05


Tree=13
num_leaves=6
num_cat=0
split_feature=28 25 28 6 25
split_gain=44.6153 15.8363 8.79249 3.56894 2.08292
threshold=1.5000000000000002 3.4642857313156132 -1.0000000180025095e-35 2.5000000000000004 3.5857142210006718
decision_type=2 2 2 2 2
left_child=1 3 -3 -1 -2
right_child=4 2 -4 -5 -6
leaf_value=-0.028466057777404786 0.031259293410749664 -0.019354421575553716 0.021976165083998984 -0.057978616690351849 0.053805501163005837
leaf_weight=20 21 31 22 21 20
leaf_count=20 21 31 22 21 20
internal_value=-0.0012654 -0.0202488 -0.00219833 -0.0435822 0.0422574
internal_weight=135 94 53 41 41
internal_count=135 94 53 41 41
is_linear=0
shrinkage=0.05


Tree=14
num_leaves=6
num_cat=0
split_feature=26 25 20 19 14
split_gain=22.035 8.97901 11.1544 8.22864 3.93176
threshold=3.3214286565780644 3.7857142686843877 3.5000000000000004 2.5000000000000004 -0.5163939595222472
decision_type=2 2 2 2 2
left_child=-1 3 -3 -2 -5
right_child=1 2 -4 4 -6
leaf_value=-0.044644704057524603 0.02320078065441478 0.052185480970711941 0.00065087989150058661 0.0019012657393302239 -0.026945210020575261
leaf_weight=24 21 21 21 21 27
leaf_count=24 21 21 21 21 27
internal_value=-0.00120213 0.00819086 0.0264182 -0.00290402 -0.0143249
internal_weight=135 111 42 69 48
internal_count=135 111 42 69 48
is_linear=0
shrinkage=0.05


Tree=15
num_leaves=5
num_cat=0
split_feature=28 28 18 28
split_gain=56.8117 14.3178 11.4836 21.2966
threshold=1.0000000180025095e-35 2.5000000000000004 3.5000000000000004 -2.4999999999999996
decision_type=2 2 2 2
left_child=2 -2 -1 -4
right_child=1 -3 3 -5
leaf_value=-0.060405239176291682 0.011383857249337085 0.06182415637498101 -0.053401475958526137 0.01191428669083577
leaf_weight=26 34 24 24 26
leaf_count=26 34 24 24 26
internal_value=-0.00501171 0.0322557 -0.0334526 -0.0194373
internal_weight=134 58 76 50
internal_count=134 58 76 50
is_linear=0
shrinkage=0.05


Tree=16
num_leaves=5
num_cat=0
split_feature=28 28 18 28
split_gain=51.2726 12.9218 10.364 19.2202
threshold=1.0000000180025095e-35 2.5000000000000004 3.5000000000000004 -2.4999999999999996
decision_type=2 2 2 2
left_child=2 -2 -1 -4
right_child=1 -3 3 -5
leaf_value=-0.057384977317773381 0.010814664414262071 0.058732948048661152 -0.050731402200957149 0.011318572123463337
leaf_weight=26 34 24 24 26
leaf_count=26 34 24 24 26
internal_value=-0.00476113 0.0306429 -0.03178 -0.0184654
internal_weight=134 58 76 50
internal_count=134 58 76 50
is_linear=0
shrinkage=0.05


Tree=17
num_leaves=5
num_cat=0
split_feature=28 28 25 9
split_gain=46.2735 11.662 8.45707 6.68926
threshold=1.0000000180025095e-35 2.5000000000000004 3.3571429252624516 16.500000000000004
decision_type=2 2 2 2
left_child=2 -2 -1 -4
right_child=1 -3 3 -5
leaf_value=-0.057183606142089484 0.010273931252167506 0.05579630156668524 -0.037641955856923703 -0.0027617018536797593
leaf_weight=21 34 24 27 28
leaf_count=21 34 24 27 28
internal_value=-0.00452307 0.0291108 -0.030191 -0.0198847
internal_weight=134 58 76 55
internal_count=134 58 76 55
is_linear=0
shrinkage=0.05


Tree=18
num_leaves=5
num_cat=0
split_feature=28 18 18 28
split_gain=41.7618 10.9025 8.85289 16.9561
threshold=1.0000000180025095e-35 2.5000000000000004 3.5000000000000004 -2.4999999999999996
decision_type=2 2 2 2
left_child=2 -2 -1 -4
right_child=1 -3 3 -5
leaf_value=-0.052346321883109906 0.0094420934808166594 0.053457186790183187 -0.04668175630892317 0.011599083237636549
leaf_weight=26 34 24 24 26
leaf_count=26 34 24 24 26
internal_value=-0.00429692 0.0276552 -0.0286815 -0.0163757
internal_weight=134 58 76 50
internal_count=134 58 76 50
is_linear=0
shrinkage=0.05


Tree=19
num_leaves=6
num_cat=0
split_feature=28 26 28 18 9
split_gain=38.4839 7.43473 5.26656 13.8033 5.15577
threshold=1.5000000000000002 3.3214286565780644 -1.4999999999999998 3.5000000000000004 17.500000000000004
decision_type=2 2 2 2 2
left_child=1 -1 -3 -4 -2
right_child=4 2 3 -5 -6
leaf_value=-0.045576304445664094 0.019043277599848807 -0.030635235251651873 -0.030137477673336188 0.026535318747517612 0.054945129398256548
leaf_weight=24 20 27 22 21 20
leaf_count=24 20 27 22 21 20
internal_value=-0.00408207 -0.0215613 -0.0133276 -0.00246007 0.0369942
internal_weight=134 94 70 43 40
internal_count=134 94 70 43 40
is_linear=0
shrinkage=0.05


Tree=20
num_leaves=5
num_cat=0
split_feature=28 28 18 18
split_gain=44.7464 11.2885 17.7391 2.65966
threshold=2.5000000000000004 -1.0000000180025095e-35 2.5000000000000004 4.5000000000000009
decision_type=2 2 2 2
left_child=1 3 -3 -1
right_child=-2 2 -4 -5
leaf_value=-0.040943234320729972 0.062114706963300709 -0.030962299661976951 0.028555480377807758 -0.018652423005551099
leaf_weight=23 25 21 31 32
leaf_count=23 25 21 31 32
internal_value=0.00188869 -0.0121828 0.00451945 -0.027974
internal_weight=132 107 52 55
internal_count=132 107 52 55
is_linear=0
shrinkage=0.05


Tree=21
num_leaves=5
num_cat=0
split_feature=28 28 18 18
split_gain=40.3837 10.1878 16.0095 2.40035
threshold=2.5000000000000004 -1.0000000180025095e-35 2.5000000000000004 4.5000000000000009
decision_type=2 2 2 2
left_child=1 3 -3 -1
right_child=-2 2 -4 -5
leaf_value=-0.038896073344285076 0.059008971240953549 -0.029414184693069684 0.027127705937750907 -0.01771980195917422
leaf_weight=23 25 21 31 32
leaf_count=23 25 21 31 32
internal_value=0.00179426 -0.0115737 0.00429348 -0.0265753
internal_weight=132 107 52 55
internal_count=132 107 52 55
is_linear=0
shrinkage=0.05


Tree=22
num_leaves=5
num_cat=0
split_feature=28 28 18 18
split_gain=36.4462 9.19453 14.4486 2.16631
threshold=2.5000000000000004 -1.0000000180025095e-35 2.5000000000000004 4.5000000000000009
decision_type=2 2 2 2
left_child=1 3 -3 -1
right_child=-2 2 -4 -5
leaf_value=-0.036951269711489265 0.056058522880077372 -0.027943475624280317 0.025771320908660852 -0.016833811784454155
leaf_weight=23 25 21 31 32
leaf_count=23 25 21 31 32
internal_value=0.00170454 -0.010995 0.00407881 -0.0252466
internal_weight=132 107 52 55
internal_count=132 107 52 55
is_linear=0
shrinkage=0.05


Tree=23
num_leaves=5
num_cat=0
split_feature=28 28 18 26
split_gain=32.8927 8.29806 13.0399 2.05137
threshold=2.5000000000000004 -1.0000000180025095e-35 2.5000000000000004 3.5357142686843877
decision_type=2 2 2 2
left_child=1 3 -3 -1
right_child=-2 2 -4 -5
leaf_value=-0.034562187187373639 0.053255596598610282 -0.026546302009817391 0.024482754563852665 -0.015169281891236702
leaf_weight=25 25 21 31 30
leaf_count=25 25 21 31 30
internal_value=0.00161932 -0.0104452 0.00387487 -0.0239842
internal_weight=132 107 52 55
internal_count=132 107 52 55
is_linear=0
shrinkage=0.05


Tree=24
num_leaves=5
num_cat=0
split_feature=28 28 18 18
split_gain=29.6857 7.489 11.7685 1.88829
threshold=2.5000000000000004 -1.0000000180025095e-35 2.5000000000000004 4.5000000000000009
decision_type=2 2 2 2
left_child=1 3 -3 -1
right_child=-2 2 -4 -5
leaf_value=-0.033712864039546771 0.050592815514653923 -0.025218985932657409 0.023258616767763612 -0.014930642920080573
leaf_weight=23 25 21 31 32
leaf_count=23 25 21 31 32
internal_value=0.00153835 -0.00992297 0.00368112 -0.022785
internal_weight=132 107 52 55
internal_count=132 107 52 55
is_linear=0
shrinkage=0.05


Tree=25
num_leaves=5
num_cat=0
split_feature=28 27 14 28
split_gain=26.7082 7.10861 5.2925 2.55786
threshold=2.5000000000000004 3.7257053852081303 -0.70581671595573414 -1.0000000180025095e-35
decision_type=2 2 2 2
left_child=1 2 -1 -4
right_child=-2 -3 3 -5
leaf_value=-0.0031275651621399448 0.046061078935861588 0.010393556706341249 -0.040449655175209043 -0.017345251045797185
leaf_weight=32 25 28 25 23
leaf_count=32 25 28 25 23
internal_value=-0.000509155 -0.0112893 -0.0188783 -0.0293788
internal_weight=133 108 80 48
internal_count=133 108 80 48
is_linear=0
shrinkage=0.05


Tree=26
num_leaves=5
num_cat=0
split_feature=28 25 28 18
split_gain=24.1042 6.63154 6.79244 12.9284
threshold=2.5000000000000004 3.7857142686843877 -1.4999999999999998 2.5000000000000004
decision_type=2 2 2 2
left_child=1 2 -1 -4
right_child=-2 -3 3 -5
leaf_value=-0.037798566863472972 0.043758024364709852 0.010734972068005139 -0.037837952857704034 0.01265094406589924
leaf_weight=28 25 27 21 32
leaf_count=28 25 27 21 32
internal_value=-0.000483698 -0.0107248 -0.0178781 -0.00735409
internal_weight=133 108 81 53
internal_count=133 108 81 53
is_linear=0
shrinkage=0.05


Tree=27
num_leaves=5
num_cat=0
split_feature=28 25 28 18
split_gain=21.754 5.98496 6.13018 11.6679
threshold=2.5000000000000004 3.7857142686843877 -1.4999999999999998 2.5000000000000004
decision_type=2 2 2 2
left_child=1 2 -1 -4
right_child=-2 -3 3 -5
leaf_value=-0.035908638622744814 0.041570122390985488 0.010198222997563858 -0.035946055306565194 0.012018396724306513
leaf_weight=28 25 27 21 32
leaf_count=28 25 27 21 32
internal_value=-0.000459513 -0.0101886 -0.0169842 -0.00698639
internal_weight=133 108 81 53
internal_count=133 108 81 53
is_linear=0
shrinkage=0.05


Tree=28
num_leaves=5
num_cat=0
split_feature=28 27 14 28
split_gain=19.633 5.74639 4.73405 1.36903
threshold=2.5000000000000004 3.7018518447875981 -0.70581671595573414 -1.0000000180025095e-35
decision_type=2 2 2 2
left_child=1 2 -1 -4
right_child=-2 -3 3 -5
leaf_value=-0.0022952785540837797 0.039491615682840348 0.0084977506810138305 -0.035609619785100223 -0.018128589802377283
leaf_weight=32 25 31 24 21
leaf_count=32 25 31 24 21
internal_value=-0.000436538 -0.00967917 -0.0169971 -0.0274518
internal_weight=133 108 77 45
internal_count=133 108 77 45
is_linear=0
shrinkage=0.05


Tree=29
num_leaves=6
num_cat=0
split_feature=28 18 28 1 6
split_gain=17.7188 5.34057 10.007 3.48298 1.76597
threshold=2.5000000000000004 2.5000000000000004 -1.4999999999999998 12.500000000000002 2.5000000000000004
decision_type=2 2 2 2 2
left_child=1 -1 3 -3 -4
right_child=-2 2 4 -5 -6
leaf_value=-0.030569779427479144 0.037517036169767384 -0.035168975086084436 0.023914852800468605 -0.0063717328011989594 0.0036438853755085309
leaf_weight=23 25 21 21 21 22
leaf_count=23 25 21 21 21 22
internal_value=-0.000414711 -0.00919521 -0.0034115 -0.0207704 0.0135437
internal_weight=133 108 85 42 43
internal_count=133 108 85 42 43
is_linear=0
shrinkage=0.05


Tree=30
num_leaves=5
num_cat=0
split_feature=28 18 11 28
split_gain=11.1108 12.0686 4.39524 1.49846
threshold=1.0000000180025095e-35 2.5000000000000004 41.500000000000007 -1.4999999999999998
decision_type=2 2 2 2
left_child=2 -2 3 -1
right_child=1 -3 -4 -5
leaf_value=-0.031504090048372749 -0.0049851082141200709 0.043155471960325605 0.0043851108046337253 -0.013612057979811321
leaf_weight=25 30 23 21 22
leaf_count=25 30 23 21 22
internal_value=-0.00125585 0.0159061 -0.0146321 -0.0231291
internal_weight=121 53 68 47
internal_count=121 53 68 47
is_linear=0
shrinkage=0.05


Tree=31
num_leaves=5
num_cat=0
split_feature=25 9 7 25
split_gain=6.4507 5.01263 2.30353 4.43186
threshold=3.7857142686843877 15.500000000000002 4.5000000000000009 3.4642857313156132
decision_type=2 2 2 2
left_child=2 -2 -1 -4
right_child=1 -3 3 -5
leaf_value=-0.022933151346185936 -0.0018293844620612535 0.032756689935922623 -0.015034446492791176 0.014020048645103263
leaf_weight=23 22 20 35 21
leaf_count=23 22 20 35 21
internal_value=-0.00119306 0.0146402 -0.00961072 -0.00413901
internal_weight=121 42 79 56
internal_count=121 42 79 56
is_linear=0
shrinkage=0.05


Tree=32
num_leaves=5
num_cat=0
split_feature=28 18 18 28
split_gain=9.93118 10.7023 4.0434 8.31117
threshold=1.0000000180025095e-35 2.5000000000000004 3.5000000000000004 -2.4999999999999996
decision_type=2 2 2 2
left_child=2 -2 -1 -4
right_child=1 -3 3 -5
leaf_value=-0.032668000925332306 -0.00458118811249733 0.040752569739909282 -0.025865524671971798 0.015781866366286642
leaf_weight=20 30 23 25 23
leaf_count=20 30 23 25 23
internal_value=-0.0011334 0.015092 -0.0137796 -0.00590948
internal_weight=121 53 68 48
internal_count=121 53 68 48
is_linear=0
shrinkage=0.05


Tree=33
num_leaves=5
num_cat=0
split_feature=28 18 18 28
split_gain=8.96289 9.65882 3.64917 7.50083
threshold=1.0000000180025095e-35 2.5000000000000004 3.5000000000000004 -2.4999999999999996
decision_type=2 2 2 2
left_child=2 -2 -1 -4
right_child=1 -3 3 -5
leaf_value=-0.031034600250422956 -0.0043521291141708695 0.038714941412858341 -0.024572248309850692 0.014992772727070945
leaf_weight=20 30 23 25 23
leaf_count=20 30 23 25 23
internal_value=-0.00107673 0.0143374 -0.0130907 -0.00561401
internal_weight=121 53 68 48
internal_count=121 53 68 48
is_linear=0
shrinkage=0.05


Tree=34
num_leaves=4
num_cat=0
split_feature=26 16 13
split_gain=5.81677 5.74097 5.11692
threshold=3.8730158805847172 1.0000000180025095e-35 1.0000000180025095e-35
decision_type=2 2 2
left_child=1 2 -1
right_child=-2 -3 -4
leaf_value=0.016430534854898173 0.021606209809365479 -0.021872469928820391 -0.012629982333497278
leaf_weight=33 23 37 28
leaf_count=33 23 37 28
internal_value=-0.0010229 -0.00633381 0.00309128
internal_weight=121 98 61
internal_count=121 98 61
is_linear=0
shrinkage=0.05


Tree=35
num_leaves=6
num_cat=0
split_feature=28 25 28 9 15
split_gain=9.36804 3.65129 3.13871 1.89738 0.624428
threshold=1.0000000180025095e-35 3.5857142210006718 2.5000000000000004 16.500000000000004 -0.5163939595222472
decision_type=2 2 2 2 2
left_child=1 4 -2 -3 -1
right_child=2 3 -4 -5 -6
leaf_value=-0.016586221778942718 0.0055472448778649177 -0.012259605580142566 0.029523396101735891 0.008994947838419606 -0.028930864664725959
leaf_weight=21 39 21 21 21 20
leaf_count=21 39 21 21 21 20
internal_value=-0.00111295 -0.0119938 0.0139389 -0.00163233 -0.022608
internal_weight=143 83 60 42 41
internal_count=143 83 60 42 41
is_linear=0
shrinkage=0.05


Tree=36
num_leaves=5
num_cat=0
split_feature=28 18 18 20
split_gain=8.45466 7.39144 5.57555 1.25972
threshold=1.0000000180025095e-35 2.5000000000000004 4.5000000000000009 3.5000000000000004
decision_type=2 2 2 2
left_child=2 -2 3 -1
right_child=1 -3 -4 -5
leaf_value=-0.014749014680802992 -0.0015898866924856391 0.034006528370082383 0.0027081695360768785 -0.031484504465175714
leaf_weight=22 35 25 38 23
leaf_count=22 35 25 38 23
internal_value=-0.0010573 0.013242 -0.0113941 -0.0233027
internal_weight=143 60 83 45
internal_count=143 60 83 45
is_linear=0
shrinkage=0.05


Tree=37
num_leaves=5
num_cat=0
split_feature=28 18 28 18
split_gain=8.16213 5.10748 5.27635 4.201
threshold=2.5000000000000004 2.5000000000000004 -1.4999999999999998 3.5000000000000004
decision_type=2 2 2 2
left_child=1 -1 -3 -4
right_child=-2 2 3 -5
leaf_value=-0.023875865686374408 0.027787705617291589 -0.014077299404575919 -0.0041919961526918305 0.023966893025398249
leaf_weight=30 21 39 26 27
leaf_count=30 21 39 26 27
internal_value=-0.00100444 -0.00596046 -0.000118483 0.0101531
internal_weight=143 122 92 53
internal_count=143 122 92 53
is_linear=0
shrinkage=0.05


Tree=38
num_leaves=5
num_cat=0
split_feature=28 18 28 18
split_gain=7.36632 4.6095 4.91518 2.84315
threshold=2.5000000000000004 2.5000000000000004 1.0000000180025095e-35 4.5000000000000009
decision_type=2 2 2 2
left_child=1 -1 3 -3
right_child=-2 2 -4 -5
leaf_value=-0.022682072074773411 0.026398320637998129 -0.017134688134220515 0.021137758712228834 0.0029262191566981769
leaf_weight=30 21 33 21 38
leaf_count=30 21 33 21 38
internal_value=-0.000954216 -0.00566244 -0.000112559 -0.00639786
internal_weight=143 122 92 71
internal_count=143 122 92 71
is_linear=0
shrinkage=0.05


Tree=39
num_leaves=5
num_cat=0
split_feature=28 18 18 20
split_gain=6.74895 6.12205 4.6812 1.07701
threshold=1.0000000180025095e-35 2.5000000000000004 4.5000000000000009 3.5000000000000004
decision_type=2 2 2 2
left_child=2 -2 3 -1
right_child=1 -3 -4 -5
leaf_value=-0.013144621856653514 -0.0016291347864483084 0.030766766842454676 0.0027799080273038465 -0.028618892077761499
leaf_weight=22 35 25 38 23
leaf_count=22 35 25 38 23
internal_value=-0.000906505 0.0118692 -0.0101419 -0.0210537
internal_weight=143 60 83 45
internal_count=143 60 83 45
is_linear=0
shrinkage=0.05


Tree=40
num_leaves=5
num_cat=0
split_feature=26 28 18 13
split_gain=7.31486 6.64739 11.0395 5.37424
threshold=3.8730158805847172 -1.4999999999999998 3.5000000000000004 -0.25000000000000006
decision_type=2 2 2 2
left_child=1 -1 3 -3
right_child=-2 2 -4 -5
leaf_value=-0.026590346735751919 0.023012371309101581 0.0017508977318577694 0.029082310164812955 -0.029345015762373805
leaf_weight=31 25 33 24 24
leaf_count=31 25 33 24 24
internal_value=-0.00144173 -0.00690023 0.00063549 -0.0113421
internal_weight=137 112 81 57
internal_count=137 112 81 57
is_linear=0
shrinkage=0.05


Tree=41
num_leaves=5
num_cat=0
split_feature=25 9 28 18
split_gain=8.72616 5.39376 4.55375 6.39237
threshold=3.7857142686843877 18.500000000000004 -1.4999999999999998 2.5000000000000004
decision_type=2 2 2 2
left_child=2 -2 -1 -4
right_child=1 -3 3 -5
leaf_value=-0.026800395634823612 0.00077449695571609172 0.03627799705602229 -0.017832509214606353 0.013303190354781691
leaf_weight=28 23 20 34 32
leaf_count=28 23 20 34 32
internal_value=-0.00136964 0.0172878 -0.00990441 -0.00273641
internal_weight=137 43 94 66
internal_count=137 43 94 66
is_linear=0
shrinkage=0.05


Tree=42
num_leaves=5
num_cat=0
split_feature=26 28 18 15
split_gain=6.27248 5.49482 9.45949 4.92141
threshold=3.8730158805847172 -1.4999999999999998 3.5000000000000004 -0.70581671595573414
decision_type=2 2 2 2
left_child=1 -1 3 -3
right_child=-2 2 -4 -5
leaf_value=-0.024257715232670309 0.021343634933233262 0.0072710907037380037 0.026828119888280828 -0.022675604252692532
leaf_weight=31 25 23 24 34
leaf_count=31 25 23 24 34
internal_value=-0.00130116 -0.0063558 0.000495548 -0.0105919
internal_weight=137 112 81 57
internal_count=137 112 81 57
is_linear=0
shrinkage=0.05


Tree=43
num_leaves=5
num_cat=0
split_feature=25 9 28 18
split_gain=7.43846 4.80933 3.73133 5.47399
threshold=3.7857142686843877 18.500000000000004 -1.4999999999999998 2.5000000000000004
decision_type=2 2 2 2
left_child=2 -2 -1 -4
right_child=1 -3 3 -5
leaf_value=-0.024410352164081165 0.00039676947762136872 0.033921691621653739 -0.016597161584478968 0.012215245692641475
leaf_weight=28 23 20 34 32
leaf_count=28 23 20 34 32
internal_value=-0.0012361 0.0159898 -0.00911602 -0.00262751
internal_weight=137 43 94 66
internal_count=137 43 94 66
is_linear=0
shrinkage=0.05


Tree=44
num_leaves=5
num_cat=0
split_feature=25 9 28 18
split_gain=6.71321 4.34042 3.36752 4.94028
threshold=3.7857142686843877 18.500000000000004 -1.4999999999999998 2.5000000000000004
decision_type=2 2 2 2
left_child=2 -2 -1 -4
right_child=1 -3 3 -5
leaf_value=-0.023189834422165795 0.00037693147264097047 0.032225606953725221 -0.015767303029732668 0.011604483617702499
leaf_weight=28 23 20 34 32
leaf_count=28 23 20 34 32
internal_value=-0.0011743 0.0151903 -0.00866021 -0.00249613
internal_weight=137 43 94 66
internal_count=137 43 94 66
is_linear=0
shrinkage=0.05


Tree=45
num_leaves=4
num_cat=0
split_feature=28 20 18
split_gain=5.0719 5.39316 4.02178
threshold=1.0000000180025095e-35 3.5000000000000004 4.5000000000000009
decision_type=2 2 2
left_child=2 -2 -1
right_child=1 -3 -4
leaf_value=-0.021872527788260154 0.026368926568991608 -0.0052338120217124626 0.0016191832316843303
leaf_weight=35 27 27 38
leaf_count=35 27 27 38
internal_value=-0.00105009 0.0105676 -0.00964397
internal_weight=127 54 73
internal_count=127 54 73
is_linear=0
shrinkage=0.05


Tree=46
num_leaves=5
num_cat=0
split_feature=26 28 18 13
split_gain=5.44154 3.28746 6.15813 1.0457
threshold=3.8730158805847172 -1.4999999999999998 2.5000000000000004 0.25000000000000011
decision_type=2 2 2 2
left_child=1 -1 -3 -4
right_child=-2 2 3 -5
leaf_value=-0.019404174573719502 0.02161302699030123 -0.016533290407096501 0.020470804131279389 0.0046918043245871869
leaf_weight=31 22 32 21 21
leaf_count=31 22 32 21 21
internal_value=-0.000997585 -0.00573505 -8.79075e-06 0.0125813
internal_weight=127 105 74 42
internal_count=127 105 74 42
is_linear=0
shrinkage=0.05


Tree=47
num_leaves=5
num_cat=0
split_feature=26 15 25 6
split_gain=4.91099 3.26027 2.56588 1.0328
threshold=3.8730158805847172 0.17992616817355159 3.3571429252624516 2.5000000000000004
decision_type=2 2 2 2
left_child=1 2 -1 -3
right_child=-2 3 -4 -5
leaf_value=-0.0096421791643549054 0.020532376095864245 -0.0071529269311577078 0.0112237593939747 -0.022396942380815743
leaf_weight=26 22 20 34 25
leaf_count=26 22 20 34 25
internal_value=-0.000947706 -0.00544829 0.00218185 -0.0156218
internal_weight=127 105 60 45
internal_count=127 105 60 45
is_linear=0
shrinkage=0.05


Tree=48
num_leaves=5
num_cat=0
split_feature=28 18 28 18
split_gain=4.46816 3.28648 5.51951 0.762195
threshold=2.5000000000000004 3.5000000000000004 -1.4999999999999998 2.5000000000000004
decision_type=2 2 2 2
left_child=1 3 -3 -1
right_child=-2 2 -4 -5
leaf_value=-0.022495708224319278 0.019588446210731161 -0.010643473105239018 0.019769902312411713 -0.0093205476463164971
leaf_weight=21 22 35 26 23
leaf_count=21 22 35 26 23
internal_value=-0.000900321 -0.00519321 0.0023196 -0.0156087
internal_weight=127 105 61 44
internal_count=127 105 61 44
is_linear=0
shrinkage=0.05


Tree=49
num_leaves=5
num_cat=0
split_feature=26 15 25 6
split_gain=4.32193 2.9589 2.21318 0.931636
threshold=3.8730158805847172 0.17992616817355159 3.3571429252624516 2.5000000000000004
decision_type=2 2 2 2
left_child=1 2 -1 -3
right_child=-2 3 -4 -5
leaf_value=-0.0087897492895046107 0.019295392909341239 -0.0067258393205702309 0.010589078888262842 -0.021204030483961106
leaf_weight=26 22 20 34 25
leaf_count=26 22 20 34 25
internal_value=-0.000855305 -0.00507736 0.00219159 -0.0147693
internal_weight=127 105 60 45
internal_count=127 105 60 45
is_linear=0
shrinkage=0.05


Tree=50
num_leaves=4
num_cat=0
split_feature=27 15 22
split_gain=5.02474 2.41562 2.13143
threshold=3.7257053852081303 1.0000000180025095e-35 2.5000000000000004
decision_type=2 2 2
left_child=1 2 -1
right_child=-2 -3 -4
leaf_value=-0.013296546315541492 0.013384574126555688 -0.018108170762514839 0.0062864915485437399
leaf_weight=24 36 39 33
leaf_count=24 36 39 33
internal_value=-0.00254573 -0.0085196 -0.001959
internal_weight=132 96 57
internal_count=132 96 57
is_linear=0
shrinkage=0.05


Tree=51
num_leaves=5
num_cat=0
split_feature=27 17 22 22
split_gain=4.53483 2.26546 2.72721 2.10435
threshold=3.7257053852081303 -0.56174489110708226 2.5000000000000004 4.5000000000000009
decision_type=2 2 2 2
left_child=1 -1 -3 -4
right_child=-2 2 3 -5
leaf_value=-0.021397331071784723 0.012715345075250501 -0.015508497108159394 0.01565373738606771 -0.0064742551185190678
leaf_weight=24 36 29 21 22
leaf_count=24 36 29 21 22
internal_value=-0.00241845 -0.00809362 -0.00365905 0.00433244
internal_weight=132 96 72 43
internal_count=132 96 72 43
is_linear=0
shrinkage=0.05


Tree=52
num_leaves=4
num_cat=0
split_feature=28 18 20
split_gain=3.43941 6.57049 1.93042
threshold=-1.4999999999999998 3.5000000000000004 3.5000000000000004
decision_type=2 2 2
left_child=-1 2 -2
right_child=1 -3 -4
leaf_value=-0.015230123552720291 0.0036572632605149863 0.023607322235626203 -0.013257610896048514
leaf_weight=37 31 27 37
leaf_count=37 31 27 37
internal_value=-0.00229753 0.00273938 -0.00554642
internal_weight=132 95 68
internal_count=132 95 68
is_linear=0
shrinkage=0.05


Tree=53
num_leaves=4
num_cat=0
split_feature=27 15 22
split_gain=4.03451 2.10971 1.68846
threshold=3.7257053852081303 1.0000000180025095e-35 2.5000000000000004
decision_type=2 2 2
left_child=1 2 -1
right_child=-2 -3 -4
leaf_value=-0.011495366622693837 0.012091915240873481 -0.016496485836120348 0.0059343380176428723
leaf_weight=24 36 39 33
leaf_count=24 36 39 33
internal_value=-0.00218265 -0.00753561 -0.00140448
internal_weight=132 96 57
internal_count=132 96 57
is_linear=0
shrinkage=0.05


Tree=54
num_leaves=4
num_cat=0
split_feature=27 28 18
split_gain=3.7268 2.84257 2.82388
threshold=3.7679487466812138 -1.4999999999999998 2.5000000000000004
decision_type=2 2 2
left_child=1 -1 -3
right_child=-2 2 -4
leaf_value=-0.019113756101578477 0.015748514440686753 -0.01051689945638944 0.0085103399126241226
leaf_weight=30 24 39 39
leaf_count=30 24 39 39
internal_value=-0.00207352 -0.00603397 -0.00100328
internal_weight=132 108 78
internal_count=132 108 78
is_linear=0
shrinkage=0.05


Tree=55
num_leaves=5
num_cat=0
split_feature=28 19 3 18
split_gain=9.43272 2.35971 2.26235 2.08606
threshold=2.5000000000000004 4.5000000000000009 4.7500000000000009 3.5000000000000004
decision_type=2 2 2 2
left_child=1 2 3 -1
right_child=-2 -3 -4 -5
leaf_value=-0.0052781544206663969 0.029358706909876603 -0.015314601364573747 -0.010671666352677026 0.015712111883250803
leaf_weight=20 26 33 28 29
leaf_count=20 26 33 28 29
internal_value=0.00227372 -0.00412818 0.000665993 0.00714466
internal_weight=136 110 77 49
internal_count=136 110 77 49
is_linear=0
shrinkage=0.05


Tree=56
num_leaves=5
num_cat=0
split_feature=28 19 16 28
split_gain=8.51303 2.12963 2.16848 2.23516
threshold=2.5000000000000004 4.5000000000000009 0.6078576147556306 -1.0000000180025095e-35
decision_type=2 2 2 2
left_child=1 2 3 -1
right_child=-2 -3 -4 -5
leaf_value=-0.014144167107738685 0.027890771627426147 -0.014548871245686757 0.014334781235083938 0.0058469573984405512
leaf_weight=29 26 33 21 27
leaf_count=29 26 33 21 27
internal_value=0.00216003 -0.00392178 0.000632694 -0.00450559
internal_weight=136 110 77 56
internal_count=136 110 77 56
is_linear=0
shrinkage=0.05


Tree=57
num_leaves=5
num_cat=0
split_feature=28 1 11 22
split_gain=7.68301 1.97991 2.17993 1.86499
threshold=2.5000000000000004 9.5000000000000018 36.500000000000007 2.5000000000000004
decision_type=2 2 2 2
left_child=1 -1 3 -3
right_child=-2 2 -4 -5
leaf_value=-0.01493657046993231 0.026496232472933257 0.0048768312515070043 0.011888247439465314 -0.013823055454995485
leaf_weight=29 26 24 27 30
leaf_count=29 26 24 27 30
internal_value=0.00205203 -0.00372569 0.000288086 -0.00551199
internal_weight=136 110 81 54
internal_count=136 110 81 54
is_linear=0
shrinkage=0.05


Tree=58
num_leaves=5
num_cat=0
split_feature=28 19 16 28
split_gain=6.93391 1.90676 1.95243 1.97582
threshold=2.5000000000000004 4.5000000000000009 0.6078576147556306 -1.0000000180025095e-35
decision_type=2 2 2 2
left_child=1 2 3 -1
right_child=-2 -3 -4 -5
leaf_value=-0.013167615763136541 0.025171421239009274 -0.013595054614724537 0.013771750407648229 0.0056280231586209048
leaf_weight=29 26 33 21 27
leaf_count=29 26 33 21 27
internal_value=0.00194943 -0.0035394 0.000770163 -0.00410543
internal_weight=136 110 77 56
internal_count=136 110 77 56
is_linear=0
shrinkage=0.05


Tree=59
num_leaves=5
num_cat=0
split_feature=28 1 18 28
split_gain=6.25786 1.76753 1.91603 1.19593
threshold=2.5000000000000004 9.5000000000000018 4.5000000000000009 1.0000000180025095e-35
decision_type=2 2 2 2
left_child=1 -1 3 -3
right_child=-2 2 -4 -5
leaf_value=-0.013954989535027537 0.02391285032320481 -0.01191642891037567 0.011305319076334988 0.0030063975751399995
leaf_weight=29 26 29 27 25
leaf_count=29 26 29 27 25
internal_value=0.00185196 -0.00336243 0.000429964 -0.00500771
internal_weight=136 110 81 54
internal_count=136 110 81 54
is_linear=0
shrinkage=0.05


Tree=60
num_leaves=5
num_cat=0
split_feature=28 27 1 9
split_gain=10.783 2.22104 0.969866 0.686881
threshold=1.5000000000000002 3.7257053852081303 10.500000000000002 16.500000000000004
decision_type=2 2 2 2
left_child=1 2 -1 -4
right_child=-2 -3 3 -5
leaf_value=-0.019332686789511219 0.028131505247438328 0.0065628977768399099 -0.012097968976013363 0.00028434738162018007
leaf_weight=21 32 27 24 21
leaf_count=21 32 27 24 21
internal_value=0.00309632 -0.00551794 -0.0104601 -0.00631955
internal_weight=125 93 66 45
internal_count=125 93 66 45
is_linear=0
shrinkage=0.05


Tree=61
num_leaves=4
num_cat=0
split_feature=9 16 15
split_gain=9.32846 2.24604 1.41603
threshold=22.500000000000004 1.0000000180025095e-35 1.0000000180025095e-35
decision_type=2 2 2
left_child=1 2 -1
right_child=-2 -3 -4
leaf_value=0.0091329718275266064 0.028364505924816642 -0.013675533595662087 -0.0065294246913658247
leaf_weight=31 28 39 27
leaf_count=31 28 39 27
internal_value=0.0029415 -0.00439709 0.00184186
internal_weight=125 97 58
internal_count=125 97 58
is_linear=0
shrinkage=0.05


Tree=62
num_leaves=4
num_cat=0
split_feature=28 27 28
split_gain=9.56655 1.98176 0.677216
threshold=1.5000000000000002 3.7257053852081303 -1.4999999999999998
decision_type=2 2 2
left_child=1 2 -1
right_child=-2 -3 -4
leaf_value=-0.015708650703590107 0.026375257142353805 0.0060921366223030621 -0.0055038224402311695
leaf_weight=29 32 27 37
leaf_count=29 32 27 37
internal_value=0.00279443 -0.0053194 -0.00998776
internal_weight=125 93 66
internal_count=125 93 66
is_linear=0
shrinkage=0.05


Tree=63
num_leaves=5
num_cat=0
split_feature=28 27 15 27
split_gain=8.63381 1.78854 0.644225 1.00848
threshold=1.5000000000000002 3.7257053852081303 0.51639395952224743 3.4500000476837163
decision_type=2 2 2 2
left_child=1 2 3 -1
right_child=-2 -3 -4 -5
leaf_value=-0.014308742841794378 0.025056493881857024 0.005787529761868495 -0.016980078374035656 0.00055409930832684036
leaf_weight=21 32 27 20 25
leaf_count=21 32 27 20 25
internal_value=0.00265471 -0.00505343 -0.00948837 -0.00623111
internal_weight=125 93 66 46
internal_count=125 93 66 46
is_linear=0
shrinkage=0.05


Tree=64
num_leaves=5
num_cat=0
split_feature=28 27 1 21
split_gain=7.79201 1.61416 0.853605 0.663249
threshold=1.5000000000000002 3.7257053852081303 10.500000000000002 3.5000000000000004
decision_type=2 2 2 2
left_child=1 2 -1 -4
right_child=-2 -3 3 -5
leaf_value=-0.01733778295373278 0.023803669624612667 0.0054981531161401006 -0.010558844417333603 0.0016571752680465579
leaf_weight=21 32 27 25 20
leaf_count=21 32 27 25 20
internal_value=0.00252197 -0.00480076 -0.00901396 -0.0051295
internal_weight=125 93 66 45
internal_count=125 93 66 45
is_linear=0
shrinkage=0.05


Tree=65
num_leaves=4
num_cat=0
split_feature=25 19 20
split_gain=5.39358 2.42852 3.02279
threshold=3.7857142686843877 2.5000000000000004 3.5000000000000004
decision_type=2 2 2
left_child=1 -1 -3
right_child=-2 2 -4
leaf_value=0.0059368162991150341 0.018224166012886497 -0.0007702743692789227 -0.023974483847618105
leaf_weight=34 36 32 25
leaf_count=34 36 32 25
internal_value=0.00184182 -0.00463911 -0.0109476
internal_weight=127 91 57
internal_count=127 91 57
is_linear=0
shrinkage=0.05


Tree=66
num_leaves=4
num_cat=0
split_feature=25 19 20
split_gain=4.86771 2.19174 2.72807
threshold=3.7857142686843877 2.5000000000000004 3.5000000000000004
decision_type=2 2 2
left_child=1 -1 -3
right_child=-2 2 -4
leaf_value=0.0056399756412514879 0.017312957915580934 -0.00073176076984964315 -0.02277576019987464
leaf_weight=34 36 32 25
leaf_count=34 36 32 25
internal_value=0.00174973 -0.00440716 -0.0104002
internal_weight=127 91 57
internal_count=127 91 57
is_linear=0
shrinkage=0.05


Tree=67
num_leaves=5
num_cat=0
split_feature=28 27 15 19
split_gain=7.1393 1.26488 1.73003 0.685099
threshold=2.5000000000000004 3.7018518447875981 0.40966403484344488 2.5000000000000004
decision_type=2 2 2 2
left_child=1 2 3 -1
right_child=-2 -3 -4 -5
leaf_value=0.0032946378532797099 0.02687084415684576 0.0047475566901266572 -0.019985789721831682 -0.00800005943867667
leaf_weight=25 23 30 20 29
leaf_count=25 23 30 20 29
internal_value=0.00166224 -0.00391274 -0.00742367 -0.00277103
internal_weight=127 104 74 54
internal_count=127 104 74 54
is_linear=0
shrinkage=0.05


Tree=68
num_leaves=5
num_cat=0
split_feature=28 18 28 28
split_gain=6.44322 1.33168 3.67774 0.831761
threshold=2.5000000000000004 3.5000000000000004 -2.4999999999999996 1.0000000180025095e-35
decision_type=2 2 2 2
left_child=1 3 -3 -1
right_child=-2 2 -4 -5
leaf_value=-0.016205299127614127 0.025527302208154096 -0.011878031834959986 0.014735970808262076 -0.0035204238424609811
leaf_weight=24 23 25 27 28
leaf_count=24 23 25 27 28
internal_value=0.00157913 -0.0037171 0.00194078 -0.00937498
internal_weight=127 104 52 52
internal_count=127 104 52 52
is_linear=0
shrinkage=0.05


Tree=69
num_leaves=5
num_cat=0
split_feature=28 18 28 28
split_gain=5.81501 1.20184 3.31916 0.750664
threshold=2.5000000000000004 3.5000000000000004 -2.4999999999999996 1.0000000180025095e-35
decision_type=2 2 2 2
left_child=1 3 -3 -1
right_child=-2 2 -4 -5
leaf_value=-0.015395034651737661 0.024250937674356543 -0.011284130193293095 0.013999172079342384 -0.0033444027848807834
leaf_weight=24 23 25 27 28
leaf_count=24 23 25 27 28
internal_value=0.00150017 -0.00353125 0.00184374 -0.00890623
internal_weight=127 104 52 52
internal_count=127 104 52 52
is_linear=0
shrinkage=0.05


Tree=70
num_leaves=5
num_cat=0
split_feature=25 14 3 16
split_gain=6.01027 3.17739 2.04673 1.48023
threshold=3.7857142686843877 -0.61559370160102833 4.2500000000000009 1.0000000180025095e-35
decision_type=2 2 2 2
left_child=1 -1 -2 -3
right_child=2 3 -4 -5
leaf_value=0.0089851579061992794 0.0056304989213293256 -0.0056496221531072968 0.027730817757546902 -0.0210264606048064
leaf_weight=23 22 34 20 29
leaf_count=23 22 34 20 29
internal_value=0.000650714 -0.00692088 0.0161545 -0.0127278
internal_weight=128 86 42 63
internal_count=128 86 42 63
is_linear=0
shrinkage=0.05


Tree=71
num_leaves=5
num_cat=0
split_feature=25 9 14 16
split_gain=5.42427 3.76336 2.86759 1.33591
threshold=3.7857142686843877 16.500000000000004 -0.61559370160102833 1.0000000180025095e-35
decision_type=2 2 2 2
left_child=2 -2 -1 -4
right_child=1 -3 3 -5
leaf_value=0.0085358996470661277 0.00037979455221266977 0.030313679611399059 -0.0053671410553814735 -0.019975137304723393
leaf_weight=23 21 21 34 29
leaf_count=23 21 21 34 29
internal_value=0.000618179 0.0153467 -0.00657484 -0.0120915
internal_weight=128 42 86 63
internal_count=128 42 86 63
is_linear=0
shrinkage=0.05


Tree=72
num_leaves=5
num_cat=0
split_feature=25 9 16 28
split_gain=4.8954 3.39643 2.27469 1.21234
threshold=3.7857142686843877 16.500000000000004 1.0000000180025095e-35 1.0000000180025095e-35
decision_type=2 2 2 2
left_child=2 -2 3 -1
right_child=1 -3 -4 -5
leaf_value=-0.005959457367037734 0.0003608048316978273 0.028797995831285207 -0.016062066727317869 0.0097043703620632495
leaf_weight=30 21 21 35 21
leaf_count=30 21 21 35 21
internal_value=0.00058727 0.0145794 -0.0062461 0.000490354
internal_weight=128 42 86 51
internal_count=128 42 86 51
is_linear=0
shrinkage=0.05


Tree=73
num_leaves=6
num_cat=0
split_feature=25 9 14 18 25
split_gain=4.4181 3.06528 2.52029 1.1625 0.333071
threshold=3.7857142686843877 16.500000000000004 -0.61559370160102833 2.5000000000000004 3.4642857313156132
decision_type=2 2 2 2 2
left_child=2 -2 -1 -4 -5
right_child=1 -3 3 4 -6
leaf_value=0.0082323847986433812 0.00034276521986439115 0.027358096376771019 -0.021064559572841975 -0.0019694039021574314 -0.010772829316556454
leaf_weight=23 21 21 20 21 22
leaf_count=23 21 21 20 21 22
internal_value=0.000557906 0.0138504 -0.00593379 -0.0111056 -0.00647348
internal_weight=128 42 86 63 43
internal_count=128 42 86 63 43
is_linear=0
shrinkage=0.05


Tree=74
num_leaves=5
num_cat=0
split_feature=25 9 19 23
split_gain=3.98734 2.76641 1.98559 1.62891
threshold=3.7857142686843877 16.500000000000004 2.5000000000000004 3.5000000000000004
decision_type=2 2 2 2
left_child=2 -2 -1 -4
right_child=1 -3 3 -5
leaf_value=0.0059041877277195461 0.00032562633000669024 0.025990190676280431 -0.0045929901051120119 -0.021865382710737843
leaf_weight=26 21 21 39 21
leaf_count=26 21 21 39 21
internal_value=0.000530011 0.0131579 -0.0056371 -0.0106383
internal_weight=128 42 86 60
internal_count=128 42 86 60
is_linear=0
shrinkage=0.05


Tree=75
num_leaves=5
num_cat=0
split_feature=1 18 28 19
split_gain=3.98898 5.09783 6.57744 0.375957
threshold=18.500000000000004 2.5000000000000004 -1.0000000180025095e-35 2.5000000000000004
decision_type=2 2 2 2
left_child=1 -1 3 -3
right_child=-2 2 -4 -5
leaf_value=-0.021902729912578842 0.014691236404081185 -0.0060425318800844258 0.019956214269944306 -0.015514432565330276
leaf_weight=34 30 20 29 22
leaf_count=34 30 20 29 22
internal_value=-0.0013881 -0.0059822 0.00164172 -0.011004
internal_weight=135 105 71 42
internal_count=135 105 71 42
is_linear=0
shrinkage=0.05


Tree=76
num_leaves=6
num_cat=0
split_feature=18 28 6 19 12
split_gain=2.92102 5.94582 3.27565 2.11193 2.60414
threshold=3.5000000000000004 -1.0000000180025095e-35 2.5000000000000004 2.5000000000000004 -0.25000000000000006
decision_type=2 2 2 2 2
left_child=3 2 -2 -1 -5
right_child=1 -3 -4 4 -6
leaf_value=0.0025362521609557528 0.010327412155456843 0.028266951051496327 -0.017631288253786889 -0.0022996102193636554 -0.026652743958908584
leaf_weight=28 20 21 22 21 23
leaf_count=28 20 21 22 21 23
internal_value=-0.0013187 0.0065439 -0.00431762 -0.00819847 -0.0150297
internal_weight=135 63 42 72 44
internal_count=135 63 42 72 44
is_linear=0
shrinkage=0.05


Tree=77
num_leaves=5
num_cat=0
split_feature=18 28 21 20
split_gain=2.70183 4.32793 1.92249 1.26775
threshold=2.5000000000000004 -1.0000000180025095e-35 3.5000000000000004 3.5000000000000004
decision_type=2 2 2 2
left_child=3 2 -2 -1
right_child=1 -3 -4 -5
leaf_value=-0.0026752408678558741 -0.013434482275718643 0.016871713441670749 0.0058917933228341025 -0.019463973346611728
leaf_weight=22 31 37 22 23
leaf_count=22 31 37 22 23
internal_value=-0.00125276 0.00374893 -0.00541225 -0.0112561
internal_weight=135 90 53 45
internal_count=135 90 53 45
is_linear=0
shrinkage=0.05


Tree=78
num_leaves=5
num_cat=0
split_feature=1 18 28 15
split_gain=3.51261 4.04987 5.13008 0.320687
threshold=18.500000000000004 2.5000000000000004 -1.0000000180025095e-35 0.29696027934551245
decision_type=2 2 2 2
left_child=1 -1 3 -3
right_child=-2 2 -4 -5
leaf_value=-0.019691282190272913 0.013898594373216231 -0.0057082548991523006 0.017468483688245561 -0.014456265652552248
leaf_weight=34 30 22 29 20
leaf_count=34 30 22 29 20
internal_value=-0.00119012 -0.00550119 0.00129407 -0.00987397
internal_weight=135 105 71 42
internal_count=135 105 71 42
is_linear=0
shrinkage=0.05


Tree=79
num_leaves=5
num_cat=0
split_feature=1 18 28 19
split_gain=3.17013 3.655 4.6299 0.30979
threshold=18.500000000000004 2.5000000000000004 -1.0000000180025095e-35 2.5000000000000004
decision_type=2 2 2 2
left_child=1 -1 3 -3
right_child=-2 2 -4 -5
leaf_value=-0.018706718089935535 0.013203664797668655 -0.0048765108361840254 0.016595059602746164 -0.013474607086655769
leaf_weight=34 30 20 29 22
leaf_count=34 30 20 29 22
internal_value=-0.00113062 -0.00522613 0.00122937 -0.00938028
internal_weight=135 105 71 42
internal_count=135 105 71 42
is_linear=0
shrinkage=0.05


Tree=80
num_leaves=5
num_cat=0
split_feature=12 9 9 14
split_gain=4.23944 4.1397 1.29512 2.3069
threshold=0.68301269412040722 23.500000000000004 8.5000000000000018 -0.5163939595222472
decision_type=2 2 2 2
left_child=1 2 -1 -4
right_child=-2 -3 3 -5
leaf_value=0.0074927855927783716 -0.017318689658713995 0.022217049660242124 0.0039106343294782889 -0.016210117989352773
leaf_weight=26 32 23 29 28
leaf_count=26 32 23 29 28
internal_value=-0.00136861 0.00344651 -0.00175497 -0.00597324
internal_weight=138 106 83 57
internal_count=138 106 83 57
is_linear=0
shrinkage=0.05


Tree=81
num_leaves=5
num_cat=0
split_feature=12 9 9 14
split_gain=3.8261 3.73608 1.16884 2.08198
threshold=0.68301269412040722 23.500000000000004 8.5000000000000018 -0.5163939595222472
decision_type=2 2 2 2
left_child=1 2 -1 -4
right_child=-2 -3 3 -5
leaf_value=0.0071181464188087452 -0.016452754967758665 0.021106197377261909 0.0037151021722318794 -0.015399612073919603
leaf_weight=26 32 23 29 28
leaf_count=26 32 23 29 28
internal_value=-0.00130018 0.00327418 -0.00166722 -0.00567458
internal_weight=138 106 83 57
internal_count=138 106 83 57
is_linear=0
shrinkage=0.05


Tree=82
num_leaves=5
num_cat=0
split_feature=1 22 3 26
split_gain=2.41045 2.67895 3.31824 2.48524
threshold=18.500000000000004 3.5000000000000004 4.2500000000000009 3.6961538791656499
decision_type=2 2 2 2
left_child=1 2 -1 -3
right_child=-2 3 -4 -5
leaf_value=-0.007145526528577595 0.010791828636865831 -0.004176415118078391 0.017775563997301191 -0.026930715261964479
leaf_weight=34 32 30 22 20
leaf_count=34 32 30 22 20
internal_value=-0.00123517 -0.00486596 0.0026449 -0.0132781
internal_weight=138 106 56 50
internal_count=138 106 56 50
is_linear=0
shrinkage=0.05


Tree=83
num_leaves=5
num_cat=0
split_feature=12 9 5 15
split_gain=3.2558 3.32152 1.04841 0.794018
threshold=0.68301269412040722 23.500000000000004 2.5000000000000004 -0.17992616817355153
decision_type=2 2 2 2
left_child=1 2 -1 -4
right_child=-2 -3 3 -5
leaf_value=0.0067075535941582458 -0.015151173679623754 0.019859878978003627 -3.7186628868502956e-06 -0.011851993414501731
leaf_weight=26 32 23 31 26
leaf_count=26 32 23 31 26
internal_value=-0.00117341 0.00304629 -0.0016129 -0.00540819
internal_weight=138 106 83 57
internal_count=138 106 83 57
is_linear=0
shrinkage=0.05


Tree=84
num_leaves=5
num_cat=0
split_feature=12 28 1 27
split_gain=2.93836 3.11197 1.10156 0.970559
threshold=0.68301269412040722 2.5000000000000004 8.5000000000000018 3.4833333492279057
decision_type=2 2 2 2
left_child=1 2 -1 -4
right_child=-2 -3 3 -5
leaf_value=-0.010332719252134364 -0.014393615018343554 0.020659137703478339 -0.0046103069400747444 0.0079603614497875032
leaf_weight=24 32 20 28 34
leaf_count=24 32 20 28 34
internal_value=-0.00111474 0.00289397 -0.00123746 0.00228329
internal_weight=138 106 86 62
internal_count=138 106 86 62
is_linear=0
shrinkage=0.05


Tree=85
num_leaves=5
num_cat=0
split_feature=19 28 18 3
split_gain=2.09881 3.25303 2.07528 1.57925
threshold=2.5000000000000004 1.0000000180025095e-35 2.5000000000000004 3.2500000000000004
decision_type=2 2 2 2
left_child=1 -1 -2 -4
right_child=2 -3 3 -5
leaf_value=-0.0081122619099915031 -0.019100183858696759 0.019400043450185055 -0.011871776500573526 0.0047182929061818871
leaf_weight=22 29 21 26 32
leaf_count=22 29 21 26 32
internal_value=-0.00371273 0.00532398 -0.00817915 -0.00271863
internal_weight=130 43 87 58
internal_count=130 43 87 58
is_linear=0
shrinkage=0.05


Tree=86
num_leaves=5
num_cat=0
split_feature=4 28 18 18
split_gain=1.92821 4.76239 1.80414 0.940527
threshold=1.0000000180025095e-35 1.5000000000000002 2.5000000000000004 4.5000000000000009
decision_type=2 2 2 2
left_child=2 3 -1 -2
right_child=1 -3 -4 -5
leaf_value=-0.023001396432518958 -0.01215741100775845 0.019297846399247646 -0.0031880652152553751 0.00077038543919722249
leaf_weight=20 34 25 27 24
leaf_count=20 34 25 27 24
internal_value=-0.00352709 0.00105522 -0.0116193 -0.00680798
internal_weight=130 83 47 58
internal_count=130 83 47 58
is_linear=0
shrinkage=0.05


Tree=87
num_leaves=5
num_cat=0
split_feature=19 28 20 28
split_gain=1.83729 2.80724 1.92641 1.43274
threshold=2.5000000000000004 1.0000000180025095e-35 2.5000000000000004 1.0000000180025095e-35
decision_type=2 2 2 2
left_child=1 -1 -2 -4
right_child=2 -3 3 -5
leaf_value=-0.0073774663223461672 0.003270565878067698 0.018180298814106554 -0.0059739048099693133 -0.021741649702191355
leaf_weight=22 28 21 34 25
leaf_count=22 28 21 34 25
internal_value=-0.00335074 0.00510423 -0.00752963 -0.0126552
internal_weight=130 43 87 59
internal_count=130 43 87 59
is_linear=0
shrinkage=0.05


Tree=88
num_leaves=5
num_cat=0
split_feature=28 19 20 21
split_gain=1.73236 4.20852 2.9763 0.765247
threshold=-1.0000000180025095e-35 2.5000000000000004 3.5000000000000004 3.5000000000000004
decision_type=2 2 2 2
left_child=3 -2 -3 -1
right_child=1 2 -4 -5
leaf_value=-0.015446497711042565 0.018950749588354181 0.0069107536847392726 -0.016712457338968915 -0.0031692622060125529
leaf_weight=30 24 24 30 22
leaf_count=30 24 24 30 22
internal_value=-0.0031832 0.00152952 -0.00621325 -0.0102523
internal_weight=130 78 54 52
internal_count=130 78 54 52
is_linear=0
shrinkage=0.05


Tree=89
num_leaves=5
num_cat=0
split_feature=28 19 18 21
split_gain=1.56345 3.79819 2.79219 0.690636
threshold=-1.0000000180025095e-35 2.5000000000000004 2.5000000000000004 3.5000000000000004
decision_type=2 2 2 2
left_child=3 -2 -3 -1
right_child=1 2 -4 -5
leaf_value=-0.014674173245827357 0.018003212485928091 -0.016858624627015421 0.005896216580787531 -0.0030107993463223629
leaf_weight=30 24 28 26 22
leaf_count=30 24 28 26 22
internal_value=-0.00302404 0.00145304 -0.00590259 -0.00973967
internal_weight=130 78 54 52
internal_count=130 78 54 52
is_linear=0
shrinkage=0.05


Tree=90
num_leaves=5
num_cat=0
split_feature=17 25 9 23
split_gain=3.75328 3.90597 1.4612 0.727178
threshold=-0.56174489110708226 3.7857142686843877 11.500000000000002 2.5000000000000004
decision_type=2 2 2 2
left_child=-1 2 -2 -4
right_child=1 -3 3 -5
leaf_value=-0.012496963459433932 0.0097796029150485995 0.021673851352064843 -0.012388111492618918 0.00078500875017859732
leaf_weight=33 25 31 20 22
leaf_count=33 25 31 20 22
internal_value=0.00208769 0.00699885 0.000208926 -0.00548791
internal_weight=131 98 67 42
internal_count=131 98 67 42
is_linear=0
shrinkage=0.05


Tree=91
num_leaves=5
num_cat=0
split_feature=17 25 9 1
split_gain=3.38734 3.52514 1.31874 0.519034
threshold=-0.56174489110708226 3.7857142686843877 11.500000000000002 13.500000000000002
decision_type=2 2 2 2
left_child=-1 2 -2 -4
right_child=1 -3 3 -5
leaf_value=-0.011872115485003276 0.0092906232029199617 0.020590158804289757 -0.011043120166286828 8.6134672164917e-05
leaf_weight=33 25 31 20 22
leaf_count=33 25 31 20 22
internal_value=0.00198331 0.00664891 0.00019848 -0.00521351
internal_weight=131 98 67 42
internal_count=131 98 67 42
is_linear=0
shrinkage=0.05


Tree=92
num_leaves=5
num_cat=0
split_feature=17 25 9 23
split_gain=3.05707 3.18144 1.19016 0.637055
threshold=-0.56174489110708226 3.7857142686843877 11.500000000000002 2.5000000000000004
decision_type=2 2 2 2
left_child=-1 2 -2 -4
right_child=1 -3 3 -5
leaf_value=-0.011278509803003434 0.0088260921929031611 0.019560650339530361 -0.011411312250420452 0.00091850764372132044
leaf_weight=33 25 31 20 22
leaf_count=33 25 31 20 22
internal_value=0.00188414 0.00631646 0.000188556 -0.00495284
internal_weight=131 98 67 42
internal_count=131 98 67 42
is_linear=0
shrinkage=0.05


Tree=93
num_leaves=5
num_cat=0
split_feature=17 26 11 28
split_gain=2.75901 2.94357 2.05306 0.979904
threshold=-0.56174489110708226 3.8730158805847172 33.500000000000007 -1.0000000180025095e-35
decision_type=2 2 2 2
left_child=-1 2 3 -2
right_child=1 -3 -4 -5
leaf_value=-0.010714584236936362 0.00067161179724193763 0.023113638982176783 -0.0078599985068043068 0.015461084696774683
leaf_weight=33 21 20 33 24
leaf_count=33 21 20 33 24
internal_value=0.00178993 0.00600064 0.00161269 0.00855933
internal_weight=131 98 78 45
internal_count=131 98 78 45
is_linear=0
shrinkage=0.05


Tree=94
num_leaves=5
num_cat=0
split_feature=1 17 3 9
split_gain=2.74086 2.09012 1.88152 1.61154
threshold=18.500000000000004 -0.56174489110708226 4.2500000000000009 14.500000000000002
decision_type=2 2 2 2
left_child=1 -1 3 -3
right_child=-2 2 -4 -5
leaf_value=-0.014041898249083066 0.014163752329168897 0.0049015802109525324 0.011868761502334783 -0.014930028766393662
leaf_weight=28 33 21 29 20
leaf_count=28 33 21 29 20
internal_value=0.00170044 -0.00249639 0.00212181 -0.00477238
internal_weight=131 98 70 41
internal_count=131 98 70 41
is_linear=0
shrinkage=0.05


Tree=95
num_leaves=4
num_cat=0
split_feature=1 9 18
split_gain=1.72744 1.85153 1.99815
threshold=18.500000000000004 19.500000000000004 3.5000000000000004
decision_type=2 2 2
left_child=1 2 -1
right_child=-2 -3 -4
leaf_value=-0.0074032810221979165 0.0088774980758042892 -0.012848876672796905 0.010717439574414287
leaf_weight=32 34 38 29
leaf_count=32 34 38 29
internal_value=-0.000846027 -0.00418542 0.00121149
internal_weight=133 99 61
internal_count=133 99 61
is_linear=0
shrinkage=0.05


Tree=96
num_leaves=6
num_cat=0
split_feature=26 15 23 27 21
split_gain=1.70394 1.73689 1.68724 1.448 0.718622
threshold=3.8214286565780644 0.17992616817355159 2.5000000000000004 3.4500000476837163 3.5000000000000004
decision_type=2 2 2 2 2
left_child=1 2 -1 -4 -3
right_child=-2 4 3 -5 -6
leaf_value=-0.0096705807372927666 0.011257146981855233 -0.018210485819727184 -0.0026480584405362607 0.015568253089440987 -0.0052513681615338377
leaf_weight=22 24 20 20 24 23
leaf_count=22 24 20 20 24 23
internal_value=-0.000803726 -0.00345933 0.00163521 0.00728811 -0.0112789
internal_weight=133 109 66 44 43
internal_count=133 109 66 44 43
is_linear=0
shrinkage=0.05


Tree=97
num_leaves=6
num_cat=0
split_feature=26 15 23 27 21
split_gain=1.5378 1.56754 1.52273 1.30682 0.648556
threshold=3.8214286565780644 0.17992616817355159 2.5000000000000004 3.4500000476837163 3.5000000000000004
decision_type=2 2 2 2 2
left_child=1 2 -1 -4 -3
right_child=-2 4 3 -5 -6
leaf_value=-0.0091870516771450639 0.010694289843862255 -0.017299961764365435 -0.002515655215829611 0.014789840401499534 -0.0049887998555989375
leaf_weight=22 24 20 20 24 23
leaf_count=22 24 20 20 24 23
internal_value=-0.000763539 -0.00328636 0.00155345 0.00692371 -0.0107149
internal_weight=133 109 66 44 43
internal_count=133 109 66 44 43
is_linear=0
shrinkage=0.05


Tree=98
num_leaves=5
num_cat=0
split_feature=1 9 18 27
split_gain=1.47667 1.61692 1.35787 0.604679
threshold=18.500000000000004 17.500000000000004 3.5000000000000004 3.7257053852081303
decision_type=2 2 2 2
left_child=1 2 -1 -3
right_child=-2 3 -4 -5
leaf_value=-0.0050713412370532755 0.0082647134659483146 -0.016481251943775494 0.010884895090324184 -0.0048864515572363005
leaf_weight=30 34 23 24 22
leaf_count=30 34 23 24 22
internal_value=-0.000725363 -0.00381286 0.00202032 -0.0108127
internal_weight=133 99 54 45
internal_count=133 99 54 45
is_linear=0
shrinkage=0.05


Tree=99
num_leaves=4
num_cat=0
split_feature=1 19 9
split_gain=1.33269 1.55288 2.14977
threshold=18.500000000000004 2.5000000000000004 17.500000000000004
decision_type=2 2 2
left_child=1 -1 -3
right_child=-2 2 -4
leaf_value=0.0050361949895672943 0.0078514779013965069 0.00080297371429024318 -0.017385267805184412
leaf_weight=34 34 33 32
leaf_count=34 34 33 32
internal_value=-0.000689094 -0.00362222 -0.00815124
internal_weight=133 99 65
internal_count=133 99 65
is_linear=0
shrinkage=0.05


Tree=100
num_leaves=5
num_cat=0
split_feature=27 12 18 28
split_gain=2.98348 5.43122 1.72939 1.96812
threshold=3.7018518447875981 0.68301269412040722 2.5000000000000004 -1.4999999999999998
decision_type=2 2 2 2
left_child=2 -2 -1 -4
right_child=1 -3 3 -5
leaf_value=-0.015164620236545388 0.028468854955281134 -0.0068108103315656383 -0.011631535373076245 0.0062264564912766218
leaf_weight=36 20 24 27 36
leaf_count=36 20 24 27 36
internal_value=-0.00160775 0.0092254 -0.00642248 -0.00142697
internal_weight=143 44 99 63
internal_count=143 44 99 63
is_linear=0
shrinkage=0.05


Tree=101
num_leaves=5
num_cat=0
split_feature=27 12 18 28
split_gain=2.69259 4.90168 1.56077 1.77623
threshold=3.7018518447875981 0.68301269412040722 2.5000000000000004 -1.4999999999999998
decision_type=2 2 2 2
left_child=2 -2 -1 -4
right_child=1 -3 3 -5
leaf_value=-0.014406389202405182 0.027045412063598635 -0.0064702698340018587 -0.011049958125308708 0.0059151340224262751
leaf_weight=36 20 24 27 36
leaf_count=36 20 24 27 36
internal_value=-0.00152736 0.00876413 -0.00610135 -0.00135562
internal_weight=143 44 99 63
internal_count=143 44 99 63
is_linear=0
shrinkage=0.05


Tree=102
num_leaves=5
num_cat=0
split_feature=27 12 18 28
split_gain=2.43006 4.42376 1.4086 1.60304
threshold=3.7018518447875981 0.68301269412040722 2.5000000000000004 -1.4999999999999998
decision_type=2 2 2 2
left_child=2 -2 -1 -4
right_child=1 -3 3 -5
leaf_value=-0.013686069659888745 0.025693140691146255 -0.0061467566876672215 -0.010497460528104394 0.0056193770957179371
leaf_weight=36 20 24 27 36
leaf_count=36 20 24 27 36
internal_value=-0.00145099 0.00832592 -0.00579629 -0.00128784
internal_weight=143 44 99 63
internal_count=143 44 99 63
is_linear=0
shrinkage=0.05


Tree=103
num_leaves=6
num_cat=0
split_feature=27 12 3 18 6
split_gain=2.19313 3.99245 1.34413 0.897408 0.0571271
threshold=3.7018518447875981 0.68301269412040722 4.2500000000000009 2.5000000000000004 3.5000000000000004
decision_type=2 2 2 2 2
left_child=2 -2 3 -1 -5
right_child=1 -3 -4 4 -6
leaf_value=-0.0089716611507659159 0.024408484110608697 -0.0058394187518085042 -0.013561945112066015 0.0051145451050251724 0.0013806833796912716
leaf_weight=24 20 24 34 20 21
leaf_count=24 20 24 34 20 21
internal_value=-0.00137844 0.00790963 -0.00550647 -0.00129284 0.00320208
internal_weight=143 44 99 65 41
internal_count=143 44 99 65 41
is_linear=0
shrinkage=0.05


Tree=104
num_leaves=6
num_cat=0
split_feature=27 15 3 1 21
split_gain=1.9793 2.10561 1.21308 1.0175 0.459479
threshold=3.7018518447875981 0.51639395952224743 4.2500000000000009 9.5000000000000018 3.5000000000000004
decision_type=2 2 2 2 2
left_child=2 -2 3 -1 -5
right_child=1 -3 -4 4 -6
leaf_value=-0.01061184210702777 -0.0029373431092371114 0.018961016345946564 -0.0128838478039731 -0.0017837624841680129 0.0083435365109748773
leaf_weight=20 23 21 34 24 21
leaf_count=20 23 21 34 24 21
internal_value=-0.00130952 0.00751415 -0.00523115 -0.0012282 0.00294231
internal_weight=143 44 99 65 45
internal_count=143 44 99 65 45
is_linear=0
shrinkage=0.05


Tree=105
num_leaves=5
num_cat=0
split_feature=20 9 18 23
split_gain=2.39231 3.77676 1.57193 1.31897
threshold=3.5000000000000004 22.500000000000004 3.5000000000000004 2.5000000000000004
decision_type=2 2 2 2
left_child=1 3 -2 -1
right_child=2 -3 -4 -5
leaf_value=-0.0086675101298500194 -0.011952215197839235 0.026195474406704305 0.0048419666032052857 0.0073403461722679614
leaf_weight=22 38 20 22 31
leaf_count=22 38 20 22 31
internal_value=0.00160236 0.00768185 -0.00579435 0.000695576
internal_weight=133 73 60 53
internal_count=133 73 60 53
is_linear=0
shrinkage=0.05


Tree=106
num_leaves=5
num_cat=0
split_feature=20 9 18 23
split_gain=2.15906 3.40853 1.41867 1.19037
threshold=3.5000000000000004 22.500000000000004 3.5000000000000004 2.5000000000000004
decision_type=2 2 2 2
left_child=1 3 -2 -1
right_child=2 -3 -4 -5
leaf_value=-0.008234134756705978 -0.011354604383048259 0.024885700857266786 0.0045998681167309938 0.0069733286667014328
leaf_weight=22 38 20 22 31
leaf_count=22 38 20 22 31
internal_value=0.00152224 0.00729776 -0.00550463 0.000660797
internal_weight=133 73 60 53
internal_count=133 73 60 53
is_linear=0
shrinkage=0.05


Tree=107
num_leaves=6
num_cat=0
split_feature=18 28 3 13 21
split_gain=1.67648 2.43546 2.05347 1.8243 1.22792
threshold=3.5000000000000004 -2.4999999999999996 4.2500000000000009 0.25000000000000011 2.5000000000000004
decision_type=2 2 2 2 2
left_child=2 -2 3 -1 -3
right_child=1 4 -4 -5 -6
leaf_value=-0.0014475295220368676 -0.0069072464341297744 0.0057425088864485069 0.0084843934959043642 -0.021219281982630494 0.022841100383638627
leaf_weight=28 20 21 23 20 21
leaf_count=28 20 21 23 20 21
internal_value=0.00144613 0.0074534 -0.00379965 -0.00968576 0.0142918
internal_weight=133 62 71 48 42
internal_count=133 62 71 48 42
is_linear=0
shrinkage=0.05


Tree=108
num_leaves=5
num_cat=0
split_feature=20 9 18 9
split_gain=1.8586 3.05583 1.17996 1.05963
threshold=3.5000000000000004 22.500000000000004 3.5000000000000004 14.500000000000002
decision_type=2 2 2 2
left_child=1 3 -2 -1
right_child=2 -3 -4 -5
leaf_value=0.007930218897759916 -0.010480964562463526 0.023385565617645626 0.0040694713206242093 -0.0062321368870990618
leaf_weight=25 38 20 22 28
leaf_count=25 38 20 22 28
internal_value=0.00137382 0.00673242 -0.0051458 0.00044822
internal_weight=133 73 60 53
internal_count=133 73 60 53
is_linear=0
shrinkage=0.05


Tree=109
num_leaves=5
num_cat=0
split_feature=20 9 6 23
split_gain=1.67739 2.75789 1.30175 1.02281
threshold=3.5000000000000004 22.500000000000004 1.5000000000000002 2.5000000000000004
decision_type=2 2 2 2
left_child=1 3 -2 -1
right_child=2 -3 -4 -5
leaf_value=-0.0078193598003550007 0.0044525378910095798 0.022216287686023864 -0.010695114539310061 0.0062772187133950568
leaf_weight=22 23 20 37 31
leaf_count=22 23 20 37 31
internal_value=0.00130513 0.0063958 -0.00488851 0.000425809
internal_weight=133 73 60 53
internal_count=133 73 60 53
is_linear=0
shrinkage=0.05


Tree=110
num_leaves=6
num_cat=0
split_feature=19 20 27 1 6
split_gain=1.57695 2.04824 1.15309 0.381769 0.304997
threshold=2.5000000000000004 3.5000000000000004 3.5833332538604741 15.500000000000002 2.5000000000000004
decision_type=2 2 2 2 2
left_child=2 3 -1 -2 -3
right_child=1 4 -4 -5 -6
leaf_value=0.014863630533218384 -0.0024523041909560563 -0.017714700812385197 -0.0017246109518137846 0.0067789645067283097 -0.0092904564421835614
leaf_weight=20 24 21 22 21 22
leaf_count=20 24 21 22 21 22
internal_value=-0.00179665 -0.00560109 0.00617455 0.00185562 -0.0134046
internal_weight=130 88 42 45 43
internal_count=130 88 42 45 43
is_linear=0
shrinkage=0.05


Tree=111
num_leaves=6
num_cat=0
split_feature=19 20 27 26 13
split_gain=1.4232 1.84854 1.04067 0.586093 0.284672
threshold=2.5000000000000004 3.5000000000000004 3.5833332538604741 3.5857142210006718 0.25000000000000011
decision_type=2 2 2 2 2
left_child=2 3 -1 -2 -3
right_child=1 4 -4 -5 -6
leaf_value=0.014120449451729656 -0.0043373439283598035 -0.008940725101400978 -0.0016383806434036655 0.0071005015090728806 -0.017097107302397493
leaf_weight=20 21 23 22 24 20
leaf_count=20 21 23 22 24 20
internal_value=-0.00170682 -0.00532103 0.00586582 0.00176284 -0.0127344
internal_weight=130 88 42 45 43
internal_count=130 88 42 45 43
is_linear=0
shrinkage=0.05


Tree=112
num_leaves=6
num_cat=0
split_feature=19 20 22 26 6
split_gain=1.28443 1.66831 1.00219 0.528949 0.272051
threshold=2.5000000000000004 3.5000000000000004 2.5000000000000004 3.5857142210006718 2.5000000000000004
decision_type=2 2 2 2 2
left_child=2 3 -1 -2 -3
right_child=1 4 -4 -5 -6
leaf_value=-0.0025280732754617932 -0.0041204767035586494 -0.016168309890088581 0.01293672054942528 0.0067454761825501922 -0.0082120621322908198
leaf_weight=20 21 21 22 24 22
leaf_count=20 21 21 22 24 22
internal_value=-0.00162148 -0.00505498 0.00557253 0.0016747 -0.0120977
internal_weight=130 88 42 45 43
internal_count=130 88 42 45 43
is_linear=0
shrinkage=0.05


Tree=113
num_leaves=5
num_cat=0
split_feature=19 23 17 28
split_gain=1.1592 1.56982 1.01252 0.918799
threshold=2.5000000000000004 3.5000000000000004 1.0000000180025095e-35 1.0000000180025095e-35
decision_type=2 2 2 2
left_child=3 2 -2 -1
right_child=1 -3 -4 -5
leaf_value=-0.0024623476830311123 0.0063941635011184605 -0.013218336415422314 -0.007451833792678688 0.012345046702433717
leaf_weight=20 31 34 23 22
leaf_count=20 31 34 23 22
internal_value=-0.0015404 -0.00480223 0.000496794 0.00529391
internal_weight=130 88 54 42
internal_count=130 88 54 42
is_linear=0
shrinkage=0.05


Tree=114
num_leaves=5
num_cat=0
split_feature=25 19 17 17
split_gain=1.06313 1.4773 1.73739 0.373146
threshold=3.3571429252624516 2.5000000000000004 1.0000000180025095e-35 -0.56174489110708226
decision_type=2 2 2 2
left_child=-1 -2 3 -3
right_child=1 2 -4 -5
leaf_value=-0.009215484316827673 0.010622686135646856 -0.0012578078545629979 -0.012704289083679519 0.008285009852122693
leaf_weight=33 29 20 27 21
leaf_count=33 29 20 27 21
internal_value=-0.00146338 0.00117393 -0.00285569 0.00362998
internal_weight=130 97 68 41
internal_count=130 97 68 41
is_linear=0
shrinkage=0.05


Tree=115
num_leaves=6
num_cat=0
split_feature=26 19 23 25 11
split_gain=2.01895 1.70433 1.33435 0.987069 0.127739
threshold=3.8730158805847172 2.5000000000000004 4.5000000000000009 3.5857142210006718 28.500000000000004
decision_type=2 2 2 2 2
left_child=1 4 3 -3 -1
right_child=-2 2 -4 -5 -6
leaf_value=0.0028657566057518125 0.013179302960634232 0.003612457774579525 -0.018136750608682636 -0.0093387385830283175 0.0085168458265252409
leaf_weight=20 24 28 20 31 20
leaf_count=20 24 28 20 31 20
internal_value=-4.98725e-05 -0.00271794 -0.00697579 -0.00319241 0.0056913
internal_weight=143 119 79 59 40
internal_count=143 119 79 59 40
is_linear=0
shrinkage=0.05


Tree=116
num_leaves=6
num_cat=0
split_feature=26 19 23 25 11
split_gain=1.8221 1.53816 1.20425 0.89083 0.115285
threshold=3.8730158805847172 2.5000000000000004 4.5000000000000009 3.5857142210006718 28.500000000000004
decision_type=2 2 2 2 2
left_child=1 4 3 -3 -1
right_child=-2 2 -4 -5 -6
leaf_value=0.00272246953798458 0.012520337849855423 0.0034318348259798123 -0.017229913054034113 -0.0088718015970962669 0.0080910037306603042
leaf_weight=20 24 28 20 31 20
leaf_count=20 24 28 20 31 20
internal_value=-4.73788e-05 -0.00258204 -0.006627 -0.00303279 0.00540674
internal_weight=143 119 79 59 40
internal_count=143 119 79 59 40
is_linear=0
shrinkage=0.05


Tree=117
num_leaves=5
num_cat=0
split_feature=22 17 28 18
split_gain=1.73974 2.09395 2.55472 1.86176
threshold=4.5000000000000009 -0.56174489110708226 1.5000000000000002 4.5000000000000009
decision_type=2 2 2 2
left_child=1 -1 3 -3
right_child=-2 2 -4 -5
leaf_value=-0.0098536109901033349 -0.0095529232122417967 -0.005148681593250091 0.021521950462325055 0.01287489031320033
leaf_weight=24 36 38 22 23
leaf_count=24 36 38 22 23
internal_value=-4.50099e-05 0.00315391 0.00691513 0.00164709
internal_weight=143 107 83 61
internal_count=143 107 83 61
is_linear=0
shrinkage=0.05


Tree=118
num_leaves=5
num_cat=0
split_feature=22 9 19 23
split_gain=1.57012 2.29531 1.43081 0.58263
threshold=4.5000000000000009 23.500000000000004 2.5000000000000004 2.5000000000000004
decision_type=2 2 2 2
left_child=1 2 -1 -4
right_child=-2 -3 3 -5
leaf_value=0.0085124798463836592 -0.0090752769520299308 0.015921931463078812 0.00082629004582053143 -0.0097662176074021882
leaf_weight=26 36 26 21 34
leaf_count=26 36 26 21 34
internal_value=-4.27593e-05 0.00299622 -0.00115278 -0.00572181
internal_weight=143 107 81 55
internal_count=143 107 81 55
is_linear=0
shrinkage=0.05


Tree=119
num_leaves=6
num_cat=0
split_feature=26 19 23 25 11
split_gain=1.52189 1.28599 1.05319 0.816217 0.100296
threshold=3.8730158805847172 2.5000000000000004 4.5000000000000009 3.5857142210006718 28.500000000000004
decision_type=2 2 2 2 2
left_child=1 4 3 -3 -1
right_child=-2 2 -4 -5 -6
leaf_value=0.0024438582459697499 0.011445166760434708 0.0034935751630525503 -0.015971282180398703 -0.0082835389135946201 0.0074512616975698628
leaf_weight=20 24 28 20 31 20
leaf_count=20 24 28 20 31 20
internal_value=-4.06213e-05 -0.00235708 -0.00605564 -0.0026944 0.00494756
internal_weight=143 119 79 59 40
internal_count=143 119 79 59 40
is_linear=0
shrinkage=0.05


Tree=120
num_leaves=5
num_cat=0
split_feature=26 20 18 28
split_gain=1.34879 1.32155 1.23799 1.42513
threshold=3.8730158805847172 4.5000000000000009 2.5000000000000004 -1.4999999999999998
decision_type=2 2 2 2
left_child=1 2 -1 -4
right_child=-2 -3 3 -5
leaf_value=-0.015116712007494199 0.012624047909464156 0.0073256861312984258 -0.0088576329539396936 0.0070950208464637399
leaf_weight=21 21 32 28 28
leaf_count=21 21 32 28 28
internal_value=0.00102095 -0.00121451 -0.00476369 -0.000881306
internal_weight=130 109 77 56
internal_count=130 109 77 56
is_linear=0
shrinkage=0.05


Tree=121
num_leaves=6
num_cat=0
split_feature=26 22 16 21 9
split_gain=1.21728 1.2927 1.08868 0.800869 0.13952
threshold=3.8730158805847172 2.5000000000000004 1.0000000180025095e-35 3.5000000000000004 15.500000000000002
decision_type=2 2 2 2 2
left_child=1 4 3 -3 -1
right_child=-2 2 -4 -5 -6
leaf_value=-0.0053523694351315506 0.01199284586168471 0.014610752115153114 -0.0048411660413775178 0.00078626388451084504 -0.011258298624306919
leaf_weight=20 21 22 27 20 20
leaf_count=20 21 22 27 20 20
internal_value=0.000969898 -0.00115379 0.00299203 0.00802766 -0.00830533
internal_weight=130 109 69 42 40
internal_count=130 109 69 42 40
is_linear=0
shrinkage=0.05


Tree=122
num_leaves=5
num_cat=0
split_feature=26 20 18 28
split_gain=1.0986 1.16623 1.12201 1.23616
threshold=3.8730158805847172 4.5000000000000009 2.5000000000000004 -1.4999999999999998
decision_type=2 2 2 2
left_child=1 2 -1 -4
right_child=-2 -3 3 -5
leaf_value=-0.014286338768544652 0.011393202912239803 0.0069265788508346311 -0.0081628459838352027 0.0066945506442737364
leaf_weight=21 21 32 28 28
leaf_count=21 21 32 28 28
internal_value=0.000921403 -0.0010961 -0.0044302 -0.000734148
internal_weight=130 109 77 56
internal_count=130 109 77 56
is_linear=0
shrinkage=0.05


Tree=123
num_leaves=6
num_cat=0
split_feature=26 22 19 25 4
split_gain=0.991485 1.14395 1.14299 1.51686 0.0393684
threshold=3.8730158805847172 2.5000000000000004 2.5000000000000004 3.5857142210006718 1.0000000180025095e-35
decision_type=2 2 2 2 2
left_child=1 4 -3 -4 -1
right_child=-2 2 3 -5 -6
leaf_value=-0.0062001931015402082 0.010823542908543633 0.012264694561335174 0.0065285556161632915 -0.011538803989865952 -0.009337405496044086
leaf_weight=20 21 22 26 21 20
leaf_count=20 21 22 26 21 20
internal_value=0.000875333 -0.00104129 0.00285871 -0.00154409 -0.0077688
internal_weight=130 109 69 47 40
internal_count=130 109 69 47 40
is_linear=0
shrinkage=0.05


Tree=124
num_leaves=4
num_cat=0
split_feature=25 21 26
split_gain=0.976883 1.84081 1.56446
threshold=3.3571429252624516 3.5000000000000004 3.6961538791656499
decision_type=2 2 2
left_child=-1 2 -2
right_child=1 -3 -4
leaf_value=-0.0059124992278061419 0.0061946483415172057 0.01204828235970222 -0.010826357336783853
leaf_weight=38 27 38 27
leaf_count=38 27 38 27
internal_value=0.000831566 0.00361716 -0.00231585
internal_weight=130 92 54
internal_count=130 92 54
is_linear=0
shrinkage=0.05


end of trees

feature_importances:
quantity_used_diff=125
quantity_lag_1=70
quantity_rolling_mean_7=43
day_of_month=32
quantity_rolling_mean_14=31
quantity_lag_3=26
quantity_rolling_mean_30=25
quantity_lag_5=19
region=17
week_cos=14
quantity_lag_30=13
day_of_week=11
quantity_lag_14=11
day_of_week_cos=10
quantity_lag_7=10
lead_time_days=9
month_sin=9
week_sin=9
day_of_week_sin=8
week_of_year=6
month_cos=5
late_delivery_risk=2
month=2
shipping_mode=1

parameters:
[boosting: gbdt]
[objective: regression]
[metric: rmse]
[tree_learner: serial]
[device_type: cpu]
[data_sample_strategy: bagging]
[data: ]
[valid: ]
[num_iterations: 500]
[learning_rate: 0.05]
[num_leaves: 31]
[num_threads: 0]
[seed: 42]
[deterministic: 0]
[force_col_wise: 0]
[force_row_wise: 0]
[histogram_pool_size: -1]
[max_depth: -1]
[min_data_in_leaf: 20]
[min_sum_hessian_in_leaf: 0.001]
[bagging_fraction: 0.8]
[pos_bagging_fraction: 1]
[neg_bagging_fraction: 1]
[bagging_freq: 5]
[bagging_seed: 400]
[bagging_by_query: 0]
[feature_fraction: 0.9]
[feature_fraction_bynode: 1]
[feature_fraction_seed: 30056]
[extra_trees: 0]
[extra_seed: 12879]
[early_stopping_round: 0]
[early_stopping_min_delta: 0]
[first_metric_only: 0]
[max_delta_step: 0]
[lambda_l1: 0]
[lambda_l2: 0]
[linear_lambda: 0]
[min_gain_to_split: 0]
[drop_rate: 0.1]
[max_drop: 50]
[skip_drop: 0.5]
[xgboost_dart_mode: 0]
[uniform_drop: 0]
[drop_seed: 17869]
[top_rate: 0.2]
[other_rate: 0.1]
[min_data_per_group: 100]
[max_cat_threshold: 32]
[cat_l2: 10]
[cat_smooth: 10]
[max_cat_to_onehot: 4]
[top_k: 20]
[monotone_constraints: ]
[monotone_constraints_method: basic]
[monotone_penalty: 0]
[feature_contri: ]
[forcedsplits_filename: ]
[refit_decay_rate: 0.9]
[cegb_tradeoff: 1]
[cegb_penalty_split: 0]
[cegb_penalty_feature_lazy: ]
[cegb_penalty_feature_coupled: ]
[path_smooth: 0]
[interaction_constraints: ]
[verbosity: -1]
[saved_feature_importance_type: 0]
[use_quantized_grad: 0]
[num_grad_quant_bins: 4]
[quant_train_renew_leaf: 0]
[stochastic_rounding: 1]
[linear_tree: 0]
[max_bin: 255]
[max_bin_by_feature: ]
[min_data_in_bin: 3]
[bin_construct_sample_cnt: 200000]
[data_random_seed: 175]
[is_enable_sparse: 1]
[enable_bundle: 1]
[use_missing: 1]
[zero_as_missing: 0]
[feature_pre_filter: 1]
[pre_partition: 0]
[two_round: 0]
[header: 0]
[label_column: ]
[weight_column: ]
[group_column: ]
[ignore_column: ]
[categorical_feature: ]
[forcedbins_filename: ]
[precise_float_parser: 0]
[parser_config_file: ]
[objective_seed: 16083]
[num_class: 1]
[is_unbalance: 0]
[scale_pos_weight: 1]
[sigmoid: 1]
[boost_from_average: 1]
[reg_sqrt: 0]
[alpha: 0.9]
[fair_c: 1]
[poisson_max_delta_step: 0.7]
[tweedie_variance_power: 1.5]
[lambdarank_truncation_level: 30]
[lambdarank_norm: 1]
[label_gain: ]
[lambdarank_position_bias_regularization: 0]
[eval_at: ]
[multi_error_top_k: 1]
[auc_mu_weights: ]
[num_machines: 1]
[local_listen_port: 12400]
[time_out: 120]
[machine_list_filename: ]
[machines: ]
[gpu_platform_id: -1]
[gpu_device_id: -1]
[gpu_use_dp: 0]
[num_gpu: 1]

end of parameters

pandas_categorical:null
