tree
version=v4
num_class=1
num_tree_per_iteration=1
label_index=0
max_feature_idx=29
objective=regression
feature_names=material region unit_price lead_time_days late_delivery_risk shipping_mode day_of_week month is_weekend day_of_month quarter week_of_year month_sin month_cos week_sin week_cos day_of_week_sin day_of_week_cos quantity_lag_1 quantity_lag_3 quantity_lag_5 quantity_lag_7 quantity_lag_14 quantity_lag_30 price_lag_7 quantity_rolling_mean_7 quantity_rolling_mean_14 quantity_rolling_mean_30 quantity_used_diff unit_price_diff
feature_infos=none [1:22] none [0:6] [0:1] [0:3] [0:6] [1:12] [0:1] [1:31] [1:4] [1:52] [-1:1] [-1:1] [-1:1] [-1:1] [-0.97492790222167969:0.97492790222167969] [-0.90096884965896606:1] [0:11] [0:11] [0:11] [0:11] [0:11] [0:11] none [2.1428570747375488:5.2857141494750977] [2.7857143878936768:5] [2.9000000953674316:4.5] [-10:10] none
tree_sizes=545 572 573 573 574 571 648 575 574 573 573 573 493 571 655 569 571 573 573 575 574 574 651 573 654 573 574 573 490 571 573 656 573 573 655 656 571 649 579 650 647 581 653 578 577 577 572 572 572 574 576 574 490 574 574 577 577 498 579 574 569 492 571 568 488 578 575 659 580 665 583 656 578 658 579 659 576 579 572 651 654 661 659 660 659 656 656 658 656 655 664 669 664 576 669 654 652 657 656 657 575 577 661 574 653 578 576 581 580 571 581 577 583 661 669 661 660 580 662 581 577 579 657 659 658 578 581 578 667 668 655 655 656 653 658

Tree=0
num_leaves=5
num_cat=0
split_feature=28 28 18 1
split_gain=229.096 55.6446 15.2216 3.27759
threshold=2.5000000000000004 1.0000000180025095e-35 4.5000000000000009 11.500000000000002
decision_type=2 2 2 2
left_child=1 2 3 -1
right_child=-2 -3 -4 -5
leaf_value=3.5363636373457581 3.7423160190964158 3.6196969697105161 3.5660511367403984 3.5094405602794008
leaf_weight=20 21 30 32 26
leaf_count=20 21 30 32 26
internal_value=3.59121 3.56183 3.53957 3.52115
internal_weight=129 108 78 46
internal_count=129 108 78 46
is_linear=0
shrinkage=1


Tree=1
num_leaves=5
num_cat=0
split_feature=28 28 18 18
split_gain=206.759 50.2192 13.7375 3.23988
threshold=2.5000000000000004 1.0000000180025095e-35 4.5000000000000009 3.5000000000000004
decision_type=2 2 2 2
left_child=1 2 3 -1
right_child=-2 -3 -4 -5
leaf_value=-0.077912856351870757 0.1438365760303679 0.027348484595616659 -0.023615057393908501 -0.051145105883479119
leaf_weight=26 21 30 32 20
leaf_count=26 21 30 32 20
internal_value=0.00028453 -0.0276284 -0.0487733 -0.0662747
internal_weight=129 108 78 46
internal_count=129 108 78 46
is_linear=0
shrinkage=0.05


Tree=2
num_leaves=5
num_cat=0
split_feature=28 28 18 18
split_gain=186.6 47.1189 37.4161 10.1154
threshold=2.5000000000000004 -1.0000000180025095e-35 2.5000000000000004 4.5000000000000009
decision_type=2 2 2 2
left_child=1 3 -3 -1
right_child=-2 2 -4 -5
leaf_value=-0.078183237437544198 0.13664474856285821 -0.036756827930609387 0.049045103788375857 -0.036050376562135562
leaf_weight=29 21 24 27 28
leaf_count=29 21 24 27 28
internal_value=0.000270304 -0.0262469 0.00866772 -0.0574864
internal_weight=129 108 51 57
internal_count=129 108 51 57
is_linear=0
shrinkage=0.05


Tree=3
num_leaves=5
num_cat=0
split_feature=28 28 25 28
split_gain=168.406 42.5556 11.9834 7.83777
threshold=2.5000000000000004 1.0000000180025095e-35 3.928571462631226 -1.4999999999999998
decision_type=2 2 2 2
left_child=1 2 3 -1
right_child=-2 -3 -4 -5
leaf_value=-0.078995324733356631 0.12981251650268125 0.025673853605985644 -0.015864216208457946 -0.040367564045149712
leaf_weight=24 21 30 25 29
leaf_count=24 21 30 25 29
internal_value=0.00025679 -0.0249346 -0.0443994 -0.0578594
internal_weight=129 108 78 53
internal_count=129 108 78 53
is_linear=0
shrinkage=0.05


Tree=4
num_leaves=5
num_cat=0
split_feature=28 28 18 18
split_gain=151.987 39.2201 33.8924 9.12201
threshold=2.5000000000000004 -1.0000000180025095e-35 2.5000000000000004 4.5000000000000009
decision_type=2 2 2 2
left_child=1 3 -3 -1
right_child=-2 2 -4 -5
leaf_value=-0.071843186329151029 0.12332188856034053 -0.035066499436895056 0.046595237321323819 -0.031832610815763475
leaf_weight=29 21 24 27 28
leaf_count=29 21 24 27 28
internal_value=0.00024395 -0.0236879 0.00816618 -0.0521889
internal_weight=129 108 51 57
internal_count=129 108 51 57
is_linear=0
shrinkage=0.05


Tree=5
num_leaves=5
num_cat=0
split_feature=28 28 18 27
split_gain=165.661 33.6644 31.4336 8.30462
threshold=2.5000000000000004 -1.4999999999999998 2.5000000000000004 3.5499999523162846
decision_type=2 2 2 2
left_child=1 -1 -3 -4
right_child=-2 2 3 -5
leaf_value=-0.068357833736651649 0.11537007689476014 -0.049241903520399533 -0.0083238383010029796 0.034531714452000768
leaf_weight=37 24 31 20 26
leaf_count=37 24 31 20 26
internal_value=-0.00402543 -0.0291613 -0.0103266 0.0158989
internal_weight=138 114 77 46
internal_count=138 114 77 46
is_linear=0
shrinkage=0.05


Tree=6
num_leaves=6
num_cat=0
split_feature=25 18 25 7 19
split_gain=50.3116 18.1045 16.2235 5.88079 3.68719
threshold=3.0714285373687749 2.5000000000000004 4.0714285373687753 7.5000000000000009 2.5000000000000004
decision_type=2 2 2 2 2
left_child=4 -2 3 -3 -1
right_child=1 2 -4 -5 -6
leaf_value=-0.034652577624434515 0.047586241124137757 -0.035174578970128843 0.034905191867247873 0.002287009470164776 -0.064281992188521805
leaf_weight=21 31 22 23 20 21
leaf_count=21 31 22 23 20 21
internal_value=-0.00382416 0.0161447 0.00114952 -0.0173357 -0.0494673
internal_weight=138 96 65 42 42
internal_count=138 96 65 42 42
is_linear=0
shrinkage=0.05


Tree=7
num_leaves=5
num_cat=0
split_feature=28 28 18 18
split_gain=144.678 31.4583 23.9491 10.9792
threshold=2.5000000000000004 -1.0000000180025095e-35 2.5000000000000004 4.5000000000000009
decision_type=2 2 2 2
left_child=1 3 -3 -1
right_child=-2 2 -4 -5
leaf_value=-0.070117251191820426 0.10794519477834304 -0.033991816983773161 0.03264987814639296 -0.026733487427234651
leaf_weight=35 24 26 28 25
leaf_count=35 24 26 28 25
internal_value=-0.00363295 -0.0271231 0.000563136 -0.0520407
internal_weight=138 114 54 60
internal_count=138 114 54 60
is_linear=0
shrinkage=0.05


Tree=8
num_leaves=5
num_cat=0
split_feature=28 28 18 25
split_gain=130.572 28.3911 21.6141 13.214
threshold=2.5000000000000004 -1.0000000180025095e-35 2.5000000000000004 3.4642857313156132
decision_type=2 2 2 2
left_child=1 3 -3 -1
right_child=-2 2 -4 -5
leaf_value=-0.076271332829044414 0.10254793744534255 -0.032292225498419543 0.031017383879848887 -0.028919537694138645
leaf_weight=26 24 26 28 34
leaf_count=26 24 26 28 34
internal_value=-0.0034513 -0.0257669 0.000534979 -0.0494386
internal_weight=138 114 54 60
internal_count=138 114 54 60
is_linear=0
shrinkage=0.05


Tree=9
num_leaves=5
num_cat=0
split_feature=28 28 18 27
split_gain=117.841 26.3681 24.8904 6.95396
threshold=2.5000000000000004 -1.4999999999999998 2.5000000000000004 3.6166666746139531
decision_type=2 2 2 2
left_child=1 -1 -3 -4
right_child=-2 2 3 -5
leaf_value=-0.059168338050713414 0.097420539086063712 -0.042438399887854056 -0.0047775264152071697 0.034140246470148371
leaf_weight=37 24 31 22 24
leaf_count=37 24 31 22 24
internal_value=-0.00327874 -0.0244786 -0.00780948 0.0155274
internal_weight=138 114 77 46
internal_count=138 114 77 46
is_linear=0
shrinkage=0.05


Tree=10
num_leaves=5
num_cat=0
split_feature=28 28 18 25
split_gain=111.093 20.1636 28.3361 3.41344
threshold=1.5000000000000002 -1.4999999999999998 3.5000000000000004 3.6190476417541508
decision_type=2 2 2 2
left_child=1 3 -3 -1
right_child=-2 2 -4 -5
leaf_value=-0.067864027653228159 0.072219512297918925 -0.038269124925136566 0.034026722609996798 -0.039681547809214818
leaf_weight=22 38 33 23 21
leaf_count=22 38 33 23 21
internal_value=-0.000454351 -0.0283494 -0.00857619 -0.0541005
internal_weight=137 99 56 43
internal_count=137 99 56 43
is_linear=0
shrinkage=0.05


Tree=11
num_leaves=5
num_cat=0
split_feature=28 28 18 25
split_gain=100.261 18.1976 25.5734 3.08063
threshold=1.5000000000000002 -1.4999999999999998 3.5000000000000004 3.6190476417541508
decision_type=2 2 2 2
left_child=1 3 -3 -1
right_child=-2 2 -4 -5
leaf_value=-0.064470825987783351 0.068608539237787855 -0.036355668486970846 0.032325386644705488 -0.037697471287988484
leaf_weight=22 38 33 23 21
leaf_count=22 38 33 23 21
internal_value=-0.000431633 -0.0269319 -0.00814738 -0.0513955
internal_weight=137 99 56 43
internal_count=137 99 56 43
is_linear=0
shrinkage=0.05


Tree=12
num_leaves=4
num_cat=0
split_feature=28 25 28
split_gain=90.4857 16.7183 6.47789
threshold=1.5000000000000002 3.7571427822113042 -1.4999999999999998
decision_type=2 2 2
left_child=1 2 -1
right_child=-2 -3 -4
leaf_value=-0.059714166906529247 0.065178110607360548 -9.9883438685001484e-05 -0.026782911224290731
leaf_weight=28 38 39 32
leaf_count=28 38 39 32
internal_value=-0.000410052 -0.0255853 -0.0421508
internal_weight=137 99 60
internal_count=137 99 60
is_linear=0
shrinkage=0.05


Tree=13
num_leaves=5
num_cat=0
split_feature=28 28 18 25
split_gain=81.6633 15.4947 22.6541 2.33429
threshold=1.5000000000000002 -1.4999999999999998 3.5000000000000004 3.6190476417541508
decision_type=2 2 2 2
left_child=1 3 -3 -1
right_child=-2 2 -4 -5
leaf_value=-0.058261576227166434 0.061919206415156004 -0.033522170646624133 0.031120157500971919 -0.03495597035757133
leaf_weight=22 38 33 23 21
leaf_count=22 38 33 23 21
internal_value=-0.000389549 -0.024306 -0.00697264 -0.0468798
internal_weight=137 99 56 43
internal_count=137 99 56 43
is_linear=0
shrinkage=0.05


Tree=14
num_leaves=6
num_cat=0
split_feature=25 19 25 19 26
split_gain=39.0482 26.8037 11.2576 2.68074 1.48943
threshold=3.7571427822113042 3.5000000000000004 3.0714285373687749 2.5000000000000004 3.5357142686843877
decision_type=2 2 2 2 2
left_child=2 -2 3 -1 -4
right_child=1 -3 4 -5 -6
leaf_value=-0.028499853238463404 0.070253685176372524 0.00066953681769870951 0.0059546154737472531 -0.054077721647918221 -0.013341928170993925
leaf_weight=21 25 31 20 20 20
leaf_count=21 25 31 20 20 20
internal_value=-0.000370072 0.0317339 -0.0225654 -0.0409769 -0.00369366
internal_weight=137 56 81 41 40
internal_count=137 56 81 41 40
is_linear=0
shrinkage=0.05


Tree=15
num_leaves=5
num_cat=0
split_feature=28 25 18 6
split_gain=81.4988 33.9532 10.9756 3.43409
threshold=1.0000000180025095e-35 3.7571427822113042 4.5000000000000009 4.5000000000000009
decision_type=2 2 2 2
left_child=2 -2 3 -1
right_child=1 -3 -4 -5
leaf_value=-0.059475424468517307 0.016039811157517965 0.093811483227688341 -0.0097997735014983597 -0.032048627663226352
leaf_weight=25 36 23 35 21
leaf_count=25 36 23 35 21
internal_value=0.00165856 0.0463576 -0.0309 -0.0469545
internal_weight=140 59 81 46
internal_count=140 59 81 46
is_linear=0
shrinkage=0.05


Tree=16
num_leaves=5
num_cat=0
split_feature=28 25 18 6
split_gain=73.5526 30.6428 9.90549 3.09927
threshold=1.0000000180025095e-35 3.7571427822113042 4.5000000000000009 4.5000000000000009
decision_type=2 2 2 2
left_child=2 -2 3 -1
right_child=1 -3 -4 -5
leaf_value=-0.056501653313636782 0.015237820236426261 0.089120909895585937 -0.0093097849349890443 -0.030446196205559231
leaf_weight=25 36 23 35 21
leaf_count=25 36 23 35 21
internal_value=0.00157563 0.0440397 -0.029355 -0.0446068
internal_weight=140 59 81 46
internal_count=140 59 81 46
is_linear=0
shrinkage=0.05


Tree=17
num_leaves=5
num_cat=0
split_feature=28 28 26 25
split_gain=67.9767 22.1796 10.1212 5.5848
threshold=2.5000000000000004 -1.0000000180025095e-35 3.654761910438538 3.7571427822113042
decision_type=2 2 2 2
left_child=1 3 -3 -1
right_child=-2 2 -4 -5
leaf_value=-0.046328776649748667 0.072772840617431542 -0.011049577474594117 0.035450428106229413 -0.016746492849455941
leaf_weight=39 27 25 22 27
leaf_count=39 27 25 22 27
internal_value=0.00149685 -0.0155337 0.0107164 -0.0342269
internal_weight=140 113 47 66
internal_count=140 113 47 66
is_linear=0
shrinkage=0.05


Tree=18
num_leaves=5
num_cat=0
split_feature=28 25 28 18
split_gain=61.8445 18.1683 11.5245 6.41608
threshold=1.5000000000000002 3.4642857313156132 -1.0000000180025095e-35 4.5000000000000009
decision_type=2 2 2 2
left_child=2 -2 3 -1
right_child=1 -3 -4 -5
leaf_value=-0.047187268946852004 0.021027268550318223 0.086187527254223836 0.0044429723458785202 -0.015950784183317617
leaf_weight=35 23 20 31 31
leaf_count=35 23 20 31 31
internal_value=0.00142201 0.0513344 -0.0207041 -0.0325156
internal_weight=140 43 97 66
internal_count=140 43 97 66
is_linear=0
shrinkage=0.05


Tree=19
num_leaves=5
num_cat=0
split_feature=28 28 18 18
split_gain=56.397 17.7621 15.9807 5.79052
threshold=2.5000000000000004 -1.0000000180025095e-35 2.5000000000000004 4.5000000000000009
decision_type=2 2 2 2
left_child=1 3 -3 -1
right_child=-2 2 -4 -5
leaf_value=-0.044827905068440102 0.066272828755555332 -0.023111599027400925 0.035531984194396786 -0.015153245147197479
leaf_weight=35 27 21 26 31
leaf_count=35 27 21 26 31
internal_value=0.00135091 -0.0141614 0.00932953 -0.0308898
internal_weight=140 113 47 66
internal_count=140 113 47 66
is_linear=0
shrinkage=0.05


Tree=20
num_leaves=5
num_cat=0
split_feature=28 27 28 18
split_gain=57.8328 16.2313 8.07586 11.4654
threshold=2.5000000000000004 4.0166666507720956 -1.4999999999999998 2.5000000000000004
decision_type=2 2 2 2
left_child=1 2 -1 -4
right_child=-2 -3 3 -5
leaf_value=-0.042652448283179718 0.069048303507268427 0.026476946556940675 -0.036718354661050917 0.0056889558110285454
leaf_weight=34 25 20 28 37
leaf_count=34 25 20 28 37
internal_value=-8.37451e-05 -0.0146073 -0.0229071 -0.0125788
internal_weight=144 119 99 65
internal_count=144 119 99 65
is_linear=0
shrinkage=0.05


Tree=21
num_leaves=5
num_cat=0
split_feature=28 27 28 18
split_gain=52.1941 14.6487 7.28847 10.3475
threshold=2.5000000000000004 4.0166666507720956 -1.4999999999999998 2.5000000000000004
decision_type=2 2 2 2
left_child=1 2 -1 -4
right_child=-2 -3 3 -5
leaf_value=-0.040519825708778469 0.065595888331532487 0.025153099223971367 -0.034882436712671605 0.0054045081138610843
leaf_weight=34 25 20 28 37
leaf_count=34 25 20 28 37
internal_value=-7.95577e-05 -0.0138769 -0.0217618 -0.0119499
internal_weight=144 119 99 65
internal_count=144 119 99 65
is_linear=0
shrinkage=0.05


Tree=22
num_leaves=6
num_cat=0
split_feature=28 22 18 28 26
split_gain=47.5992 20.5208 8.61476 18.6052 1.81105
threshold=1.5000000000000002 3.5000000000000004 3.5000000000000004 -1.4999999999999998 3.3928571939468388
decision_type=2 2 2 2 2
left_child=2 -2 4 -4 -1
right_child=1 -3 3 -5 -6
leaf_value=-0.04699889019131661 0.081734589077532296 0.010966954415752775 -0.030221679216871661 0.02468485046109116 -0.025720702204853299
leaf_weight=20 20 21 36 27 20
leaf_count=20 20 21 36 27 20
internal_value=-7.558e-05 0.0454878 -0.0182124 -0.00669031 -0.0363598
internal_weight=144 41 103 63 40
internal_count=144 41 103 63 40
is_linear=0
shrinkage=0.05


Tree=23
num_leaves=5
num_cat=0
split_feature=28 27 28 18
split_gain=43.3571 12.4751 5.96327 9.02781
threshold=2.5000000000000004 4.0166666507720956 -1.4999999999999998 2.5000000000000004
decision_type=2 2 2 2
left_child=1 2 -1 -4
right_child=-2 -3 3 -5
leaf_value=-0.036890679784119133 0.059786252707242971 0.023371111284941435 -0.032468564886533262 0.0051617583285111027
leaf_weight=34 25 20 28 37
leaf_count=34 25 20 28 37
internal_value=-7.18009e-05 -0.012647 -0.0199234 -0.0110482
internal_weight=144 119 99 65
internal_count=144 119 99 65
is_linear=0
shrinkage=0.05


Tree=24
num_leaves=6
num_cat=0
split_feature=28 22 18 28 26
split_gain=39.966 18.0417 7.56262 15.6188 1.52453
threshold=1.5000000000000002 3.5000000000000004 3.5000000000000004 -1.4999999999999998 3.3928571939468388
decision_type=2 2 2 2 2
left_child=2 -2 4 -4 -1
right_child=1 -3 3 -5 -6
leaf_value=-0.043451676173135639 0.075669095222838226 0.0093136941393216453 -0.027451940486207606 0.022855309904035597 -0.023929092837497595
leaf_weight=20 20 21 36 27 20
leaf_count=20 20 21 36 27 20
internal_value=-6.8211e-05 0.0416822 -0.0166873 -0.00589169 -0.0336904
internal_weight=144 41 103 63 40
internal_count=144 41 103 63 40
is_linear=0
shrinkage=0.05


Tree=25
num_leaves=5
num_cat=0
split_feature=28 22 18 19
split_gain=32.2995 13.3709 6.36283 2.07297
threshold=1.0000000180025095e-35 2.5000000000000004 4.5000000000000009 2.5000000000000004
decision_type=2 2 2 2
left_child=2 -2 3 -1
right_child=1 -3 -4 -5
leaf_value=-0.017550700772553683 0.063297490873374038 0.010860247904014204 -0.0016578944458160551 -0.038197648260862603
leaf_weight=20 20 31 32 31
leaf_count=20 20 31 32 31
internal_value=0.00010764 0.0314239 -0.0191349 -0.0301008
internal_weight=134 51 83 51
internal_count=134 51 83 51
is_linear=0
shrinkage=0.05


Tree=26
num_leaves=5
num_cat=0
split_feature=28 22 18 19
split_gain=29.1503 12.0673 5.74245 1.87086
threshold=1.0000000180025095e-35 2.5000000000000004 4.5000000000000009 2.5000000000000004
decision_type=2 2 2 2
left_child=2 -2 3 -1
right_child=1 -3 -4 -5
leaf_value=-0.016673165922984481 0.060132615694310526 0.010317235686365635 -0.0015750003134598956 -0.036287765787734141
leaf_weight=20 20 31 32 31
leaf_count=20 20 31 32 31
internal_value=0.000102258 0.0298527 -0.0181781 -0.0285958
internal_weight=134 51 83 51
internal_count=134 51 83 51
is_linear=0
shrinkage=0.05


Tree=27
num_leaves=5
num_cat=0
split_feature=28 25 18 28
split_gain=26.3081 11.3585 5.36279 8.45971
threshold=1.0000000180025095e-35 3.7571427822113042 3.5000000000000004 -1.4999999999999998
decision_type=2 2 2 2
left_child=2 -2 -1 -4
right_child=1 -3 3 -5
leaf_value=-0.035081865771540571 0.0069740485399961477 0.054395170785162761 -0.024212041539563377 0.015815671173516999
leaf_weight=28 28 23 33 22
leaf_count=28 28 23 33 22
internal_value=9.71451e-05 0.02836 -0.0172692 -0.00820096
internal_weight=134 51 83 55
internal_count=134 51 83 55
is_linear=0
shrinkage=0.05


Tree=28
num_leaves=4
num_cat=0
split_feature=28 18 28
split_gain=23.9737 6.13872 11.5279
threshold=1.5000000000000002 3.5000000000000004 -1.4999999999999998
decision_type=2 2 2
left_child=1 -1 -3
right_child=-2 2 -4
leaf_value=-0.028793741410245766 0.034986010297305054 -0.023001439627401081 0.020617361220398121
leaf_weight=37 36 33 28
leaf_count=37 36 33 28
internal_value=9.22876e-05 -0.0127258 -0.00297969
internal_weight=134 98 61
internal_count=134 98 61
is_linear=0
shrinkage=0.05


Tree=29
num_leaves=5
num_cat=0
split_feature=28 22 18 19
split_gain=21.8419 10.8809 4.87228 1.6704
threshold=1.0000000180025095e-35 2.5000000000000004 4.5000000000000009 2.5000000000000004
decision_type=2 2 2 2
left_child=2 -2 3 -1
right_child=1 -3 -4 -5
leaf_value=-0.01406620629131794 0.054592990893870597 0.0072897251875650498 -0.00044255250249989334 -0.032600234890536921
leaf_weight=20 20 31 32 31
leaf_count=20 20 31 32 31
internal_value=8.76732e-05 0.02584 -0.0157361 -0.025332
internal_weight=134 51 83 51
internal_count=134 51 83 51
is_linear=0
shrinkage=0.05


Tree=30
num_leaves=5
num_cat=0
split_feature=28 18 28 22
split_gain=19.943 8.28144 12.6808 0.989629
threshold=2.5000000000000004 2.5000000000000004 -1.4999999999999998 2.5000000000000004
decision_type=2 2 2 2
left_child=1 -1 -3 -4
right_child=-2 2 3 -5
leaf_value=-0.035542645792086283 0.036661726360519724 -0.027109289280552829 0.0046902802260592588 0.019749828668621683
leaf_weight=31 24 36 20 24
leaf_count=31 24 36 20 24
internal_value=-0.00466721 -0.0136032 -0.00510166 0.0129046
internal_weight=135 111 80 44
internal_count=135 111 80 44
is_linear=0
shrinkage=0.05


Tree=31
num_leaves=6
num_cat=0
split_feature=25 15 7 16 26
split_gain=9.58219 10.9474 9.83696 8.73967 0.678602
threshold=3.0714285373687749 -0.5163939595222472 3.5000000000000004 1.0000000180025095e-35 3.1785713434219365
decision_type=2 2 2 2 2
left_child=4 3 -3 -2 -1
right_child=1 2 -4 -5 -6
leaf_value=-0.029800381875512278 -0.036850822007372268 -0.0055288131393137433 0.039405358235897692 0.0093324633128941056 -0.017381534168750726
leaf_weight=22 21 21 29 20 22
leaf_count=22 21 21 29 20 22
internal_value=-0.00443385 0.00482893 0.020533 -0.0143224 -0.023591
internal_weight=135 91 50 41 44
internal_count=135 91 50 41 44
is_linear=0
shrinkage=0.05


Tree=32
num_leaves=5
num_cat=0
split_feature=28 18 28 22
split_gain=17.4407 7.11133 11.0721 0.921364
threshold=2.5000000000000004 2.5000000000000004 -1.4999999999999998 2.5000000000000004
decision_type=2 2 2 2
left_child=1 -1 -3 -4
right_child=-2 2 3 -5
leaf_value=-0.03289924870140009 0.034437038625280067 -0.025255022034980357 0.0042087840999010953 0.018739648691068093
leaf_weight=31 24 36 20 24
leaf_count=31 24 36 20 24
internal_value=-0.00421216 -0.0125687 -0.00469067 0.0121347
internal_weight=135 111 80 44
internal_count=135 111 80 44
is_linear=0
shrinkage=0.05


Tree=33
num_leaves=5
num_cat=0
split_feature=28 18 28 27
split_gain=15.7402 6.41798 9.99257 0.902387
threshold=2.5000000000000004 2.5000000000000004 -1.4999999999999998 3.6833333969116215
decision_type=2 2 2 2
left_child=1 -1 -3 -4
right_child=-2 2 3 -5
leaf_value=-0.031254286466226459 0.032715185793737576 -0.023992271033219166 0.0049914106940074513 0.019371851654723288
leaf_weight=31 24 36 24 20
leaf_count=31 24 36 24 20
internal_value=-0.00400155 -0.0119403 -0.00445614 0.011528
internal_weight=135 111 80 44
internal_count=135 111 80 44
is_linear=0
shrinkage=0.05


Tree=34
num_leaves=6
num_cat=0
split_feature=25 15 7 16 1
split_gain=7.40059 9.42703 8.527 7.75795 0.658448
threshold=3.0714285373687749 -0.5163939595222472 3.5000000000000004 1.0000000180025095e-35 11.500000000000002
decision_type=2 2 2 2 2
left_child=4 3 -3 -2 -1
right_child=1 2 -4 -5 -6
leaf_value=-0.026753676911308005 -0.034658319857858479 -0.0053528808146005588 0.036482567436479291 0.0088538426347076898 -0.014520637026395312
leaf_weight=22 21 21 29 20 22
leaf_count=22 21 21 29 20 22
internal_value=-0.00380147 0.00433886 0.0189117 -0.0134329 -0.0206372
internal_weight=135 91 50 41 44
internal_count=135 91 50 41 44
is_linear=0
shrinkage=0.05


Tree=35
num_leaves=6
num_cat=0
split_feature=28 27 9 11 19
split_gain=57.6385 5.75648 3.22261 4.36761 1.93678
threshold=3.5000000000000004 4.0351850986480722 11.500000000000002 32.500000000000007 2.5000000000000004
decision_type=2 2 2 2 2
left_child=1 2 4 -4 -1
right_child=-2 -3 3 -5 -6
leaf_value=0.0065548171876403305 0.08109354014907566 0.013723853568080813 -0.034109226464023513 -0.0060203092638403182 -0.013749528845073656
leaf_weight=23 21 24 31 25 24
leaf_count=23 21 24 31 25 24
internal_value=0.00435956 -0.00832873 -0.0134672 -0.0215695 -0.00381336
internal_weight=148 127 103 56 47
internal_count=148 127 103 56 47
is_linear=0
shrinkage=0.05


Tree=36
num_leaves=5
num_cat=0
split_feature=28 18 28 21
split_gain=52.0187 7.15123 11.6597 2.74628
threshold=3.5000000000000004 3.5000000000000004 -1.4999999999999998 2.5000000000000004
decision_type=2 2 2 2
left_child=1 3 -3 -1
right_child=-2 2 -4 -5
leaf_value=-0.0075228459574282177 0.077038862733613878 -0.016893988094456934 0.02515660634089727 -0.02909462100489893
leaf_weight=25 21 34 32 36
leaf_count=25 21 34 32 36
internal_value=0.00414158 -0.0079123 0.00349418 -0.0202537
internal_weight=148 127 66 61
internal_count=148 127 66 61
is_linear=0
shrinkage=0.05


Tree=37
num_leaves=6
num_cat=0
split_feature=28 18 28 6 21
split_gain=46.9469 6.45399 10.6833 4.15803 2.47852
threshold=3.5000000000000004 3.5000000000000004 -2.4999999999999996 4.5000000000000009 2.5000000000000004
decision_type=2 2 2 2 2
left_child=1 4 -3 -4 -1
right_child=-2 2 3 -5 -6
leaf_value=-0.0071467037312686445 0.07318691966079531 -0.02329207032065218 0.03425824855720358 0.0027938801318495758 -0.027639890369027854
leaf_weight=25 21 24 21 21 36
leaf_count=25 21 24 21 21 36
internal_value=0.0039345 -0.00751668 0.00331947 0.0185261 -0.019241
internal_weight=148 127 66 42 61
internal_count=148 127 66 42 61
is_linear=0
shrinkage=0.05


Tree=38
num_leaves=5
num_cat=0
split_feature=28 18 28 18
split_gain=42.3696 5.95685 2.35905 4.29767
threshold=3.5000000000000004 4.5000000000000009 -1.0000000180025095e-35 2.5000000000000004
decision_type=2 2 2 2
left_child=1 2 -1 -4
right_child=-2 -3 3 -5
leaf_value=-0.025351272048729081 0.069527573102996468 0.0094313305520795695 -0.020533612737199294 0.0068341073118902461
leaf_weight=31 21 38 32 26
leaf_count=31 21 38 32 26
internal_value=0.00373778 -0.00714085 -0.0142166 -0.00826532
internal_weight=148 127 89 58
internal_count=148 127 89 58
is_linear=0
shrinkage=0.05


Tree=39
num_leaves=6
num_cat=0
split_feature=28 18 28 6 21
split_gain=38.2386 5.47893 9.87263 3.54907 2.14469
threshold=3.5000000000000004 3.5000000000000004 -2.4999999999999996 4.5000000000000009 2.5000000000000004
decision_type=2 2 2 2 2
left_child=1 4 -3 -4 -1
right_child=-2 2 3 -5 -6
leaf_value=-0.006335871871560813 0.06605119549092793 -0.02238164160953602 0.032353135664016007 0.0032839593666029124 -0.025399058783012962
leaf_weight=25 21 24 21 21 36
leaf_count=25 21 24 21 21 36
internal_value=0.00355089 -0.00678381 0.0032003 0.0178185 -0.0175863
internal_weight=148 127 66 42 61
internal_count=148 127 66 42 61
is_linear=0
shrinkage=0.05


Tree=40
num_leaves=6
num_cat=0
split_feature=28 22 6 18 11
split_gain=15.286 5.95975 2.71578 4.17945 0.908115
threshold=1.5000000000000002 3.5000000000000004 1.5000000000000002 4.5000000000000009 31.500000000000004
decision_type=2 2 2 2 2
left_child=2 -2 -1 4 -4
right_child=1 -3 3 -5 -6
leaf_value=-0.0251909447307496 0.042270515941709164 0.005797221112464156 -0.0080702837925249096 0.010973490417003632 -0.022496292679570616
leaf_weight=23 24 21 24 25 20
leaf_count=23 24 21 24 25 20
internal_value=0.0013691 0.0252496 -0.0103116 -0.00535182 -0.0146276
internal_weight=137 45 92 69 44
internal_count=137 45 92 69 44
is_linear=0
shrinkage=0.05


Tree=41
num_leaves=5
num_cat=0
split_feature=25 21 28 28
split_gain=18.7294 8.44579 5.65936 2.80141
threshold=4.2142856121063241 3.5000000000000004 1.0000000180025095e-35 -1.0000000180025095e-35
decision_type=2 2 2 2
left_child=1 2 -1 -3
right_child=-2 3 -4 -5
leaf_value=-0.0059794699689114678 0.040430714212823661 -0.035231962247582321 0.02668159290970791 -0.012197839434851301
leaf_weight=36 25 22 21 33
leaf_count=36 25 22 21 33
internal_value=0.00130065 -0.00743374 0.00605355 -0.0214115
internal_weight=137 112 57 55
internal_count=137 112 57 55
is_linear=0
shrinkage=0.05


Tree=42
num_leaves=6
num_cat=0
split_feature=28 23 6 18 11
split_gain=13.0232 5.57477 2.48948 3.61776 0.735622
threshold=1.5000000000000002 3.5000000000000004 1.5000000000000002 4.5000000000000009 31.500000000000004
decision_type=2 2 2 2 2
left_child=2 -2 -1 4 -4
right_child=1 -3 3 -5 -6
leaf_value=-0.023791884880958368 0.040489641301657844 0.0052838148718530485 -0.0075255143591145199 0.010391445316374303 -0.020509349189233035
leaf_weight=23 23 22 24 25 20
leaf_count=23 23 22 24 25 20
internal_value=0.00123561 0.0232779 -0.00954594 -0.00479729 -0.0134273
internal_weight=137 45 92 69 44
internal_count=137 45 92 69 44
is_linear=0
shrinkage=0.05


Tree=43
num_leaves=5
num_cat=0
split_feature=25 21 28 20
split_gain=16.6056 7.59736 4.69737 2.62953
threshold=4.2142856121063241 3.5000000000000004 1.0000000180025095e-35 2.5000000000000004
decision_type=2 2 2 2
left_child=1 2 -1 -3
right_child=-2 3 -4 -5
leaf_value=-0.0052212395213751331 0.038018623623996974 -0.0058449223299976445 0.024534729752866996 -0.028571905773133038
leaf_weight=36 25 20 21 35
leaf_count=36 25 20 21 35
internal_value=0.00117383 -0.00705045 0.00574149 -0.0203075
internal_weight=137 112 57 55
internal_count=137 112 57 55
is_linear=0
shrinkage=0.05


Tree=44
num_leaves=5
num_cat=0
split_feature=25 21 28 20
split_gain=14.9866 6.85662 4.23938 2.37316
threshold=4.2142856121063241 3.5000000000000004 1.0000000180025095e-35 2.5000000000000004
decision_type=2 2 2 2
left_child=1 2 -1 -3
right_child=-2 3 -4 -5
leaf_value=-0.0049601775231874652 0.03611769251525402 -0.0055526764132082466 0.023307993067871957 -0.027143310015422424
leaf_weight=36 25 20 21 35
leaf_count=36 25 20 21 35
internal_value=0.00111514 -0.00669793 0.00545441 -0.0192922
internal_weight=137 112 57 55
internal_count=137 112 57 55
is_linear=0
shrinkage=0.05


Tree=45
num_leaves=5
num_cat=0
split_feature=28 25 17 9
split_gain=13.1564 13.9935 2.84582 2.69926
threshold=-1.0000000180025095e-35 3.928571462631226 1.0000000180025095e-35 12.500000000000002
decision_type=2 2 2 2
left_child=2 3 -1 -2
right_child=1 -3 -4 -5
leaf_value=-0.006100101025464634 0.013734079275701123 0.049029861692161787 -0.027878593274702629 -0.0076673044439624334
leaf_weight=30 26 21 30 34
leaf_count=30 26 21 30 34
internal_value=0.000756482 0.0139015 -0.0169893 0.00160663
internal_weight=141 81 60 60
internal_count=141 81 60 60
is_linear=0
shrinkage=0.05


Tree=46
num_leaves=5
num_cat=0
split_feature=28 25 26 9
split_gain=11.8737 12.6292 3.51231 2.43608
threshold=-1.0000000180025095e-35 3.928571462631226 3.5357142686843877 12.500000000000002
decision_type=2 2 2 2
left_child=2 3 -1 -2
right_child=1 -3 -4 -5
leaf_value=-0.0051974038995633073 0.013047375755671126 0.04657836773299745 -0.029514016690491526 -0.0072839392896960758
leaf_weight=33 26 21 27 34
leaf_count=33 26 21 27 34
internal_value=0.000718658 0.0132065 -0.0161399 0.0015263
internal_weight=141 81 60 60
internal_count=141 81 60 60
is_linear=0
shrinkage=0.05


Tree=47
num_leaves=5
num_cat=0
split_feature=28 25 26 9
split_gain=10.716 11.3978 3.16986 2.19856
threshold=-1.0000000180025095e-35 3.928571462631226 3.5357142686843877 12.500000000000002
decision_type=2 2 2 2
left_child=2 3 -1 -2
right_child=1 -3 -4 -5
leaf_value=-0.004937533521319204 0.012395006196143536 0.044249450078322775 -0.028038316282133265 -0.0069197422222179519
leaf_weight=33 26 21 27 34
leaf_count=33 26 21 27 34
internal_value=0.000682725 0.0125461 -0.0153329 0.00144998
internal_weight=141 81 60 60
internal_count=141 81 60 60
is_linear=0
shrinkage=0.05


Tree=48
num_leaves=5
num_cat=0
split_feature=28 25 26 9
split_gain=9.67118 10.2865 2.8608 1.9842
threshold=-1.0000000180025095e-35 3.928571462631226 3.5357142686843877 12.500000000000002
decision_type=2 2 2 2
left_child=2 3 -1 -2
right_child=1 -3 -4 -5
leaf_value=-0.0046906570000856216 0.011775256199045825 0.042036975827068092 -0.026636400460093107 -0.0065737553050412845
leaf_weight=33 26 21 27 34
leaf_count=33 26 21 27 34
internal_value=0.000648589 0.0119188 -0.0145662 0.00137748
internal_weight=141 81 60 60
internal_count=141 81 60 60
is_linear=0
shrinkage=0.05


Tree=49
num_leaves=5
num_cat=0
split_feature=28 18 9 26
split_gain=8.72824 9.49401 5.36125 2.58187
threshold=-1.0000000180025095e-35 2.5000000000000004 12.500000000000002 3.5357142686843877
decision_type=2 2 2 2
left_child=3 2 -2 -1
right_child=1 -3 -4 -5
leaf_value=-0.0044561239312205349 0.01436936391207079 0.032505299721378833 -0.018715203627943995 -0.025304580666124822
leaf_weight=33 24 32 25 27
leaf_count=33 24 32 25 27
internal_value=0.000616159 0.0113229 -0.00251052 -0.0138379
internal_weight=141 81 49 60
internal_count=141 81 49 60
is_linear=0
shrinkage=0.05


Tree=50
num_leaves=5
num_cat=0
split_feature=21 20 27 23
split_gain=6.76097 3.83486 3.92765 2.87712
threshold=1.5000000000000002 3.5000000000000004 3.6166666746139531 3.5000000000000004
decision_type=2 2 2 2
left_child=-1 2 -2 -3
right_child=1 3 -4 -5
leaf_value=0.018468015715812466 -0.013022593190443927 -0.030794528470589569 0.013477621013643566 -0.0065174554434159525
leaf_weight=28 29 26 27 23
leaf_count=28 29 26 27 23
internal_value=-0.00336251 -0.00918399 -0.000245704 -0.0193992
internal_weight=133 105 56 49
internal_count=133 105 56 49
is_linear=0
shrinkage=0.05


Tree=51
num_leaves=5
num_cat=0
split_feature=18 22 25 26
split_gain=7.96904 2.81357 1.98693 1.38898
threshold=4.5000000000000009 1.5000000000000002 3.6190476417541508 3.1071428060531621
decision_type=2 2 2 2
left_child=1 -1 3 -3
right_child=-2 2 -4 -5
leaf_value=0.0047900264880255516 0.017285433220011848 -0.018376585375517607 -0.025167452062790592 -0.00069835969060659411
leaf_weight=23 35 20 30 25
leaf_count=23 35 20 30 25
internal_value=-0.00319439 -0.0105086 -0.0152002 -0.00855535
internal_weight=133 98 75 45
internal_count=133 98 75 45
is_linear=0
shrinkage=0.05


Tree=52
num_leaves=4
num_cat=0
split_feature=18 21 18
split_gain=7.19206 4.56211 2.83315
threshold=4.5000000000000009 1.5000000000000002 2.5000000000000004
decision_type=2 2 2
left_child=1 -1 -3
right_child=-2 2 -4
leaf_value=0.011321356464177371 0.016421160719224386 -0.024975108484236095 -0.0059166509896898881
leaf_weight=20 35 39 39
leaf_count=20 35 39 39
internal_value=-0.00303467 -0.00998318 -0.0154459
internal_weight=133 98 78
internal_count=133 98 78
is_linear=0
shrinkage=0.05


Tree=53
num_leaves=5
num_cat=0
split_feature=28 18 21 1
split_gain=7.51016 16.5691 5.78024 2.65191
threshold=-2.4999999999999996 3.5000000000000004 2.5000000000000004 12.500000000000002
decision_type=2 2 2 2
left_child=-1 2 -2 -4
right_child=1 -3 3 -5
leaf_value=-0.028203671053051951 0.0075614370871335268 0.029886190917947003 -0.033427372512718038 -0.0093941659751263541
leaf_weight=24 26 37 24 22
leaf_count=24 26 37 24 22
internal_value=-0.00288293 0.00269227 -0.0112824 -0.0219332
internal_weight=133 109 72 46
internal_count=133 109 72 46
is_linear=0
shrinkage=0.05


Tree=54
num_leaves=5
num_cat=0
split_feature=28 18 21 23
split_gain=6.77792 14.9536 5.21666 2.60117
threshold=-2.4999999999999996 3.5000000000000004 2.5000000000000004 3.5000000000000004
decision_type=2 2 2 2
left_child=-1 2 -2 -4
right_child=1 -3 3 -5
leaf_value=-0.026793488829086227 0.007183365128003061 0.028391880819548826 -0.031733771953731775 -0.0078637082661901208
leaf_weight=24 26 37 25 21
leaf_count=24 26 37 25 21
internal_value=-0.00273879 0.00255766 -0.0107183 -0.0208366
internal_weight=133 109 72 46
internal_count=133 109 72 46
is_linear=0
shrinkage=0.05


Tree=55
num_leaves=5
num_cat=0
split_feature=28 18 28 27
split_gain=11.6707 3.29612 4.26358 0.116876
threshold=1.5000000000000002 3.5000000000000004 -2.4999999999999996 3.5499999523162846
decision_type=2 2 2 2
left_child=1 3 -3 -1
right_child=-2 2 -4 -5
leaf_value=-0.022035595504567029 0.024977890315413892 -0.016201096328978353 0.010529048800734539 -0.016630129199475051
leaf_weight=20 36 26 35 20
leaf_count=20 36 26 35 20
internal_value=0.000534144 -0.00817848 -0.000864128 -0.0193329
internal_weight=137 101 61 40
internal_count=137 101 61 40
is_linear=0
shrinkage=0.05


Tree=56
num_leaves=5
num_cat=0
split_feature=28 18 28 27
split_gain=10.5328 2.97475 3.84788 0.105481
threshold=1.5000000000000002 3.5000000000000004 -2.4999999999999996 3.5499999523162846
decision_type=2 2 2 2
left_child=1 3 -3 -1
right_child=-2 2 -4 -5
leaf_value=-0.020933815785683693 0.023728995307788461 -0.015391041553364352 0.010002596361030425 -0.015798622998408975
leaf_weight=20 36 26 35 20
leaf_count=20 36 26 35 20
internal_value=0.000507437 -0.00776955 -0.000820921 -0.0183662
internal_weight=137 101 61 40
internal_count=137 101 61 40
is_linear=0
shrinkage=0.05


Tree=57
num_leaves=4
num_cat=0
split_feature=28 18 28
split_gain=9.50587 2.80336 1.43097
threshold=1.5000000000000002 4.5000000000000009 -1.0000000180025095e-35
decision_type=2 2 2
left_child=1 2 -1
right_child=-2 -3 -4
leaf_value=-0.021763214831850654 0.022542546024649508 0.0040578816179186105 -0.0069292259031302622
leaf_weight=29 36 35 37
leaf_count=29 36 35 37
internal_value=0.000482065 -0.00738108 -0.0134472
internal_weight=137 101 66
internal_count=137 101 66
is_linear=0
shrinkage=0.05


Tree=58
num_leaves=5
num_cat=0
split_feature=28 18 28 27
split_gain=8.57904 2.57914 3.57001 0.0981131
threshold=1.5000000000000002 3.5000000000000004 -2.4999999999999996 3.5499999523162846
decision_type=2 2 2 2
left_child=1 3 -3 -1
right_child=-2 2 -4 -5
leaf_value=-0.019355238512507641 0.021415418068257475 -0.014576103810507519 0.0098834827006794509 -0.014402635534934233
leaf_weight=20 36 26 35 20
leaf_count=20 36 26 35 20
internal_value=0.000457962 -0.00701202 -0.000541915 -0.0168789
internal_weight=137 101 61 40
internal_count=137 101 61 40
is_linear=0
shrinkage=0.05


Tree=59
num_leaves=5
num_cat=0
split_feature=25 28 1 18
split_gain=8.46968 3.96586 2.52142 2.69154
threshold=4.357142686843873 -1.4999999999999998 18.500000000000004 2.5000000000000004
decision_type=2 2 2 2
left_child=1 -1 3 -3
right_child=-2 2 -4 -5
leaf_value=-0.021355849595997355 0.026748781833797693 -0.015626430086946735 0.015590042900294067 0.0050665414751027574
leaf_weight=29 25 30 20 33
leaf_count=29 25 30 20 33
internal_value=0.000435064 -0.00543853 0.000122938 -0.00478725
internal_weight=137 112 83 63
internal_count=137 112 83 63
is_linear=0
shrinkage=0.05


Tree=60
num_leaves=5
num_cat=0
split_feature=25 11 22 7
split_gain=3.98036 4.46944 2.27725 1.46977
threshold=3.928571462631226 36.500000000000007 4.5000000000000009 5.5000000000000009
decision_type=2 2 2 2
left_child=1 2 3 -1
right_child=-2 -3 -4 -5
leaf_value=-0.00035148835024581505 0.01119391590786668 0.010683457528648433 -0.028102689271881465 -0.01813619127940564
leaf_weight=26 39 24 21 21
leaf_count=26 39 24 21 21
internal_value=-0.00219229 -0.00786687 -0.014414 -0.00829784
internal_weight=131 92 68 47
internal_count=131 92 68 47
is_linear=0
shrinkage=0.05


Tree=61
num_leaves=4
num_cat=0
split_feature=18 9 4
split_gain=5.52305 3.37109 2.79997
threshold=4.5000000000000009 18.500000000000004 1.0000000180025095e-35
decision_type=2 2 2
left_child=1 2 -1
right_child=-2 -3 -4
leaf_value=-0.012726749638737789 0.01525817471830284 -0.020849105444914827 0.0084216857504489945
leaf_weight=29 34 34 34
leaf_count=29 34 34 34
internal_value=-0.00208267 -0.00816091 -0.00131331
internal_weight=131 97 63
internal_count=131 97 63
is_linear=0
shrinkage=0.05


Tree=62
num_leaves=5
num_cat=0
split_feature=18 9 5 9
split_gain=4.98455 3.04241 5.46141 0.302731
threshold=4.5000000000000009 18.500000000000004 2.5000000000000004 10.500000000000002
decision_type=2 2 2 2
left_child=1 2 -1 -4
right_child=-2 -3 3 -5
leaf_value=0.018166491818998983 0.014495266541181244 -0.019806649840628618 -0.016760565041695371 -0.0080609764065593479
leaf_weight=23 34 34 20 20
leaf_count=23 34 34 20 20
internal_value=-0.00197854 -0.00775286 -0.00124764 -0.0124108
internal_weight=131 97 63 40
internal_count=131 97 63 40
is_linear=0
shrinkage=0.05


Tree=63
num_leaves=5
num_cat=0
split_feature=25 11 22 7
split_gain=3.24847 4.01012 2.06295 1.30308
threshold=3.928571462631226 36.500000000000007 4.5000000000000009 5.5000000000000009
decision_type=2 2 2 2
left_child=1 2 3 -1
right_child=-2 -3 -4 -5
leaf_value=9.5873537401740372e-05 0.010213418083432584 0.010565290937665851 -0.026236273170936675 -0.01665001923129672
leaf_weight=26 39 24 21 21
leaf_count=26 39 24 21 21
internal_value=-0.00187961 -0.007006 -0.0132076 -0.00738633
internal_weight=131 92 68 47
internal_count=131 92 68 47
is_linear=0
shrinkage=0.05


Tree=64
num_leaves=4
num_cat=0
split_feature=18 1 1
split_gain=4.44601 3.06881 1.96666
threshold=4.5000000000000009 17.500000000000004 9.5000000000000018
decision_type=2 2 2
left_child=1 2 -1
right_child=-2 -3 -4
leaf_value=-0.0039399598821011541 0.013772803770980852 0.0074573299381881959 -0.020597971006724482
leaf_weight=34 34 26 37
leaf_count=34 34 26 37
internal_value=-0.00178563 -0.0072391 -0.0126209
internal_weight=131 97 71
internal_count=131 97 71
is_linear=0
shrinkage=0.05


Tree=65
num_leaves=5
num_cat=0
split_feature=25 18 15 25
split_gain=6.74542 3.51372 1.45886 0.920795
threshold=4.2142856121063241 1.5000000000000002 0.51639395952224743 3.2142857313156132
decision_type=2 2 2 2
left_child=1 -1 3 -3
right_child=-2 2 -4 -5
leaf_value=-0.023932743580503901 0.023179251746599527 0.0010387622960843146 0.0086156292725354435 -0.010679236025929354
leaf_weight=22 24 30 25 38
leaf_count=22 24 30 25 38
internal_value=-0.00093148 -0.00596328 -0.00171244 -0.00550953
internal_weight=139 115 93 68
internal_count=139 115 93 68
is_linear=0
shrinkage=0.05


Tree=66
num_leaves=5
num_cat=0
split_feature=25 18 26 26
split_gain=6.08774 3.17114 1.43997 2.19635
threshold=4.2142856121063241 1.5000000000000002 3.1071428060531621 3.5357142686843877
decision_type=2 2 2 2
left_child=1 -1 -3 -4
right_child=-2 2 3 -5
leaf_value=-0.02273610696535219 0.022020289535187962 -0.013513255566358568 0.010422172185240521 -0.0069250699283706172
leaf_weight=22 24 20 36 37
leaf_count=22 24 20 36 37
internal_value=-0.000884906 -0.00566512 -0.00162682 0.00162973
internal_weight=139 115 93 73
internal_count=139 115 93 73
is_linear=0
shrinkage=0.05


Tree=67
num_leaves=6
num_cat=0
split_feature=22 6 27 28 20
split_gain=5.86977 7.22511 4.72819 1.30004 1.29081
threshold=2.5000000000000004 4.5000000000000009 3.9166667461395268 1.0000000180025095e-35 3.5000000000000004
decision_type=2 2 2 2 2
left_child=1 -1 3 4 -2
right_child=2 -3 -4 -5 -6
leaf_value=0.028400454390794042 -0.016734313856286463 -0.007994655180722475 -0.029701277906341212 0.0071661498316604169 0.0012296295526903122
leaf_weight=30 20 25 21 23 20
leaf_count=30 20 25 21 23 20
internal_value=-0.000840661 0.0118572 -0.00915475 -0.00230591 -0.00775234
internal_weight=139 55 84 63 40
internal_count=139 55 84 63 40
is_linear=0
shrinkage=0.05


Tree=68
num_leaves=5
num_cat=0
split_feature=28 15 28 27
split_gain=5.56371 1.9945 2.34735 1.30513
threshold=1.5000000000000002 0.61559370160102855 -1.0000000180025095e-35 3.5166666507720952
decision_type=2 2 2 2
left_child=1 2 3 -1
right_child=-2 -3 -4 -5
leaf_value=-0.0090630024462007002 0.015509868957298369 0.004999067056073378 -0.00053308107477102078 -0.02635726844115804
leaf_weight=20 38 26 31 24
leaf_count=20 38 26 31 24
internal_value=-0.000798628 -0.0069345 -0.0110715 -0.0184962
internal_weight=139 101 75 44
internal_count=139 101 75 44
is_linear=0
shrinkage=0.05


Tree=69
num_leaves=6
num_cat=0
split_feature=25 18 28 13 25
split_gain=5.54892 3.12634 2.67063 1.85791 1.09139
threshold=4.2142856121063241 1.5000000000000002 -1.0000000180025095e-35 0.25000000000000011 3.3571429252624516
decision_type=2 2 2 2 2
left_child=1 -1 3 -3 -4
right_child=-2 2 4 -5 -6
leaf_value=-0.022272436557845637 0.021109354269477385 -0.017039869717167071 0.015606444193558259 0.0026340611942578108 -0.00032936091967193144
leaf_weight=22 24 30 22 20 21
leaf_count=22 24 30 22 20 21
internal_value=-0.000758696 -0.00532246 -0.00131279 -0.0091703 0.00782384
internal_weight=139 115 93 50 43
internal_count=139 115 93 50 43
is_linear=0
shrinkage=0.05


Tree=70
num_leaves=5
num_cat=0
split_feature=28 28 18 28
split_gain=7.74139 3.04611 2.24128 0.691431
threshold=2.5000000000000004 -2.4999999999999996 3.5000000000000004 1.0000000180025095e-35
decision_type=2 2 2 2
left_child=1 -1 3 -3
right_child=-2 2 -4 -5
leaf_value=-0.022660021572981193 0.024345726042985918 -0.013726366393218219 0.0085867464226940943 -0.002614670220230307
leaf_weight=23 25 28 31 28
leaf_count=23 25 28 31 28
internal_value=-0.000769609 -0.00647764 -0.00219954 -0.00817052
internal_weight=135 110 87 56
internal_count=135 110 87 56
is_linear=0
shrinkage=0.05


Tree=71
num_leaves=6
num_cat=0
split_feature=22 27 26 26 9
split_gain=5.35209 3.97983 1.71253 2.70368 3.69066
threshold=1.5000000000000002 3.9166667461395268 3.1071428060531621 3.6071428060531621 14.500000000000002
decision_type=2 2 2 2 2
left_child=-1 2 -2 4 -4
right_child=1 -3 3 -5 -6
leaf_value=0.020151781262829901 -0.012866398638912611 -0.023480427548444521 0.02451101408603237 -0.010699178311254153 -0.0048571843607351194
leaf_weight=25 21 24 23 22 20
leaf_count=25 21 24 23 22 20
internal_value=-0.000731129 -0.00547724 -0.000453101 0.00355735 0.0108514
internal_weight=135 110 86 65 43
internal_count=135 110 86 65 43
is_linear=0
shrinkage=0.05


Tree=72
num_leaves=5
num_cat=0
split_feature=28 28 18 9
split_gain=6.90334 2.68628 2.00607 0.769839
threshold=2.5000000000000004 -2.4999999999999996 3.5000000000000004 10.500000000000002
decision_type=2 2 2 2
left_child=1 -1 3 -3
right_child=-2 2 -4 -5
leaf_value=-0.02128133207316632 0.023022393226623538 -0.00014796246375356402 0.0081373002350090019 -0.012257301514702184
leaf_weight=23 25 21 31 35
leaf_count=23 25 21 31 35
internal_value=-0.000694572 -0.00608479 -0.00206732 -0.0077163
internal_weight=135 110 87 56
internal_count=135 110 87 56
is_linear=0
shrinkage=0.05


Tree=73
num_leaves=6
num_cat=0
split_feature=22 27 23 19 9
split_gain=4.76019 3.63897 1.86598 2.12127 0.740608
threshold=1.5000000000000002 3.9166667461395268 4.5000000000000009 3.5000000000000004 10.500000000000002
decision_type=2 2 2 2 2
left_child=-1 2 3 4 -2
right_child=1 -3 -4 -5 -6
leaf_value=0.019034513903781775 0.017725160927511752 -0.022350813451339491 -0.012521005923981253 -0.0084065765354105031 0.0042810672938468908
leaf_weight=25 20 24 23 22 21
leaf_count=25 20 24 23 22 21
internal_value=-0.000659843 -0.00513583 -0.000331653 0.00411843 0.0108392
internal_weight=135 110 86 63 41
internal_count=135 110 86 63 41
is_linear=0
shrinkage=0.05


Tree=74
num_leaves=5
num_cat=0
split_feature=28 28 18 9
split_gain=6.16662 2.37595 1.8447 0.644354
threshold=2.5000000000000004 -2.4999999999999996 3.5000000000000004 10.500000000000002
decision_type=2 2 2 2
left_child=1 -1 3 -3
right_child=-2 2 -4 -5
leaf_value=-0.020013169899744832 0.021788888573646546 -0.00043595901557377407 0.0078425330162468949 -0.011514504703560045
leaf_weight=23 25 21 31 35
leaf_count=23 25 21 31 35
internal_value=-0.000626852 -0.00572134 -0.00194304 -0.00736005
internal_weight=135 110 87 56
internal_count=135 110 87 56
is_linear=0
shrinkage=0.05


Tree=75
num_leaves=6
num_cat=0
split_feature=1 27 27 18 13
split_gain=6.86037 2.827 3.72119 2.23673 0.785792
threshold=4.0000000000000009 3.4833333492279057 3.5833332538604741 2.5000000000000004 1.0000000180025095e-35
decision_type=2 2 2 2 2
left_child=-1 -2 -3 -4 -5
right_child=1 2 3 4 -6
leaf_value=0.029429791904985902 0.0089001547091473367 -0.026206031143665317 -0.014208469412882219 -0.0013677816675044597 0.012648204851429909
leaf_weight=20 39 20 22 20 20
leaf_count=20 39 20 22 20 20
internal_value=0.00230215 -0.00218176 -0.00745242 -0.00140287 0.00564021
internal_weight=141 121 82 62 40
internal_count=141 121 82 62 40
is_linear=0
shrinkage=0.05


Tree=76
num_leaves=5
num_cat=0
split_feature=20 25 5 16
split_gain=5.09022 8.02325 2.15517 3.04448
threshold=4.5000000000000009 4.0714285373687753 2.5000000000000004 1.0000000180025095e-35
decision_type=2 2 2 2
left_child=1 2 -1 -4
right_child=-2 -3 3 -5
leaf_value=0.011318590929731727 -0.013453625298815927 0.034734134515747431 0.0046503848644594351 -0.020171868934163027
leaf_weight=30 38 22 30 21
leaf_count=30 38 22 30 21
internal_value=0.00218704 0.00795739 0.000684692 -0.00557054
internal_weight=141 103 81 51
internal_count=141 103 81 51
is_linear=0
shrinkage=0.05


Tree=77
num_leaves=5
num_cat=0
split_feature=18 25 16 28
split_gain=4.80764 2.75698 2.58614 3.0547
threshold=4.5000000000000009 4.0714285373687753 1.0000000180025095e-35 1.0000000180025095e-35
decision_type=2 2 2 2
left_child=1 2 3 -1
right_child=-2 -3 -4 -5
leaf_value=-0.0043612673969214994 0.017278034957493412 -0.020194698255509139 -0.010945485195805951 0.019893898099660873
leaf_weight=27 38 20 31 25
leaf_count=27 38 20 31 25
internal_value=0.00207769 -0.0035302 0.00048534 0.00729987
internal_weight=141 103 83 52
internal_count=141 103 83 52
is_linear=0
shrinkage=0.05


Tree=78
num_leaves=5
num_cat=0
split_feature=1 27 27 27
split_gain=6.0554 2.52121 3.14852 2.13134
threshold=4.0000000000000009 3.4833333492279057 3.5833332538604741 3.9166667461395268
decision_type=2 2 2 2
left_child=-1 -2 -3 -4
right_child=1 2 3 -5
leaf_value=0.027460277951322498 0.0082265732523340452 -0.02446660302579403 0.0067611268694129064 -0.011867190699558706
leaf_weight=20 39 20 34 28
leaf_count=20 39 20 34 28
internal_value=0.00197381 -0.00223883 -0.00721628 -0.00165166
internal_weight=141 121 82 62
internal_count=141 121 82 62
is_linear=0
shrinkage=0.05


Tree=79
num_leaves=6
num_cat=0
split_feature=1 1 15 12 9
split_gain=5.465 2.18835 4.68335 2.73003 1.79178
threshold=4.0000000000000009 12.500000000000002 -0.61559370160102833 -0.68301269412040699 15.500000000000002
decision_type=2 2 2 2 2
left_child=-1 4 -3 -4 -2
right_child=1 2 3 -5 -6
leaf_value=0.026087263738736512 -0.01716861744353082 -0.012690561451241734 0.001216008197516203 0.027027959456401213 0.0013676939870823513
leaf_weight=20 32 26 20 21 22
leaf_count=20 32 26 20 21 22
internal_value=0.00187512 -0.00212689 0.00390974 0.0144368 -0.00961679
internal_weight=141 121 67 41 54
internal_count=141 121 67 41 54
is_linear=0
shrinkage=0.05


Tree=80
num_leaves=6
num_cat=0
split_feature=18 9 18 25 26
split_gain=4.08348 3.35152 6.08386 1.50117 1.26577
threshold=4.5000000000000009 5.5000000000000009 1.5000000000000002 3.7571427822113042 3.3214286565780644
decision_type=2 2 2 2 2
left_child=1 -1 -3 4 -4
right_child=-2 2 3 -5 -6
leaf_value=0.012574682724662126 0.013792897915201528 -0.034324787836521868 -0.0065084707038477064 -0.012918306751331935 0.010690508936734303
leaf_weight=20 35 20 20 24 23
leaf_count=20 35 20 20 24 23
internal_value=-0.00103224 -0.00588158 -0.0101244 -0.0029004 0.00269098
internal_weight=142 107 87 67 43
internal_count=142 107 87 67 43
is_linear=0
shrinkage=0.05


Tree=81
num_leaves=6
num_cat=0
split_feature=28 18 26 18 25
split_gain=14.3756 4.83935 2.55845 1.55048 0.403288
threshold=3.5000000000000004 2.5000000000000004 3.9642857313156132 4.5000000000000009 3.2142857313156132
decision_type=2 2 2 2 2
left_child=1 -1 3 4 -3
right_child=-2 2 -4 -5 -6
leaf_value=-0.022813453432172538 0.038311330378055578 0.0030960034951567649 -0.016151450270401602 0.014016216178424657 -0.0068247600968572358
leaf_weight=36 20 20 21 24 21
leaf_count=36 20 20 21 24 21
internal_value=-0.000980626 -0.00742193 -0.000978967 0.00392291 -0.00198536
internal_weight=142 122 86 65 41
internal_count=142 122 86 65 41
is_linear=0
shrinkage=0.05


Tree=82
num_leaves=6
num_cat=0
split_feature=28 18 26 18 25
split_gain=12.974 4.36751 2.31707 1.51822 0.363968
threshold=3.5000000000000004 2.5000000000000004 3.8928571939468388 4.5000000000000009 3.2142857313156132
decision_type=2 2 2 2 2
left_child=1 -1 3 4 -3
right_child=-2 2 -4 -5 -6
leaf_value=-0.021672780382343465 0.036395765431225302 0.0029412033036351204 -0.014928119544955818 0.014163778977387626 -0.0064835220275978964
leaf_weight=36 20 20 22 23 21
leaf_count=36 20 20 22 23 21
internal_value=-0.000931594 -0.00705083 -0.000930019 0.00388183 -0.0018861
internal_weight=142 122 86 64 41
internal_count=142 122 86 64 41
is_linear=0
shrinkage=0.05


Tree=83
num_leaves=6
num_cat=0
split_feature=28 18 26 18 25
split_gain=11.709 3.94168 2.09116 1.37019 0.328481
threshold=3.5000000000000004 2.5000000000000004 3.8928571939468388 4.5000000000000009 3.2142857313156132
decision_type=2 2 2 2 2
left_child=1 -1 3 4 -3
right_child=-2 2 -4 -5 -6
leaf_value=-0.020589141480094341 0.034575977167114615 0.0027941433247178796 -0.014181713480502367 0.013455590354683605 -0.0061593458577547042
leaf_weight=36 20 20 22 23 21
leaf_count=36 20 20 22 23 21
internal_value=-0.000885015 -0.00669829 -0.000883518 0.00368774 -0.00179179
internal_weight=142 122 86 64 41
internal_count=142 122 86 64 41
is_linear=0
shrinkage=0.05


Tree=84
num_leaves=6
num_cat=0
split_feature=28 28 6 14 6
split_gain=10.5674 3.08274 1.3961 0.802788 2.27785
threshold=3.5000000000000004 1.5000000000000002 1.5000000000000002 -0.61559370160102833 4.5000000000000009
decision_type=2 2 2 2 2
left_child=1 2 -1 -4 -5
right_child=-2 -3 3 4 -6
leaf_value=-0.012228492799180526 0.032847178210504355 -0.022853057580473631 -0.0066025863538253238 0.016182685618126847 -0.0054186416574968747
leaf_weight=27 20 23 23 23 26
leaf_count=27 20 23 23 23 26
internal_value=-0.000840764 -0.00636338 -0.00253244 0.00110358 0.00472076
internal_weight=142 122 99 72 49
internal_count=142 122 99 72 49
is_linear=0
shrinkage=0.05


Tree=85
num_leaves=6
num_cat=0
split_feature=15 19 28 9 9
split_gain=3.8744 4.6399 7.36122 5.14646 0.869603
threshold=-0.91023612022399891 3.5000000000000004 1.5000000000000002 13.500000000000002 11.500000000000002
decision_type=2 2 2 2 2
left_child=-1 2 4 -3 -2
right_child=1 3 -4 -5 -6
leaf_value=-0.020985927166683335 0.0073562410260949816 -0.028745315289124846 0.036382642257958654 0.0042238899040967226 -0.0065760139919196561
leaf_weight=21 21 20 20 29 24
leaf_count=21 21 20 20 29 24
internal_value=-0.00125043 0.00238505 0.0111432 -0.00923293 -7.4295e-05
internal_weight=135 114 65 49 45
internal_count=135 114 65 49 45
is_linear=0
shrinkage=0.05


Tree=86
num_leaves=6
num_cat=0
split_feature=18 28 26 21 26
split_gain=3.94756 8.26595 2.13096 1.41962 1.2579
threshold=1.5000000000000002 1.5000000000000002 3.5357142686843877 3.5000000000000004 3.2500000000000004
decision_type=2 2 2 2 2
left_child=-1 2 4 -4 -2
right_child=1 -3 3 -5 -6
leaf_value=-0.019575439215016865 -0.0035864633657038212 0.031034397055572344 -0.020990744242001147 -0.0031896657388036454 0.013236971194855868
leaf_weight=24 25 21 21 24 20
leaf_count=24 25 21 21 24 20
internal_value=-0.00118791 0.00278777 -0.00380311 -0.0114968 0.00389062
internal_weight=135 111 90 45 45
internal_count=135 111 90 45 45
is_linear=0
shrinkage=0.05


Tree=87
num_leaves=6
num_cat=0
split_feature=15 19 28 9 9
split_gain=3.50195 4.12149 6.41869 4.57243 0.757747
threshold=-0.91023612022399891 3.5000000000000004 1.5000000000000002 13.500000000000002 11.500000000000002
decision_type=2 2 2 2 2
left_child=-1 2 4 -3 -2
right_child=1 3 -4 -5 -6
leaf_value=-0.019891456385985728 0.0070436401470076477 -0.027013933942653241 0.034150511580519377 0.0040622321575687365 -0.0059617384705537317
leaf_weight=21 21 20 20 29 24
leaf_count=21 21 20 20 29 24
internal_value=-0.00112852 0.00232782 0.0105822 -0.00862192 0.000107438
internal_weight=135 114 65 49 45
internal_count=135 114 65 49 45
is_linear=0
shrinkage=0.05


Tree=88
num_leaves=6
num_cat=0
split_feature=18 28 26 21 25
split_gain=3.72785 7.03536 1.86102 1.2746 1.13666
threshold=1.5000000000000002 1.5000000000000002 3.5357142686843877 3.5000000000000004 3.0714285373687749
decision_type=2 2 2 2 2
left_child=-1 2 4 -4 -2
right_child=1 -3 3 -5 -6
leaf_value=-0.018940583104267716 -0.0045944502466313897 0.028850693370969523 -0.019475014774155041 -0.0026075893833573602 0.011334094335325062
leaf_weight=24 21 21 21 24 24
leaf_count=24 21 21 21 24 24
internal_value=-0.00107209 0.00279137 -0.00328914 -0.0104791 0.00390077
internal_weight=135 111 90 45 45
internal_count=135 111 90 45 45
is_linear=0
shrinkage=0.05


Tree=89
num_leaves=6
num_cat=0
split_feature=18 28 26 21 26
split_gain=3.36438 6.34941 1.67957 1.15033 1.04644
threshold=1.5000000000000002 1.5000000000000002 3.5357142686843877 3.5000000000000004 3.2500000000000004
decision_type=2 2 2 2 2
left_child=-1 2 4 -4 -2
right_child=1 -3 3 -5 -6
leaf_value=-0.017993554550533496 -0.0031139796478673819 0.027408158091739535 -0.018501264331418844 -0.0024772100555613481 0.01223037806339562
leaf_weight=24 25 21 21 24 20
leaf_count=24 25 21 21 24 20
internal_value=-0.00101849 0.0026518 -0.00312468 -0.0099551 0.00370573
internal_weight=135 111 90 45 45
internal_count=135 111 90 45 45
is_linear=0
shrinkage=0.05


Tree=90
num_leaves=6
num_cat=0
split_feature=18 28 28 27 19
split_gain=3.50301 6.03358 1.33809 1.81056 0.802549
threshold=1.5000000000000002 1.5000000000000002 -1.0000000180025095e-35 3.4833333492279057 3.5000000000000004
decision_type=2 2 2 2 2
left_child=-1 2 3 -2 -5
right_child=1 -3 -4 4 -6
leaf_value=-0.018137855858852466 0.0053340536775067452 0.025219547396773123 0.0052133636740858066 -0.019866990732649963 -0.0062016952825202191
leaf_weight=24 20 24 34 21 22
leaf_count=24 20 24 34 21 22
internal_value=-0.000687918 0.00277323 -0.0027805 -0.00709465 -0.0128754
internal_weight=145 121 97 63 43
internal_count=145 121 97 63 43
is_linear=0
shrinkage=0.05


Tree=91
num_leaves=6
num_cat=0
split_feature=5 25 21 16 27
split_gain=3.46691 3.87587 3.29133 1.46847 0.944501
threshold=1.0000000180025095e-35 4.2142856121063241 1.5000000000000002 1.0000000180025095e-35 3.7041666507720952
decision_type=2 2 2 2 2
left_child=-1 2 -2 4 -4
right_child=1 -3 3 -5 -6
leaf_value=-0.01893447348530489 0.016090776336689792 0.021633659933947707 0.0055037118218563223 -0.014667365826185672 -0.0084527692344801685
leaf_weight=22 21 22 27 31 22
leaf_count=22 21 22 27 31 22
internal_value=-0.000653522 0.00261624 -0.00152617 -0.00615061 -0.000762463
internal_weight=145 123 101 80 49
internal_count=145 123 101 80 49
is_linear=0
shrinkage=0.05


Tree=92
num_leaves=6
num_cat=0
split_feature=5 25 5 16 19
split_gain=3.12889 3.49798 2.10615 2.57396 1.60682
threshold=1.0000000180025095e-35 4.2142856121063241 2.5000000000000004 1.0000000180025095e-35 2.5000000000000004
decision_type=2 2 2 2 2
left_child=-1 2 -2 4 -4
right_child=1 -3 3 -5 -6
leaf_value=-0.017987749681130729 0.010208464111201465 0.020551977146797899 -0.008616079141696294 -0.017824011981221185 0.010322391285444611
leaf_weight=22 28 22 21 28 24
leaf_count=22 28 22 21 28 24
internal_value=-0.000620846 0.00248543 -0.00144986 -0.00592154 0.00148444
internal_weight=145 123 101 73 45
internal_count=145 123 101 73 45
is_linear=0
shrinkage=0.05


Tree=93
num_leaves=5
num_cat=0
split_feature=20 27 1 14
split_gain=3.06382 5.45329 1.82322 1.09723
threshold=4.5000000000000009 3.7833333015441899 10.500000000000002 -0.40966403484344477
decision_type=2 2 2 2
left_child=1 2 -1 -4
right_child=-2 -3 3 -5
leaf_value=-0.012583229312616767 -0.013007136246793578 0.020602247933151598 0.010827214349145917 -0.0053541888325707989
leaf_weight=33 37 33 22 20
leaf_count=33 37 33 22 20
internal_value=-0.000589803 0.00366428 -0.00378842 0.00312178
internal_weight=145 108 75 42
internal_count=145 108 75 42
is_linear=0
shrinkage=0.05


Tree=94
num_leaves=6
num_cat=0
split_feature=18 28 28 27 15
split_gain=2.90316 5.32805 1.24922 1.73928 0.585813
threshold=1.5000000000000002 1.5000000000000002 -1.0000000180025095e-35 3.4833333492279057 1.0000000180025095e-35
decision_type=2 2 2 2 2
left_child=-1 2 3 -2 -5
right_child=1 -3 -4 4 -6
leaf_value=-0.016446095673988262 0.0053847949975170195 0.023683747354273997 0.0050955249160966453 -0.018164444054392253 -0.0064892883323842583
leaf_weight=24 20 24 34 22 21
leaf_count=24 20 24 34 22 21
internal_value=-0.000560313 0.00259059 -0.00262834 -0.00679678 -0.0124626
internal_weight=145 121 97 63 43
internal_count=145 121 97 63 43
is_linear=0
shrinkage=0.05


Tree=95
num_leaves=6
num_cat=0
split_feature=18 19 9 3 27
split_gain=3.77176 2.33542 1.96594 1.79239 1.16826
threshold=4.5000000000000009 3.5000000000000004 12.500000000000002 3.6000000238418584 3.7833333015441899
decision_type=2 2 2 2 2
left_child=1 2 -1 -3 -2
right_child=4 3 -4 -5 -6
leaf_value=0.011335865015696202 0.0045508889037938344 -0.024545684063632507 -0.0068057879412663173 -0.0038640435128896077 0.021038343537260185
leaf_weight=28 21 20 32 22 22
leaf_count=28 21 20 32 22 22
internal_value=0.000566266 -0.00466964 0.00166032 -0.0137124 0.0129863
internal_weight=145 102 60 42 43
internal_count=145 102 60 42 43
is_linear=0
shrinkage=0.05


Tree=96
num_leaves=6
num_cat=0
split_feature=18 25 19 9 3
split_gain=3.40401 5.67249 2.10771 1.77426 1.61764
threshold=4.5000000000000009 3.7571427822113042 3.5000000000000004 12.500000000000002 3.6000000238418584
decision_type=2 2 2 2 2
left_child=2 -2 3 -1 -4
right_child=1 -3 4 -5 -6
leaf_value=0.010769072015370642 -0.0054057346148924396 0.030924655408376741 -0.023318399963900449 -0.0064654988062102349 -0.003670841150133955
leaf_weight=28 22 21 20 32 22
leaf_count=28 22 21 20 32 22
internal_value=0.000537953 0.012337 -0.00443616 0.0015773 -0.0130268
internal_weight=145 43 102 60 42
internal_count=145 43 102 60 42
is_linear=0
shrinkage=0.05


Tree=97
num_leaves=6
num_cat=0
split_feature=18 25 1 17 18
split_gain=3.07212 5.11942 2.0545 2.01417 2.20823
threshold=4.5000000000000009 3.7571427822113042 17.500000000000004 -0.56174489110708226 2.5000000000000004
decision_type=2 2 2 2 2
left_child=2 -2 3 -1 -5
right_child=1 -3 -4 4 -6
leaf_value=0.0039913349015557251 -0.0051354478875344457 0.029378422775438857 0.0079179507966798089 -0.026836824018973859 -0.0057816655262175835
leaf_weight=23 22 21 26 20 33
leaf_count=23 22 21 26 20 33
internal_value=0.000511055 0.0117202 -0.00421435 -0.00836488 -0.013727
internal_weight=145 43 102 76 53
internal_count=145 43 102 76 53
is_linear=0
shrinkage=0.05


Tree=98
num_leaves=6
num_cat=0
split_feature=18 25 19 25 3
split_gain=2.77259 4.62028 1.93137 1.66891 1.42533
threshold=4.5000000000000009 3.7571427822113042 3.5000000000000004 3.0714285373687749 3.6000000238418584
decision_type=2 2 2 2 2
left_child=2 -2 3 -1 -4
right_child=1 -3 4 -5 -6
leaf_value=-0.0081139951646327976 -0.0048786752603270792 0.027909501650858495 -0.021887571392580869 0.008800461425312928 -0.0034448030722242871
leaf_weight=25 22 21 20 35 22
leaf_count=25 22 21 20 35 22
internal_value=0.000485502 0.0111342 -0.00400364 0.00175277 -0.0122271
internal_weight=145 43 102 60 42
internal_count=145 43 102 60 42
is_linear=0
shrinkage=0.05


Tree=99
num_leaves=6
num_cat=0
split_feature=18 25 1 17 18
split_gain=2.50226 4.1698 1.84289 1.77913 1.97952
threshold=4.5000000000000009 3.7571427822113042 17.500000000000004 -0.56174489110708226 2.5000000000000004
decision_type=2 2 2 2 2
left_child=2 -2 3 -1 -5
right_child=1 -3 -4 4 -6
leaf_value=0.0038784794792856864 -0.0046347412196072668 0.026514026358546244 0.0076870780726984297 -0.025186323896050456 -0.0052513595106023735
leaf_weight=23 22 21 26 20 33
leaf_count=23 22 21 26 20 33
internal_value=0.000461227 0.0105774 -0.00380345 -0.00773443 -0.012774
internal_weight=145 43 102 76 53
internal_count=145 43 102 76 53
is_linear=0
shrinkage=0.05


Tree=100
num_leaves=5
num_cat=0
split_feature=28 9 27 6
split_gain=6.85284 1.71911 1.93988 1.39624
threshold=3.5000000000000004 22.500000000000004 3.4833333492279057 3.5000000000000004
decision_type=2 2 2 2
left_child=1 2 -1 -4
right_child=-2 -3 3 -5
leaf_value=0.0031792268477147446 0.027628682032227514 0.0083058592421761928 -0.020283468679658006 -0.0054846688623640793
leaf_weight=32 20 23 28 37
leaf_count=32 20 23 28 37
internal_value=0.000531956 -0.00398417 -0.00689829 -0.0118595
internal_weight=140 120 97 65
internal_count=140 120 97 65
is_linear=0
shrinkage=0.05


Tree=101
num_leaves=5
num_cat=0
split_feature=28 18 28 25
split_gain=6.18469 1.39168 2.94436 1.72029
threshold=3.5000000000000004 3.5000000000000004 -2.4999999999999996 3.3571429252624516
decision_type=2 2 2 2
left_child=1 3 -3 -1
right_child=-2 2 -4 -5
leaf_value=-0.0023715735918709213 0.026247248113504613 -0.012287573220479924 0.010082300887810753 -0.019974584797518735
leaf_weight=35 20 24 38 23
leaf_count=35 20 24 38 23
internal_value=0.000505358 -0.00378496 0.00142299 -0.00935208
internal_weight=140 120 62 58
internal_count=140 120 62 58
is_linear=0
shrinkage=0.05


Tree=102
num_leaves=6
num_cat=0
split_feature=28 9 26 13 26
split_gain=5.58168 1.55461 2.93913 0.951757 0.520372
threshold=3.5000000000000004 22.500000000000004 4.0357143878936776 0.25000000000000011 3.4642857313156132
decision_type=2 2 2 2 2
left_child=1 2 3 4 -1
right_child=-2 -3 -4 -5 -6
leaf_value=-0.0011851243391309096 0.024934885674156249 0.008091516142873012 -0.022436786984855479 0.0050573156605805128 -0.012071408558958434
leaf_weight=23 20 23 22 31 21
leaf_count=23 20 23 22 31 21
internal_value=0.00048009 -0.00359571 -0.00636691 -0.00165308 -0.00638085
internal_weight=140 120 97 75 44
internal_count=140 120 97 75 44
is_linear=0
shrinkage=0.05


Tree=103
num_leaves=5
num_cat=0
split_feature=28 9 27 6
split_gain=5.03747 1.40303 1.63203 1.20986
threshold=3.5000000000000004 22.500000000000004 3.4833333492279057 3.5000000000000004
decision_type=2 2 2 2
left_child=1 2 -1 -4
right_child=-2 -3 3 -5
leaf_value=0.0031947937357472258 0.023688141733873638 0.007686940028899066 -0.018440685880237392 -0.0046649914662781605
leaf_weight=32 20 23 28 37
leaf_count=32 20 23 28 37
internal_value=0.000456085 -0.00341592 -0.00604856 -0.0105991
internal_weight=140 120 97 65
internal_count=140 120 97 65
is_linear=0
shrinkage=0.05


Tree=104
num_leaves=6
num_cat=0
split_feature=15 19 5 18 27
split_gain=2.61629 2.80584 5.44234 1.88066 1.53147
threshold=-0.91023612022399891 4.5000000000000009 2.5000000000000004 2.5000000000000004 3.5499999523162846
decision_type=2 2 2 2 2
left_child=-1 2 -2 -4 -5
right_child=1 -3 3 4 -6
leaf_value=-0.01630937274778262 0.02422765583896469 -0.012477482662981619 -0.01310637305406007 -0.0049642906745984445 0.013711387340141379
leaf_weight=20 31 23 22 21 23
leaf_count=20 31 23 22 21 23
internal_value=0.000433281 0.00322372 0.00694669 -0.00117013 0.004798
internal_weight=140 120 97 66 44
internal_count=140 120 97 66 44
is_linear=0
shrinkage=0.05


Tree=105
num_leaves=5
num_cat=0
split_feature=3 4 5 26
split_gain=2.34883 2.80964 6.1783 2.6748
threshold=4.5999999046325692 1.0000000180025095e-35 1.0000000180025095e-35 3.6071428060531621
decision_type=2 2 2 2
left_child=1 3 -3 -1
right_child=-2 2 -4 -5
leaf_value=0.0016283286974216118 -0.014020516167340034 -0.0072043674704416298 0.030306514254992919 -0.020861933294218035
leaf_weight=39 34 23 21 20
leaf_count=39 34 23 21 20
internal_value=-0.00262551 0.00113595 0.0106986 -0.00599549
internal_weight=137 103 44 59
internal_count=137 103 44 59
is_linear=0
shrinkage=0.05


Tree=106
num_leaves=5
num_cat=0
split_feature=3 4 27 26
split_gain=2.11982 2.5357 3.90913 2.41401
threshold=4.5999999046325692 1.0000000180025095e-35 3.5833332538604741 3.6071428060531621
decision_type=2 2 2 2
left_child=1 3 -3 -1
right_child=-2 2 -4 -5
leaf_value=0.0015469123203402911 -0.013319490020683803 -0.0054332578866576244 0.024404258718309198 -0.019818836688064043
leaf_weight=39 34 21 23 20
leaf_count=39 34 21 23 20
internal_value=-0.00249424 0.00107915 0.0101636 -0.00569571
internal_weight=137 103 44 59
internal_count=137 103 44 59
is_linear=0
shrinkage=0.05


Tree=107
num_leaves=5
num_cat=0
split_feature=3 4 5 26
split_gain=1.91314 2.28847 5.57495 2.17864
threshold=4.5999999046325692 1.0000000180025095e-35 1.0000000180025095e-35 3.6071428060531621
decision_type=2 2 2 2
left_child=1 3 -3 -1
right_child=-2 2 -4 -5
leaf_value=0.0014695666014001921 -0.012653515563236878 -0.0073508561507839229 0.028281393248055665 -0.018827894991263749
leaf_weight=39 34 23 21 20
leaf_count=39 34 23 21 20
internal_value=-0.00236952 0.00102519 0.00965544 -0.00541093
internal_weight=137 103 44 59
internal_count=137 103 44 59
is_linear=0
shrinkage=0.05


Tree=108
num_leaves=5
num_cat=0
split_feature=28 18 21 26
split_gain=1.78508 3.39787 2.08945 1.57018
threshold=-1.0000000180025095e-35 1.5000000000000002 2.5000000000000004 3.5357142686843877
decision_type=2 2 2 2
left_child=3 -2 -3 -1
right_child=1 2 -4 -5
leaf_value=-0.0015732471958141436 -0.012481980860233307 -0.0028722074092365803 0.017608822822909466 -0.018002841016277672
leaf_weight=33 25 20 33 26
leaf_count=33 25 20 33 26
internal_value=-0.00225105 0.00271279 0.00988013 -0.00881341
internal_weight=137 78 53 59
internal_count=137 78 53 59
is_linear=0
shrinkage=0.05


Tree=109
num_leaves=5
num_cat=0
split_feature=3 26 20 27
split_gain=1.71544 2.17547 3.54634 3.89039
threshold=4.5999999046325692 3.0357142686843877 4.5000000000000009 3.7833333015441899
decision_type=2 2 2 2
left_child=1 -1 3 -3
right_child=-2 2 -4 -5
leaf_value=-0.012867039347871801 -0.011876646467648886 0.0017070002783408488 -0.012269920593296941 0.028522820611085211
leaf_weight=22 34 38 22 21
leaf_count=22 34 38 22 21
internal_value=-0.0021385 0.00107604 0.00486305 0.0112516
internal_weight=137 103 81 59
internal_count=137 103 81 59
is_linear=0
shrinkage=0.05


Tree=110
num_leaves=5
num_cat=0
split_feature=20 27 14 18
split_gain=3.67063 6.82654 1.08785 0.98535
threshold=4.5000000000000009 3.7833333015441899 1.0000000180025095e-35 2.5000000000000004
decision_type=2 2 2 2
left_child=1 2 3 -1
right_child=-2 -3 -4 -5
leaf_value=-0.0070189071632921693 -0.013351628000442034 0.025292174087773112 -0.010570522936759516 0.0074072018908015614
leaf_weight=20 39 29 30 29
leaf_count=20 39 29 30 29
internal_value=-0.000203574 0.00454433 -0.00307196 0.00151899
internal_weight=147 108 79 49
internal_count=147 108 79 49
is_linear=0
shrinkage=0.05


Tree=111
num_leaves=5
num_cat=0
split_feature=20 27 10 18
split_gain=3.31275 6.16095 0.979004 0.850901
threshold=4.5000000000000009 3.7833333015441899 2.5000000000000004 2.5000000000000004
decision_type=2 2 2 2
left_child=1 2 -1 -4
right_child=-2 -3 3 -5
leaf_value=-0.01022697130202091 -0.012684046578569672 0.024027565463670884 -0.006667961617931724 0.0066463559695209068
leaf_weight=29 39 29 20 30
leaf_count=29 39 29 20 30
internal_value=-0.000193396 0.00431712 -0.00291836 0.00132063
internal_weight=147 108 79 50
internal_count=147 108 79 50
is_linear=0
shrinkage=0.05


Tree=112
num_leaves=5
num_cat=0
split_feature=20 27 14 18
split_gain=2.98975 5.56026 0.891008 0.804982
threshold=4.5000000000000009 3.7833333015441899 1.0000000180025095e-35 2.5000000000000004
decision_type=2 2 2 2
left_child=1 2 3 -1
right_child=-2 -3 -4 -5
leaf_value=-0.0063345634471625089 -0.012049844179553196 0.022826187079772353 -0.009558770308891934 0.0067045239651382996
leaf_weight=20 39 29 30 29
leaf_count=20 39 29 30 29
internal_value=-0.000183726 0.00410126 -0.00277245 0.00138245
internal_weight=147 108 79 49
internal_count=147 108 79 49
is_linear=0
shrinkage=0.05


Tree=113
num_leaves=6
num_cat=0
split_feature=28 6 18 26 23
split_gain=2.57028 5.14423 1.40986 1.3647 1.17731
threshold=-1.0000000180025095e-35 1.5000000000000002 2.5000000000000004 3.654761910438538 3.5000000000000004
decision_type=2 2 2 2 2
left_child=3 -2 -3 4 -1
right_child=1 2 -4 -5 -6
leaf_value=0.0056648057716136638 0.024621836885809899 -0.0095324644353240728 0.0063146747760474686 -0.017729220725595952 -0.010886385498590591
leaf_weight=22 25 32 25 22 21
leaf_count=22 25 32 25 22 21
internal_value=-0.000174539 0.00571188 -0.00258196 -0.00760048 -0.00241833
internal_weight=147 82 57 65 43
internal_count=147 82 57 65 43
is_linear=0
shrinkage=0.05


Tree=114
num_leaves=6
num_cat=0
split_feature=20 25 20 28 14
split_gain=2.63471 3.44431 1.39937 0.886725 0.843227
threshold=4.5000000000000009 4.0714285373687753 3.5000000000000004 -1.0000000180025095e-35 -0.61559370160102833
decision_type=2 2 2 2 2
left_child=1 2 3 -1 -5
right_child=-2 -3 -4 4 -6
leaf_value=-0.011385611928999425 -0.011305098044566621 0.022586613604798914 0.010862096234978665 -0.0065768191191766939 0.0075924570273075784
leaf_weight=25 39 20 21 21 21
leaf_count=25 39 20 21 21 21
internal_value=-0.000165812 0.00385671 -0.00040009 -0.00393003 0.000507819
internal_weight=147 108 88 67 42
internal_count=147 108 88 67 42
is_linear=0
shrinkage=0.05


Tree=115
num_leaves=6
num_cat=0
split_feature=28 9 26 15 26
split_gain=6.75717 1.54893 1.35613 1.48887 1.19408
threshold=3.5000000000000004 24.500000000000004 4.0357143878936776 -0.5163939595222472 3.2500000000000004
decision_type=2 2 2 2 2
left_child=1 2 3 -1 -5
right_child=-2 -3 -4 4 -6
leaf_value=-0.014546941578961338 0.026215188000351192 0.0074048946145921953 -0.019475073078647258 -0.0092589132508146578 0.0065134068081776301
leaf_weight=26 20 20 20 20 30
leaf_count=26 20 20 20 20 30
internal_value=-0.000625708 -0.00525345 -0.0078906 -0.00484206 0.000204479
internal_weight=136 116 96 76 50
internal_count=136 116 96 76 50
is_linear=0
shrinkage=0.05


Tree=116
num_leaves=6
num_cat=0
split_feature=28 9 26 15 26
split_gain=6.09835 1.39791 1.2239 1.34371 1.07765
threshold=3.5000000000000004 24.500000000000004 4.0357143878936776 -0.5163939595222472 3.2500000000000004
decision_type=2 2 2 2 2
left_child=1 2 3 -1 -5
right_child=-2 -3 -4 4 -6
leaf_value=-0.01381959464544287 0.024904428999871015 0.0070346501632593574 -0.018501319298520686 -0.0087959674838930368 0.0061877366232996195
leaf_weight=26 20 20 20 20 30
leaf_count=26 20 20 20 20 30
internal_value=-0.000594423 -0.00499078 -0.00749607 -0.00459996 0.000194255
internal_weight=136 116 96 76 50
internal_count=136 116 96 76 50
is_linear=0
shrinkage=0.05


Tree=117
num_leaves=5
num_cat=0
split_feature=28 21 26 4
split_gain=5.50376 1.28203 1.75261 1.99626
threshold=3.5000000000000004 4.5000000000000009 3.9642857313156132 1.0000000180025095e-35
decision_type=2 2 2 2
left_child=1 2 3 -1
right_child=-2 -3 -4 -5
leaf_value=0.0046874051554101131 0.023659207224845887 0.0045774149841495927 -0.020717252986505629 -0.012446409824085148
leaf_weight=34 20 28 20 34
leaf_count=34 20 28 20 34
internal_value=-0.000564702 -0.00474124 -0.00770626 -0.0038795
internal_weight=136 116 88 68
internal_count=136 116 88 68
is_linear=0
shrinkage=0.05


Tree=118
num_leaves=6
num_cat=0
split_feature=28 9 15 11 9
split_gain=4.96714 1.23795 1.05109 0.776433 0.509154
threshold=3.5000000000000004 24.500000000000004 0.61559370160102855 25.500000000000004 10.500000000000002
decision_type=2 2 2 2 2
left_child=1 2 3 -1 -5
right_child=-2 -3 -4 4 -6
leaf_value=-0.015905700083221157 0.02247624732553959 0.0068123453576117753 0.0019550611479207873 0.00027783083962276575 -0.011004387438297273
leaf_weight=31 20 20 25 20 20
leaf_count=31 20 20 25 20 20
internal_value=-0.000536467 -0.00450418 -0.00686178 -0.00996631 -0.00536328
internal_weight=136 116 96 71 40
internal_count=136 116 96 71 40
is_linear=0
shrinkage=0.05


Tree=119
num_leaves=5
num_cat=0
split_feature=28 21 25 4
split_gain=4.48285 1.14778 1.70293 1.14999
threshold=3.5000000000000004 4.5000000000000009 4.0714285373687753 1.0000000180025095e-35
decision_type=2 2 2 2
left_child=1 2 3 -1
right_child=-2 -3 -4 -5
leaf_value=0.0033392430788704327 0.021352435499429705 0.0045382619868697864 -0.018125923294574024 -0.010255605770674137
leaf_weight=35 20 28 25 28
leaf_count=35 20 28 25 28
internal_value=-0.000509643 -0.00427897 -0.00708445 -0.00270291
internal_weight=136 116 88 63
internal_count=136 116 88 63
is_linear=0
shrinkage=0.05


Tree=120
num_leaves=5
num_cat=0
split_feature=28 18 25 28
split_gain=4.04689 1.91652 1.77951 1.4606
threshold=3.5000000000000004 3.5000000000000004 3.3571429252624516 -2.4999999999999996
decision_type=2 2 2 2
left_child=1 2 -1 -3
right_child=-2 3 -4 -5
leaf_value=-0.00083617880785216898 0.021822346746921541 -0.0043460463856657347 -0.017816966193290516 0.010328606418214549
leaf_weight=36 21 30 27 39
leaf_count=36 21 30 27 39
internal_value=0.00143492 -0.00180853 -0.00811366 0.00394832
internal_weight=153 132 63 69
internal_count=153 132 63 69
is_linear=0
shrinkage=0.05


Tree=121
num_leaves=5
num_cat=0
split_feature=28 18 25 28
split_gain=3.65232 1.72966 1.60601 1.31819
threshold=3.5000000000000004 3.5000000000000004 3.3571429252624516 -2.4999999999999996
decision_type=2 2 2 2
left_child=1 2 -1 -3
right_child=-2 3 -4 -5
leaf_value=-0.00079436983344041636 0.020731229086716971 -0.0041287439378599328 -0.016926117788534614 0.0098121764269681333
leaf_weight=36 21 30 27 39
leaf_count=36 21 30 27 39
internal_value=0.00136318 -0.00171811 -0.00770798 0.00375091
internal_weight=153 132 63 69
internal_count=153 132 63 69
is_linear=0
shrinkage=0.05


Tree=122
num_leaves=6
num_cat=0
split_feature=28 18 25 28 1
split_gain=3.29622 1.56102 1.4747 1.18967 0.199027
threshold=3.5000000000000004 3.5000000000000004 3.6190476417541508 -2.4999999999999996 12.500000000000002
decision_type=2 2 2 2 2
left_child=1 2 4 -3 -1
right_child=-2 3 -4 -5 -6
leaf_value=-0.0053552555541197464 0.019694667806228004 -0.0039223070939381922 -0.0181410635932393 0.0093215676920058634 0.0015285869395094259
leaf_weight=21 21 30 21 39 21
leaf_count=21 21 30 21 39 21
internal_value=0.00129502 -0.0016322 -0.00732258 0.00356336 -0.00191333
internal_weight=153 132 63 69 42
internal_count=153 132 63 69 42
is_linear=0
shrinkage=0.05


Tree=123
num_leaves=6
num_cat=0
split_feature=28 18 25 25 20
split_gain=2.97484 1.41929 1.80928 1.16972 0.852878
threshold=3.5000000000000004 4.5000000000000009 3.928571462631226 3.7571427822113042 2.5000000000000004
decision_type=2 2 2 2 2
left_child=1 2 4 -3 -1
right_child=-2 3 -4 -5 -6
leaf_value=-0.0072287115268409256 0.018709934538318998 -0.0022379775717854501 -0.017476620961149988 0.014862590604461729 0.0038821930041871011
leaf_weight=31 21 20 22 20 39
leaf_count=31 21 20 22 20 39
internal_value=0.00123027 -0.00155059 -0.00496924 0.00631231 -0.00103835
internal_weight=153 132 92 40 70
internal_count=153 132 92 40 70
is_linear=0
shrinkage=0.05


Tree=124
num_leaves=6
num_cat=0
split_feature=28 12 11 25 22
split_gain=2.68479 1.26133 1.23261 1.2925 0.816793
threshold=3.5000000000000004 0.68301269412040722 23.500000000000004 3.6190476417541508 3.5000000000000004
decision_type=2 2 2 2 2
left_child=1 2 -1 4 -4
right_child=-2 -3 3 -5 -6
leaf_value=0.012522151950979605 0.017774438148453125 -0.0096097653991143624 -0.0027892262173386719 -0.010225110554946931 0.010002190798210603
leaf_weight=20 21 35 26 27 24
leaf_count=20 21 35 26 27 24
internal_value=0.00116875 -0.00147306 0.00146286 -0.00140968 0.00335065
internal_weight=153 132 97 77 50
internal_count=153 132 97 77 50
is_linear=0
shrinkage=0.05


Tree=125
num_leaves=5
num_cat=0
split_feature=28 26 1 26
split_gain=3.11802 2.45789 1.69066 1.07605
threshold=-1.0000000180025095e-35 3.7928571701049809 17.500000000000004 3.5357142686843877
decision_type=2 2 2 2
left_child=3 2 -2 -1
right_child=1 -3 -4 -5
leaf_value=-0.00092837136030068696 -0.0058531182427781041 0.019501223467738818 0.011935442278627306 -0.014327677192106363
leaf_weight=29 34 27 22 31
leaf_count=29 34 27 22 31
internal_value=0.00083235 0.00710972 0.00113524 -0.00785135
internal_weight=143 83 56 60
internal_count=143 83 56 60
is_linear=0
shrinkage=0.05


Tree=126
num_leaves=5
num_cat=0
split_feature=28 18 23 26
split_gain=2.81401 2.4961 1.9499 0.971136
threshold=-1.0000000180025095e-35 2.5000000000000004 2.5000000000000004 3.5357142686843877
decision_type=2 2 2 2
left_child=3 2 -2 -1
right_child=1 -3 -4 -5
leaf_value=-0.00088195270248528183 0.011048682073929481 0.017163518805275946 -0.0091064482744384039 -0.013611293460933434
leaf_weight=29 21 34 28 31
leaf_count=29 21 34 28 31
internal_value=0.000790732 0.00675423 -0.000468535 -0.00745878
internal_weight=143 83 49 60
internal_count=143 83 49 60
is_linear=0
shrinkage=0.05


Tree=127
num_leaves=5
num_cat=0
split_feature=14 19 20 4
split_gain=1.4429 1.81204 4.28382 2.52921
threshold=0.91023612022399913 3.5000000000000004 2.5000000000000004 1.0000000180025095e-35
decision_type=2 2 2 2
left_child=1 3 -3 -1
right_child=-2 2 -4 -5
leaf_value=-0.0055536432691630638 0.01222339966536864 0.0066879614046774817 -0.021787750202098066 0.013877714967185801
leaf_weight=34 23 25 28 33
leaf_count=34 23 25 28 33
internal_value=0.000751195 -0.00144764 -0.00835581 0.00401703
internal_weight=143 120 53 67
internal_count=143 120 53 67
is_linear=0
shrinkage=0.05


Tree=128
num_leaves=6
num_cat=0
split_feature=28 18 23 26 14
split_gain=2.45476 2.25079 1.71999 0.8638 0.108736
threshold=-1.0000000180025095e-35 2.5000000000000004 2.5000000000000004 3.654761910438538 1.0000000180025095e-35
decision_type=2 2 2 2 2
left_child=3 2 -2 4 -1
right_child=1 -3 -4 -5 -6
leaf_value=-0.0001422647386789322 0.010241752658926306 0.016168048692035135 -0.0086878977666076801 -0.015475623118691146 -0.0053560826952161735
leaf_weight=20 21 34 28 20 20
leaf_count=20 21 34 28 20 20
internal_value=0.000713636 0.00628349 -0.00057519 -0.00699132 -0.00274917
internal_weight=143 83 49 60 40
internal_count=143 83 49 60 40
is_linear=0
shrinkage=0.05


Tree=129
num_leaves=6
num_cat=0
split_feature=28 26 17 26 7
split_gain=2.21543 2.18576 1.51889 0.77958 0.0819509
threshold=-1.0000000180025095e-35 3.7928571701049809 1.0000000180025095e-35 3.654761910438538 7.5000000000000009
decision_type=2 2 2 2 2
left_child=3 2 -2 4 -1
right_child=1 -3 -4 -5 -6
leaf_value=-0.0048748836212325845 -0.0065393097013425596 0.01765471794814975 0.010198812140151859 -0.014701841975402204 -0.00034854657016694548
leaf_weight=20 33 27 23 20 20
leaf_count=20 33 27 23 20 20
internal_value=0.000677954 0.00596931 0.000335276 -0.00664176 -0.00261172
internal_weight=143 83 56 60 40
internal_count=143 83 56 60 40
is_linear=0
shrinkage=0.05


Tree=130
num_leaves=6
num_cat=0
split_feature=18 25 18 25 9
split_gain=3.16736 2.42555 1.46254 0.948601 0.302039
threshold=4.5000000000000009 3.928571462631226 1.5000000000000002 3.4642857313156132 13.500000000000002
decision_type=2 2 2 2 2
left_child=2 -2 -1 4 -4
right_child=1 -3 3 -5 -6
leaf_value=-0.012888217329978944 0.0022122964928192753 0.026542328579816966 0.0018578569870442152 -0.0056770022803140181 0.010068783710067648
leaf_weight=25 21 20 24 31 21
leaf_count=25 21 20 24 31 21
internal_value=0.00236018 0.0140806 -0.00239762 0.00105324 0.00568962
internal_weight=142 41 101 76 45
internal_count=142 41 101 76 45
is_linear=0
shrinkage=0.05


Tree=131
num_leaves=6
num_cat=0
split_feature=18 25 18 25 9
split_gain=2.85854 2.18906 1.31994 0.856113 0.27259
threshold=4.5000000000000009 3.928571462631226 1.5000000000000002 3.4642857313156132 13.500000000000002
decision_type=2 2 2 2 2
left_child=2 -2 -1 4 -4
right_child=1 -3 3 -5 -6
leaf_value=-0.012243806570768357 0.0021016815012054788 0.025215212351176887 0.0017649641357517492 -0.0053931520873447885 0.0095653446834711806
leaf_weight=25 21 20 24 31 21
leaf_count=25 21 20 24 31 21
internal_value=0.00224217 0.0133766 -0.00227774 0.00100057 0.00540514
internal_weight=142 41 101 76 45
internal_count=142 41 101 76 45
is_linear=0
shrinkage=0.05


Tree=132
num_leaves=6
num_cat=0
split_feature=18 25 18 25 9
split_gain=2.57984 1.97563 1.19125 0.772642 0.246012
threshold=4.5000000000000009 3.928571462631226 1.5000000000000002 3.4642857313156132 13.500000000000002
decision_type=2 2 2 2 2
left_child=2 -2 -1 4 -4
right_child=1 -3 3 -5 -6
leaf_value=-0.011631616085767746 0.0019965975767090209 0.023954452350735664 0.0016767159909553205 -0.0051234944332991875 0.009087077339756347
leaf_weight=25 21 20 24 31 21
leaf_count=25 21 20 24 31 21
internal_value=0.00213006 0.0127077 -0.00216385 0.000950546 0.00513488
internal_weight=142 41 101 76 45
internal_count=142 41 101 76 45
is_linear=0
shrinkage=0.05


Tree=133
num_leaves=6
num_cat=0
split_feature=18 25 18 7 9
split_gain=2.3283 1.783 1.0751 0.748893 0.503538
threshold=4.5000000000000009 3.928571462631226 1.5000000000000002 4.5000000000000009 14.500000000000002
decision_type=2 2 2 2 2
left_child=2 -2 -1 -4 -5
right_child=1 -3 3 4 -6
leaf_value=-0.011050035491585732 0.001896767548861958 0.022756729625398292 -0.0064028025279791725 -0.00010683338703780339 0.0097997755146301962
leaf_weight=25 21 20 24 29 23
leaf_count=25 21 20 24 29 23
internal_value=0.00202356 0.0120724 -0.00205566 0.000903019 0.00427494
internal_weight=142 41 101 76 52
internal_count=142 41 101 76 52
is_linear=0
shrinkage=0.05


Tree=134
num_leaves=6
num_cat=0
split_feature=18 25 18 25 11
split_gain=2.10129 1.60916 0.97028 0.696726 0.209225
threshold=4.5000000000000009 3.928571462631226 1.5000000000000002 3.4642857313156132 32.500000000000007
decision_type=2 2 2 2 2
left_child=2 -2 -1 4 -4
right_child=1 -3 3 -5 -6
leaf_value=-0.010497533559799195 0.0018019294144497031 0.021618892955593768 0.0011865915120801047 -0.0049100593651198853 0.0080204731862371162
leaf_weight=25 21 20 21 31 24
leaf_count=25 21 20 21 31 24
internal_value=0.00192238 0.0114687 -0.00195288 0.000857868 0.00483133
internal_weight=142 41 101 76 45
internal_count=142 41 101 76 45
is_linear=0
shrinkage=0.05


end of trees

feature_importances:
quantity_used_diff=140
quantity_lag_1=106
quantity_rolling_mean_7=65
quantity_rolling_mean_14=42
quantity_rolling_mean_30=33
day_of_month=32
quantity_lag_3=17
quantity_lag_7=17
region=15
quantity_lag_14=15
quantity_lag_5=14
day_of_week=12
week_cos=12
shipping_mode=8
week_of_year=8
lead_time_days=7
late_delivery_risk=7
month=7
week_sin=7
quantity_lag_30=7
day_of_week_sin=6
day_of_week_cos=4
month_cos=3
month_sin=2
quarter=1

parameters:
[boosting: gbdt]
[objective: regression]
[metric: rmse]
[tree_learner: serial]
[device_type: cpu]
[data_sample_strategy: bagging]
[data: ]
[valid: ]
[num_iterations: 500]
[learning_rate: 0.05]
[num_leaves: 31]
[num_threads: 0]
[seed: 42]
[deterministic: 0]
[force_col_wise: 0]
[force_row_wise: 0]
[histogram_pool_size: -1]
[max_depth: -1]
[min_data_in_leaf: 20]
[min_sum_hessian_in_leaf: 0.001]
[bagging_fraction: 0.8]
[pos_bagging_fraction: 1]
[neg_bagging_fraction: 1]
[bagging_freq: 5]
[bagging_seed: 400]
[bagging_by_query: 0]
[feature_fraction: 0.9]
[feature_fraction_bynode: 1]
[feature_fraction_seed: 30056]
[extra_trees: 0]
[extra_seed: 12879]
[early_stopping_round: 0]
[early_stopping_min_delta: 0]
[first_metric_only: 0]
[max_delta_step: 0]
[lambda_l1: 0]
[lambda_l2: 0]
[linear_lambda: 0]
[min_gain_to_split: 0]
[drop_rate: 0.1]
[max_drop: 50]
[skip_drop: 0.5]
[xgboost_dart_mode: 0]
[uniform_drop: 0]
[drop_seed: 17869]
[top_rate: 0.2]
[other_rate: 0.1]
[min_data_per_group: 100]
[max_cat_threshold: 32]
[cat_l2: 10]
[cat_smooth: 10]
[max_cat_to_onehot: 4]
[top_k: 20]
[monotone_constraints: ]
[monotone_constraints_method: basic]
[monotone_penalty: 0]
[feature_contri: ]
[forcedsplits_filename: ]
[refit_decay_rate: 0.9]
[cegb_tradeoff: 1]
[cegb_penalty_split: 0]
[cegb_penalty_feature_lazy: ]
[cegb_penalty_feature_coupled: ]
[path_smooth: 0]
[interaction_constraints: ]
[verbosity: -1]
[saved_feature_importance_type: 0]
[use_quantized_grad: 0]
[num_grad_quant_bins: 4]
[quant_train_renew_leaf: 0]
[stochastic_rounding: 1]
[linear_tree: 0]
[max_bin: 255]
[max_bin_by_feature: ]
[min_data_in_bin: 3]
[bin_construct_sample_cnt: 200000]
[data_random_seed: 175]
[is_enable_sparse: 1]
[enable_bundle: 1]
[use_missing: 1]
[zero_as_missing: 0]
[feature_pre_filter: 1]
[pre_partition: 0]
[two_round: 0]
[header: 0]
[label_column: ]
[weight_column: ]
[group_column: ]
[ignore_column: ]
[categorical_feature: ]
[forcedbins_filename: ]
[precise_float_parser: 0]
[parser_config_file: ]
[objective_seed: 16083]
[num_class: 1]
[is_unbalance: 0]
[scale_pos_weight: 1]
[sigmoid: 1]
[boost_from_average: 1]
[reg_sqrt: 0]
[alpha: 0.9]
[fair_c: 1]
[poisson_max_delta_step: 0.7]
[tweedie_variance_power: 1.5]
[lambdarank_truncation_level: 30]
[lambdarank_norm: 1]
[label_gain: ]
[lambdarank_position_bias_regularization: 0]
[eval_at: ]
[multi_error_top_k: 1]
[auc_mu_weights: ]
[num_machines: 1]
[local_listen_port: 12400]
[time_out: 120]
[machine_list_filename: ]
[machines: ]
[gpu_platform_id: -1]
[gpu_device_id: -1]
[gpu_use_dp: 0]
[num_gpu: 1]

end of parameters

pandas_categorical:null
