tree
version=v4
num_class=1
num_tree_per_iteration=1
label_index=0
max_feature_idx=29
objective=regression
feature_names=material region unit_price lead_time_days late_delivery_risk shipping_mode day_of_week month is_weekend day_of_month quarter week_of_year month_sin month_cos week_sin week_cos day_of_week_sin day_of_week_cos quantity_lag_1 quantity_lag_3 quantity_lag_5 quantity_lag_7 quantity_lag_14 quantity_lag_30 price_lag_7 quantity_rolling_mean_7 quantity_rolling_mean_14 quantity_rolling_mean_30 quantity_used_diff unit_price_diff
feature_infos=none [0:22] none [0:6] [0:1] [0:3] [0:6] [1:12] [0:1] [1:31] [1:4] [1:53] [-1:1] [-1:1] [-1:1] [-1:0.99270886182785034] [-0.97492790222167969:0.97492790222167969] [-0.90096884965896606:1] [0:11] [0:11] [0:11] [0:11] [0:11] [0:11] none [2.2857143878936768:5.5714287757873535] [2.5714285373687744:4.4285712242126465] [2.9444444179534912:4.1666665077209473] [-8:8] none
tree_sizes=468 491 492 493 492 566 571 569 490 490 494 575 575 575 569 568 570 570 570 570 493 491 577 493 570 494 578 577 577 571 571 489 488 575 490 576 578 579 570 577 491 494 574 574 575 580 579 576 577 576 582 572 571 571 583 570 572 572 576 574 574 571 573 578 573 571 572 575 581 572 579 569 581 572 581 492 497 493 495 492 576 495 577 495 579 574 578 573 579 574 572 574 576 580 576 579 578 580 584 575 577 579 497 580 573 575 572 575 580 574 577

Tree=0
num_leaves=4
num_cat=0
split_feature=28 28 28
split_gain=206.214 31.6941 5.85381
threshold=1.5000000000000002 -1.0000000180025095e-35 -2.4999999999999996
decision_type=2 2 2
left_child=1 2 -1
right_child=-2 -3 -4
leaf_value=3.3297500020265578 3.5142763159776989 3.412083334326744 3.3651136375286361
leaf_weight=25 38 30 22
leaf_count=25 38 30 22
internal_value=3.41897 3.37193 3.3463
internal_weight=115 77 47
internal_count=115 77 47
is_linear=0
shrinkage=1


Tree=1
num_leaves=4
num_cat=0
split_feature=28 28 26
split_gain=186.108 28.6039 5.72752
threshold=1.5000000000000002 -1.0000000180025095e-35 3.4642857313156132
decision_type=2 2 2
left_child=1 2 -1
right_child=-2 -3 -4
leaf_value=-0.090448516091475126 0.084812500288611981 -0.01227083464463552 -0.055340531610307248
leaf_weight=26 38 30 21
leaf_count=26 38 30 21
internal_value=-0.00573098 -0.0504148 -0.074762
internal_weight=115 77 47
internal_count=115 77 47
is_linear=0
shrinkage=0.05


Tree=2
num_leaves=4
num_cat=0
split_feature=28 28 28
split_gain=167.962 25.815 5.32228
threshold=1.5000000000000002 -1.0000000180025095e-35 -2.4999999999999996
decision_type=2 2 2
left_child=1 2 -1
right_child=-2 -3 -4
leaf_value=-0.086807664990425124 0.080571876348633525 -0.011657290806372962 -0.053087737478993161
leaf_weight=25 38 30 22
leaf_count=25 38 30 22
internal_value=-0.00544443 -0.047894 -0.0710239
internal_weight=115 77 47
internal_count=115 77 47
is_linear=0
shrinkage=0.05


Tree=3
num_leaves=4
num_cat=0
split_feature=28 28 26
split_gain=151.586 23.2981 5.20648
threshold=1.5000000000000002 -1.0000000180025095e-35 3.4642857313156132
decision_type=2 2 2
left_child=1 2 -1
right_child=-2 -3 -4
leaf_value=-0.082428701479847613 0.076543280952855175 -0.011074427763621013 -0.048955690576916649
leaf_weight=26 38 30 21
leaf_count=26 38 30 21
internal_value=-0.00517221 -0.0454993 -0.0674727
internal_weight=115 77 47
internal_count=115 77 47
is_linear=0
shrinkage=0.05


Tree=4
num_leaves=4
num_cat=0
split_feature=28 28 28
split_gain=136.806 21.0265 4.83902
threshold=1.5000000000000002 -1.0000000180025095e-35 -2.4999999999999996
decision_type=2 2 2
left_child=1 2 -1
right_child=-2 -3 -4
leaf_value=-0.079149197995662696 0.072716115611164187 -0.010520705729722976 -0.046996591714295474
leaf_weight=25 38 30 22
leaf_count=25 38 30 22
internal_value=-0.0049136 -0.0432244 -0.064099
internal_weight=115 77 47
internal_count=115 77 47
is_linear=0
shrinkage=0.05


Tree=5
num_leaves=5
num_cat=0
split_feature=28 25 18 28
split_gain=132.416 39.6254 20.8288 21.3916
threshold=1.5000000000000002 3.3571429252624516 2.5000000000000004 -1.4999999999999998
decision_type=2 2 2 2
left_child=2 -2 -1 -4
right_child=1 -3 3 -5
leaf_value=-0.078255376145243652 0.022839709052017758 0.11688733020176489 -0.045842776568058657 0.013769391593005923
leaf_weight=20 21 24 34 27
leaf_count=20 21 24 34 27
internal_value=0.00422969 0.0729984 -0.0339752 -0.0194571
internal_weight=126 45 81 61
internal_count=126 45 81 61
is_linear=0
shrinkage=0.05


Tree=6
num_leaves=5
num_cat=0
split_feature=25 26 20 17
split_gain=71.666 25.5526 5.44354 2.11596
threshold=3.3571429252624516 3.8214286565780644 3.5000000000000004 1.0000000180025095e-35
decision_type=2 2 2 2
left_child=2 -2 3 -1
right_child=1 -3 -4 -5
leaf_value=-0.0082943547686392619 0.018965124764612745 0.087732100493105314 -0.047770704066863769 -0.030765322986990213
leaf_weight=22 35 22 27 20
leaf_count=22 35 22 27 20
internal_value=0.00401821 0.0455068 -0.0302549 -0.0189948
internal_weight=126 57 69 42
internal_count=126 57 69 42
is_linear=0
shrinkage=0.05


Tree=7
num_leaves=5
num_cat=0
split_feature=28 16 18 28
split_gain=117.633 22.9293 17.9428 19.6235
threshold=1.5000000000000002 1.0000000180025095e-35 2.5000000000000004 -1.4999999999999998
decision_type=2 2 2 2
left_child=2 -2 -1 -4
right_child=1 -3 3 -5
leaf_value=-0.073290015906095504 0.036710777133703236 0.10853753631934525 -0.043988837910685967 0.013106679474865948
leaf_weight=20 25 20 34 27
leaf_count=20 25 20 34 27
internal_value=0.0038173 0.0686338 -0.0321919 -0.0187171
internal_weight=126 45 81 61
internal_count=126 45 81 61
is_linear=0
shrinkage=0.05


Tree=8
num_leaves=4
num_cat=0
split_feature=28 28 25
split_gain=107.064 20.6818 12.7707
threshold=2.5000000000000004 1.0000000180025095e-35 3.3571429252624516
decision_type=2 2 2
left_child=1 2 -1
right_child=-2 -3 -4
leaf_value=-0.054558350236561054 0.091881969764276789 0.013403706276609051 -0.010745575972672167
leaf_weight=39 27 31 29
leaf_count=39 27 31 29
internal_value=0.00362643 -0.0204433 -0.0358735
internal_weight=126 99 68
internal_count=126 99 68
is_linear=0
shrinkage=0.05


Tree=9
num_leaves=4
num_cat=0
split_feature=28 28 25
split_gain=96.6252 18.6653 11.5256
threshold=2.5000000000000004 1.0000000180025095e-35 3.3571429252624516
decision_type=2 2 2
left_child=1 2 -1
right_child=-2 -3 -4
leaf_value=-0.051830433920407905 0.087287868783567799 0.012733520843809652 -0.010208297222210415
leaf_weight=39 27 31 29
leaf_count=39 27 31 29
internal_value=0.00344511 -0.0194211 -0.0340798
internal_weight=126 99 68
internal_count=126 99 68
is_linear=0
shrinkage=0.05


Tree=10
num_leaves=4
num_cat=0
split_feature=28 25 21
split_gain=82.7804 40.3412 4.71696
threshold=-1.0000000180025095e-35 3.3571429252624516 4.5000000000000009
decision_type=2 2 2
left_child=2 -2 -1
right_child=1 -3 -4
leaf_value=-0.034360886771842285 -0.0011899202357272846 0.073155438444680643 -0.064499456994235524
leaf_weight=37 37 36 20
leaf_count=37 37 36 20
internal_value=0.000217129 0.0354735 -0.0449358
internal_weight=130 73 57
internal_count=130 73 57
is_linear=0
shrinkage=0.05


Tree=11
num_leaves=5
num_cat=0
split_feature=28 28 18 26
split_gain=76.3685 29.1986 29.8017 4.38926
threshold=2.5000000000000004 -1.0000000180025095e-35 2.5000000000000004 3.4642857313156132
decision_type=2 2 2 2
left_child=1 3 -3 -1
right_child=-2 2 -4 -5
leaf_value=-0.056322561493464589 0.078744309075176711 -0.036376675101928414 0.043536289249147687 -0.028568592213767782
leaf_weight=29 25 20 28 28
leaf_count=29 25 20 28 28
internal_value=0.000206273 -0.0184933 0.0102392 -0.042689
internal_weight=130 105 48 57
internal_count=130 105 48 57
is_linear=0
shrinkage=0.05


Tree=12
num_leaves=5
num_cat=0
split_feature=28 28 18 11
split_gain=68.9226 26.3517 26.896 4.32939
threshold=2.5000000000000004 -1.0000000180025095e-35 2.5000000000000004 34.500000000000007
decision_type=2 2 2 2
left_child=1 3 -3 -1
right_child=-2 2 -4 -5
leaf_value=-0.028803050246400137 0.074807096898555761 -0.034557841308414938 0.041359474190643862 -0.056712936123949481
leaf_weight=33 25 20 28 24
leaf_count=33 25 20 28 24
internal_value=0.00019596 -0.0175686 0.00972726 -0.0405546
internal_weight=130 105 48 57
internal_count=130 105 48 57
is_linear=0
shrinkage=0.05


Tree=13
num_leaves=5
num_cat=0
split_feature=28 28 18 21
split_gain=62.2026 23.7824 24.2737 4.30785
threshold=2.5000000000000004 -1.0000000180025095e-35 2.5000000000000004 4.5000000000000009
decision_type=2 2 2 2
left_child=1 3 -3 -1
right_child=-2 2 -4 -5
leaf_value=-0.028420906488758488 0.071066741973161693 -0.03282994965091348 0.039291500885571755 -0.057222850047983234
leaf_weight=37 25 20 28 20
leaf_count=37 25 20 28 20
internal_value=0.000186162 -0.0166902 0.0092409 -0.0385269
internal_weight=130 105 48 57
internal_count=130 105 48 57
is_linear=0
shrinkage=0.05


Tree=14
num_leaves=5
num_cat=0
split_feature=26 25 3 25
split_gain=30.6469 9.20244 4.49405 3.34261
threshold=3.8928571939468388 3.3571429252624516 3.7500000000000004 2.7857142686843877
decision_type=2 2 2 2
left_child=1 3 -3 -1
right_child=-2 2 -4 -5
leaf_value=-0.0386046641971916 0.049929517798125746 0.022649725774923961 -0.0096874652091752406 -0.014769869954570344
leaf_weight=24 25 21 22 38
leaf_count=24 25 21 22 38
internal_value=0.000176853 -0.011669 0.00610512 -0.0239962
internal_weight=130 105 43 62
internal_count=130 105 43 62
is_linear=0
shrinkage=0.05


Tree=15
num_leaves=5
num_cat=0
split_feature=28 26 18 28
split_gain=61.8576 23.7583 12.7569 21.7657
threshold=1.5000000000000002 3.6071428060531621 2.5000000000000004 -2.4999999999999996
decision_type=2 2 2 2
left_child=2 -2 -1 -4
right_child=1 -3 3 -5
leaf_value=-0.059337953052350456 0.01287254924801263 0.088169310465455064 -0.050572287455201148 0.009498693074687925
leaf_weight=21 22 20 25 38
leaf_count=21 22 20 25 38
internal_value=-0.000816441 0.0487281 -0.0255887 -0.014339
internal_weight=126 42 84 63
internal_count=126 42 84 63
is_linear=0
shrinkage=0.05


Tree=16
num_leaves=5
num_cat=0
split_feature=28 25 18 28
split_gain=55.8265 22.2145 11.5131 19.7614
threshold=1.5000000000000002 3.3571429252624516 2.5000000000000004 -1.4999999999999998
decision_type=2 2 2 2
left_child=2 -2 -1 -4
right_child=1 -3 3 -5
leaf_value=-0.056371054909236377 0.0099284254014492049 0.082655061213743122 -0.036335704036939302 0.020902709931135178
leaf_weight=21 21 21 38 25
leaf_count=21 21 21 38 25
internal_value=-0.000775619 0.0462917 -0.0243093 -0.013622
internal_weight=126 42 84 63
internal_count=126 42 84 63
is_linear=0
shrinkage=0.05


Tree=17
num_leaves=5
num_cat=0
split_feature=28 26 1 25
split_gain=50.3834 20.4141 8.00373 2.59903
threshold=1.5000000000000002 3.6071428060531621 7.5000000000000009 3.3571429252624516
decision_type=2 2 2 2
left_child=2 -2 -1 -4
right_child=1 -3 3 -5
leaf_value=-0.0029132501552662543 0.010740773447535256 0.080537173449993144 -0.045359911962545352 -0.023179752573370935
leaf_weight=31 22 20 28 25
leaf_count=31 22 20 28 25
internal_value=-0.000736838 0.0439772 -0.0230938 -0.0348976
internal_weight=126 42 84 53
internal_count=126 42 84 53
is_linear=0
shrinkage=0.05


Tree=18
num_leaves=5
num_cat=0
split_feature=28 25 18 28
split_gain=45.471 19.0957 10.0507 18.2881
threshold=1.5000000000000002 3.3571429252624516 2.5000000000000004 -2.4999999999999996
decision_type=2 2 2 2
left_child=2 -2 -1 -4
right_child=1 -3 3 -5
leaf_value=-0.051895444031937847 0.0080640556911627456 0.075492541421027418 -0.04516653469204903 0.0098968343172026324
leaf_weight=21 21 21 25 38
leaf_count=21 21 21 25 38
internal_value=-0.000699996 0.0417783 -0.0219391 -0.0119537
internal_weight=126 42 84 63
internal_count=126 42 84 63
is_linear=0
shrinkage=0.05


Tree=19
num_leaves=5
num_cat=0
split_feature=28 26 18 28
split_gain=41.0376 17.5403 9.07072 16.505
threshold=1.5000000000000002 3.6071428060531621 2.5000000000000004 -2.4999999999999996
decision_type=2 2 2 2
left_child=2 -2 -1 -4
right_child=1 -3 3 -5
leaf_value=-0.049300671759105866 0.0088810529729182082 0.073578543723560874 -0.042908207118511205 0.0094019925123766859
leaf_weight=21 22 20 25 38
leaf_count=21 22 20 25 38
internal_value=-0.000664996 0.0396894 -0.0208422 -0.011356
internal_weight=126 42 84 63
internal_count=126 42 84 63
is_linear=0
shrinkage=0.05


Tree=20
num_leaves=4
num_cat=0
split_feature=28 18 28
split_gain=33.1767 9.42096 22.8645
threshold=2.5000000000000004 2.5000000000000004 -1.4999999999999998
decision_type=2 2 2
left_child=1 -1 -3
right_child=-2 2 -4
leaf_value=-0.036555736710627874 0.052336181981566678 -0.030336609543175311 0.026462318233269101
leaf_weight=30 24 37 34
leaf_count=30 24 37 34
internal_value=-0.000506716 -0.0130634 -0.00313712
internal_weight=125 101 71
internal_count=125 101 71
is_linear=0
shrinkage=0.05


Tree=21
num_leaves=4
num_cat=0
split_feature=28 18 28
split_gain=29.942 8.50241 20.6353
threshold=2.5000000000000004 2.5000000000000004 -1.4999999999999998
decision_type=2 2 2
left_child=1 -1 -3
right_child=-2 2 -4
leaf_value=-0.034727949450413388 0.049719372671097523 -0.028819779306650164 0.025139202396659288
leaf_weight=30 24 37 34
leaf_count=30 24 37 34
internal_value=-0.00048138 -0.0124103 -0.00298027
internal_weight=125 101 71
internal_count=125 101 71
is_linear=0
shrinkage=0.05


Tree=22
num_leaves=5
num_cat=0
split_feature=28 18 28 20
split_gain=27.0226 7.67343 18.9375 3.9874
threshold=2.5000000000000004 2.5000000000000004 -1.0000000180025095e-35 3.5000000000000004
decision_type=2 2 2 2
left_child=1 -1 3 -3
right_child=-2 2 -4 -5
leaf_value=-0.032991552328070009 0.047233404375826168 -0.006492478510534222 0.032196374028921129 -0.035962242664148408
leaf_weight=30 24 22 25 24
leaf_count=30 24 22 25 24
internal_value=-0.000457311 -0.0117898 -0.00283125 -0.021868
internal_weight=125 101 71 46
internal_count=125 101 71 46
is_linear=0
shrinkage=0.05


Tree=23
num_leaves=4
num_cat=0
split_feature=28 18 28
split_gain=24.3879 6.92527 17.1087
threshold=2.5000000000000004 2.5000000000000004 -1.4999999999999998
decision_type=2 2 2
left_child=1 -1 -3
right_child=-2 2 -4
leaf_value=-0.031341975033283231 0.044871732771086199 -0.026217862279028503 0.022914495845051373
leaf_weight=30 24 37 34
leaf_count=30 24 37 34
internal_value=-0.000434446 -0.0112003 -0.00268969
internal_weight=125 101 71
internal_count=125 101 71
is_linear=0
shrinkage=0.05


Tree=24
num_leaves=5
num_cat=0
split_feature=28 25 18 28
split_gain=22.4169 9.912 7.32722 11.3115
threshold=1.5000000000000002 3.3571429252624516 2.5000000000000004 -1.4999999999999998
decision_type=2 2 2 2
left_child=2 -2 -1 -4
right_child=1 -3 3 -5
leaf_value=-0.041622158773243434 0.0047033271566033364 0.053886648356204936 -0.024906969291938322 0.017656463922725785
leaf_weight=20 20 21 37 27
leaf_count=20 20 21 37 27
internal_value=-0.000412723 0.0298948 -0.0152057 -0.00695052
internal_weight=125 41 84 64
internal_count=125 41 84 64
is_linear=0
shrinkage=0.05


Tree=25
num_leaves=4
num_cat=0
split_feature=28 18 18
split_gain=19.3835 17.2256 6.29397
threshold=1.0000000180025095e-35 1.5000000000000002 4.5000000000000009
decision_type=2 2 2
left_child=2 -2 -1
right_child=1 -3 -4
leaf_value=-0.032129660711966844 -0.015709029459394515 0.042459696451468132 -0.0014934873953461648
leaf_weight=38 20 35 30
leaf_count=38 20 35 30
internal_value=-0.000762788 0.0213074 -0.0186137
internal_weight=123 55 68
internal_count=123 55 68
is_linear=0
shrinkage=0.05


Tree=26
num_leaves=5
num_cat=0
split_feature=25 28 28 18
split_gain=18.7667 20.9127 4.17514 7.54982
threshold=3.6428570747375493 1.0000000180025095e-35 -1.4999999999999998 1.5000000000000002
decision_type=2 2 2 2
left_child=2 -2 -1 -4
right_child=1 -3 3 -5
leaf_value=-0.033802159435369752 -0.0060221623318890728 0.063205718360841281 -0.032909720093011859 0.0052196672010059297
leaf_weight=22 24 20 20 37
leaf_count=22 24 20 20 37
internal_value=-0.000724648 0.0254451 -0.0153002 -0.00815907
internal_weight=123 44 79 57
internal_count=123 44 79 57
is_linear=0
shrinkage=0.05


Tree=27
num_leaves=5
num_cat=0
split_feature=25 28 28 18
split_gain=16.937 18.8737 3.76807 6.81371
threshold=3.6428570747375493 1.0000000180025095e-35 -1.4999999999999998 1.5000000000000002
decision_type=2 2 2 2
left_child=2 -2 -1 -4
right_child=1 -3 3 -5
leaf_value=-0.032112051682038741 -0.0057210540243734925 0.060045432243496177 -0.031264234855771067 0.0049586839407581738
leaf_weight=22 24 20 20 37
leaf_count=22 24 20 20 37
internal_value=-0.000688416 0.0241728 -0.0145352 -0.00775111
internal_weight=123 44 79 57
internal_count=123 44 79 57
is_linear=0
shrinkage=0.05


Tree=28
num_leaves=5
num_cat=0
split_feature=25 28 28 18
split_gain=15.2856 17.0335 3.40068 6.14937
threshold=3.6428570747375493 1.0000000180025095e-35 -1.4999999999999998 1.5000000000000002
decision_type=2 2 2 2
left_child=2 -2 -1 -4
right_child=1 -3 3 -5
leaf_value=-0.030506449362093752 -0.0054350011361142007 0.057043160116299986 -0.029701022654771803 0.004710749628626415
leaf_weight=22 24 20 20 37
leaf_count=22 24 20 20 37
internal_value=-0.000653995 0.0229642 -0.0138084 -0.00736356
internal_weight=123 44 79 57
internal_count=123 44 79 57
is_linear=0
shrinkage=0.05


Tree=29
num_leaves=5
num_cat=0
split_feature=28 9 18 28
split_gain=14.1356 7.70729 5.98351 10.2832
threshold=1.5000000000000002 16.500000000000004 3.5000000000000004 -2.4999999999999996
decision_type=2 2 2 2
left_child=2 -2 -1 -4
right_child=1 -3 3 -5
leaf_value=-0.030388957920173806 0.044505937184606284 0.0011360615584999323 -0.029362991629611881 0.015952461459223303
leaf_weight=30 21 20 21 31
leaf_count=30 21 20 21 31
internal_value=-0.000621295 0.0233499 -0.0126069 -0.00234801
internal_weight=123 41 82 52
internal_count=123 41 82 52
is_linear=0
shrinkage=0.05


Tree=30
num_leaves=5
num_cat=0
split_feature=28 20 18 1
split_gain=14.7175 4.05478 2.52262 1.34004
threshold=1.5000000000000002 1.5000000000000002 3.5000000000000004 11.500000000000002
decision_type=2 2 2 2
left_child=1 -1 -3 -4
right_child=-2 2 3 -5
leaf_value=0.0013795743385950725 0.019741181974621633 -0.038126787897254828 -0.025878078225068747 -0.0075747676566243179
leaf_weight=21 39 21 20 20
leaf_count=21 39 21 20 20
internal_value=-0.00554415 -0.0175701 -0.0240938 -0.0167264
internal_weight=121 82 61 40
internal_count=121 82 61 40
is_linear=0
shrinkage=0.05


Tree=31
num_leaves=4
num_cat=0
split_feature=25 20 27
split_gain=12.2934 2.544 0.905856
threshold=3.6428570747375493 2.5000000000000004 3.3729884624481206
decision_type=2 2 2
left_child=1 -1 -3
right_child=-2 2 -4
leaf_value=-0.0065247272508905125 0.018286795178918461 -0.017156534807999498 -0.031348110955547202
leaf_weight=38 38 23 22
leaf_count=38 38 23 22
internal_value=-0.00526694 -0.0160506 -0.0240946
internal_weight=121 83 45
internal_count=121 83 45
is_linear=0
shrinkage=0.05


Tree=32
num_leaves=4
num_cat=0
split_feature=28 18 11
split_gain=12.972 3.60486 2.11986
threshold=1.5000000000000002 4.5000000000000009 23.500000000000004
decision_type=2 2 2
left_child=1 2 -1
right_child=-2 -3 -4
leaf_value=-0.013330034469254315 0.018735047714345945 -0.0044434705438713236 -0.034982168280447909
leaf_weight=20 39 36 26
leaf_count=20 39 36 26
internal_value=-0.0050036 -0.0162939 -0.0255682
internal_weight=121 82 46
internal_count=121 82 46
is_linear=0
shrinkage=0.05


Tree=33
num_leaves=5
num_cat=0
split_feature=28 20 25 13
split_gain=11.7073 3.5406 3.52273 2.15417
threshold=1.5000000000000002 1.5000000000000002 3.0714285373687749 1.0000000180025095e-35
decision_type=2 2 2 2
left_child=1 -1 -3 -4
right_child=-2 2 3 -5
leaf_value=0.0022282404381604422 0.017798295633819624 -0.038158315721721875 -0.024472385533154013 -0.0012658805865794422
leaf_weight=21 39 21 20 20
leaf_count=21 39 21 20 20
internal_value=-0.00475342 -0.0154792 -0.0215752 -0.0128691
internal_weight=121 82 61 40
internal_count=121 82 61 40
is_linear=0
shrinkage=0.05


Tree=34
num_leaves=4
num_cat=0
split_feature=25 20 25
split_gain=10.4568 2.02271 0.770927
threshold=3.6428570747375493 2.5000000000000004 3.0714285373687749
decision_type=2 2 2
left_child=1 -1 -3
right_child=-2 2 -4
leaf_value=-0.0059673125904641661 0.017207480775878619 -0.028950907383114101 -0.015780538797378542
leaf_weight=38 38 20 25
leaf_count=38 38 20 25
internal_value=-0.00451575 -0.0144613 -0.021634
internal_weight=121 83 45
internal_count=121 83 45
is_linear=0
shrinkage=0.05


Tree=35
num_leaves=5
num_cat=0
split_feature=28 9 20 28
split_gain=20.5306 10.3561 3.40818 2.22404
threshold=1.0000000180025095e-35 12.500000000000002 2.5000000000000004 -2.4999999999999996
decision_type=2 2 2 2
left_child=2 -2 -1 -4
right_child=1 -3 3 -5
leaf_value=-0.00097548978030681608 0.052398705079685894 0.0072961731148617611 -0.035069176684255188 -0.014403258847693605
leaf_weight=25 20 35 23 30
leaf_count=25 20 35 23 30
internal_value=0.000302737 0.0236971 -0.0161933 -0.0233715
internal_weight=133 55 78 53
internal_count=133 55 78 53
is_linear=0
shrinkage=0.05


Tree=36
num_leaves=5
num_cat=0
split_feature=28 28 18 18
split_gain=18.8508 4.7774 7.37451 3.30482
threshold=2.5000000000000004 -1.0000000180025095e-35 2.5000000000000004 4.5000000000000009
decision_type=2 2 2 2
left_child=1 3 -3 -1
right_child=-2 2 -4 -5
leaf_value=-0.032779970330496629 0.037585100428097783 -0.018492490372487479 0.022079604538157584 -0.0089566417743225362
leaf_weight=24 27 21 24 37
leaf_count=24 27 21 24 37
internal_value=0.000287601 -0.00921271 0.00314596 -0.0183298
internal_weight=133 106 45 61
internal_count=133 106 45 61
is_linear=0
shrinkage=0.05


Tree=37
num_leaves=5
num_cat=0
split_feature=28 28 18 28
split_gain=17.0128 4.49381 12.3722 5.5382
threshold=2.5000000000000004 -2.4999999999999996 3.5000000000000004 1.0000000180025095e-35
decision_type=2 2 2 2
left_child=1 -1 3 -3
right_child=-2 2 -4 -5
leaf_value=-0.025137979189554849 0.035705846165203385 -0.038052622548171454 0.021371847926639022 -0.0025380064935787866
leaf_weight=30 27 21 32 23
leaf_count=30 27 21 32 23
internal_value=0.000273221 -0.00875207 -0.00228395 -0.0194882
internal_weight=133 106 76 44
internal_count=133 106 76 44
is_linear=0
shrinkage=0.05


Tree=38
num_leaves=5
num_cat=0
split_feature=28 18 18 28
split_gain=15.5 28.6192 5.60213 8.15411
threshold=1.0000000180025095e-35 2.5000000000000004 3.5000000000000004 -2.4999999999999996
decision_type=2 2 2 2
left_child=2 -2 -1 -4
right_child=1 -3 3 -5
leaf_value=-0.036149991410119195 -0.006677872227238757 0.06829960471950472 -0.023881080535550912 0.013993967310697944
leaf_weight=21 35 20 30 27
leaf_count=21 35 20 30 27
internal_value=0.00025956 0.0205867 -0.0140737 -0.00594027
internal_weight=133 55 78 57
internal_count=133 55 78 57
is_linear=0
shrinkage=0.05


Tree=39
num_leaves=5
num_cat=0
split_feature=28 28 18 18
split_gain=15.0388 3.6504 5.35164 2.97707
threshold=2.5000000000000004 -1.0000000180025095e-35 2.5000000000000004 4.5000000000000009
decision_type=2 2 2 2
left_child=1 3 -3 -1
right_child=-2 2 -4 -5
leaf_value=-0.029923379328101875 0.033560210218032203 -0.015869228967598507 0.01869320704912146 -0.0073122261847193178
leaf_weight=24 27 21 24 37
leaf_count=24 27 21 24 37
internal_value=0.000246582 -0.00823897 0.00256407 -0.0162084
internal_weight=133 106 45 61
internal_count=133 106 45 61
is_linear=0
shrinkage=0.05


Tree=40
num_leaves=4
num_cat=0
split_feature=28 11 1
split_gain=8.50102 3.20367 1.2539
threshold=2.5000000000000004 20.500000000000004 14.500000000000002
decision_type=2 2 2
left_child=1 -1 -3
right_child=-2 2 -4
leaf_value=0.0052420370476810559 0.024911901781888447 -0.020777815222290569 -0.0066252953701597802
leaf_weight=38 28 29 34
leaf_count=38 28 29 34
internal_value=0.000534217 -0.00622395 -0.0131399
internal_weight=129 101 63
internal_count=129 101 63
is_linear=0
shrinkage=0.05


Tree=41
num_leaves=4
num_cat=0
split_feature=25 20 28
split_gain=8.81421 6.29465 3.33508
threshold=3.3571429252624516 3.5000000000000004 1.0000000180025095e-35
decision_type=2 2 2
left_child=2 -2 -1
right_child=1 -3 -4
leaf_value=-0.022946898013885535 0.032035241234633659 0.00028382849854391976 -0.00022811500666042171
leaf_weight=35 27 37 30
leaf_count=35 27 37 30
internal_value=0.000507506 0.013679 -0.0124613
internal_weight=129 64 65
internal_count=129 64 65
is_linear=0
shrinkage=0.05


Tree=42
num_leaves=5
num_cat=0
split_feature=28 18 21 9
split_gain=7.28827 13.8209 1.92047 1.82443
threshold=-1.0000000180025095e-35 2.5000000000000004 4.5000000000000009 14.500000000000002
decision_type=2 2 2 2
left_child=2 3 -1 -2
right_child=1 -3 -4 -5
leaf_value=-0.0063399735703459359 0.0021269850277652342 0.036096456010014787 -0.02597536206012592 -0.01805316766369201
leaf_weight=33 24 31 20 21
leaf_count=33 24 31 20 21
internal_value=0.000482131 0.0104069 -0.0137496 -0.00729042
internal_weight=129 76 53 45
internal_count=129 76 53 45
is_linear=0
shrinkage=0.05


Tree=43
num_leaves=5
num_cat=0
split_feature=25 26 28 9
split_gain=7.71497 5.86097 2.91611 1.71351
threshold=3.3571429252624516 3.8214286565780644 1.0000000180025095e-35 14.500000000000002
decision_type=2 2 2 2
left_child=2 3 -1 -2
right_child=1 -3 -4 -5
leaf_value=-0.021480051501920183 0.011409126250073315 0.032314714277163148 -0.0002361681622763475 -0.0092881847359240054
leaf_weight=35 20 24 30 20
leaf_count=35 20 24 30 20
internal_value=0.000458024 0.0127808 -0.0116752 0.00106047
internal_weight=129 64 65 40
internal_count=129 64 65 40
is_linear=0
shrinkage=0.05


Tree=44
num_leaves=5
num_cat=0
split_feature=28 12 25 11
split_gain=7.01872 3.22567 2.66723 1.61599
threshold=2.5000000000000004 -0.25000000000000006 3.5000000000000004 39.500000000000007
decision_type=2 2 2 2
left_child=1 3 -3 -1
right_child=-2 2 -4 -5
leaf_value=-0.025497572115134627 0.02258573748487314 -0.0082090066262969271 0.014228226430714131 -0.0070041271512983026
leaf_weight=21 28 27 26 27
leaf_count=21 28 27 26 27
internal_value=0.000435123 -0.00570564 0.00279794 -0.015095
internal_weight=129 101 53 48
internal_count=129 101 53 48
is_linear=0
shrinkage=0.05


Tree=45
num_leaves=5
num_cat=0
split_feature=28 28 18 28
split_gain=10.0187 3.98513 8.70099 2.28821
threshold=2.5000000000000004 -2.4999999999999996 3.5000000000000004 1.0000000180025095e-35
decision_type=2 2 2 2
left_child=1 -1 3 -3
right_child=-2 2 -4 -5
leaf_value=-0.024231909602307356 0.026924157239220758 -0.026685386557470672 0.019933056323949636 -0.0043609602260403337
leaf_weight=26 27 22 29 24
leaf_count=26 27 22 29 24
internal_value=-0.00013094 -0.00736349 -0.00151577 -0.0150379
internal_weight=128 101 75 46
internal_count=128 101 75 46
is_linear=0
shrinkage=0.05


Tree=46
num_leaves=5
num_cat=0
split_feature=28 28 18 28
split_gain=9.04186 3.59658 7.85264 2.06511
threshold=2.5000000000000004 -2.4999999999999996 3.5000000000000004 1.0000000180025095e-35
decision_type=2 2 2 2
left_child=1 -1 3 -3
right_child=-2 2 -4 -5
leaf_value=-0.023020314067029035 0.025577948959889237 -0.025351117551326754 0.018936403834357345 -0.004142912086293412
leaf_weight=26 27 22 29 24
leaf_count=26 27 22 29 24
internal_value=-0.000124393 -0.00699532 -0.00143998 -0.014286
internal_weight=128 101 75 46
internal_count=128 101 75 46
is_linear=0
shrinkage=0.05


Tree=47
num_leaves=5
num_cat=0
split_feature=20 28 18 9
split_gain=8.63615 6.18337 5.28367 4.89049
threshold=1.5000000000000002 -2.4999999999999996 3.5000000000000004 11.500000000000002
decision_type=2 2 2 2
left_child=-1 -2 3 -3
right_child=1 2 -4 -5
leaf_value=0.026917434847988871 -0.030595087082613083 0.010397865022109314 0.019555000934997225 -0.019370833509979216
leaf_weight=24 21 22 24 37
leaf_count=24 21 22 24 37
internal_value=-0.000118173 -0.00635716 -0.000224672 -0.00827064
internal_weight=128 104 83 59
internal_count=128 104 83 59
is_linear=0
shrinkage=0.05


Tree=48
num_leaves=5
num_cat=0
split_feature=28 1 26 25
split_gain=8.24311 3.09201 1.67959 0.627503
threshold=2.5000000000000004 7.5000000000000009 3.6071428060531621 3.0714285373687749
decision_type=2 2 2 2
left_child=1 -1 3 -3
right_child=-2 2 -4 -5
leaf_value=0.0043577599315307086 0.024428572229765081 -0.013758072327999844 -0.025110139963882311 -0.0013830756666720846
leaf_weight=39 27 21 21 20
leaf_count=39 27 21 21 20
internal_value=-0.000112265 -0.00667269 -0.0136112 -0.00772149
internal_weight=128 101 62 41
internal_count=128 101 62 41
is_linear=0
shrinkage=0.05


Tree=49
num_leaves=5
num_cat=0
split_feature=20 28 18 9
split_gain=7.76781 5.37496 4.90529 4.31602
threshold=1.5000000000000002 -2.4999999999999996 3.5000000000000004 11.500000000000002
decision_type=2 2 2 2
left_child=-1 -2 3 -3
right_child=1 2 -4 -5
leaf_value=0.025533788756001742 -0.028621684511502585 0.0094791756138544198 0.018752171355299652 -0.01848651126618623
leaf_weight=24 21 22 24 37
leaf_count=24 21 22 24 37
internal_value=-0.000106651 -0.00602368 -0.000306108 -0.00805863
internal_weight=128 104 83 59
internal_count=128 104 83 59
is_linear=0
shrinkage=0.05


Tree=50
num_leaves=5
num_cat=0
split_feature=26 28 3 17
split_gain=10.1731 1.7328 1.73695 0.585858
threshold=3.8214286565780644 -1.0000000180025095e-35 3.1499999761581425 1.0000000180025095e-35
decision_type=2 2 2 2
left_child=1 3 -3 -1
right_child=-2 2 -4 -5
leaf_value=-0.020340900301285412 0.025503718035836377 -0.012563641369342805 0.0059425486164400359 -0.0086399353761225945
leaf_weight=23 31 21 32 20
leaf_count=23 31 21 32 20
internal_value=0.000600795 -0.00744077 -0.00139009 -0.0148986
internal_weight=127 96 53 43
internal_count=127 96 53 43
is_linear=0
shrinkage=0.05


Tree=51
num_leaves=5
num_cat=0
split_feature=26 18 7 5
split_gain=9.18125 2.26171 1.64819 0.859703
threshold=3.8214286565780644 3.5000000000000004 5.5000000000000009 2.5000000000000004
decision_type=2 2 2 2
left_child=1 3 -3 -1
right_child=-2 2 -4 -5
leaf_value=-0.0074470936506986626 0.024228531879282769 0.011401854650605293 -0.0079724450798138325 -0.020314591476279828
leaf_weight=25 31 21 23 27
leaf_count=25 31 21 23 27
internal_value=0.000570755 -0.00706874 0.00127438 -0.0141283
internal_weight=127 96 44 52
internal_count=127 96 44 52
is_linear=0
shrinkage=0.05


Tree=52
num_leaves=5
num_cat=0
split_feature=26 18 7 5
split_gain=8.28608 2.04119 1.48749 0.775882
threshold=3.8214286565780644 3.5000000000000004 5.5000000000000009 2.5000000000000004
decision_type=2 2 2 2
left_child=1 3 -3 -1
right_child=-2 2 -4 -5
leaf_value=-0.0070747392028570185 0.023017105327979213 0.010831761981050174 -0.0075738228938501814 -0.019298861893238844
leaf_weight=25 31 21 23 27
leaf_count=25 31 21 23 27
internal_value=0.000542217 -0.0067153 0.00121066 -0.0134219
internal_weight=127 96 44 52
internal_count=127 96 44 52
is_linear=0
shrinkage=0.05


Tree=53
num_leaves=5
num_cat=0
split_feature=26 18 11 5
split_gain=7.47819 1.84218 1.34246 0.700234
threshold=3.8214286565780644 3.5000000000000004 20.500000000000004 2.5000000000000004
decision_type=2 2 2 2
left_child=1 3 -3 -1
right_child=-2 2 -4 -5
leaf_value=-0.0067210020422935491 0.021866250747153839 0.01029017400883493 -0.007195131598121446 -0.018333918970354177
leaf_weight=25 31 21 23 27
leaf_count=25 31 21 23 27
internal_value=0.000515107 -0.00637953 0.00115013 -0.0127508
internal_weight=127 96 44 52
internal_count=127 96 44 52
is_linear=0
shrinkage=0.05


Tree=54
num_leaves=5
num_cat=0
split_feature=20 25 28 16
split_gain=7.10401 2.66949 0.82167 0.659152
threshold=1.5000000000000002 4.0714285373687753 -1.4999999999999998 -1.0000000180025095e-35
decision_type=2 2 2 2
left_child=-1 2 -2 -4
right_child=1 -3 3 -5
leaf_value=0.023247565204898516 -0.016562914771252667 0.010189489567918437 0.00023625000233195074 -0.011282413742608494
leaf_weight=27 29 21 23 27
leaf_count=27 29 21 23 27
internal_value=0.000489351 -0.00565537 -0.00986729 -0.00598383
internal_weight=127 100 79 50
internal_count=127 100 79 50
is_linear=0
shrinkage=0.05


Tree=55
num_leaves=5
num_cat=0
split_feature=20 28 18 11
split_gain=6.93525 2.75716 5.97232 0.0192941
threshold=1.5000000000000002 -2.4999999999999996 2.5000000000000004 20.500000000000004
decision_type=2 2 2 2
left_child=-1 -2 -3 -4
right_child=1 2 3 -5
leaf_value=0.020375890349564347 -0.026686732172966007 -0.019827383257096445 0.00657196001149714 0.0087682108115404844
leaf_weight=23 20 39 20 20
leaf_count=23 20 39 20 20
internal_value=-0.004357 -0.010103 -0.00590461 0.00767009
internal_weight=122 99 79 40
internal_count=122 99 79 40
is_linear=0
shrinkage=0.05


Tree=56
num_leaves=5
num_cat=0
split_feature=20 28 18 6
split_gain=6.25906 2.48833 5.39002 0.250188
threshold=1.5000000000000002 -2.4999999999999996 2.5000000000000004 2.5000000000000004
decision_type=2 2 2 2
left_child=-1 -2 -3 -4
right_child=1 2 3 -5
leaf_value=0.019357096225671149 -0.025352395698428155 -0.018836014431256515 0.01124091036617756 0.0033322521089576189
leaf_weight=23 20 39 20 20
leaf_count=23 20 39 20 20
internal_value=-0.00413915 -0.00959787 -0.00560938 0.00728658
internal_weight=122 99 79 40
internal_count=122 99 79 40
is_linear=0
shrinkage=0.05


Tree=57
num_leaves=5
num_cat=0
split_feature=20 28 18 6
split_gain=5.6488 2.24572 4.86449 0.225794
threshold=1.5000000000000002 -2.4999999999999996 2.5000000000000004 2.5000000000000004
decision_type=2 2 2 2
left_child=-1 -2 -3 -4
right_child=1 2 3 -5
leaf_value=0.018389240887304564 -0.024084776081144812 -0.017894213576726496 0.010678864791989326 0.0031656394118908791
leaf_weight=23 20 39 20 20
leaf_count=23 20 39 20 20
internal_value=-0.00393219 -0.00911798 -0.00532891 0.00692225
internal_weight=122 99 79 40
internal_count=122 99 79 40
is_linear=0
shrinkage=0.05


Tree=58
num_leaves=5
num_cat=0
split_feature=18 28 3 26
split_gain=5.15961 12.9503 4.74365 1.15905
threshold=2.5000000000000004 -1.0000000180025095e-35 3.7500000000000004 3.4642857313156132
decision_type=2 2 2 2
left_child=3 2 -2 -1
right_child=1 -3 -4 -5
leaf_value=-0.0093556944997264784 0.0055389457098815754 0.032966118420545872 -0.025925000445917251 -0.024949209908531472
leaf_weight=26 23 26 25 22
leaf_count=26 23 26 25 22
internal_value=-0.00373558 0.00454581 -0.0108485 -0.0165027
internal_weight=122 74 48 48
internal_count=122 74 48 48
is_linear=0
shrinkage=0.05


Tree=59
num_leaves=5
num_cat=0
split_feature=20 15 22 18
split_gain=4.88646 2.10649 2.40994 1.14178
threshold=1.5000000000000002 -0.70581671595573414 3.5000000000000004 3.5000000000000004
decision_type=2 2 2 2
left_child=-1 -2 3 -3
right_child=1 2 -4 -5
leaf_value=0.017211851765118216 -0.022867394473869356 -0.01974319600655387 0.0053445120040765577 -0.0037788194027684983
leaf_weight=23 20 24 34 21
leaf_count=23 20 24 34 21
internal_value=-0.0035488 -0.00837198 -0.00470226 -0.0122932
internal_weight=122 99 79 45
internal_count=122 99 79 45
is_linear=0
shrinkage=0.05


Tree=60
num_leaves=5
num_cat=0
split_feature=20 27 22 15
split_gain=7.42937 2.33521 2.55326 0.980708
threshold=1.5000000000000002 3.4740741252899174 3.5000000000000004 0.29696027934551245
decision_type=2 2 2 2
left_child=-1 2 -2 -3
right_child=1 3 -4 -5
leaf_value=0.025439868561923509 -0.0097265035137892343 -0.021290942297359422 0.011851601932069352 -0.0059928178647533064
leaf_weight=25 26 22 29 20
leaf_count=25 26 22 29 20
internal_value=0.00113563 -0.00512835 0.00165104 -0.0140061
internal_weight=122 97 55 42
internal_count=122 97 55 42
is_linear=0
shrinkage=0.05


Tree=61
num_leaves=5
num_cat=0
split_feature=20 27 22 18
split_gain=6.70501 2.10753 2.30432 1.11178
threshold=1.5000000000000002 3.4740741252899174 3.5000000000000004 3.5000000000000004
decision_type=2 2 2 2
left_child=-1 2 -2 -3
right_child=1 3 -4 -5
leaf_value=0.024167875522281976 -0.0092401781119406234 -0.021440761926628294 0.01125902186051525 -0.0051708678049700602
leaf_weight=25 26 21 29 21
leaf_count=25 26 21 29 21
internal_value=0.00107885 -0.00487193 0.00156849 -0.0133058
internal_weight=122 97 55 42
internal_count=122 97 55 42
is_linear=0
shrinkage=0.05


Tree=62
num_leaves=5
num_cat=0
split_feature=20 3 27 7
split_gain=6.05127 2.03115 1.69942 0.447871
threshold=1.5000000000000002 2.2500000000000004 3.5833332538604741 6.5000000000000009
decision_type=2 2 2 2
left_child=-1 -2 3 -3
right_child=1 2 -4 -5
leaf_value=0.022959482084959747 0.0056835155621229212 -0.0089076127137311494 -0.021007766625420615 0.0013008321901517256
leaf_weight=25 32 22 22 21
leaf_count=25 32 22 22 21
internal_value=0.00102491 -0.00462833 -0.00970494 -0.00392209
internal_weight=122 97 65 43
internal_count=122 97 65 43
is_linear=0
shrinkage=0.05


Tree=63
num_leaves=5
num_cat=0
split_feature=20 3 27 28
split_gain=5.46127 1.83311 1.53373 0.436857
threshold=1.5000000000000002 2.2500000000000004 3.5833332538604741 1.0000000180025095e-35
decision_type=2 2 2 2
left_child=-1 -2 3 -3
right_child=1 2 -4 -5
leaf_value=0.02181150736473501 0.0053993394860299311 -0.0088842950229133886 -0.019957378540526739 0.0011978498702360826
leaf_weight=25 32 21 22 22
leaf_count=25 32 21 22 22
internal_value=0.000973662 -0.00439692 -0.00921969 -0.00372599
internal_weight=122 97 65 43
internal_count=122 97 65 43
is_linear=0
shrinkage=0.05


Tree=64
num_leaves=5
num_cat=0
split_feature=20 3 27 7
split_gain=4.9288 1.65438 1.38419 0.403203
threshold=1.5000000000000002 2.2500000000000004 3.5833332538604741 6.5000000000000009
decision_type=2 2 2 2
left_child=-1 -2 3 -3
right_child=1 2 -4 -5
leaf_value=0.020720932407304646 0.0051293727039592348 -0.0082700708881020546 -0.018959509115666153 0.0014159491108286949
leaf_weight=25 32 22 22 21
leaf_count=25 32 22 22 21
internal_value=0.000924979 -0.00417707 -0.00875871 -0.00353969
internal_weight=122 97 65 43
internal_count=122 97 65 43
is_linear=0
shrinkage=0.05


Tree=65
num_leaves=5
num_cat=0
split_feature=25 15 18 21
split_gain=5.95723 2.21777 2.0832 1.14581
threshold=3.6428570747375493 -0.29696027934551233 1.5000000000000002 4.5000000000000009
decision_type=2 2 2 2
left_child=2 -2 -1 -4
right_child=1 -3 3 -5
leaf_value=-0.02323141480330378 0.026078678779304029 0.0028141067851157418 -0.010346931599391004 0.003586887557059527
leaf_weight=20 20 21 36 25
leaf_count=20 20 21 36 25
internal_value=-0.00136701 0.0141627 -0.00922772 -0.00463635
internal_weight=122 41 81 61
internal_count=122 41 81 61
is_linear=0
shrinkage=0.05


Tree=66
num_leaves=5
num_cat=0
split_feature=25 9 18 23
split_gain=5.3764 5.09122 1.88008 0.889332
threshold=3.6428570747375493 16.500000000000004 1.5000000000000002 1.5000000000000002
decision_type=2 2 2 2
left_child=2 -2 -1 -4
right_child=1 -3 3 -5
leaf_value=-0.022069843559729636 0.030649227808628766 -0.004599873339757323 -0.011900579754728824 0.00045776860410901341
leaf_weight=20 21 20 24 37
leaf_count=20 21 20 24 37
internal_value=-0.00129866 0.0134545 -0.00876634 -0.00440453
internal_weight=122 41 81 61
internal_count=122 41 81 61
is_linear=0
shrinkage=0.05


Tree=67
num_leaves=5
num_cat=0
split_feature=25 4 21 25
split_gain=4.8522 2.07938 0.749924 1.09731
threshold=3.6428570747375493 1.0000000180025095e-35 4.5000000000000009 3.0714285373687749
decision_type=2 2 2 2
left_child=2 -2 3 -1
right_child=1 -3 -4 -5
leaf_value=-0.018154072764640053 0.0012435851991176607 0.02377060912549496 -0.0020552350565170249 -0.0032519265765412935
leaf_weight=30 20 21 30 21
leaf_count=30 20 21 30 21
internal_value=-0.00123373 0.0127818 -0.00832802 -0.0120179
internal_weight=122 41 81 51
internal_count=122 41 81 51
is_linear=0
shrinkage=0.05


Tree=68
num_leaves=5
num_cat=0
split_feature=25 16 28 26
split_gain=4.39929 7.43833 0.82976 1.4519
threshold=3.5000000000000004 1.0000000180025095e-35 1.0000000180025095e-35 3.2321428060531621
decision_type=2 2 2 2
left_child=2 -2 3 -1
right_child=1 -3 -4 -5
leaf_value=-0.023318737940862776 -0.0079056692695303361 0.031129411284042442 -0.0030820230544177877 -0.0042668480658903723
leaf_weight=20 26 23 33 20
leaf_count=20 26 23 33 20
internal_value=-0.00117204 0.0104169 -0.00895094 -0.0137928
internal_weight=122 49 73 40
internal_count=122 49 73 40
is_linear=0
shrinkage=0.05


Tree=69
num_leaves=5
num_cat=0
split_feature=25 9 18 28
split_gain=4.01359 4.35933 1.74862 1.7298
threshold=3.6428570747375493 16.500000000000004 1.5000000000000002 -1.4999999999999998
decision_type=2 2 2 2
left_child=2 -2 -1 -4
right_child=1 -3 3 -5
leaf_value=-0.020395582499913873 0.027544377016879264 -0.0050728424033150074 -0.013462862193584444 0.0036574496680663693
leaf_weight=20 21 20 25 36
leaf_count=20 21 20 25 36
internal_value=-0.00111344 0.0116335 -0.00756562 -0.00335907
internal_weight=122 41 81 61
internal_count=122 41 81 61
is_linear=0
shrinkage=0.05


Tree=70
num_leaves=5
num_cat=0
split_feature=28 18 28 11
split_gain=4.32619 3.53173 1.77623 0.0390717
threshold=2.5000000000000004 4.5000000000000009 1.0000000180025095e-35 32.500000000000007
decision_type=2 2 2 2
left_child=1 2 -1 -3
right_child=-2 3 -4 -5
leaf_value=-0.017952324414406629 0.02088179213072484 0.0071884075272828337 -0.00059154376817437322 0.010313773825764656
leaf_weight=34 24 20 26 20
leaf_count=34 24 20 26 20
internal_value=0.00181812 -0.00275716 -0.0104293 0.00875109
internal_weight=124 100 60 40
internal_count=124 100 60 40
is_linear=0
shrinkage=0.05


Tree=71
num_leaves=5
num_cat=0
split_feature=5 20 27 6
split_gain=3.83849 2.4738 4.6543 1.47866
threshold=1.5000000000000002 2.5000000000000004 3.5833332538604741 3.5000000000000004
decision_type=2 2 2 2
left_child=-1 -2 3 -3
right_child=1 2 -4 -5
leaf_value=0.021209888927461135 0.0083261146417094607 -0.0071383814496750186 -0.02556454664251457 0.011410516389601288
leaf_weight=21 36 22 24 21
leaf_count=21 36 22 24 21
internal_value=0.00172722 -0.00224498 -0.00792497 0.00192038
internal_weight=124 103 67 43
internal_count=124 103 67 43
is_linear=0
shrinkage=0.05


Tree=72
num_leaves=5
num_cat=0
split_feature=28 18 28 11
split_gain=3.88327 3.22186 1.61063 0.0325821
threshold=2.5000000000000004 4.5000000000000009 1.0000000180025095e-35 32.500000000000007
decision_type=2 2 2 2
left_child=1 2 -1 -3
right_child=-2 3 -4 -5
leaf_value=-0.017185494511881293 0.019702300797992699 0.0068708913959562778 -0.00065378380364004103 0.0097249266132712377
leaf_weight=34 24 20 26 20
leaf_count=34 24 20 26 20
internal_value=0.00164086 -0.00269389 -0.0100218 0.00829791
internal_weight=124 100 60 40
internal_count=124 100 60 40
is_linear=0
shrinkage=0.05


Tree=73
num_leaves=5
num_cat=0
split_feature=3 16 4 27
split_gain=3.43898 5.38849 1.69033 1.20221
threshold=4.7500000000000009 0.6078576147556306 1.0000000180025095e-35 3.4366667270660405
decision_type=2 2 2 2
left_child=1 2 -1 -2
right_child=3 -3 -4 -5
leaf_value=-0.008619332748507574 -0.0016166053668019318 0.02581153263648351 0.009273097850382328 -0.018535227780895575
leaf_weight=33 21 27 22 21
leaf_count=33 21 27 22 21
internal_value=0.00155881 0.00751807 -0.00146236 -0.0100759
internal_weight=124 82 55 42
internal_count=124 82 55 42
is_linear=0
shrinkage=0.05


Tree=74
num_leaves=5
num_cat=0
split_feature=28 18 28 11
split_gain=3.45891 2.89852 1.45322 0.0292155
threshold=2.5000000000000004 4.5000000000000009 1.0000000180025095e-35 32.500000000000007
decision_type=2 2 2 2
left_child=1 2 -1 -3
right_child=-2 3 -4 -5
leaf_value=-0.016365284906864605 0.018526906861613193 0.0064642122667282823 -0.00066221111740630409 0.0091667788475751893
leaf_weight=34 24 20 26 20
leaf_count=34 24 20 26 20
internal_value=0.00148087 -0.00261017 -0.00956062 0.0078155
internal_weight=124 100 60 40
internal_count=124 100 60 40
is_linear=0
shrinkage=0.05


Tree=75
num_leaves=4
num_cat=0
split_feature=18 15 19
split_gain=3.90029 4.95163 1.26256
threshold=3.5000000000000004 -0.5163939595222472 3.5000000000000004
decision_type=2 2 2
left_child=2 -2 -1
right_child=1 -3 -4
leaf_value=-0.0034068508845354834 0.026124233558126122 -0.0037405929608004436 -0.017514422347223193
leaf_weight=35 23 35 29
leaf_count=35 23 35 29
internal_value=-0.0012887 0.00810236 -0.00979934
internal_weight=122 58 64
internal_count=122 58 64
is_linear=0
shrinkage=0.05


Tree=76
num_leaves=4
num_cat=0
split_feature=18 15 16
split_gain=3.52001 4.46884 1.24106
threshold=3.5000000000000004 -0.5163939595222472 1.0000000180025095e-35
decision_type=2 2 2
left_child=2 -2 -1
right_child=1 -3 -4
leaf_value=-0.0037347680960710238 0.024818022087540317 -0.0035535635054111483 -0.018005767181515694
leaf_weight=39 23 35 25
leaf_count=39 23 35 25
internal_value=-0.00122427 0.00769724 -0.00930938
internal_weight=122 58 64
internal_count=122 58 64
is_linear=0
shrinkage=0.05


Tree=77
num_leaves=4
num_cat=0
split_feature=18 28 19
split_gain=3.17681 4.43233 1.15734
threshold=3.5000000000000004 -2.4999999999999996 3.5000000000000004
decision_type=2 2 2
left_child=2 -2 -1
right_child=1 -3 -4
leaf_value=-0.0027235758730343412 -0.0074981713460551373 0.020211884920154851 -0.016230515994388482
leaf_weight=35 27 31 29
leaf_count=35 27 31 29
internal_value=-0.00116305 0.00731238 -0.00884391
internal_weight=122 58 64
internal_count=122 58 64
is_linear=0
shrinkage=0.05


Tree=78
num_leaves=4
num_cat=0
split_feature=18 15 16
split_gain=2.86707 4.01204 1.13718
threshold=3.5000000000000004 -0.5163939595222472 1.0000000180025095e-35
decision_type=2 2 2
left_child=2 -2 -1
right_child=1 -3 -4
leaf_value=-0.0030655192832152053 0.02316891918687717 -0.0037135209994656701 -0.016726175159215928
leaf_weight=39 23 35 25
leaf_count=39 23 35 25
internal_value=-0.0011049 0.00694676 -0.00840171
internal_weight=122 58 64
internal_count=122 58 64
is_linear=0
shrinkage=0.05


Tree=79
num_leaves=4
num_cat=0
split_feature=18 28 19
split_gain=2.58753 3.98019 1.06088
threshold=3.5000000000000004 -2.4999999999999996 3.5000000000000004
decision_type=2 2 2
left_child=2 -2 -1
right_child=1 -3 -4
leaf_value=-0.002121877523937396 -0.0074354096833202576 0.018823302386989517 -0.015053738906562072
leaf_weight=35 27 31 29
leaf_count=35 27 31 29
internal_value=-0.00104965 0.00659942 -0.00798163
internal_weight=122 58 64
internal_count=122 58 64
is_linear=0
shrinkage=0.05


Tree=80
num_leaves=5
num_cat=0
split_feature=26 5 25 21
split_gain=4.45494 1.00546 0.759182 0.679506
threshold=3.8214286565780644 1.5000000000000002 3.3571429252624516 3.5000000000000004
decision_type=2 2 2 2
left_child=1 -1 3 -3
right_child=-2 2 -4 -5
leaf_value=0.007187146311625839 0.019018069151788951 -0.0061759167987232404 -0.011187716790785392 0.0057221429795026781
leaf_weight=20 30 30 33 20
leaf_count=20 30 30 33 20
internal_value=0.00206207 -0.00287657 -0.00530156 -0.00141669
internal_weight=133 103 83 50
internal_count=133 103 83 50
is_linear=0
shrinkage=0.05


Tree=81
num_leaves=4
num_cat=0
split_feature=28 18 28
split_gain=10.506 1.57653 1.45956
threshold=2.5000000000000004 4.5000000000000009 1.0000000180025095e-35
decision_type=2 2 2
left_child=1 2 -1
right_child=-2 -3 -4
leaf_value=-0.016590237932128684 0.029172089908804211 0.0026722889584608568 -0.0016088294459442641
leaf_weight=37 28 39 29
leaf_count=37 28 39 29
internal_value=0.00195897 -0.00529786 -0.0100075
internal_weight=133 105 66
internal_count=133 105 66
is_linear=0
shrinkage=0.05


Tree=82
num_leaves=5
num_cat=0
split_feature=28 28 18 26
split_gain=9.48166 1.49159 3.15816 0.915595
threshold=2.5000000000000004 -2.4999999999999996 3.5000000000000004 3.3928571939468388
decision_type=2 2 2 2
left_child=1 -1 3 -3
right_child=-2 2 -4 -5
leaf_value=-0.015420848331772364 0.027713485461260592 -0.0035912892960298527 0.010501497372752057 -0.017628293710627727
leaf_weight=26 28 26 32 21
leaf_count=26 28 26 32 21
internal_value=0.00186102 -0.00503297 -0.00161417 -0.00986314
internal_weight=133 105 79 47
internal_count=133 105 79 47
is_linear=0
shrinkage=0.05


Tree=83
num_leaves=4
num_cat=0
split_feature=28 18 28
split_gain=8.5572 1.41818 1.37963
threshold=2.5000000000000004 4.5000000000000009 1.0000000180025095e-35
decision_type=2 2 2
left_child=1 2 -1
right_child=-2 -3 -4
leaf_value=-0.01564814803266042 0.026327811154936043 0.0027779761319741223 -0.0010827005166431955
leaf_weight=37 28 39 29
leaf_count=37 28 39 29
internal_value=0.00176797 -0.00478132 -0.00924818
internal_weight=133 105 66
internal_count=133 105 66
is_linear=0
shrinkage=0.05


Tree=84
num_leaves=5
num_cat=0
split_feature=28 28 9 14
split_gain=7.72287 1.42129 0.789529 0.936139
threshold=2.5000000000000004 -2.4999999999999996 8.5000000000000018 -0.61559370160102833
decision_type=2 2 2 2
left_child=1 -1 -3 -4
right_child=-2 2 3 -5
leaf_value=-0.014682400011672423 0.025011420609163389 -0.0081418098881840713 0.010882730283774436 -0.0029068790812743829
leaf_weight=26 28 27 20 32
leaf_count=26 28 27 20 32
internal_value=0.00167957 -0.00454226 -0.00120499 0.00239682
internal_weight=133 105 79 52
internal_count=133 105 79 52
is_linear=0
shrinkage=0.05


Tree=85
num_leaves=5
num_cat=0
split_feature=28 19 18 6
split_gain=8.21602 1.34943 1.44131 1.13965
threshold=2.5000000000000004 4.5000000000000009 4.5000000000000009 2.5000000000000004
decision_type=2 2 2 2
left_child=1 2 3 -1
right_child=-2 -3 -4 -5
leaf_value=-0.012971165389395679 0.028419884170095128 -0.014433699535826842 0.0093358836912860472 0.0013310228878011306
leaf_weight=26 24 24 24 30
leaf_count=26 24 24 24 30
internal_value=0.00205008 -0.00403526 -0.00091573 -0.00530928
internal_weight=128 104 80 56
internal_count=128 104 80 56
is_linear=0
shrinkage=0.05


Tree=86
num_leaves=5
num_cat=0
split_feature=28 28 18 28
split_gain=7.41496 1.28375 3.0334 0.559532
threshold=2.5000000000000004 -2.4999999999999996 3.5000000000000004 1.0000000180025095e-35
decision_type=2 2 2 2
left_child=1 -1 3 -3
right_child=-2 2 -4 -5
leaf_value=-0.013708495318889619 0.026998890998462838 -0.014608465295962311 0.011165460181655363 -0.003675197470933199
leaf_weight=25 24 22 32 25
leaf_count=25 24 22 32 25
internal_value=0.00194757 -0.0038335 -0.000708499 -0.0087929
internal_weight=128 104 79 47
internal_count=128 104 79 47
is_linear=0
shrinkage=0.05


Tree=87
num_leaves=5
num_cat=0
split_feature=28 19 22 11
split_gain=6.692 1.19879 0.900392 1.24669
threshold=2.5000000000000004 4.5000000000000009 3.5000000000000004 20.500000000000004
decision_type=2 2 2 2
left_child=1 2 3 -1
right_child=-2 -3 -4 -5
leaf_value=0.0035172482508988609 0.025648946159829697 -0.013442668427402774 0.0053131173151944365 -0.013164455024525524
leaf_weight=21 24 24 35 24
leaf_count=21 24 24 35 24
internal_value=0.0018502 -0.00364182 -0.00070157 -0.00537966
internal_weight=128 104 80 45
internal_count=128 104 80 45
is_linear=0
shrinkage=0.05


Tree=88
num_leaves=5
num_cat=0
split_feature=28 28 18 15
split_gain=6.03953 1.12943 2.73311 0.851031
threshold=2.5000000000000004 -2.4999999999999996 3.5000000000000004 0.29696027934551245
decision_type=2 2 2 2
left_child=1 -1 3 -3
right_child=-2 2 -4 -5
leaf_value=-0.012722208499908447 0.024366498179733756 -0.015688745766168549 0.010742348176427186 -0.0021557095782974594
leaf_weight=25 24 21 32 26
leaf_count=25 24 21 32 26
internal_value=0.00175769 -0.00345973 -0.000528569 -0.00820239
internal_weight=128 104 79 47
internal_count=128 104 79 47
is_linear=0
shrinkage=0.05


Tree=89
num_leaves=5
num_cat=0
split_feature=28 19 18 6
split_gain=5.45068 1.06856 1.30415 1.01237
threshold=2.5000000000000004 4.5000000000000009 4.5000000000000009 2.5000000000000004
decision_type=2 2 2 2
left_child=1 2 3 -1
right_child=-2 -3 -4 -5
leaf_value=-0.011911432484451395 0.023148173528412978 -0.012539948911095659 0.0092408416637529932 0.0015684759678939978
leaf_weight=26 24 24 24 30
leaf_count=26 24 24 24 30
internal_value=0.0016698 -0.00328675 -0.000510785 -0.00469005
internal_weight=128 104 80 56
internal_count=128 104 80 56
is_linear=0
shrinkage=0.05


Tree=90
num_leaves=5
num_cat=0
split_feature=28 18 22 5
split_gain=3.0186 5.98717 3.29528 2.05334
threshold=-2.4999999999999996 2.5000000000000004 3.5000000000000004 2.5000000000000004
decision_type=2 2 2 2
left_child=-1 3 -3 -2
right_child=1 2 -4 -5
leaf_value=-0.021399464999281227 -0.001881769672036171 0.00017065185539681338 0.025513464714521952 -0.021812232134730689
leaf_weight=21 24 29 23 28
leaf_count=21 24 29 23 28
internal_value=-0.00410828 -0.000616792 0.01138 -0.0126136
internal_weight=125 104 52 52
internal_count=125 104 52 52
is_linear=0
shrinkage=0.05


Tree=91
num_leaves=5
num_cat=0
split_feature=28 18 22 5
split_gain=2.72429 5.40342 2.97399 1.85314
threshold=-2.4999999999999996 2.5000000000000004 3.5000000000000004 2.5000000000000004
decision_type=2 2 2 2
left_child=-1 3 -3 -2
right_child=1 2 -4 -5
leaf_value=-0.020329491775261152 -0.0017876816292603809 0.00016211920642647252 0.02423779128433165 -0.020721620175754654
leaf_weight=21 24 29 23 28
leaf_count=21 24 29 23 28
internal_value=-0.00390287 -0.000585953 0.010811 -0.0119829
internal_weight=125 104 52 52
internal_count=125 104 52 52
is_linear=0
shrinkage=0.05


Tree=92
num_leaves=5
num_cat=0
split_feature=28 18 22 5
split_gain=2.45867 4.87659 2.68402 1.67246
threshold=-2.4999999999999996 2.5000000000000004 3.5000000000000004 2.5000000000000004
decision_type=2 2 2 2
left_child=-1 3 -3 -2
right_child=1 2 -4 -5
leaf_value=-0.019313017185777426 -0.0016982976968089741 0.00015401324771087746 0.023025901722924218 -0.019685539569971818
leaf_weight=21 24 29 23 28
leaf_count=21 24 29 23 28
internal_value=-0.00370772 -0.000556655 0.0102704 -0.0113837
internal_weight=125 104 52 52
internal_count=125 104 52 52
is_linear=0
shrinkage=0.05


Tree=93
num_leaves=5
num_cat=0
split_feature=28 18 22 17
split_gain=2.21895 4.40112 2.42233 1.65951
threshold=-2.4999999999999996 2.5000000000000004 3.5000000000000004 1.0000000180025095e-35
decision_type=2 2 2 2
left_child=-1 3 -3 -2
right_child=1 2 -4 -5
leaf_value=-0.018347366287239961 -0.0034628660418093205 0.00014631250102458329 0.02187460683407667 -0.021667031606747992
leaf_weight=21 31 29 23 21
leaf_count=21 31 29 23 21
internal_value=-0.00352234 -0.000528822 0.0097569 -0.0108145
internal_weight=125 104 52 52
internal_count=125 104 52 52
is_linear=0
shrinkage=0.05


Tree=94
num_leaves=5
num_cat=0
split_feature=28 18 22 5
split_gain=2.0026 3.97201 2.18615 1.50079
threshold=-2.4999999999999996 2.5000000000000004 3.5000000000000004 2.5000000000000004
decision_type=2 2 2 2
left_child=-1 3 -3 -2
right_child=1 2 -4 -5
leaf_value=-0.017429997701020467 -0.0010989111848175527 0.00013899677914792094 0.020780875726157558 -0.018138029888671425
leaf_weight=21 24 29 23 28
leaf_count=21 24 29 23 28
internal_value=-0.00334622 -0.000502381 0.00926906 -0.0102738
internal_weight=125 104 52 52
internal_count=125 104 52 52
is_linear=0
shrinkage=0.05


Tree=95
num_leaves=5
num_cat=0
split_feature=18 26 18 28
split_gain=6.80601 6.44577 1.21761 1.61225
threshold=1.5000000000000002 3.8928571939468388 4.5000000000000009 1.0000000180025095e-35
decision_type=2 2 2 2
left_child=-1 2 3 -2
right_child=1 -3 -4 -5
leaf_value=-0.024289728497917003 -0.012232618213727557 0.031820198092609643 0.0087932787697624273 0.0050940224602818492
leaf_weight=22 29 20 27 25
leaf_count=22 29 20 27 25
internal_value=0.000911001 0.00640027 0.000123743 -0.00421103
internal_weight=123 101 81 54
internal_count=123 101 81 54
is_linear=0
shrinkage=0.05


Tree=96
num_leaves=5
num_cat=0
split_feature=18 26 28 28
split_gain=6.19331 7.86623 2.26766 1.42104
threshold=2.5000000000000004 3.8214286565780644 2.5000000000000004 -1.0000000180025095e-35
decision_type=2 2 2 2
left_child=2 3 -1 -2
right_child=1 -3 -4 -5
leaf_value=-0.0038667266517877583 -0.0060548682516026828 0.036427281871438032 -0.026454848237335682 0.010074781605296514
leaf_weight=25 36 20 20 22
leaf_count=25 36 20 20 22
internal_value=0.000865451 0.00938738 -0.0139059 6.32748e-05
internal_weight=123 78 45 58
internal_count=123 78 45 58
is_linear=0
shrinkage=0.05


Tree=97
num_leaves=5
num_cat=0
split_feature=18 26 8 14
split_gain=5.73812 5.2128 1.09822 0.77042
threshold=1.5000000000000002 3.8928571939468388 1.0000000180025095e-35 -0.70581671595573414
decision_type=2 2 2 2
left_child=-1 2 3 -2
right_child=1 -3 -4 -5
leaf_value=-0.022317202854901554 0.0042009028916557634 0.028722234163433315 0.0094633790421421119 -0.0077895944742989304
leaf_weight=22 21 20 23 37
leaf_count=22 21 20 23 37
internal_value=0.000822178 0.00586244 0.000218045 -0.00344821
internal_weight=123 101 81 58
internal_count=123 101 81 58
is_linear=0
shrinkage=0.05


Tree=98
num_leaves=5
num_cat=0
split_feature=18 26 28 14
split_gain=5.17866 4.70455 1.07729 0.200856
threshold=1.5000000000000002 3.8928571939468388 -1.0000000180025095e-35 -0.29696027934551233
decision_type=2 2 2 2
left_child=-1 2 3 -2
right_child=1 -3 -4 -5
leaf_value=-0.021201342784545638 -0.0020525666038421066 0.027286123111844064 0.006191064554672593 -0.0089758226089179521
leaf_weight=22 22 20 39 20
leaf_count=22 22 20 39 20
internal_value=0.000781069 0.00556932 0.000207143 -0.00534936
internal_weight=123 101 81 42
internal_count=123 101 81 42
is_linear=0
shrinkage=0.05


Tree=99
num_leaves=5
num_cat=0
split_feature=18 6 28 28
split_gain=4.86534 4.75891 2.02793 0.927413
threshold=2.5000000000000004 1.5000000000000002 2.5000000000000004 -1.4999999999999998
decision_type=2 2 2 2
left_child=2 -2 -1 -3
right_child=1 3 -4 -5
leaf_value=-0.0028565601920709019 0.024798987000914558 -0.0074892886842672646 -0.024217389449477197 0.006140816679301983
leaf_weight=25 28 26 20 24
leaf_count=25 28 26 20 24
internal_value=0.000742016 0.00829525 -0.0123503 -0.000946838
internal_weight=123 78 45 50
internal_count=123 78 45 50
is_linear=0
shrinkage=0.05


Tree=100
num_leaves=5
num_cat=0
split_feature=15 19 15 27
split_gain=2.89229 1.79009 0.939351 0.6705
threshold=-0.5163939595222472 4.5000000000000009 1.0000000180025095e-35 3.3729884624481206
decision_type=2 2 2 2
left_child=-1 2 -2 -4
right_child=1 -3 3 -5
leaf_value=0.013539836405626766 -0.007792365830391646 -0.015431263018399477 -0.0012672454523651499 0.010805900817554769
leaf_weight=35 22 23 23 23
leaf_count=35 22 23 23 23
internal_value=0.00132486 -0.00337321 0.00070525 0.00476933
internal_weight=126 91 68 46
internal_count=126 91 68 46
is_linear=0
shrinkage=0.05


Tree=101
num_leaves=5
num_cat=0
split_feature=15 19 15 25
split_gain=2.6103 1.61556 0.847764 0.639714
threshold=-0.5163939595222472 4.5000000000000009 1.0000000180025095e-35 3.154761910438538
decision_type=2 2 2 2
left_child=-1 2 -2 -4
right_child=1 -3 3 -5
leaf_value=0.012862844159826636 -0.0074027474800294098 -0.014659699619464254 -0.0016276857117190958 0.010176196267517906
leaf_weight=35 22 23 22 24
leaf_count=35 22 23 22 24
internal_value=0.00125862 -0.00320455 0.000669988 0.00453086
internal_weight=126 91 68 46
internal_count=126 91 68 46
is_linear=0
shrinkage=0.05


Tree=102
num_leaves=4
num_cat=0
split_feature=28 18 28
split_gain=1.57577 1.56839 1.25717
threshold=2.5000000000000004 4.5000000000000009 1.0000000180025095e-35
decision_type=2 2 2
left_child=1 2 -1
right_child=-2 -3 -4
leaf_value=-0.011922218814786327 0.013352982462807137 0.0068865484281166178 0.0019011295127586043
leaf_weight=38 22 37 29
leaf_count=38 22 37 29
internal_value=0.00119569 -0.00137605 -0.00593898
internal_weight=126 104 67
internal_count=126 104 67
is_linear=0
shrinkage=0.05


Tree=103
num_leaves=5
num_cat=0
split_feature=15 19 15 27
split_gain=2.31149 1.49947 0.786294 0.584322
threshold=-0.5163939595222472 4.5000000000000009 1.0000000180025095e-35 3.3729884624481206
decision_type=2 2 2 2
left_child=-1 2 -2 -4
right_child=1 -3 3 -5
leaf_value=0.012055774331092835 -0.0071058671217708097 -0.014099974395788235 -0.0012483486338802008 0.010022258525714279
leaf_weight=35 22 23 23 23
leaf_count=35 22 23 23 23
internal_value=0.0011359 -0.00306405 0.000668689 0.00438695
internal_weight=126 91 68 46
internal_count=126 91 68 46
is_linear=0
shrinkage=0.05


Tree=104
num_leaves=5
num_cat=0
split_feature=15 19 9 11
split_gain=2.08612 1.35327 0.734645 0.901076
threshold=-0.5163939595222472 4.5000000000000009 19.500000000000004 15.500000000000002
decision_type=2 2 2 2
left_child=-1 2 3 -2
right_child=1 -3 -4 -5
leaf_value=0.011452985674675023 0.012359798457473517 -0.013394975758400623 -0.006180570852011443 -0.00215149589854738
leaf_weight=35 20 23 25 23
leaf_count=35 20 23 25 23
internal_value=0.00107911 -0.00291085 0.000635254 0.00459794
internal_weight=126 91 68 43
internal_count=126 91 68 43
is_linear=0
shrinkage=0.05


Tree=105
num_leaves=5
num_cat=0
split_feature=25 18 28 18
split_gain=3.39429 1.68856 2.89283 1.50121
threshold=3.928571462631226 1.5000000000000002 -2.4999999999999996 3.5000000000000004
decision_type=2 2 2 2
left_child=1 -1 -3 -4
right_child=-2 2 3 -5
leaf_value=-0.014980255998671055 0.015597690781578423 -0.014634300543643211 -0.00068038366734981539 0.015563049556687476
leaf_weight=23 32 23 33 25
leaf_count=23 32 23 33 25
internal_value=0.00135746 -0.00302415 0.000370798 0.0063211
internal_weight=136 104 81 58
internal_count=136 104 81 58
is_linear=0
shrinkage=0.05


Tree=106
num_leaves=5
num_cat=0
split_feature=25 18 25 11
split_gain=3.06335 1.52392 1.01131 0.80443
threshold=3.928571462631226 1.5000000000000002 2.928571462631226 18.500000000000004
decision_type=2 2 2 2
left_child=1 -1 -3 -4
right_child=-2 2 3 -5
leaf_value=-0.014231243130811694 0.014817806752398612 0.008713933888822795 0.0035391016242404781 -0.00857043264550157
leaf_weight=23 32 25 24 32
leaf_count=23 32 25 24 32
internal_value=0.00128959 -0.00287294 0.000352259 -0.00338063
internal_weight=136 104 81 56
internal_count=136 104 81 56
is_linear=0
shrinkage=0.05


Tree=107
num_leaves=5
num_cat=0
split_feature=25 28 18 26
split_gain=2.76467 1.46575 2.92742 1.31737
threshold=3.928571462631226 -2.4999999999999996 3.5000000000000004 3.3928571939468388
decision_type=2 2 2 2
left_child=1 -1 3 -3
right_child=-2 2 -4 -5
leaf_value=-0.013868712135793075 0.014076915697660298 0.00025151801596888724 0.014660109536722303 -0.015450924838131125
leaf_weight=23 32 34 25 22
leaf_count=23 32 34 25 22
internal_value=0.00122511 -0.00272929 0.000433753 -0.0059173
internal_weight=136 104 81 56
internal_count=136 104 81 56
is_linear=0
shrinkage=0.05


Tree=108
num_leaves=5
num_cat=0
split_feature=25 15 21 14
split_gain=2.49512 1.34767 1.62911 0.449469
threshold=3.928571462631226 -0.61559370160102833 3.5000000000000004 0.51639395952224743
decision_type=2 2 2 2
left_child=1 -1 3 -3
right_child=-2 2 -4 -5
leaf_value=-0.014257443845272064 0.01337307028588839 -0.010972193917647626 0.0076640923626911956 -0.00095581542700529099
leaf_weight=20 32 24 39 21
leaf_count=20 32 24 39 21
internal_value=0.00116385 -0.00259283 0.000184462 -0.00629788
internal_weight=136 104 84 45
internal_count=136 104 84 45
is_linear=0
shrinkage=0.05


Tree=109
num_leaves=5
num_cat=0
split_feature=25 28 18 26
split_gain=2.25184 1.30947 2.60811 1.14654
threshold=3.928571462631226 -2.4999999999999996 3.5000000000000004 3.3928571939468388
decision_type=2 2 2 2
left_child=1 -1 3 -3
right_child=-2 2 -4 -5
leaf_value=-0.012991988343065201 0.01270441686792765 0.00028674765353036276 0.013954560879617932 -0.01436223052442074
leaf_weight=23 32 34 25 22
leaf_count=23 32 34 25 22
internal_value=0.00110566 -0.00246319 0.000526474 -0.00546821
internal_weight=136 104 81 56
internal_count=136 104 81 56
is_linear=0
shrinkage=0.05


Tree=110
num_leaves=5
num_cat=0
split_feature=18 28 18 22
split_gain=2.36915 5.79372 1.55463 1.48916
threshold=2.5000000000000004 1.0000000180025095e-35 4.5000000000000009 2.5000000000000004
decision_type=2 2 2 2
left_child=3 2 -2 -1
right_child=1 -3 -4 -5
leaf_value=0.0030713533273055444 -0.010736547528843706 0.030224359689746051 0.0059881418774073783 -0.014542334340512754
leaf_weight=21 24 20 33 28
leaf_count=21 24 20 33 28
internal_value=0.00160105 0.00707037 -0.00105383 -0.00699361
internal_weight=126 77 57 49
internal_count=126 77 57 49
is_linear=0
shrinkage=0.05


end of trees

feature_importances:
quantity_used_diff=134
quantity_lag_1=80
quantity_rolling_mean_7=37
quantity_rolling_mean_14=24
quantity_lag_5=21
week_cos=15
week_of_year=12
day_of_month=10
quantity_lag_3=10
quantity_lag_14=10
quantity_rolling_mean_30=10
shipping_mode=9
lead_time_days=7
quantity_lag_7=7
day_of_week=6
day_of_week_sin=6
region=4
month=4
week_sin=4
day_of_week_cos=3
late_delivery_risk=2
is_weekend=1
month_sin=1
month_cos=1
quantity_lag_30=1

parameters:
[boosting: gbdt]
[objective: regression]
[metric: rmse]
[tree_learner: serial]
[device_type: cpu]
[data_sample_strategy: bagging]
[data: ]
[valid: ]
[num_iterations: 500]
[learning_rate: 0.05]
[num_leaves: 31]
[num_threads: 0]
[seed: 42]
[deterministic: 0]
[force_col_wise: 0]
[force_row_wise: 0]
[histogram_pool_size: -1]
[max_depth: -1]
[min_data_in_leaf: 20]
[min_sum_hessian_in_leaf: 0.001]
[bagging_fraction: 0.8]
[pos_bagging_fraction: 1]
[neg_bagging_fraction: 1]
[bagging_freq: 5]
[bagging_seed: 400]
[bagging_by_query: 0]
[feature_fraction: 0.9]
[feature_fraction_bynode: 1]
[feature_fraction_seed: 30056]
[extra_trees: 0]
[extra_seed: 12879]
[early_stopping_round: 0]
[early_stopping_min_delta: 0]
[first_metric_only: 0]
[max_delta_step: 0]
[lambda_l1: 0]
[lambda_l2: 0]
[linear_lambda: 0]
[min_gain_to_split: 0]
[drop_rate: 0.1]
[max_drop: 50]
[skip_drop: 0.5]
[xgboost_dart_mode: 0]
[uniform_drop: 0]
[drop_seed: 17869]
[top_rate: 0.2]
[other_rate: 0.1]
[min_data_per_group: 100]
[max_cat_threshold: 32]
[cat_l2: 10]
[cat_smooth: 10]
[max_cat_to_onehot: 4]
[top_k: 20]
[monotone_constraints: ]
[monotone_constraints_method: basic]
[monotone_penalty: 0]
[feature_contri: ]
[forcedsplits_filename: ]
[refit_decay_rate: 0.9]
[cegb_tradeoff: 1]
[cegb_penalty_split: 0]
[cegb_penalty_feature_lazy: ]
[cegb_penalty_feature_coupled: ]
[path_smooth: 0]
[interaction_constraints: ]
[verbosity: -1]
[saved_feature_importance_type: 0]
[use_quantized_grad: 0]
[num_grad_quant_bins: 4]
[quant_train_renew_leaf: 0]
[stochastic_rounding: 1]
[linear_tree: 0]
[max_bin: 255]
[max_bin_by_feature: ]
[min_data_in_bin: 3]
[bin_construct_sample_cnt: 200000]
[data_random_seed: 175]
[is_enable_sparse: 1]
[enable_bundle: 1]
[use_missing: 1]
[zero_as_missing: 0]
[feature_pre_filter: 1]
[pre_partition: 0]
[two_round: 0]
[header: 0]
[label_column: ]
[weight_column: ]
[group_column: ]
[ignore_column: ]
[categorical_feature: ]
[forcedbins_filename: ]
[precise_float_parser: 0]
[parser_config_file: ]
[objective_seed: 16083]
[num_class: 1]
[is_unbalance: 0]
[scale_pos_weight: 1]
[sigmoid: 1]
[boost_from_average: 1]
[reg_sqrt: 0]
[alpha: 0.9]
[fair_c: 1]
[poisson_max_delta_step: 0.7]
[tweedie_variance_power: 1.5]
[lambdarank_truncation_level: 30]
[lambdarank_norm: 1]
[label_gain: ]
[lambdarank_position_bias_regularization: 0]
[eval_at: ]
[multi_error_top_k: 1]
[auc_mu_weights: ]
[num_machines: 1]
[local_listen_port: 12400]
[time_out: 120]
[machine_list_filename: ]
[machines: ]
[gpu_platform_id: -1]
[gpu_device_id: -1]
[gpu_use_dp: 0]
[num_gpu: 1]

end of parameters

pandas_categorical:null
