tree
version=v4
num_class=1
num_tree_per_iteration=1
label_index=0
max_feature_idx=29
objective=regression
feature_names=material region unit_price lead_time_days late_delivery_risk shipping_mode day_of_week month is_weekend day_of_month quarter week_of_year month_sin month_cos week_sin week_cos day_of_week_sin day_of_week_cos quantity_lag_1 quantity_lag_3 quantity_lag_5 quantity_lag_7 quantity_lag_14 quantity_lag_30 price_lag_7 quantity_rolling_mean_7 quantity_rolling_mean_14 quantity_rolling_mean_30 quantity_used_diff unit_price_diff
feature_infos=none [0:22] none [0:6] [0:1] [0:3] [0:6] [1:12] [0:1] [1:31] [1:4] [1:53] [-1:1] [-1:1] [-1:1] [-1:1] [-0.97492790222167969:0.97492790222167969] [-0.90096884965896606:1] [0:10] [0:10] [0:10] [0:10] [0:10] [0:10] none [2.1428570747375488:6] [2.5714285373687744:6] [3.0333333015441895:6] [-9:7] none
tree_sizes=545 571 572 575 570 655 650 572 658 659 572 576 574 577 650 656 658 654 655 658 577 579 571 575 574 650 576 653 569 647 657 572 657 660 655 574 656 653 657 654 576 577 578 575 662 575 572 571 653 656 575 657 658 658 655 576 651 654 574 653 658 569 658 571 657 651 650 570 659 655 663 654 661 575 661 664 661 661 659 657 654 658 660 660 662 656 666 652 663 654 743 746 663 664 744

Tree=0
num_leaves=5
num_cat=0
split_feature=28 28 18 25
split_gain=190.049 51.571 32.6705 19.0684
threshold=2.5000000000000004 -1.0000000180025095e-35 2.5000000000000004 3.928571462631226
decision_type=2 2 2 2
left_child=1 3 -3 -1
right_child=-2 2 -4 -5
leaf_value=3.5489157114159653 3.7650329322709863 3.5912234038831348 3.6693484039600701 3.6071324946066974
leaf_weight=39 21 23 32 22
leaf_count=39 21 23 32 22
internal_value=3.62662 3.60157 3.63668 3.56991
internal_weight=137 116 55 61
internal_count=137 116 55 61
is_linear=0
shrinkage=1


Tree=1
num_leaves=5
num_cat=0
split_feature=28 28 18 25
split_gain=171.519 46.5428 29.4851 17.2092
threshold=2.5000000000000004 -1.0000000180025095e-35 2.5000000000000004 3.928571462631226
decision_type=2 2 2 2
left_child=1 3 -3 -1
right_child=-2 2 -4 -5
leaf_value=-0.06975347628960242 0.13555787993328913 -0.029561170287754224 0.044657580461353069 -0.014447534490715376
leaf_weight=39 21 23 32 22
leaf_count=39 21 23 32 22
internal_value=0.00407022 -0.0197336 0.0136206 -0.0498071
internal_weight=137 116 55 61
internal_count=137 116 55 61
is_linear=0
shrinkage=0.05


Tree=2
num_leaves=5
num_cat=0
split_feature=28 28 18 25
split_gain=154.796 42.0049 26.6103 15.5313
threshold=2.5000000000000004 -1.0000000180025095e-35 2.5000000000000004 3.928571462631226
decision_type=2 2 2 2
left_child=1 3 -3 -1
right_child=-2 2 -4 -5
leaf_value=-0.066265803460891434 0.12877998100150198 -0.028083111280980316 0.042424701899290089 -0.013725158098069104
leaf_weight=39 21 23 32 22
leaf_count=39 21 23 32 22
internal_value=0.00386671 -0.0187469 0.0129396 -0.0473167
internal_weight=137 116 55 61
internal_count=137 116 55 61
is_linear=0
shrinkage=0.05


Tree=3
num_leaves=5
num_cat=0
split_feature=28 25 28 25
split_gain=141.007 25.5673 15.6398 4.45509
threshold=1.5000000000000002 3.2142857313156132 -1.0000000180025095e-35 3.928571462631226
decision_type=2 2 2 2
left_child=1 -1 3 -3
right_child=-2 2 -4 -5
leaf_value=-0.063551510125398641 0.088638285552668908 -0.045644820854067805 0.020210148670055248 -0.013038899207657035
leaf_weight=32 36 20 27 22
leaf_count=32 36 20 27 22
internal_value=0.00367337 -0.0266112 -0.00947939 -0.0285655
internal_weight=137 101 69 42
internal_count=137 101 69 42
is_linear=0
shrinkage=0.05


Tree=4
num_leaves=5
num_cat=0
split_feature=28 28 18 18
split_gain=129.88 34.1319 23.5351 14.6568
threshold=2.5000000000000004 -1.0000000180025095e-35 2.5000000000000004 4.5000000000000009
decision_type=2 2 2 2
left_child=1 3 -3 -1
right_child=-2 2 -4 -5
leaf_value=-0.072388478815555574 0.11790906950121834 -0.027240703028181323 0.03906803536228836 -0.022553620984156929
leaf_weight=25 21 23 32 36
leaf_count=25 21 23 32 36
internal_value=0.0034897 -0.0172241 0.0113389 -0.0429777
internal_weight=137 116 55 61
internal_count=137 116 55 61
is_linear=0
shrinkage=0.05


Tree=5
num_leaves=6
num_cat=0
split_feature=28 25 28 14 3
split_gain=134.424 23.7979 11.754 1.74634 0.829668
threshold=1.5000000000000002 3.2142857313156132 -1.4999999999999998 0.61559370160102855 2.2500000000000004
decision_type=2 2 2 2 2
left_child=1 3 -3 -1 -4
right_child=-2 2 4 -5 -6
leaf_value=-0.048279429748654373 0.08326053217881256 -0.034529412935177486 0.013818458616733552 -0.069174018651247032 -0.00025239356539466165
leaf_weight=20 36 30 20 20 22
leaf_count=20 36 30 20 20 22
internal_value=-0.00078889 -0.0278048 -0.0106259 -0.0587267 0.00644801
internal_weight=148 112 72 40 42
internal_count=148 112 72 40 42
is_linear=0
shrinkage=0.05


Tree=6
num_leaves=6
num_cat=0
split_feature=25 20 22 1 27
split_gain=58.1023 20.7042 13.8466 10.4919 2.38535
threshold=3.2142857313156132 4.5000000000000009 2.5000000000000004 13.500000000000002 3.6380952596664433
decision_type=2 2 2 2 2
left_child=3 2 -2 -1 -4
right_child=1 -3 4 -5 -6
leaf_value=-0.067905325413896489 0.0062030778351155197 -0.0085270346975640249 0.067143531746807553 -0.020388259171020419 0.043015974387526516
leaf_weight=26 22 38 21 21 20
leaf_count=26 22 38 21 21 20
internal_value=-0.000749445 0.0206215 0.0382032 -0.0466743 0.055374
internal_weight=148 101 63 47 41
internal_count=148 101 63 47 41
is_linear=0
shrinkage=0.05


Tree=7
num_leaves=5
num_cat=0
split_feature=28 28 18 18
split_gain=118.611 16.5331 26.4907 3.26196
threshold=1.5000000000000002 -2.4999999999999996 3.5000000000000004 4.5000000000000009
decision_type=2 2 2 2
left_child=1 -1 -3 -4
right_child=-2 2 3 -5
leaf_value=-0.061027433723211288 0.078239497790733969 -0.045990337163974077 -0.002086171364554992 0.02440871106726783
leaf_weight=26 36 39 26 21
leaf_count=26 36 39 26 21
internal_value=-0.000711973 -0.0260892 -0.0155265 0.00975197
internal_weight=148 112 86 47
internal_count=148 112 86 47
is_linear=0
shrinkage=0.05


Tree=8
num_leaves=6
num_cat=0
split_feature=28 25 28 14 1
split_gain=107.047 17.7524 10.2794 1.3439 0.594576
threshold=1.5000000000000002 3.2142857313156132 -1.4999999999999998 0.61559370160102855 11.500000000000002
decision_type=2 2 2 2 2
left_child=1 3 -3 -1 -4
right_child=-2 2 4 -5 -6
leaf_value=-0.042327001281082632 0.074327522309290045 -0.032301287303368252 0.011691669662567704 -0.060656634718179704 -0.00021997928619384768
leaf_weight=20 36 30 22 20 20
leaf_count=20 36 30 22 20 20
internal_value=-0.000676374 -0.0247848 -0.00994752 -0.0514918 0.00601946
internal_weight=148 112 72 40 42
internal_count=148 112 72 40 42
is_linear=0
shrinkage=0.05


Tree=9
num_leaves=6
num_cat=0
split_feature=28 25 28 14 3
split_gain=96.6098 16.0215 9.27712 1.21287 0.633608
threshold=1.5000000000000002 3.2142857313156132 -1.4999999999999998 0.61559370160102855 2.2500000000000004
decision_type=2 2 2 2 2
left_child=1 3 -3 -1 -4
right_child=-2 2 4 -5 -6
leaf_value=-0.040210651159286501 0.070611146423551777 -0.030686224152644478 0.012159466557204724 -0.057623803652822971 -0.00013695636933500118
leaf_weight=20 36 30 20 20 22
leaf_count=20 36 30 20 20 22
internal_value=-0.000642556 -0.0235455 -0.00945014 -0.0489172 0.00571848
internal_weight=148 112 72 40 42
internal_count=148 112 72 40 42
is_linear=0
shrinkage=0.05


Tree=10
num_leaves=5
num_cat=0
split_feature=28 25 28 11
split_gain=80.7462 15.3705 7.45684 3.5849
threshold=1.5000000000000002 3.2142857313156132 -1.4999999999999998 20.500000000000004
decision_type=2 2 2 2
left_child=1 3 -3 -1
right_child=-2 2 -4 -5
leaf_value=-0.062379405647516255 0.060749929684859066 -0.027316540429989496 0.0058407586545516288 -0.0328009247957241
leaf_weight=20 39 30 39 21
leaf_count=20 39 30 39 21
internal_value=-0.00106622 -0.0229829 -0.00857546 -0.0472295
internal_weight=149 110 69 41
internal_count=149 110 69 41
is_linear=0
shrinkage=0.05


Tree=11
num_leaves=5
num_cat=0
split_feature=28 18 28 11
split_gain=72.8734 14.3346 26.1206 10.4533
threshold=1.5000000000000002 2.5000000000000004 -1.0000000180025095e-35 20.500000000000004
decision_type=2 2 2 2
left_child=1 -1 3 -3
right_child=-2 2 -4 -5
leaf_value=-0.056938196394754496 0.05771243360180122 -0.053325345394787962 0.030591539725661279 -0.011918116531201771
leaf_weight=23 39 27 25 35
leaf_count=23 39 27 25 35
internal_value=-0.00101291 -0.0218337 -0.0125532 -0.0299503
internal_weight=149 110 87 62
internal_count=149 110 87 62
is_linear=0
shrinkage=0.05


Tree=12
num_leaves=5
num_cat=0
split_feature=28 25 28 11
split_gain=65.7683 13.1237 6.00745 2.87494
threshold=1.5000000000000002 3.2142857313156132 -1.4999999999999998 20.500000000000004
decision_type=2 2 2 2
left_child=1 3 -3 -1
right_child=-2 2 -4 -5
leaf_value=-0.05671363811939955 0.054826812780438328 -0.024250615388154984 0.0055103344412950374 -0.030225467770582156
leaf_weight=20 39 30 39 21
leaf_count=20 39 30 39 21
internal_value=-0.000962264 -0.020742 -0.00742921 -0.0431465
internal_weight=149 110 69 41
internal_count=149 110 69 41
is_linear=0
shrinkage=0.05


Tree=13
num_leaves=5
num_cat=0
split_feature=28 18 28 11
split_gain=59.3559 12.5473 22.6176 9.09611
threshold=1.5000000000000002 2.5000000000000004 -1.0000000180025095e-35 20.500000000000004
decision_type=2 2 2 2
left_child=1 -1 3 -3
right_child=-2 2 -4 -5
leaf_value=-0.052547989542717527 0.05208547098788982 -0.049015724079476464 0.029125308863818644 -0.010389894316904248
leaf_weight=23 39 27 25 35
leaf_count=23 39 27 25 35
internal_value=-0.000914151 -0.0197049 -0.0110223 -0.0272108
internal_weight=149 110 87 62
internal_count=149 110 87 62
is_linear=0
shrinkage=0.05


Tree=14
num_leaves=6
num_cat=0
split_feature=25 23 14 5 3
split_gain=28.6441 12.3365 13.5821 5.48647 3.63885
threshold=3.2142857313156132 2.5000000000000004 0.40966403484344488 2.5000000000000004 2.2500000000000004
decision_type=2 2 2 2 2
left_child=4 2 -2 -3 -1
right_child=1 3 -4 -5 -6
leaf_value=-0.046591823569244961 0.065443776743486531 0.015592300455118047 0.0071726154908537875 -0.015163881074765635 -0.019625169937980587
leaf_weight=22 20 29 20 29 29
leaf_count=22 20 29 20 29 29
internal_value=-0.000868443 0.0149464 0.0363082 0.00021421 -0.0312578
internal_weight=149 98 40 58 51
internal_count=149 98 40 58 51
is_linear=0
shrinkage=0.05


Tree=15
num_leaves=6
num_cat=0
split_feature=28 28 18 25 28
split_gain=83.2339 19.8194 20.4526 11.9468 6.11815
threshold=2.5000000000000004 -1.4999999999999998 2.5000000000000004 3.6428570747375493 1.0000000180025095e-35
decision_type=2 2 2 2 2
left_child=1 3 -3 -1 -4
right_child=-2 2 4 -5 -6
leaf_value=-0.071120825987309219 0.087895740050336596 -0.034819051988112436 0.003673836992432674 -0.01879683043807745 0.03763297430816151
leaf_weight=20 23 30 36 24 21
leaf_count=20 23 30 36 24 21
internal_value=0.000169095 -0.0152333 -0.00140254 -0.0425805 0.0161851
internal_weight=154 131 87 44 57
internal_count=154 131 87 44 57
is_linear=0
shrinkage=0.05


Tree=16
num_leaves=6
num_cat=0
split_feature=28 28 18 25 28
split_gain=75.1186 17.887 18.4584 10.782 5.56762
threshold=2.5000000000000004 -1.4999999999999998 2.5000000000000004 3.6428570747375493 -1.0000000180025095e-35
decision_type=2 2 2 2 2
left_child=1 3 -3 -1 -4
right_child=-2 2 4 -5 -6
leaf_value=-0.067564784912392498 0.083500952636013218 -0.033078098865225912 -0.0029480981883049633 -0.017856989117960135 0.028702346404845064
leaf_weight=20 23 30 24 24 33
leaf_count=20 23 30 24 24 33
internal_value=0.00016064 -0.0144716 -0.00133241 -0.0404514 0.0153758
internal_weight=154 131 87 44 57
internal_count=154 131 87 44 57
is_linear=0
shrinkage=0.05


Tree=17
num_leaves=6
num_cat=0
split_feature=28 28 25 25 20
split_gain=67.7945 16.143 9.73071 4.64515 4.94975
threshold=2.5000000000000004 -1.4999999999999998 3.6428570747375493 3.2142857313156132 3.5000000000000004
decision_type=2 2 2 2 2
left_child=1 2 -1 -3 -5
right_child=-2 3 -4 4 -6
leaf_value=-0.064186546090058985 0.07932590567709312 -0.015690562645356884 -0.016964140596489111 0.027615360915660858 -0.0039076362157974276
leaf_weight=20 23 34 24 20 33
leaf_count=20 23 34 24 20 33
internal_value=0.000152608 -0.013748 -0.0384289 -0.00126579 0.00798783
internal_weight=154 131 44 87 53
internal_count=154 131 44 87 53
is_linear=0
shrinkage=0.05


Tree=18
num_leaves=6
num_cat=0
split_feature=28 28 18 25 28
split_gain=61.1846 14.569 16.4134 8.78197 5.08564
threshold=2.5000000000000004 -1.4999999999999998 2.5000000000000004 3.6428570747375493 1.0000000180025095e-35
decision_type=2 2 2 2 2
left_child=1 3 -3 -1 -4
right_child=-2 2 4 -5 -6
leaf_value=-0.06097721785306931 0.075359610306180047 -0.031138016059994701 0.0031462378224306228 -0.016115932756414018 0.034107533627234045
leaf_weight=20 23 30 36 24 21
leaf_count=20 23 30 36 24 21
internal_value=0.000144978 -0.0130606 -0.0012025 -0.0365074 0.014553
internal_weight=154 131 87 44 57
internal_count=154 131 87 44 57
is_linear=0
shrinkage=0.05


Tree=19
num_leaves=6
num_cat=0
split_feature=28 28 18 25 28
split_gain=55.2191 13.1486 14.8131 7.92573 4.58979
threshold=2.5000000000000004 -1.4999999999999998 2.5000000000000004 3.6428570747375493 1.0000000180025095e-35
decision_type=2 2 2 2 2
left_child=1 3 -3 -1 -4
right_child=-2 2 4 -5 -6
leaf_value=-0.057928357077762484 0.071591630740010223 -0.029581115782881778 0.0029889256751630456 -0.015310135918358961 0.03240215742428388
leaf_weight=20 23 30 36 24 21
leaf_count=20 23 30 36 24 21
internal_value=0.000137729 -0.0124076 -0.00114238 -0.0346821 0.0138254
internal_weight=154 131 87 44 57
internal_count=154 131 87 44 57
is_linear=0
shrinkage=0.05


Tree=20
num_leaves=5
num_cat=0
split_feature=28 28 18 25
split_gain=25.7593 7.2166 8.68121 1.38689
threshold=1.5000000000000002 -1.0000000180025095e-35 4.5000000000000009 3.5000000000000004
decision_type=2 2 2 2
left_child=1 2 -1 -3
right_child=-2 3 -4 -5
leaf_value=-0.04569633547216654 0.033410354989031575 -0.0068993249992755331 -0.0081006972338346882 0.011293067242950202
leaf_weight=28 39 22 34 20
leaf_count=28 39 22 34 20
internal_value=-0.00124364 -0.0142389 -0.0250794 0.00176372
internal_weight=143 104 62 42
internal_count=143 104 62 42
is_linear=0
shrinkage=0.05


Tree=21
num_leaves=5
num_cat=0
split_feature=28 28 18 11
split_gain=23.2478 6.51298 7.83479 1.27092
threshold=1.5000000000000002 -1.0000000180025095e-35 4.5000000000000009 21.500000000000004
decision_type=2 2 2 2
left_child=1 2 -1 -3
right_child=-2 3 -4 -5
leaf_value=-0.043411518726497893 0.031739837236893484 0.010797763038426639 -0.0076956623617340549 -0.0066174033097922804
leaf_weight=28 39 20 34 22
leaf_count=28 39 20 34 22
internal_value=-0.00118146 -0.0135269 -0.0238254 0.00167553
internal_weight=143 104 62 42
internal_count=143 104 62 42
is_linear=0
shrinkage=0.05


Tree=22
num_leaves=5
num_cat=0
split_feature=28 28 18 7
split_gain=20.9811 6.1052 13.1128 0.847641
threshold=1.5000000000000002 -2.4999999999999996 3.5000000000000004 6.5000000000000009
decision_type=2 2 2 2
left_child=1 -1 -3 -4
right_child=-2 2 3 -5
leaf_value=-0.034968433280785881 0.030152845325378271 -0.02697067219190873 0.020894506284967067 0.0065117121274982179
leaf_weight=24 39 39 20 21
leaf_count=24 39 39 20 21
internal_value=-0.00112239 -0.0128506 -0.00621525 0.0135277
internal_weight=143 104 80 41
internal_count=143 104 80 41
is_linear=0
shrinkage=0.05


Tree=23
num_leaves=5
num_cat=0
split_feature=25 28 18 25
split_gain=20.4835 9.96224 6.87485 5.90582
threshold=4.1547617912292489 1.0000000180025095e-35 4.5000000000000009 3.2142857313156132
decision_type=2 2 2 2
left_child=1 2 -1 -3
right_child=-2 3 -4 -5
leaf_value=-0.039511367497699602 0.032816393930903257 -0.012133165363532802 -0.0055687084865684699 0.02294360014687603
leaf_weight=35 34 24 26 24
leaf_count=35 34 24 26 24
internal_value=-0.00106627 -0.0116352 -0.025044 0.00540522
internal_weight=143 109 61 48
internal_count=143 109 61 48
is_linear=0
shrinkage=0.05


Tree=24
num_leaves=5
num_cat=0
split_feature=25 28 18 25
split_gain=18.4863 8.99092 6.20455 5.33
threshold=4.1547617912292489 1.0000000180025095e-35 4.5000000000000009 3.2142857313156132
decision_type=2 2 2 2
left_child=1 2 -1 -3
right_child=-2 3 -4 -5
leaf_value=-0.037535798922181132 0.031175573917982338 -0.011526507092639804 -0.0052902729107210276 0.021796419199866555
leaf_weight=35 34 24 26 24
leaf_count=35 34 24 26 24
internal_value=-0.00101296 -0.0110534 -0.0237918 0.00513496
internal_weight=143 109 61 48
internal_count=143 109 61 48
is_linear=0
shrinkage=0.05


Tree=25
num_leaves=6
num_cat=0
split_feature=18 28 28 18 11
split_gain=21.7401 54.743 14.7107 5.90996 3.05385
threshold=2.5000000000000004 1.5000000000000002 -2.4999999999999996 4.5000000000000009 18.500000000000004
decision_type=2 2 2 2 2
left_child=4 2 -2 -4 -1
right_child=1 -3 3 -5 -6
leaf_value=-0.015826312396675351 -0.037334014847874644 0.087931092642247688 -0.0032999033984892514 0.030436179095080923 -0.043457157406955965
leaf_weight=20 24 20 34 21 20
leaf_count=20 24 20 34 21 20
internal_value=0.0014669 0.014036 -0.00467156 0.00958115 -0.0296417
internal_weight=139 99 79 55 40
internal_count=139 99 79 55 40
is_linear=0
shrinkage=0.05


Tree=26
num_leaves=5
num_cat=0
split_feature=25 9 22 28
split_gain=21.0423 11.317 7.04088 3.95333
threshold=4.1547617912292489 20.500000000000004 3.5000000000000004 -1.0000000180025095e-35
decision_type=2 2 2 2
left_child=1 2 3 -1
right_child=-2 -3 -4 -5
leaf_value=-0.047270096061022393 0.036967014707624916 0.014581595087314353 -0.0012155498634895375 -0.017264348605558987
leaf_weight=23 32 34 29 21
leaf_count=23 32 34 29 21
internal_value=0.00139356 -0.00924524 -0.0203427 -0.0329492
internal_weight=139 107 73 44
internal_count=139 107 73 44
is_linear=0
shrinkage=0.05


Tree=27
num_leaves=6
num_cat=0
split_feature=18 28 28 18 11
split_gain=19.6062 48.1733 12.7545 5.05027 2.66306
threshold=2.5000000000000004 1.5000000000000002 -2.4999999999999996 4.5000000000000009 18.500000000000004
decision_type=2 2 2 2 2
left_child=4 2 -2 -4 -1
right_child=1 -3 3 -5 -6
leaf_value=-0.015317377727478744 -0.034702329213420556 0.082579494467936457 -0.0029250355711316362 0.028260962997696232 -0.041119823278859262
leaf_weight=20 24 20 34 21 20
leaf_count=20 24 20 34 21 20
internal_value=0.00132388 0.0132602 -0.00428895 0.00898235 -0.0282186
internal_weight=139 99 79 55 40
internal_count=139 99 79 55 40
is_linear=0
shrinkage=0.05


Tree=28
num_leaves=5
num_cat=0
split_feature=25 9 18 22
split_gain=17.997 9.7586 7.04387 6.22741
threshold=4.1547617912292489 18.500000000000004 3.5000000000000004 3.5000000000000004
decision_type=2 2 2 2
left_child=1 3 -3 -1
right_child=-2 2 -4 -5
leaf_value=-0.033445599617866369 0.034156454930780455 -0.011861119270324709 0.028711302675630736 -0.0014779067877680064
leaf_weight=39 32 20 23 25
leaf_count=39 32 20 23 25
internal_value=0.00125768 -0.0085812 0.00984041 -0.0209582
internal_weight=139 107 43 64
internal_count=139 107 43 64
is_linear=0
shrinkage=0.05


Tree=29
num_leaves=6
num_cat=0
split_feature=18 28 28 18 1
split_gain=16.9113 42.7803 11.1774 4.2736 2.32582
threshold=2.5000000000000004 1.5000000000000002 -2.4999999999999996 4.5000000000000009 12.500000000000002
decision_type=2 2 2 2 2
left_child=4 2 -2 -4 -1
right_child=1 -3 3 -5 -6
leaf_value=-0.014185638772323728 -0.03272823703785737 0.077604501964524397 -0.0027870637960458067 0.025900864346130266 -0.0382990206591785
leaf_weight=20 24 20 34 21 20
leaf_count=20 24 20 34 21 20
internal_value=0.0011948 0.0122805 -0.00425721 0.00816651 -0.0262423
internal_weight=139 99 79 55 40
internal_count=139 99 79 55 40
is_linear=0
shrinkage=0.05


Tree=30
num_leaves=6
num_cat=0
split_feature=28 28 18 27 15
split_gain=18.1936 8.23791 15.3543 3.35843 3.01805
threshold=2.5000000000000004 -1.4999999999999998 3.5000000000000004 3.5833332538604741 -0.40966403484344477
decision_type=2 2 2 2 2
left_child=1 3 4 -1 -3
right_child=-2 2 -4 -5 -6
leaf_value=-0.042594677236463346 0.037733589226137038 -0.034199845739640293 0.023024954148442359 -0.014938590448835623 -0.0097218709066510204
leaf_weight=21 23 20 37 23 34
leaf_count=21 23 20 37 23 34
internal_value=-0.00337228 -0.0103755 -0.001787 -0.0281381 -0.0187878
internal_weight=158 135 91 44 54
internal_count=158 135 91 44 54
is_linear=0
shrinkage=0.05


Tree=31
num_leaves=5
num_cat=0
split_feature=25 20 25 9
split_gain=13.5497 4.56442 8.69428 2.86139
threshold=4.1547617912292489 3.5000000000000004 3.2142857313156132 20.500000000000004
decision_type=2 2 2 2
left_child=1 2 -1 -3
right_child=-2 3 -4 -5
leaf_value=-0.01819443558720318 0.023275149966011179 -0.030187130403808424 0.018734223971841858 -0.0065993745531886822
leaf_weight=37 37 36 28 20
leaf_count=37 37 36 28 20
internal_value=-0.00320367 -0.0113005 -0.00228671 -0.0217629
internal_weight=158 121 65 56
internal_count=158 121 65 56
is_linear=0
shrinkage=0.05


Tree=32
num_leaves=6
num_cat=0
split_feature=28 18 18 18 18
split_gain=16.4206 28.2874 8.78335 6.70469 3.50099
threshold=-1.0000000180025095e-35 2.5000000000000004 4.5000000000000009 3.5000000000000004 1.5000000000000002
decision_type=2 2 2 2 2
left_child=2 4 -1 -3 -2
right_child=1 3 -4 -5 -6
leaf_value=-0.040982062369585043 -0.030971216280823166 0.019310185038061305 -0.0053257809151919227 0.057919353149507358 -0.0023676166002405807
leaf_weight=31 23 22 39 23 20
leaf_count=31 23 22 39 23 20
internal_value=-0.00304348 0.0113327 -0.0211164 0.0390438 -0.0176672
internal_weight=158 88 70 45 43
internal_count=158 88 70 45 43
is_linear=0
shrinkage=0.05


Tree=33
num_leaves=6
num_cat=0
split_feature=28 28 18 27 15
split_gain=16.3209 6.81871 12.5321 2.83583 2.64599
threshold=2.5000000000000004 -1.4999999999999998 3.5000000000000004 3.5833332538604741 -0.40966403484344477
decision_type=2 2 2 2 2
left_child=1 3 4 -1 -3
right_child=-2 2 -4 -5 -6
leaf_value=-0.038968852507172247 0.036041515174767245 -0.031500481641851368 0.020705418651168414 -0.013555458673964377 -0.0085809183918172504
leaf_weight=21 23 20 37 23 34
leaf_count=21 23 20 37 23 34
internal_value=-0.00289131 -0.00952431 -0.00171055 -0.0256846 -0.0170696
internal_weight=158 135 91 44 54
internal_count=158 135 91 44 54
is_linear=0
shrinkage=0.05


Tree=34
num_leaves=6
num_cat=0
split_feature=25 20 25 5 19
split_gain=11.486 4.07678 4.89111 2.31428 1.80051
threshold=4.1547617912292489 4.5000000000000009 3.2142857313156132 2.5000000000000004 2.5000000000000004
decision_type=2 2 2 2 2
left_child=1 2 4 -4 -1
right_child=-2 -3 3 -5 -6
leaf_value=-0.0060651292177763862 0.021632307230469747 -0.026185889520371954 0.018381790506695819 -0.0043016395577148581 -0.025868046811471385
leaf_weight=22 37 30 22 23 24
leaf_count=22 37 30 22 23 24
internal_value=-0.00274674 -0.0102015 -0.00493192 0.00678804 -0.0163971
internal_weight=158 121 91 45 46
internal_count=158 121 91 45 46
is_linear=0
shrinkage=0.05


Tree=35
num_leaves=5
num_cat=0
split_feature=28 25 9 9
split_gain=13.2943 6.31363 5.04739 3.76001
threshold=1.0000000180025095e-35 3.5000000000000004 22.500000000000004 11.500000000000002
decision_type=2 2 2 2
left_child=2 -2 3 -1
right_child=1 -3 -4 -5
leaf_value=-0.014207004061749868 -0.0019778906002741407 0.028351116215344519 0.00027592908591032031 -0.039990049199416094
leaf_weight=31 37 32 27 26
leaf_count=31 37 32 27 26
internal_value=-0.00417421 0.0120877 -0.0175322 -0.0259677
internal_weight=153 69 84 57
internal_count=153 69 84 57
is_linear=0
shrinkage=0.05


Tree=36
num_leaves=6
num_cat=0
split_feature=25 28 18 18 27
split_gain=12.9312 9.02043 11.8823 4.7553 3.02738
threshold=4.357142686843873 -2.4999999999999996 3.5000000000000004 1.5000000000000002 3.5499999523162846
decision_type=2 2 2 2 2
left_child=1 -1 3 -3 -5
right_child=-2 2 -4 4 -6
leaf_value=-0.042119439840316776 0.024300308077363299 -0.038414675705134876 0.017678585814105141 0.0030182729746835932 -0.022977001343609856
leaf_weight=20 32 20 36 24 21
leaf_count=20 32 20 36 24 21
internal_value=-0.0039655 -0.0114408 -0.00536577 -0.0181288 -0.00911286
internal_weight=153 121 101 65 45
internal_count=153 121 101 65 45
is_linear=0
shrinkage=0.05


Tree=37
num_leaves=6
num_cat=0
split_feature=28 18 18 1 5
split_gain=12.1282 25.7525 8.92276 5.29247 1.98828
threshold=1.0000000180025095e-35 2.5000000000000004 4.5000000000000009 11.500000000000002 2.5000000000000004
decision_type=2 2 2 2 2
left_child=2 -2 4 -4 -1
right_child=1 -3 3 -5 -6
leaf_value=-0.020908589605242014 -0.015025545314002116 0.046593037350103263 -0.017368507465081558 0.018570525001268833 -0.042464375917030422
leaf_weight=20 39 30 21 20 23
leaf_count=20 39 30 21 20 23
internal_value=-0.00376723 0.0117651 -0.016526 0.000162728 -0.0324384
internal_weight=153 69 84 41 43
internal_count=153 69 84 41 43
is_linear=0
shrinkage=0.05


Tree=38
num_leaves=6
num_cat=0
split_feature=25 28 18 18 27
split_gain=11.3612 7.87182 10.241 4.12773 2.57681
threshold=4.357142686843873 -2.4999999999999996 3.5000000000000004 1.5000000000000002 3.5499999523162846
decision_type=2 2 2 2 2
left_child=1 -1 3 -3 -5
right_child=-2 2 -4 4 -6
leaf_value=-0.039244623929262167 0.022915545653086157 -0.035659359395503999 0.016483106606432964 0.0028325732768280432 -0.021150375142072641
leaf_weight=20 32 20 36 24 21
leaf_count=20 32 20 36 24 21
internal_value=-0.00357887 -0.0105857 -0.00491061 -0.0167594 -0.00835947
internal_weight=153 121 101 65 45
internal_count=153 121 101 65 45
is_linear=0
shrinkage=0.05


Tree=39
num_leaves=6
num_cat=0
split_feature=28 18 18 1 18
split_gain=11.0604 22.2085 8.03009 4.54738 1.79224
threshold=1.0000000180025095e-35 2.5000000000000004 4.5000000000000009 11.500000000000002 3.5000000000000004
decision_type=2 2 2 2 2
left_child=2 -2 4 -4 -1
right_child=1 -3 3 -5 -6
leaf_value=-0.041127609355109083 -0.013446126522336647 0.043775639950181355 -0.016002539496514059 0.017310796859674155 -0.020706419087946418
leaf_weight=21 39 30 21 20 22
leaf_count=21 39 30 21 20 22
internal_value=-0.00339992 0.0114329 -0.015584 0.000247868 -0.0306796
internal_weight=153 69 84 41 43
internal_count=153 69 84 41 43
is_linear=0
shrinkage=0.05


Tree=40
num_leaves=5
num_cat=0
split_feature=28 28 18 27
split_gain=15.6692 5.45473 8.96659 1.47109
threshold=2.5000000000000004 -1.4999999999999998 3.5000000000000004 3.4833333492279057
decision_type=2 2 2 2
left_child=1 -1 3 -3
right_child=-2 2 -4 -5
leaf_value=-0.023733670980130375 0.036182546957085532 -0.00688298787842671 0.019330184404371363 -0.024389499567803882
leaf_weight=38 24 28 33 21
leaf_count=38 24 28 33 21
internal_value=-0.000697954 -0.00807405 -0.000817159 -0.0143858
internal_weight=144 120 82 49
internal_count=144 120 82 49
is_linear=0
shrinkage=0.05


Tree=41
num_leaves=5
num_cat=0
split_feature=28 28 18 25
split_gain=14.1414 4.92289 8.09235 1.55236
threshold=2.5000000000000004 -1.4999999999999998 3.5000000000000004 3.3571429252624516
decision_type=2 2 2 2
left_child=1 -1 3 -3
right_child=-2 2 -4 -5
leaf_value=-0.022546987791888809 0.03437341974737744 -0.0059592609526589518 0.018363674708190513 -0.023942794677402294
leaf_weight=38 24 28 33 21
leaf_count=38 24 28 33 21
internal_value=-0.000663057 -0.00767035 -0.000776302 -0.0136665
internal_weight=144 120 82 49
internal_count=144 120 82 49
is_linear=0
shrinkage=0.05


Tree=42
num_leaves=5
num_cat=0
split_feature=28 28 18 27
split_gain=12.7626 4.44291 7.30334 1.28024
threshold=2.5000000000000004 -1.4999999999999998 3.5000000000000004 3.4833333492279057
decision_type=2 2 2 2
left_child=1 -1 3 -3
right_child=-2 2 -4 -5
leaf_value=-0.021419638731688458 0.032654748655234773 -0.0059839679094563641 0.017445491399672448 -0.022315427927034243
leaf_weight=38 24 28 33 21
leaf_count=38 24 28 33 21
internal_value=-0.000629904 -0.00728683 -0.000737486 -0.0129832
internal_weight=144 120 82 49
internal_count=144 120 82 49
is_linear=0
shrinkage=0.05


Tree=43
num_leaves=5
num_cat=0
split_feature=28 28 18 25
split_gain=11.5183 4.00973 6.59127 1.35671
threshold=2.5000000000000004 -1.4999999999999998 3.5000000000000004 3.3571429252624516
decision_type=2 2 2 2
left_child=1 -1 3 -3
right_child=-2 2 -4 -5
leaf_value=-0.020348656461819225 0.031022011628374459 -0.0051287927731339424 0.01657321663629828 -0.02194095896861871
leaf_weight=38 24 28 33 21
leaf_count=38 24 28 33 21
internal_value=-0.000598409 -0.00692249 -0.000700612 -0.012334
internal_weight=144 120 82 49
internal_count=144 120 82 49
is_linear=0
shrinkage=0.05


Tree=44
num_leaves=6
num_cat=0
split_feature=28 28 18 28 18
split_gain=10.3953 3.64657 9.61139 5.98637 1.39576
threshold=2.5000000000000004 -2.4999999999999996 4.5000000000000009 1.0000000180025095e-35 2.5000000000000004
decision_type=2 2 2 2 2
left_child=1 -1 3 -3 -5
right_child=-2 2 -4 4 -6
leaf_value=-0.023149272226370299 0.029470911016202691 -0.027709727911472633 0.027816868724212764 -0.0074091872359118007 0.010612220365908885
leaf_weight=26 24 30 21 22 21
leaf_count=26 24 30 21 22 21
internal_value=-0.000568488 -0.00657637 -0.00199237 -0.0105676 0.00139197
internal_weight=144 120 94 73 43
internal_count=144 120 94 73 43
is_linear=0
shrinkage=0.05


Tree=45
num_leaves=5
num_cat=0
split_feature=25 18 28 22
split_gain=12.5057 4.07565 5.58482 2.24652
threshold=4.357142686843873 2.5000000000000004 -1.0000000180025095e-35 3.5000000000000004
decision_type=2 2 2 2
left_child=1 -1 3 -3
right_child=-2 2 -4 -5
leaf_value=-0.019631120743496079 0.0299455082975328 -0.020193859584629537 0.017407556225155149 0.0014588228791304258
leaf_weight=35 32 25 31 23
leaf_count=35 32 25 31 23
internal_value=0.0023254 -0.00542762 0.000865072 -0.00981862
internal_weight=146 114 79 48
internal_count=146 114 79 48
is_linear=0
shrinkage=0.05


Tree=46
num_leaves=5
num_cat=0
split_feature=25 18 28 6
split_gain=11.2864 3.89393 5.39783 1.35761
threshold=4.357142686843873 3.5000000000000004 -1.4999999999999998 3.5000000000000004
decision_type=2 2 2 2
left_child=1 3 -3 -1
right_child=-2 2 -4 -5
leaf_value=-0.021217557997442783 0.028448233229573818 -0.011034369609993079 0.019743545998686128 -0.0056668738052248957
leaf_weight=32 32 29 28 25
leaf_count=32 32 29 28 25
internal_value=0.00220913 -0.00515624 0.00408461 -0.0143971
internal_weight=146 114 57 57
internal_count=146 114 57 57
is_linear=0
shrinkage=0.05


Tree=47
num_leaves=5
num_cat=0
split_feature=25 18 28 26
split_gain=10.186 3.51427 4.87155 1.28424
threshold=4.357142686843873 3.5000000000000004 -1.4999999999999998 3.5357142686843877
decision_type=2 2 2 2
left_child=1 3 -3 -1
right_child=-2 2 -4 -5
leaf_value=-0.0081593811323211803 0.02702582128113136 -0.010482651444858519 0.018756368589986649 -0.023885245881974701
leaf_weight=37 32 29 28 20
leaf_count=37 32 29 28 20
internal_value=0.00209867 -0.00489843 0.00388038 -0.0136772
internal_weight=146 114 57 57
internal_count=146 114 57 57
is_linear=0
shrinkage=0.05


Tree=48
num_leaves=6
num_cat=0
split_feature=25 22 18 18 7
split_gain=9.19286 3.41537 3.72371 2.44115 2.09207
threshold=4.357142686843873 3.5000000000000004 3.5000000000000004 2.5000000000000004 6.5000000000000009
decision_type=2 2 2 2 2
left_child=1 3 -3 -1 -5
right_child=-2 2 -4 4 -6
leaf_value=-0.026871826667338613 0.025674530141986909 -0.0099416106777346653 0.017210272273847037 -0.017015973063895389 0.0050473563542420214
leaf_weight=20 32 23 28 21 22
leaf_count=20 32 23 28 21 22
internal_value=0.00199374 -0.0046535 0.00496531 -0.0124402 -0.00572776
internal_weight=146 114 51 63 43
internal_count=146 114 51 63 43
is_linear=0
shrinkage=0.05


Tree=49
num_leaves=6
num_cat=0
split_feature=28 18 28 14 23
split_gain=8.59466 3.06382 2.60638 1.69875 1.66129
threshold=1.5000000000000002 3.5000000000000004 -2.4999999999999996 -0.40966403484344477 2.5000000000000004
decision_type=2 2 2 2 2
left_child=1 4 -3 -4 -1
right_child=-2 2 3 -5 -6
leaf_value=-0.0058951376006007201 0.02309976876454635 -0.012095218431204558 -0.0027245132066309454 0.016658074247579164 -0.026274610031396153
leaf_weight=20 36 24 20 26 20
leaf_count=20 36 24 20 26 20
internal_value=0.00189405 -0.005046 0.00126192 0.00823086 -0.0160849
internal_weight=146 110 70 46 40
internal_count=146 110 70 46 40
is_linear=0
shrinkage=0.05


Tree=50
num_leaves=5
num_cat=0
split_feature=26 20 3 22
split_gain=7.21568 4.36269 3.27917 2.74352
threshold=4.2500000000000009 3.5000000000000004 3.2500000000000004 2.5000000000000004
decision_type=2 2 2 2
left_child=1 2 -1 -3
right_child=-2 3 -4 -5
leaf_value=-0.0070062324404716499 0.023746069476008418 -0.028396657245078435 0.015880508463155349 -0.0066905218805815726
leaf_weight=34 25 24 29 37
leaf_count=34 25 24 29 37
internal_value=-0.000759024 -0.00569957 0.00352893 -0.0152306
internal_weight=149 124 63 61
internal_count=149 124 63 61
is_linear=0
shrinkage=0.05


Tree=51
num_leaves=6
num_cat=0
split_feature=18 28 3 18 27
split_gain=8.61404 14.7998 6.40302 6.0457 3.22405
threshold=1.5000000000000002 1.0000000180025095e-35 3.2500000000000004 4.5000000000000009 3.5499999523162846
decision_type=2 2 2 2 2
left_child=-1 3 -3 -2 -5
right_child=1 2 -4 4 -6
leaf_value=-0.028157628265519936 -0.024237579580928599 0.0093981037735939021 0.046383472341800708 -0.010931559884920717 0.016517424518647402
leaf_weight=24 35 25 22 20 23
leaf_count=24 35 25 22 20 23
internal_value=-0.000721073 0.00454675 0.0267104 -0.00880828 0.00375046
internal_weight=149 125 47 78 43
internal_count=149 125 47 78 43
is_linear=0
shrinkage=0.05


Tree=52
num_leaves=6
num_cat=0
split_feature=18 28 3 18 1
split_gain=7.77417 13.3568 5.77872 5.45625 2.93308
threshold=1.5000000000000002 1.0000000180025095e-35 3.2500000000000004 4.5000000000000009 12.500000000000002
decision_type=2 2 2 2 2
left_child=-1 3 -3 -2 -5
right_child=1 2 -4 4 -6
leaf_value=-0.026749746532489856 -0.023025700271661793 0.0089281985163688661 0.044064297848804432 -0.0086143021350321564 0.017566752224520317
leaf_weight=24 35 25 22 23 20
leaf_count=24 35 25 22 23 20
internal_value=-0.000685019 0.00431941 0.0253749 -0.00836786 0.00356293
internal_weight=149 125 47 78 43
internal_count=149 125 47 78 43
is_linear=0
shrinkage=0.05


Tree=53
num_leaves=6
num_cat=0
split_feature=18 28 21 18 27
split_gain=7.01619 12.0545 5.39179 4.92426 2.87425
threshold=1.5000000000000002 1.0000000180025095e-35 3.5000000000000004 4.5000000000000009 3.5499999523162846
decision_type=2 2 2 2 2
left_child=-1 3 -3 -2 -5
right_child=1 2 -4 4 -6
leaf_value=-0.025412259033570691 -0.021874415373895319 0.0095307264614988268 0.043782946744468067 -0.01047788793919608 0.015439284722442213
leaf_weight=24 35 27 20 20 23
leaf_count=24 35 27 20 20 23
internal_value=-0.000650768 0.00410344 0.0241061 -0.00794947 0.00338479
internal_weight=149 125 47 78 43
internal_count=149 125 47 78 43
is_linear=0
shrinkage=0.05


Tree=54
num_leaves=6
num_cat=0
split_feature=18 28 3 18 1
split_gain=6.33211 10.8792 5.09534 4.44415 2.61363
threshold=1.5000000000000002 1.0000000180025095e-35 3.2500000000000004 4.5000000000000009 12.500000000000002
decision_type=2 2 2 2 2
left_child=-1 3 -3 -2 -5
right_child=1 2 -4 4 -6
leaf_value=-0.024141646455973387 -0.020780694955693825 0.0074572169408202178 0.040450395863841887 -0.0082794508856275807 0.016434793830849233
leaf_weight=24 35 25 22 23 20
leaf_count=24 35 25 22 23 20
internal_value=-0.00061823 0.00389827 0.0229008 -0.007552 0.00321555
internal_weight=149 125 47 78 43
internal_count=149 125 47 78 43
is_linear=0
shrinkage=0.05


Tree=55
num_leaves=5
num_cat=0
split_feature=28 20 9 28
split_gain=8.02988 4.51816 2.03755 2.44429
threshold=2.5000000000000004 2.5000000000000004 22.500000000000004 -1.0000000180025095e-35
decision_type=2 2 2 2
left_child=1 -1 3 -3
right_child=-2 2 -4 -5
leaf_value=0.011480313179561415 0.02791350826334495 -0.026811347890645265 0.0012889300291943882 -0.004701217293739319
leaf_weight=37 26 25 27 25
leaf_count=37 26 25 27 25
internal_value=0.00283936 -0.00287931 -0.00977939 -0.0157563
internal_weight=140 114 77 50
internal_count=140 114 77 50
is_linear=0
shrinkage=0.05


Tree=56
num_leaves=6
num_cat=0
split_feature=18 28 11 20 1
split_gain=8.03467 17.5039 2.3199 2.22973 1.74584
threshold=2.5000000000000004 1.5000000000000002 17.500000000000004 2.5000000000000004 12.500000000000002
decision_type=2 2 2 2 2
left_child=2 3 -1 -2 -5
right_child=1 -3 -4 4 -6
leaf_value=-0.0016228463873267174 0.010582299623638393 0.051304325745219287 -0.024273561636129252 -0.017917084424490377 0.0018236395117128268
leaf_weight=20 28 21 26 21 24
leaf_count=20 28 21 26 21 24
internal_value=0.00269739 0.0110766 -0.0144254 -0.000495713 -0.0073887
internal_weight=140 94 46 73 45
internal_count=140 94 46 73 45
is_linear=0
shrinkage=0.05


Tree=57
num_leaves=6
num_cat=0
split_feature=18 28 28 27 7
split_gain=7.25129 15.7973 2.16906 2.18199 2.09461
threshold=2.5000000000000004 1.5000000000000002 -2.4999999999999996 3.5833332538604741 4.5000000000000009
decision_type=2 2 2 2 2
left_child=4 2 -2 -4 -1
right_child=1 -3 3 -5 -6
leaf_value=-0.0020628118266661963 -0.014501224700361491 0.048739109165589545 0.015161937091033906 -0.0051319833482719136 -0.023482879899442199
leaf_weight=21 20 21 26 27 25
leaf_count=21 20 21 26 27 25
internal_value=0.00256252 0.0105228 -0.000470927 0.00482352 -0.0137042
internal_weight=140 94 73 53 46
internal_count=140 94 73 53 46
is_linear=0
shrinkage=0.05


Tree=58
num_leaves=5
num_cat=0
split_feature=28 20 19 15
split_gain=6.63646 3.7601 2.07025 1.98988
threshold=2.5000000000000004 2.5000000000000004 4.5000000000000009 0.17992616817355159
decision_type=2 2 2 2
left_child=1 -1 3 -3
right_child=-2 2 -4 -5
leaf_value=0.010335239440806814 0.025229418177444202 -0.011229239863439881 -0.019904774560460026 0.0092713948292657746
leaf_weight=37 26 29 28 20
leaf_count=37 26 29 28 20
internal_value=0.00243439 -0.00276447 -0.00905914 -0.00286163
internal_weight=140 114 77 49
internal_count=140 114 77 49
is_linear=0
shrinkage=0.05


Tree=59
num_leaves=6
num_cat=0
split_feature=18 28 9 28 7
split_gain=6.72619 13.9097 2.02424 3.55311 1.85682
threshold=2.5000000000000004 1.5000000000000002 21.500000000000004 -1.4999999999999998 4.5000000000000009
decision_type=2 2 2 2 2
left_child=4 2 3 -2 -1
right_child=1 -3 -4 -5 -6
leaf_value=-0.0023933167258898421 -0.021770574906258847 0.045839871603640774 0.011200207258574665 0.0056517001655366694 -0.022560898993164304
leaf_weight=21 21 21 25 27 25
leaf_count=21 21 21 25 27 25
internal_value=0.00231267 0.00997932 -0.000336726 -0.00634555 -0.013354
internal_weight=140 94 73 48 46
internal_count=140 94 73 48 46
is_linear=0
shrinkage=0.05


Tree=60
num_leaves=6
num_cat=0
split_feature=28 20 19 15 25
split_gain=5.61586 2.89865 3.80857 2.06321 1.42846
threshold=2.5000000000000004 1.5000000000000002 4.5000000000000009 -0.40966403484344477 3.2142857313156132
decision_type=2 2 2 2 2
left_child=1 -1 3 -3 -5
right_child=-2 2 -4 4 -6
leaf_value=0.014526273868978024 0.023251609002741484 -0.011807574056596919 -0.020131877362291564 -0.002001724554144818 0.015620279535853668
leaf_weight=21 26 22 32 23 23
leaf_count=21 26 22 32 23 23
internal_value=0.00216894 -0.00236122 -0.0059076 0.000786178 0.00680928
internal_weight=147 121 100 68 46
internal_count=147 121 100 68 46
is_linear=0
shrinkage=0.05


Tree=61
num_leaves=5
num_cat=0
split_feature=18 20 25 18
split_gain=6.58127 4.07989 4.96562 1.3832
threshold=2.5000000000000004 4.5000000000000009 3.5000000000000004 1.5000000000000002
decision_type=2 2 2 2
left_child=3 2 -2 -1
right_child=1 -3 -4 -5
leaf_value=-0.022671795005656102 0.0013033277552687763 -0.0066340975615934569 0.02765655939777692 -0.0053148072989036644
leaf_weight=22 33 29 39 24
leaf_count=22 33 29 39 24
internal_value=0.00206049 0.00920027 0.015578 -0.013616
internal_weight=147 101 72 46
internal_count=147 101 72 46
is_linear=0
shrinkage=0.05


Tree=62
num_leaves=6
num_cat=0
split_feature=18 28 28 18 18
split_gain=5.9396 13.5801 2.05016 2.29671 1.24834
threshold=2.5000000000000004 1.5000000000000002 -1.0000000180025095e-35 4.5000000000000009 1.5000000000000002
decision_type=2 2 2 2 2
left_child=4 2 3 -2 -1
right_child=1 -3 -4 -5 -6
leaf_value=-0.021538204835219819 -0.018106964569200169 0.045637056009145457 0.012261910475385579 0.002398711732692189 -0.0050490666956951227
leaf_weight=22 22 20 23 36 24
leaf_count=22 22 20 23 36 24
internal_value=0.00195747 0.00874025 -0.00037007 -0.0053793 -0.0129352
internal_weight=147 101 81 58 46
internal_count=147 101 81 58 46
is_linear=0
shrinkage=0.05


Tree=63
num_leaves=5
num_cat=0
split_feature=28 19 25 9
split_gain=5.04716 2.54857 2.40381 2.07944
threshold=2.5000000000000004 4.5000000000000009 2.928571462631226 18.500000000000004
decision_type=2 2 2 2
left_child=1 2 -1 -4
right_child=-2 -3 3 -5
leaf_value=-0.012021128691378094 0.021846286931003517 -0.012957111445183939 0.016976470773418746 -0.0014892439868661666
leaf_weight=21 26 39 30 31
leaf_count=21 26 39 30 31
internal_value=0.00185959 -0.00243507 0.00256932 0.00759226
internal_weight=147 121 82 61
internal_count=147 121 82 61
is_linear=0
shrinkage=0.05


Tree=64
num_leaves=6
num_cat=0
split_feature=18 28 28 18 11
split_gain=5.46033 11.9928 1.86373 1.9941 1.16536
threshold=2.5000000000000004 1.5000000000000002 -1.0000000180025095e-35 4.5000000000000009 17.500000000000004
decision_type=2 2 2 2 2
left_child=4 2 3 -2 -1
right_child=1 -3 -4 -5 -6
leaf_value=-0.0034386532101780181 -0.01692699705335227 0.0429434611601755 0.011752582341432572 0.002180114228071438 -0.019492451810779479
leaf_weight=20 22 20 23 36 26
leaf_count=20 22 20 23 36 26
internal_value=0.00176661 0.00826999 -0.000291363 -0.00506741 -0.0125125
internal_weight=147 101 81 58 46
internal_count=147 101 81 58 46
is_linear=0
shrinkage=0.05


Tree=65
num_leaves=6
num_cat=0
split_feature=18 3 25 15 6
split_gain=7.01224 8.58081 5.37155 4.04399 2.03336
threshold=3.5000000000000004 2.2500000000000004 3.6428570747375493 0.40966403484344488 3.5000000000000004
decision_type=2 2 2 2 2
left_child=3 -2 -3 4 -1
right_child=1 2 -4 -5 -6
leaf_value=-0.026514732658311176 -0.0094037524224924191 0.0062220439873635772 0.040688546829355451 0.0089683211630298982 -0.0065126759116537871
leaf_weight=27 28 20 26 21 24
leaf_count=27 28 20 26 21 24
internal_value=0.00161076 0.0124194 0.0257031 -0.00949816 -0.017102
internal_weight=146 74 46 72 51
internal_count=146 74 46 72 51
is_linear=0
shrinkage=0.05


Tree=66
num_leaves=6
num_cat=0
split_feature=18 3 26 15 9
split_gain=6.32855 7.74418 5.02227 3.6497 1.84822
threshold=3.5000000000000004 2.2500000000000004 3.6071428060531621 0.40966403484344488 15.500000000000002
decision_type=2 2 2 2 2
left_child=3 -2 -3 4 -1
right_child=1 2 -4 -5 -6
leaf_value=-0.0069133840716229036 -0.0089335645748568442 0.0078967706280072113 0.040939140020181307 0.0085199060628101935 -0.025953756418079139
leaf_weight=26 28 23 23 21 25
leaf_count=26 28 23 23 21 25
internal_value=0.00153022 0.0117985 0.024418 -0.00902325 -0.0162469
internal_weight=146 74 46 72 51
internal_count=146 74 46 72 51
is_linear=0
shrinkage=0.05


Tree=67
num_leaves=5
num_cat=0
split_feature=25 26 27 11
split_gain=5.37356 2.81129 3.25479 1.38719
threshold=4.357142686843873 3.6785713434219365 3.5131578445434575 25.500000000000004
decision_type=2 2 2 2
left_child=1 2 3 -1
right_child=-2 -3 -4 -5
leaf_value=-0.012173044615830747 0.020720901534940793 -0.014718476083834428 0.01569286101564233 0.004470636451705581
leaf_weight=31 29 37 28 21
leaf_count=31 29 37 28 21
internal_value=0.00145371 -0.00332192 0.00194899 -0.00545156
internal_weight=146 117 80 52
internal_count=146 117 80 52
is_linear=0
shrinkage=0.05


Tree=68
num_leaves=6
num_cat=0
split_feature=18 28 27 15 26
split_gain=5.67089 6.3138 3.35695 3.25774 1.77358
threshold=3.5000000000000004 -1.0000000180025095e-35 3.5131578445434575 -0.40966403484344477 3.6071428060531621
decision_type=2 2 2 2 2
left_child=3 2 -2 -1 -5
right_child=1 -3 -4 4 -6
leaf_value=-0.023650048822552588 -0.013054528281740523 0.032181506245494047 0.012939966766646617 0.0077524011291993352 -0.011536945796185385
leaf_weight=24 23 24 27 26 22
leaf_count=24 23 24 27 26 22
internal_value=0.00138102 0.0111011 0.000982499 -0.00860905 -0.00108855
internal_weight=146 74 50 72 48
internal_count=146 74 50 72 48
is_linear=0
shrinkage=0.05


Tree=69
num_leaves=6
num_cat=0
split_feature=18 28 15 27 6
split_gain=5.11798 5.69821 3.14279 3.02964 1.81826
threshold=3.5000000000000004 -1.0000000180025095e-35 0.40966403484344488 3.5131578445434575 3.5000000000000004
decision_type=2 2 2 2 2
left_child=2 3 4 -2 -1
right_child=1 -3 -4 -5 -6
leaf_value=-0.023782817104020745 -0.012401802270956663 0.03057243075842659 0.0081007451417722878 0.012292968364501443 -0.0048682736853758492
leaf_weight=27 23 24 21 27 24
leaf_count=27 23 24 21 27 24
internal_value=0.00131197 0.010546 -0.0081786 0.000933374 -0.0148819
internal_weight=146 74 72 50 51
internal_count=146 74 72 50 51
is_linear=0
shrinkage=0.05


Tree=70
num_leaves=6
num_cat=0
split_feature=18 28 18 17 22
split_gain=5.86242 5.99427 2.76891 1.06891 0.80127
threshold=1.5000000000000002 1.0000000180025095e-35 4.5000000000000009 1.0000000180025095e-35 3.5000000000000004
decision_type=2 2 2 2 2
left_child=-1 2 -2 -3 -4
right_child=1 3 4 -5 -6
leaf_value=-0.026291929991186964 -0.017048508853431007 0.0087717041572821994 -0.005475933267734945 0.023906159987673165 0.0085079202029321871
leaf_weight=23 38 28 20 20 21
leaf_count=23 38 28 20 20 21
internal_value=-0.00306453 0.00114201 -0.00732526 0.0150777 0.00168653
internal_weight=150 127 79 48 41
internal_count=150 127 79 48 41
is_linear=0
shrinkage=0.05


Tree=71
num_leaves=6
num_cat=0
split_feature=18 27 27 25 27
split_gain=5.29083 4.99018 4.6312 5.16101 1.53063
threshold=1.5000000000000002 3.8833333253860478 3.5131578445434575 3.6428570747375493 3.3397434949874882
decision_type=2 2 2 2 2
left_child=-1 2 4 -4 -2
right_child=1 -3 3 -5 -6
leaf_value=-0.02497733347117901 0.0023804140170770034 -0.019990647561929149 0.0020610220801944917 0.034965865017676893 -0.014694366595219999
leaf_weight=23 35 23 26 22 21
leaf_count=23 35 23 26 22 21
internal_value=-0.0029113 0.00108491 0.00574585 0.0171424 -0.00402263
internal_weight=150 127 104 48 56
internal_count=150 127 104 48 56
is_linear=0
shrinkage=0.05


Tree=72
num_leaves=6
num_cat=0
split_feature=18 28 27 18 22
split_gain=4.77497 5.40552 2.48619 2.45328 0.699903
threshold=1.5000000000000002 1.0000000180025095e-35 3.5131578445434575 4.5000000000000009 3.5000000000000004
decision_type=2 2 2 2 2
left_child=-1 3 -3 -2 -5
right_child=1 2 -4 4 -6
leaf_value=-0.023728466896421236 -0.016162339654309969 0.0033496546819806101 0.026128084979870399 -0.0052215101756155494 0.0078479088443730565
leaf_weight=23 38 25 23 20 21
leaf_count=23 38 25 23 20 21
internal_value=-0.00276574 0.00103066 0.0142643 -0.00701004 0.00147258
internal_weight=150 127 48 79 41
internal_count=150 127 48 79 41
is_linear=0
shrinkage=0.05


Tree=73
num_leaves=5
num_cat=0
split_feature=9 9 20 16
split_gain=4.37409 3.32473 2.28881 2.25826
threshold=22.500000000000004 15.500000000000002 3.5000000000000004 1.0000000180025095e-35
decision_type=2 2 2 2
left_child=1 3 -2 -1
right_child=2 -3 -4 -5
leaf_value=0.0066466709451847962 0.02311717716878775 -0.019734921096227109 0.00021477454623285063 -0.011880246052068883
leaf_weight=38 20 39 24 29
leaf_count=38 20 39 24 29
internal_value=-0.00262745 -0.00812845 0.010625 -0.00137244
internal_weight=150 106 44 67
internal_count=150 106 44 67
is_linear=0
shrinkage=0.05


Tree=74
num_leaves=6
num_cat=0
split_feature=18 28 27 18 22
split_gain=4.22695 4.76413 2.23479 2.21297 0.615929
threshold=1.5000000000000002 1.0000000180025095e-35 3.5131578445434575 4.5000000000000009 3.5000000000000004
decision_type=2 2 2 2 2
left_child=-1 3 -3 -2 -5
right_child=1 2 -4 4 -6
leaf_value=-0.022219211855174406 -0.015165274367226582 0.0031514651421457526 0.024747540526415993 -0.0046960138343274602 0.0075643339987090307
leaf_weight=23 38 25 23 20 21
leaf_count=23 38 25 23 20 21
internal_value=-0.00249608 0.00107583 0.0134996 -0.00647278 0.00158368
internal_weight=150 127 48 79 41
internal_count=150 127 48 79 41
is_linear=0
shrinkage=0.05


Tree=75
num_leaves=6
num_cat=0
split_feature=28 28 14 18 27
split_gain=5.53418 2.25745 2.53585 2.07832 1.53792
threshold=2.5000000000000004 -2.4999999999999996 -0.060268338769674454 3.5000000000000004 3.716666698455811
decision_type=2 2 2 2 2
left_child=1 -1 4 -4 -3
right_child=-2 2 3 -5 -6
leaf_value=-0.017388265074363776 0.021797111176926159 -0.0017271399038651472 -0.0030532626511160289 0.015978487237141684 -0.020685101712588222
leaf_weight=28 23 23 32 26 20
leaf_count=28 23 23 32 26 20
internal_value=-0.000797552 -0.00482606 -0.00134347 0.00547821 -0.0105448
internal_weight=152 129 101 58 43
internal_count=152 129 101 58 43
is_linear=0
shrinkage=0.05


Tree=76
num_leaves=6
num_cat=0
split_feature=28 28 11 18 26
split_gain=4.9946 2.03735 2.59666 1.97361 0.88721
threshold=2.5000000000000004 -2.4999999999999996 27.500000000000004 3.5000000000000004 3.8214286565780644
decision_type=2 2 2 2 2
left_child=1 -1 3 -3 -4
right_child=-2 2 4 -5 -6
leaf_value=-0.016518852221114294 0.020707254775840303 -0.0019259581873263939 -0.0030412908087865537 0.017153857024791448 -0.017086050712058081
leaf_weight=28 23 33 22 23 23
leaf_count=28 23 33 22 23 23
internal_value=-0.000757674 -0.00458475 -0.00127629 0.00591039 -0.0102197
internal_weight=152 129 101 56 45
internal_count=152 129 101 56 45
is_linear=0
shrinkage=0.05


Tree=77
num_leaves=6
num_cat=0
split_feature=28 28 11 18 27
split_gain=4.50763 1.83871 2.34348 1.78119 1.20772
threshold=2.5000000000000004 -2.4999999999999996 27.500000000000004 3.5000000000000004 3.716666698455811
decision_type=2 2 2 2 2
left_child=1 -1 3 -3 -4
right_child=-2 2 4 -5 -6
leaf_value=-0.015692909727139132 0.019671892423344696 -0.0018296601719956732 -0.0023823133194819093 0.016296164075965468 -0.018866767790168524
leaf_weight=28 23 33 25 23 20
leaf_count=28 23 33 25 23 20
internal_value=-0.00071979 -0.00435552 -0.00121248 0.00561487 -0.00970874
internal_weight=152 129 101 56 45
internal_count=152 129 101 56 45
is_linear=0
shrinkage=0.05


Tree=78
num_leaves=6
num_cat=0
split_feature=28 28 11 18 27
split_gain=4.06813 1.65943 2.11499 1.60752 1.08997
threshold=2.5000000000000004 -2.4999999999999996 27.500000000000004 3.5000000000000004 3.716666698455811
decision_type=2 2 2 2 2
left_child=1 -1 3 -3 -4
right_child=-2 2 4 -5 -6
leaf_value=-0.014908263991986002 0.018688297935802005 -0.001738177131946114 -0.002263197716791183 0.015481355911849634 -0.017923429412767294
leaf_weight=28 23 33 25 23 20
leaf_count=28 23 33 25 23 20
internal_value=-0.000683801 -0.00413774 -0.00115185 0.00533413 -0.0092233
internal_weight=152 129 101 56 45
internal_count=152 129 101 56 45
is_linear=0
shrinkage=0.05


Tree=79
num_leaves=6
num_cat=0
split_feature=28 1 21 19 18
split_gain=3.67149 1.59652 1.9978 1.33447 2.25997
threshold=2.5000000000000004 7.5000000000000009 3.5000000000000004 4.5000000000000009 4.5000000000000009
decision_type=2 2 2 2 2
left_child=1 2 -1 4 -3
right_child=-2 3 -4 -5 -6
leaf_value=0.013091717991977931 0.017753883127285087 -0.010984485582731716 -0.0081097981915809227 -0.017158850896413679 0.0098768883204320458
leaf_weight=25 23 37 20 27 20
leaf_count=25 23 37 20 27 20
internal_value=-0.000649611 -0.00393085 0.00366882 -0.00800211 -0.00366471
internal_weight=152 129 45 84 57
internal_count=152 129 45 84 57
is_linear=0
shrinkage=0.05


Tree=80
num_leaves=6
num_cat=0
split_feature=19 15 18 25 27
split_gain=2.67292 2.68883 3.47337 2.045 0.948521
threshold=2.5000000000000004 0.29696027934551245 4.5000000000000009 3.2142857313156132 3.5499999523162846
decision_type=2 2 2 2 2
left_child=3 2 4 -1 -2
right_child=1 -3 -4 -5 -6
leaf_value=-0.0039409549518798796 -0.0034326905207264988 -0.020930654093002279 0.0123605896330749 0.017163729523731904 -0.017983407814366123
leaf_weight=24 21 30 24 22 24
leaf_count=24 21 30 24 22 24
internal_value=-0.00380645 -0.00843388 -0.00300049 0.00615259 -0.0111931
internal_weight=145 99 69 46 45
internal_count=145 99 69 46 45
is_linear=0
shrinkage=0.05


Tree=81
num_leaves=6
num_cat=0
split_feature=28 18 19 9 27
split_gain=2.47889 3.57788 3.38568 1.5324 1.02317
threshold=-2.4999999999999996 4.5000000000000009 2.5000000000000004 21.500000000000004 3.4833333492279057
decision_type=2 2 2 2 2
left_child=-1 2 -2 4 -4
right_child=1 -3 3 -5 -6
leaf_value=-0.017602381224815663 0.008773153598303907 0.018168632876837537 -0.0079321949623547324 0.00050957969855517152 -0.022902947947382929
leaf_weight=26 32 21 21 20 25
leaf_count=26 32 21 21 20 25
internal_value=-0.00361612 -0.000560302 -0.00457365 -0.0110448 -0.0160685
internal_weight=145 119 98 66 46
internal_count=145 119 98 66 46
is_linear=0
shrinkage=0.05


Tree=82
num_leaves=6
num_cat=0
split_feature=19 15 18 16 27
split_gain=2.24463 2.32328 2.87732 2.05111 0.808799
threshold=2.5000000000000004 0.29696027934551245 4.5000000000000009 1.0000000180025095e-35 3.6166666746139531
decision_type=2 2 2 2 2
left_child=3 2 4 -1 -2
right_child=1 -3 -4 -5 -6
leaf_value=-0.0044175768833762657 -0.003525966909997489 -0.019292120413544278 0.011355788819491864 0.01671859002672136 -0.016935738455504178
leaf_weight=24 23 30 24 22 22
leaf_count=24 23 30 24 22 22
internal_value=-0.00343532 -0.00767584 -0.00262528 0.00569102 -0.0100819
internal_weight=145 99 69 46 45
internal_count=145 99 69 46 45
is_linear=0
shrinkage=0.05


Tree=83
num_leaves=6
num_cat=0
split_feature=28 18 19 9 21
split_gain=2.31307 2.97878 2.78254 1.40017 0.656751
threshold=-2.4999999999999996 4.5000000000000009 2.5000000000000004 21.500000000000004 3.5000000000000004
decision_type=2 2 2 2 2
left_child=-1 2 -2 4 -4
right_child=1 -3 3 -5 -6
leaf_value=-0.016773934343543191 0.0081260466322419234 0.016777400787742366 -0.02061657046838461 0.0012045021308586003 -0.0086678473521833842
leaf_weight=26 32 21 23 20 23
leaf_count=26 32 21 23 20 23
internal_value=-0.00326355 -0.000311703 -0.00397365 -0.00984018 -0.0146422
internal_weight=145 119 98 66 46
internal_count=145 119 98 66 46
is_linear=0
shrinkage=0.05


Tree=84
num_leaves=6
num_cat=0
split_feature=28 23 5 14 25
split_gain=2.08755 2.09465 1.21728 1.01367 0.489261
threshold=-2.4999999999999996 1.5000000000000002 2.5000000000000004 -0.17992616817355153 3.7857142686843877
decision_type=2 2 2 2 2
left_child=-1 -2 3 -3 -4
right_child=1 2 4 -5 -6
leaf_value=-0.015935237525655583 0.010192597756052718 0.0089222922328520901 -0.0054005201694301589 -0.0064356248703829584 -0.016205860963091255
leaf_weight=26 34 22 22 21 20
leaf_count=26 34 22 22 21 20
internal_value=-0.00310037 -0.000296118 -0.0044916 0.00142191 -0.0105459
internal_weight=145 119 85 43 42
internal_count=145 119 85 43 42
is_linear=0
shrinkage=0.05


Tree=85
num_leaves=6
num_cat=0
split_feature=20 25 12 27 18
split_gain=2.94864 4.53332 3.18359 0.888115 0.577195
threshold=4.5000000000000009 3.5000000000000004 -0.25000000000000006 3.6166666746139531 2.5000000000000004
decision_type=2 2 2 2 2
left_child=1 4 -3 -2 -1
right_child=3 2 -4 -5 -6
leaf_value=-0.0080428253362277678 -0.0017343248512285453 0.0058051714106746345 0.0327317549181836 -0.01533667934127152 0.0017922033742070198
leaf_weight=26 24 23 21 24 35
leaf_count=26 24 23 21 24 35
internal_value=0.00173069 0.0064238 0.0186565 -0.0085355 -0.00239978
internal_weight=153 105 44 48 61
internal_count=153 105 44 48 61
is_linear=0
shrinkage=0.05


Tree=86
num_leaves=6
num_cat=0
split_feature=20 25 28 17 27
split_gain=2.66115 4.09132 2.98171 1.14655 0.801524
threshold=4.5000000000000009 3.5000000000000004 -1.0000000180025095e-35 1.0000000180025095e-35 3.6166666746139531
decision_type=2 2 2 2 2
left_child=1 3 -3 -1 -2
right_child=4 2 -4 -5 -6
leaf_value=-0.0076128045550400494 -0.0016476082382723689 0.0034653907315805553 0.029605570846858126 0.006531284194763589 -0.014569845644776556
leaf_weight=38 24 20 24 23 24
leaf_count=38 24 20 24 23 24
internal_value=0.00164415 0.00610261 0.0177237 -0.00227979 -0.00810873
internal_weight=153 105 44 61 48
internal_count=153 105 44 61 48
is_linear=0
shrinkage=0.05


Tree=87
num_leaves=6
num_cat=0
split_feature=20 9 9 1 27
split_gain=2.40169 3.31577 2.894 2.15145 0.723376
threshold=4.5000000000000009 22.500000000000004 15.500000000000002 14.500000000000002 3.6166666746139531
decision_type=2 2 2 2 2
left_child=1 2 3 -1 -2
right_child=4 -3 -4 -5 -6
leaf_value=0.018098860222846271 -0.0015652279020287097 0.020181334015495822 -0.011772876912727952 -0.003609910873430116 -0.013841353011472771
leaf_weight=25 24 29 30 21 24
leaf_count=25 24 29 30 21 24
internal_value=0.00156195 0.00579748 0.000308909 0.00818833 -0.00770329
internal_weight=153 105 76 46 48
internal_count=153 105 76 46 48
is_linear=0
shrinkage=0.05


Tree=88
num_leaves=6
num_cat=0
split_feature=20 25 17 23 1
split_gain=2.16752 3.67461 2.00581 0.963914 0.661785
threshold=4.5000000000000009 4.1547617912292489 1.0000000180025095e-35 2.5000000000000004 11.500000000000002
decision_type=2 2 2 2 2
left_child=1 2 3 -1 -2
right_child=4 -3 -4 -5 -6
leaf_value=-0.012779288406929244 -0.013189069946141295 0.024214905606848854 0.010933373136926564 0.00082583429291844363 -0.0014471820555627347
leaf_weight=23 24 21 31 30 24
leaf_count=23 24 21 31 30 24
internal_value=0.00148385 0.00550761 0.000830785 -0.00507828 -0.00731813
internal_weight=153 105 84 53 48
internal_count=153 105 84 53 48
is_linear=0
shrinkage=0.05


Tree=89
num_leaves=6
num_cat=0
split_feature=9 9 13 18 25
split_gain=1.97624 3.08876 2.06944 1.7386 1.21448
threshold=22.500000000000004 15.500000000000002 0.25000000000000011 3.5000000000000004 3.5000000000000004
decision_type=2 2 2 2 2
left_child=1 2 -1 -3 -2
right_child=4 3 -4 -5 -6
leaf_value=-0.0029873558296225015 0.00081327534164302065 -0.023142625517877088 0.015020187281899983 -0.0025440517999231818 0.017201920677549564
leaf_weight=39 20 21 27 20 26
leaf_count=39 20 21 27 20 26
internal_value=0.00140966 -0.00231624 0.00437937 -0.0130945 0.0100764
internal_weight=153 107 66 41 46
internal_count=153 107 66 41 46
is_linear=0
shrinkage=0.05


Tree=90
num_leaves=7
num_cat=0
split_feature=28 18 13 25 13 20
split_gain=3.17032 3.04833 2.41389 2.32139 1.35189 1.08798
threshold=-1.4999999999999998 2.5000000000000004 0.25000000000000011 3.7857142686843877 1.0000000180025095e-35 3.5000000000000004
decision_type=2 2 2 2 2 2
left_child=4 5 3 -3 -1 -2
right_child=1 2 -4 -5 -6 -7
leaf_value=-0.005898105038347869 -0.00059878708879378714 0.012682076070147257 0.022482492376796226 -0.0103827473660931 -0.023189041009172798 -0.016711891088634728
leaf_weight=26 22 24 22 20 20 20
leaf_count=26 22 24 22 20 20 20
internal_value=-0.00242346 0.00225851 0.00895954 0.00219807 -0.0134159 -0.00827169
internal_weight=154 108 66 44 46 42
internal_count=154 108 66 44 46 42
is_linear=0
shrinkage=0.05


Tree=91
num_leaves=7
num_cat=0
split_feature=28 18 13 25 13 20
split_gain=2.86121 2.75112 2.17853 2.09506 1.22008 0.981904
threshold=-1.4999999999999998 2.5000000000000004 0.25000000000000011 3.7857142686843877 1.0000000180025095e-35 3.5000000000000004
decision_type=2 2 2 2 2 2
left_child=4 5 3 -3 -1 -2
right_child=1 2 -4 -5 -6 -7
leaf_value=-0.005603199301717373 -0.00056884810328483582 0.012047972219685715 0.02135836764804977 -0.0098636101000010978 -0.022029589950107037 -0.015876296674832702
leaf_weight=26 22 24 22 20 20 20
leaf_count=26 22 24 22 20 20 20
internal_value=-0.00230229 0.00214558 0.00851156 0.00208816 -0.0127451 -0.00785811
internal_weight=154 108 66 44 46 42
internal_count=154 108 66 44 46 42
is_linear=0
shrinkage=0.05


Tree=92
num_leaves=6
num_cat=0
split_feature=19 28 18 28 3
split_gain=2.6841 2.02195 2.01586 1.94346 0.767402
threshold=2.5000000000000004 -1.4999999999999998 2.5000000000000004 -1.0000000180025095e-35 3.2500000000000004
decision_type=2 2 2 2 2
left_child=3 -2 -3 -1 -4
right_child=1 2 4 -5 -6
leaf_value=-0.0013649387392573632 -0.018107168466251874 -0.011658790978767417 -0.0028276762180030348 0.019085860571690969 0.010312549327965825
leaf_weight=26 28 34 20 21 25
leaf_count=26 28 34 20 21 25
internal_value=-0.00218717 -0.00656205 -0.00247011 0.00777265 0.00447245
internal_weight=154 107 79 47 45
internal_count=154 107 79 47 45
is_linear=0
shrinkage=0.05


Tree=93
num_leaves=6
num_cat=0
split_feature=19 28 18 28 17
split_gain=2.4224 1.82481 1.81931 1.75397 0.772151
threshold=2.5000000000000004 -1.4999999999999998 2.5000000000000004 -1.0000000180025095e-35 -0.56174489110708226
decision_type=2 2 2 2 2
left_child=3 -2 -3 -1 -4
right_child=1 2 4 -5 -6
leaf_value=-0.0012966916950132986 -0.017201810007515764 -0.011075851370525712 -0.002447974169626832 0.018131567324910846 0.010654462102557653
leaf_weight=26 28 34 22 21 23
leaf_count=26 28 34 22 21 23
internal_value=-0.00207781 -0.00623395 -0.0023466 0.00738402 0.00424883
internal_weight=154 107 79 47 45
internal_count=154 107 79 47 45
is_linear=0
shrinkage=0.05


Tree=94
num_leaves=7
num_cat=0
split_feature=28 18 13 25 13 20
split_gain=2.12862 2.08771 1.91601 1.82241 1.08436 0.93951
threshold=-1.4999999999999998 2.5000000000000004 0.25000000000000011 3.7857142686843877 1.0000000180025095e-35 3.5000000000000004
decision_type=2 2 2 2 2 2
left_child=4 5 3 -3 -1 -2
right_child=1 2 -4 -5 -6 -7
leaf_value=-0.00424820785321152 0.00027819658544930544 0.010673250964221856 0.019455981330776757 -0.0097629025578498847 -0.019733990037348121 -0.014695150739280509
leaf_weight=26 22 24 22 20 20 20
leaf_count=26 22 24 22 20 20 20
internal_value=-0.00197392 0.00186249 0.00740805 0.00138409 -0.0109812 -0.00685197
internal_weight=154 108 66 44 46 42
internal_count=154 108 66 44 46 42
is_linear=0
shrinkage=0.05


end of trees

feature_importances:
quantity_used_diff=124
quantity_lag_1=97
quantity_rolling_mean_7=53
quantity_rolling_mean_30=27
quantity_lag_5=18
day_of_month=17
week_of_year=13
region=11
quantity_lag_3=11
lead_time_days=10
week_cos=10
quantity_lag_14=9
month_cos=7
week_sin=7
quantity_rolling_mean_14=6
shipping_mode=4
month=4
day_of_week_cos=4
quantity_lag_30=4
day_of_week=3
quantity_lag_7=3
day_of_week_sin=2
month_sin=1

parameters:
[boosting: gbdt]
[objective: regression]
[metric: rmse]
[tree_learner: serial]
[device_type: cpu]
[data_sample_strategy: bagging]
[data: ]
[valid: ]
[num_iterations: 500]
[learning_rate: 0.05]
[num_leaves: 31]
[num_threads: 0]
[seed: 42]
[deterministic: 0]
[force_col_wise: 0]
[force_row_wise: 0]
[histogram_pool_size: -1]
[max_depth: -1]
[min_data_in_leaf: 20]
[min_sum_hessian_in_leaf: 0.001]
[bagging_fraction: 0.8]
[pos_bagging_fraction: 1]
[neg_bagging_fraction: 1]
[bagging_freq: 5]
[bagging_seed: 400]
[bagging_by_query: 0]
[feature_fraction: 0.9]
[feature_fraction_bynode: 1]
[feature_fraction_seed: 30056]
[extra_trees: 0]
[extra_seed: 12879]
[early_stopping_round: 0]
[early_stopping_min_delta: 0]
[first_metric_only: 0]
[max_delta_step: 0]
[lambda_l1: 0]
[lambda_l2: 0]
[linear_lambda: 0]
[min_gain_to_split: 0]
[drop_rate: 0.1]
[max_drop: 50]
[skip_drop: 0.5]
[xgboost_dart_mode: 0]
[uniform_drop: 0]
[drop_seed: 17869]
[top_rate: 0.2]
[other_rate: 0.1]
[min_data_per_group: 100]
[max_cat_threshold: 32]
[cat_l2: 10]
[cat_smooth: 10]
[max_cat_to_onehot: 4]
[top_k: 20]
[monotone_constraints: ]
[monotone_constraints_method: basic]
[monotone_penalty: 0]
[feature_contri: ]
[forcedsplits_filename: ]
[refit_decay_rate: 0.9]
[cegb_tradeoff: 1]
[cegb_penalty_split: 0]
[cegb_penalty_feature_lazy: ]
[cegb_penalty_feature_coupled: ]
[path_smooth: 0]
[interaction_constraints: ]
[verbosity: -1]
[saved_feature_importance_type: 0]
[use_quantized_grad: 0]
[num_grad_quant_bins: 4]
[quant_train_renew_leaf: 0]
[stochastic_rounding: 1]
[linear_tree: 0]
[max_bin: 255]
[max_bin_by_feature: ]
[min_data_in_bin: 3]
[bin_construct_sample_cnt: 200000]
[data_random_seed: 175]
[is_enable_sparse: 1]
[enable_bundle: 1]
[use_missing: 1]
[zero_as_missing: 0]
[feature_pre_filter: 1]
[pre_partition: 0]
[two_round: 0]
[header: 0]
[label_column: ]
[weight_column: ]
[group_column: ]
[ignore_column: ]
[categorical_feature: ]
[forcedbins_filename: ]
[precise_float_parser: 0]
[parser_config_file: ]
[objective_seed: 16083]
[num_class: 1]
[is_unbalance: 0]
[scale_pos_weight: 1]
[sigmoid: 1]
[boost_from_average: 1]
[reg_sqrt: 0]
[alpha: 0.9]
[fair_c: 1]
[poisson_max_delta_step: 0.7]
[tweedie_variance_power: 1.5]
[lambdarank_truncation_level: 30]
[lambdarank_norm: 1]
[label_gain: ]
[lambdarank_position_bias_regularization: 0]
[eval_at: ]
[multi_error_top_k: 1]
[auc_mu_weights: ]
[num_machines: 1]
[local_listen_port: 12400]
[time_out: 120]
[machine_list_filename: ]
[machines: ]
[gpu_platform_id: -1]
[gpu_device_id: -1]
[gpu_use_dp: 0]
[num_gpu: 1]

end of parameters

pandas_categorical:null
