tree
version=v4
num_class=1
num_tree_per_iteration=1
label_index=0
max_feature_idx=29
objective=regression
feature_names=material region unit_price lead_time_days late_delivery_risk shipping_mode day_of_week month is_weekend day_of_month quarter week_of_year month_sin month_cos week_sin week_cos day_of_week_sin day_of_week_cos quantity_lag_1 quantity_lag_3 quantity_lag_5 quantity_lag_7 quantity_lag_14 quantity_lag_30 price_lag_7 quantity_rolling_mean_7 quantity_rolling_mean_14 quantity_rolling_mean_30 quantity_used_diff unit_price_diff
feature_infos=none [0:22] none [0:6] [0:1] [0:3] [0:6] [1:12] [0:1] [1:31] [1:4] [1:53] [-1:1] [-1:1] [-1:1] [-1:1] [-0.97492790222167969:0.97492790222167969] [-0.90096884965896606:1] [0:11] [0:11] [0:11] [0:11] [0:11] [0:11] none [1.5:5.2857141494750977] [1.5:4.5714287757873535] [1.5:4.4000000953674316] [-8:10] none
tree_sizes=546 570 575 570 571 574 652 576 575 579 573 574 574 575 486 655 577 575 653 657 573 569 576 655 577 574 572 577 575 574 577 738 573 578 744 576 654 657 658 659 577 578 576 656 658 655 572 658 580 658 576 654 654 579 663 578 577 580 578 582 654 648 580 659 652 656 656 653 572 571 657 656 655 739 576 653 652 570 657 654 573 568 662 575 661 657 657 738 665 579 656 658 660 575 579 656 653 656 575 654 657 660 657 660 576 653 666 656 659 661 661 661 660 660 660 661 662 662 659 664 577 663 745 580 666 664 659 658 663 657 662 581 581 659 661 574 572 649 655 579 657 655 579 578 578 661 746 657 575 662 576 579 578 582 583 660 657 661 661 660 659 658 663 664 661 657 578 658 661 581 660 655 580 665 668 585 579 582 579 578 671 668 664 661 676 582 578 664 665 663 743 663 744 663 666 585 663 666 579 666 580 578 581 575 660 588 585 588 665 589 580 576 575 761 675 668 749 672 759 675 583 670 673 669 582 583 586 667 666 583 662 668 667 671 671 584

Tree=0
num_leaves=5
num_cat=0
split_feature=28 28 26 23
split_gain=187.902 55.7461 37.4182 6.55325
threshold=2.5000000000000004 1.0000000180025095e-35 3.4642857313156132 2.5000000000000004
decision_type=2 2 2 2
left_child=1 2 -1 -4
right_child=-2 -3 3 -5
leaf_value=3.4115830127037627 3.6277139652621102 3.5258687263934307 3.5022972976517033 3.4627518430791557
leaf_weight=35 24 35 20 22
leaf_count=35 24 35 20 22
internal_value=3.50075 3.47355 3.44976 3.48158
internal_weight=136 112 77 42
internal_count=136 112 77 42
is_linear=0
shrinkage=1


Tree=1
num_leaves=5
num_cat=0
split_feature=28 25 28 25
split_gain=169.582 50.828 36.3893 4.25612
threshold=2.5000000000000004 2.928571462631226 -1.0000000180025095e-35 3.6428570747375493
decision_type=2 2 2 2
left_child=1 -1 -3 -4
right_child=-2 2 3 -5
leaf_value=-0.070685074944049117 0.12903096750378609 -0.032477711785484004 0.019787732714956457 0.051257274548212689
leaf_weight=32 24 37 22 21
leaf_count=32 24 37 22 21
internal_value=0.00841822 -0.0174274 0.00387572 0.0351566
internal_weight=136 112 80 43
internal_count=136 112 80 43
is_linear=0
shrinkage=0.05


Tree=2
num_leaves=5
num_cat=0
split_feature=28 28 18 28
split_gain=154.087 46.8093 32.2348 7.00267
threshold=1.0000000180025095e-35 2.5000000000000004 4.5000000000000009 -1.0000000180025095e-35
decision_type=2 2 2 2
left_child=2 -2 3 -1
right_child=1 -3 -4 -5
leaf_value=-0.087588039988821198 0.031917972138949806 0.1225794202958544 -0.0031509419424193249 -0.046709043979644781
leaf_weight=22 35 24 35 20
leaf_count=22 35 24 35 20
internal_value=0.00799731 0.0687972 -0.0385896 -0.0681219
internal_weight=136 59 77 42
internal_count=136 59 77 42
is_linear=0
shrinkage=0.05


Tree=3
num_leaves=5
num_cat=0
split_feature=28 25 26 23
split_gain=139.063 43.6388 30.9442 5.60337
threshold=1.0000000180025095e-35 3.5000000000000004 3.4642857313156132 2.5000000000000004
decision_type=2 2 2 2
left_child=2 -2 -1 -4
right_child=1 -3 3 -5
leaf_value=-0.071382133407252177 0.030986255769514377 0.11915557000624098 0.011429167911410333 -0.025138153135776522
leaf_weight=35 36 23 20 22
leaf_count=35 36 23 20 22
internal_value=0.00759745 0.0653573 -0.0366601 -0.00772514
internal_weight=136 59 77 42
internal_count=136 59 77 42
is_linear=0
shrinkage=0.05


Tree=4
num_leaves=5
num_cat=0
split_feature=28 25 28 22
split_gain=129.696 41.1329 27.9647 4.04473
threshold=2.5000000000000004 2.928571462631226 -1.0000000180025095e-35 3.5000000000000004
decision_type=2 2 2 2
left_child=1 -1 -3 -4
right_child=-2 2 3 -5
leaf_value=-0.063295103400014346 0.11269690405679285 -0.028089798342537237 0.015504955252011619 0.046183011816306546
leaf_weight=32 24 37 21 22
leaf_count=32 24 37 21 22
internal_value=0.00721757 -0.0153851 0.00377885 0.0312007
internal_weight=136 112 80 43
internal_count=136 112 80 43
is_linear=0
shrinkage=0.05


Tree=5
num_leaves=5
num_cat=0
split_feature=28 25 28 5
split_gain=111.642 31.047 21.7358 3.65294
threshold=1.5000000000000002 3.2142857313156132 -1.0000000180025095e-35 2.5000000000000004
decision_type=2 2 2 2
left_child=1 3 -3 -1
right_child=-2 2 -4 -5
leaf_value=-0.073724528622848021 0.07629851687699557 -0.035753921375555157 0.023169757271635123 -0.046915021600822615
leaf_weight=27 30 34 29 24
leaf_count=27 30 34 29 24
internal_value=-0.00952276 -0.0321073 -0.00863032 -0.0611083
internal_weight=144 114 63 51
internal_count=144 114 63 51
is_linear=0
shrinkage=0.05


Tree=6
num_leaves=6
num_cat=0
split_feature=25 27 1 15 23
split_gain=38.643 16.2963 12.3566 6.75405 6.31441
threshold=2.928571462631226 3.7833333015441899 7.5000000000000009 -0.61559370160102833 2.5000000000000004
decision_type=2 2 2 2 2
left_child=4 2 -2 -4 -1
right_child=1 -3 3 -5 -6
leaf_value=-0.067895971272479413 0.027877066005021336 0.04804151266813278 0.0078664932222593398 -0.027635731084926708 -0.029077829960733655
leaf_weight=22 24 20 21 37 20
leaf_count=22 24 20 21 37 20
internal_value=-0.00904662 0.00757406 -0.00229605 -0.0147815 -0.0494111
internal_weight=144 102 82 58 42
internal_count=144 102 82 58 42
is_linear=0
shrinkage=0.05


Tree=7
num_leaves=5
num_cat=0
split_feature=28 18 28 18
split_gain=99.9704 24.2325 47.6656 13.5177
threshold=1.5000000000000002 2.5000000000000004 -1.0000000180025095e-35 4.5000000000000009
decision_type=2 2 2 2
left_child=1 -1 3 -3
right_child=-2 2 -4 -5
leaf_value=-0.072375963972165044 0.072616967074573033 -0.070679759749999418 0.033730990501741574 -0.022142752318177375
leaf_weight=26 30 26 30 32
leaf_count=26 30 26 30 32
internal_value=-0.00859429 -0.0299657 -0.0174354 -0.0439007
internal_weight=144 114 88 58
internal_count=144 114 88 58
is_linear=0
shrinkage=0.05


Tree=8
num_leaves=5
num_cat=0
split_feature=28 25 28 5
split_gain=90.2233 23.7099 17.0977 3.18302
threshold=1.5000000000000002 3.2142857313156132 -1.0000000180025095e-35 2.5000000000000004
decision_type=2 2 2 2
left_child=1 3 -3 -1
right_child=-2 2 -4 -5
leaf_value=-0.065587788061411287 0.068986119379599892 -0.032007449668119935 0.020252751327794177 -0.040562043509756528
leaf_weight=27 30 34 29 24
leaf_count=27 30 34 29 24
internal_value=-0.00816458 -0.0284674 -0.00795117 -0.053811
internal_weight=144 114 63 51
internal_count=144 114 63 51
is_linear=0
shrinkage=0.05


Tree=9
num_leaves=5
num_cat=0
split_feature=28 18 28 28
split_gain=81.4265 22.1311 14.3675 4.45093
threshold=1.5000000000000002 4.5000000000000009 1.0000000180025095e-35 -1.0000000180025095e-35
decision_type=2 2 2 2
left_child=1 2 3 -1
right_child=-2 -3 -4 -5
leaf_value=-0.069416792203361791 0.06553681393464407 0.0035063977914456378 -0.0078374816903046193 -0.04052822375670076
leaf_weight=30 30 39 21 24
leaf_count=30 30 39 21 24
internal_value=-0.00775635 -0.027044 -0.0429302 -0.0565774
internal_weight=144 114 75 54
internal_count=144 114 75 54
is_linear=0
shrinkage=0.05


Tree=10
num_leaves=5
num_cat=0
split_feature=28 25 28 5
split_gain=114.886 36.7385 27.2123 6.08584
threshold=2.5000000000000004 3.2142857313156132 -1.0000000180025095e-35 2.5000000000000004
decision_type=2 2 2 2
left_child=1 3 -3 -1
right_child=-2 2 -4 -5
leaf_value=-0.067695626407861711 0.09774407947063446 -0.027070615701086355 0.037640255249359392 -0.034770857229887042
leaf_weight=25 25 32 33 32
leaf_count=25 25 32 33 32
internal_value=9.8045e-05 -0.0199114 0.0057826 -0.0492115
internal_weight=147 122 65 57
internal_count=147 122 65 57
is_linear=0
shrinkage=0.05


Tree=11
num_leaves=5
num_cat=0
split_feature=28 25 28 25
split_gain=103.685 33.1565 24.5591 4.64316
threshold=2.5000000000000004 3.2142857313156132 -1.0000000180025095e-35 2.7857142686843877
decision_type=2 2 2 2
left_child=1 3 -3 -1
right_child=-2 2 -4 -5
leaf_value=-0.06028915534824289 0.092856876969337476 -0.025717084575444461 0.03575824279493342 -0.031708538411530082
leaf_weight=30 25 32 33 27
leaf_count=30 25 32 33 27
internal_value=9.31431e-05 -0.0189158 0.00549347 -0.046751
internal_weight=147 122 65 57
internal_count=147 122 65 57
is_linear=0
shrinkage=0.05


Tree=12
num_leaves=5
num_cat=0
split_feature=28 25 28 5
split_gain=93.5753 29.9237 22.1646 5.49812
threshold=2.5000000000000004 3.2142857313156132 -1.0000000180025095e-35 2.5000000000000004
decision_type=2 2 2 2
left_child=1 3 -3 -1
right_child=-2 2 -4 -5
leaf_value=-0.061982322786003352 0.088214032948017121 -0.024431230779737235 0.033970330322556426 -0.030687714845407756
leaf_weight=25 25 32 33 32
leaf_count=25 25 32 33 32
internal_value=8.84857e-05 -0.01797 0.00521879 -0.0444134
internal_weight=147 122 65 57
internal_count=147 122 65 57
is_linear=0
shrinkage=0.05


Tree=13
num_leaves=5
num_cat=0
split_feature=28 25 28 5
split_gain=84.4517 27.0062 20.0035 4.96205
threshold=2.5000000000000004 3.2142857313156132 -1.0000000180025095e-35 2.5000000000000004
decision_type=2 2 2 2
left_child=1 3 -3 -1
right_child=-2 2 -4 -5
leaf_value=-0.058883206345140937 0.083803330898284914 -0.023209669243078681 0.03227181331903646 -0.029153329186374324
leaf_weight=25 25 32 33 32
leaf_count=25 25 32 33 32
internal_value=8.40612e-05 -0.0170715 0.00495785 -0.0421927
internal_weight=147 122 65 57
internal_count=147 122 65 57
is_linear=0
shrinkage=0.05


Tree=14
num_leaves=4
num_cat=0
split_feature=25 6 5
split_gain=43.6048 11.2659 9.84543
threshold=2.928571462631226 4.5000000000000009 2.5000000000000004
decision_type=2 2 2
left_child=-1 2 -2
right_child=1 -3 -4
leaf_value=-0.046041273129613779 -0.014484251184122904 0.038131128977003853 0.022757596928729779
leaf_weight=38 35 38 36
leaf_count=38 35 38 36
internal_value=7.98586e-05 0.0161588 0.00439894
internal_weight=147 109 71
internal_count=147 109 71
is_linear=0
shrinkage=0.05


Tree=15
num_leaves=6
num_cat=0
split_feature=28 28 18 18 26
split_gain=87.2984 26.8792 40.529 10.2516 0.900417
threshold=2.5000000000000004 -1.0000000180025095e-35 2.5000000000000004 4.5000000000000009 3.5357142686843877
decision_type=2 2 2 2 2
left_child=1 3 -3 -1 -4
right_child=-2 2 4 -5 -6
leaf_value=-0.06026980043561371 0.084802626685372418 -0.042117624217644339 0.047571956701576712 -0.018127539723871218 0.032568483418726833
leaf_weight=27 28 24 20 31 20
leaf_count=27 28 24 20 31 20
internal_value=0.00518147 -0.0130922 0.00924978 -0.0377455 0.0400702
internal_weight=150 122 64 58 40
internal_count=150 122 64 58 40
is_linear=0
shrinkage=0.05


Tree=16
num_leaves=5
num_cat=0
split_feature=28 18 18 28
split_gain=78.8551 31.6497 16.7005 2.84569
threshold=1.0000000180025095e-35 2.5000000000000004 4.5000000000000009 -1.0000000180025095e-35
decision_type=2 2 2 2
left_child=2 -2 3 -1
right_child=1 -3 -4 -5
leaf_value=-0.057256309877805139 0.016099433224084542 0.086157100817321669 -0.0014687755067522327 -0.032715286190311117
leaf_weight=27 38 28 36 21
leaf_count=27 38 28 36 21
internal_value=0.0049224 0.0458209 -0.0272121 -0.0465196
internal_weight=150 66 84 48
internal_count=150 66 84 48
is_linear=0
shrinkage=0.05


Tree=17
num_leaves=5
num_cat=0
split_feature=28 28 25 9
split_gain=75.8267 21.6621 7.35331 5.97468
threshold=2.5000000000000004 -1.0000000180025095e-35 3.2142857313156132 19.500000000000004
decision_type=2 2 2 2
left_child=1 3 -3 -1
right_child=-2 2 -4 -5
leaf_value=-0.046128508985336679 0.078881802197013587 -0.010916575632090199 0.023129599195505893 -0.012366023100912572
leaf_weight=38 28 29 35 20
leaf_count=38 28 29 35 20
internal_value=0.00467628 -0.0123545 0.00770243 -0.0344863
internal_weight=150 122 64 58
internal_count=150 122 64 58
is_linear=0
shrinkage=0.05


Tree=18
num_leaves=6
num_cat=0
split_feature=28 28 18 18 26
split_gain=68.4336 19.55 34.3675 8.04249 0.599133
threshold=2.5000000000000004 -1.0000000180025095e-35 2.5000000000000004 4.5000000000000009 3.5357142686843877
decision_type=2 2 2 2 2
left_child=1 3 -3 -1 -4
right_child=-2 2 4 -5 -6
leaf_value=-0.052712301226953667 0.074937712767028389 -0.039984582065759854 0.041817735680378977 -0.015385854667833737 0.029579137582331896
leaf_weight=27 28 24 20 31 20
leaf_count=27 28 24 20 31 20
internal_value=0.00444247 -0.0117368 0.0073173 -0.032762 0.0356984
internal_weight=150 122 64 58 40
internal_count=150 122 64 58 40
is_linear=0
shrinkage=0.05


Tree=19
num_leaves=6
num_cat=0
split_feature=28 28 18 18 26
split_gain=61.7613 17.6439 31.0167 7.25835 0.540718
threshold=2.5000000000000004 -1.0000000180025095e-35 2.5000000000000004 4.5000000000000009 3.5357142686843877
decision_type=2 2 2 2 2
left_child=1 3 -3 -1 -4
right_child=-2 2 4 -5 -6
leaf_value=-0.050076686025217733 0.071190827055501615 -0.037985352706164127 0.039726849517319356 -0.014616561763649505 0.028100181668996811
leaf_weight=27 28 24 20 31 20
leaf_count=27 28 24 20 31 20
internal_value=0.00422034 -0.0111499 0.00695144 -0.0311239 0.0339135
internal_weight=150 122 64 58 40
internal_count=150 122 64 58 40
is_linear=0
shrinkage=0.05


Tree=20
num_leaves=5
num_cat=0
split_feature=28 25 18 28
split_gain=57.0559 19.5625 13.5204 17.0769
threshold=1.0000000180025095e-35 3.3571429252624516 3.5000000000000004 -2.4999999999999996
decision_type=2 2 2 2
left_child=2 -2 -1 -4
right_child=1 -3 3 -5
leaf_value=-0.051902281865477566 0.0096172225305481869 0.066623937842194683 -0.040686823384991543 0.01960435315926114
leaf_weight=36 34 27 24 23
leaf_count=36 34 27 24 23
internal_value=-0.00186274 0.0348497 -0.0288442 -0.0111826
internal_weight=144 61 83 47
internal_count=144 61 83 47
is_linear=0
shrinkage=0.05


Tree=21
num_leaves=5
num_cat=0
split_feature=28 18 18 28
split_gain=51.493 18.6757 12.2022 15.4119
threshold=1.0000000180025095e-35 2.5000000000000004 3.5000000000000004 -2.4999999999999996
decision_type=2 2 2 2
left_child=2 -2 -1 -4
right_child=1 -3 3 -5
leaf_value=-0.049307167571451926 0.010052378034581328 0.06630618717521429 -0.038652481732424353 0.018624135932844618
leaf_weight=36 36 25 24 23
leaf_count=36 36 25 24 23
internal_value=-0.0017696 0.0331072 -0.027402 -0.0106235
internal_weight=144 61 83 47
internal_count=144 61 83 47
is_linear=0
shrinkage=0.05


Tree=22
num_leaves=5
num_cat=0
split_feature=28 18 28 6
split_gain=49.5316 15.8074 26.6495 3.80515
threshold=2.5000000000000004 2.5000000000000004 -1.0000000180025095e-35 2.5000000000000004
decision_type=2 2 2 2
left_child=1 -1 3 -3
right_child=-2 2 -4 -5
leaf_value=-0.040103948952104805 0.069288589339703319 -0.041017125826328993 0.032567993420011862 -0.013070330293527966
leaf_weight=39 21 21 34 29
leaf_count=39 21 21 34 29
internal_value=-0.00168112 -0.0137979 -0.00158437 -0.024808
internal_weight=144 123 84 50
internal_count=144 123 84 50
is_linear=0
shrinkage=0.05


Tree=23
num_leaves=6
num_cat=0
split_feature=28 28 18 18 28
split_gain=44.7023 14.682 11.4922 10.8834 13.4368
threshold=2.5000000000000004 1.0000000180025095e-35 2.5000000000000004 3.5000000000000004 -2.4999999999999996
decision_type=2 2 2 2 2
left_child=1 3 -3 -1 -5
right_child=-2 2 -4 4 -6
leaf_value=-0.045787922924177521 0.065824159616160963 -0.015024431310594083 0.038576374240219591 -0.035425894417373156 0.018054932279957702
leaf_weight=36 21 20 20 24 23
leaf_count=36 21 20 20 24 23
internal_value=-0.00159706 -0.013108 0.011776 -0.0251003 -0.00925443
internal_weight=144 123 40 83 47
internal_count=144 123 40 83 47
is_linear=0
shrinkage=0.05


Tree=24
num_leaves=5
num_cat=0
split_feature=28 18 28 23
split_gain=40.3438 13.3176 22.5653 3.46484
threshold=2.5000000000000004 2.5000000000000004 -1.0000000180025095e-35 3.5000000000000004
decision_type=2 2 2 2
left_child=1 -1 3 -3
right_child=-2 2 -4 -5
leaf_value=-0.036598162736313854 0.062532951718284976 -0.011865366765608391 0.030184367983875905 -0.03873246512375772
leaf_weight=39 21 30 34 20
leaf_count=39 21 30 34 20
internal_value=-0.00151721 -0.0124526 -0.00124216 -0.0226122
internal_weight=144 123 84 50
internal_count=144 123 84 50
is_linear=0
shrinkage=0.05


Tree=25
num_leaves=5
num_cat=0
split_feature=28 11 18 9
split_gain=26.8247 13.6774 7.38173 2.54398
threshold=1.0000000180025095e-35 20.500000000000004 4.5000000000000009 18.500000000000004
decision_type=2 2 2 2
left_child=2 -2 3 -1
right_child=1 -3 -4 -5
leaf_value=-0.046639099717140198 -0.0072161240786637951 0.04270740263164044 -0.0046574330546290564 -0.023100037701343272
leaf_weight=24 23 34 34 22
leaf_count=24 23 34 34 22
internal_value=-0.00364826 0.0225628 -0.0223236 -0.0353813
internal_weight=137 57 80 46
internal_count=137 57 80 46
is_linear=0
shrinkage=0.05


Tree=26
num_leaves=5
num_cat=0
split_feature=28 18 28 18
split_gain=24.714 33.1644 16.8092 4.24405
threshold=-1.4999999999999998 3.5000000000000004 2.5000000000000004 2.5000000000000004
decision_type=2 2 2 2
left_child=-1 2 3 -2
right_child=1 -3 -4 -5
leaf_value=-0.037129535700361697 -0.034700925885860261 0.059634153690189123 0.031966853328049182 -0.0062763631964723281
leaf_weight=39 29 25 20 24
leaf_count=39 29 25 20 24
internal_value=-0.00346584 0.00993093 -0.00709072 -0.0218294
internal_weight=137 98 73 53
internal_count=137 98 73 53
is_linear=0
shrinkage=0.05


Tree=27
num_leaves=5
num_cat=0
split_feature=28 25 28 26
split_gain=22.6931 13.2499 6.67048 4.60498
threshold=1.0000000180025095e-35 3.5000000000000004 -1.4999999999999998 3.4642857313156132
decision_type=2 2 2 2
left_child=2 -2 -1 -4
right_child=1 -3 3 -5
leaf_value=-0.035273059223515861 -0.00049193751765415079 0.048089234128594401 -0.022741261231047766 0.010782371452078224
leaf_weight=39 32 25 21 20
leaf_count=39 32 25 21 20
internal_value=-0.00329255 0.0208156 -0.0204696 -0.00638827
internal_weight=137 57 80 41
internal_count=137 57 80 41
is_linear=0
shrinkage=0.05


Tree=28
num_leaves=5
num_cat=0
split_feature=28 28 18 18
split_gain=20.7466 11.2915 28.7131 3.65394
threshold=2.5000000000000004 -1.4999999999999998 3.5000000000000004 2.5000000000000004
decision_type=2 2 2 2
left_child=1 -1 3 -3
right_child=-2 2 -4 -5
leaf_value=-0.033509405659368406 0.04135785810649395 -0.032603589092092267 0.046237855785242893 -0.0062290915443251535
leaf_weight=39 22 29 23 24
leaf_count=39 22 29 23 24
internal_value=-0.00312792 -0.0116382 -0.000414889 -0.0206604
internal_weight=137 115 76 53
internal_count=137 115 76 53
is_linear=0
shrinkage=0.05


Tree=29
num_leaves=5
num_cat=0
split_feature=28 25 18 9
split_gain=19.0221 11.1118 6.87513 1.93113
threshold=1.0000000180025095e-35 3.5000000000000004 4.5000000000000009 18.500000000000004
decision_type=2 2 2 2
left_child=2 -2 3 -1
right_child=1 -3 -4 -5
leaf_value=-0.041108132107183337 -0.00041209463961422443 0.044077178850770005 -0.001648790655000245 -0.020599438292397697
leaf_weight=24 32 25 34 22
leaf_count=24 32 25 34 22
internal_value=-0.00297153 0.0191007 -0.018698 -0.0312996
internal_weight=137 57 80 46
internal_count=137 57 80 46
is_linear=0
shrinkage=0.05


Tree=30
num_leaves=5
num_cat=0
split_feature=28 18 18 28
split_gain=17.1734 12.4385 3.99075 3.22058
threshold=1.5000000000000002 4.5000000000000009 2.5000000000000004 -1.0000000180025095e-35
decision_type=2 2 2 2
left_child=1 2 -1 -4
right_child=-2 -3 3 -5
leaf_value=-0.037611095684355708 0.027039028154924896 0.011691524524193926 -0.02762168258752512 -0.0016963961499277501
leaf_weight=29 39 39 23 25
leaf_count=29 39 39 23 25
internal_value=-0.00166412 -0.0113143 -0.0229666 -0.0141189
internal_weight=155 116 77 48
internal_count=155 116 77 48
is_linear=0
shrinkage=0.05


Tree=31
num_leaves=7
num_cat=0
split_feature=25 16 25 26 20 25
split_gain=14.5846 5.21298 3.26642 2.67523 1.55376 1.15648
threshold=3.928571462631226 1.0000000180025095e-35 3.2142857313156132 3.3928571939468388 1.5000000000000002 2.7857142686843877
decision_type=2 2 2 2 2 2
left_child=2 -2 4 -4 -1 -6
right_child=1 -3 3 -5 5 -7
leaf_value=-0.0065221510949018211 0.0057247988786548378 0.041392939673027117 0.012334324631162664 -0.012932394184172153 -0.031524884868413212 -0.01589619787650761
leaf_weight=23 20 21 22 20 20 29
leaf_count=23 20 21 22 20 20 29
internal_value=-0.00158092 0.0239938 -0.0107789 0.000302554 -0.017243 -0.0222753
internal_weight=155 41 114 42 72 49
internal_count=155 41 114 42 72 49
is_linear=0
shrinkage=0.05


Tree=32
num_leaves=5
num_cat=0
split_feature=28 18 28 9
split_gain=15.2614 10.8799 3.44724 1.29287
threshold=1.5000000000000002 4.5000000000000009 1.0000000180025095e-35 18.500000000000004
decision_type=2 2 2 2
left_child=1 2 3 -1
right_child=-2 -3 -4 -5
leaf_value=-0.035994454100728039 0.02555629150965848 0.01091720473785431 -0.0047693643507293682 -0.020659997507131527
leaf_weight=27 39 39 22 28
leaf_count=27 39 39 22 28
internal_value=-0.00150187 -0.010599 -0.0214968 -0.0281878
internal_weight=155 116 77 55
internal_count=155 116 77 55
is_linear=0
shrinkage=0.05


Tree=33
num_leaves=5
num_cat=0
split_feature=28 18 18 28
split_gain=13.7734 9.81908 3.39021 2.65328
threshold=1.5000000000000002 4.5000000000000009 2.5000000000000004 -1.0000000180025095e-35
decision_type=2 2 2 2
left_child=1 2 -1 -4
right_child=-2 -3 3 -5
leaf_value=-0.033919679768511964 0.024278478018748453 0.010371344966384081 -0.024523086845874786 -0.00099166728556156171
leaf_weight=29 39 39 23 25
leaf_count=29 39 39 23 25
internal_value=-0.00142678 -0.0100691 -0.020422 -0.0122671
internal_weight=155 116 77 48
internal_count=155 116 77 48
is_linear=0
shrinkage=0.05


Tree=34
num_leaves=7
num_cat=0
split_feature=25 16 15 9 26 19
split_gain=12.4463 4.79895 3.01592 4.86571 2.73568 0.717817
threshold=3.928571462631226 1.0000000180025095e-35 -1.7225463847432912e-16 19.500000000000004 2.8571429252624516 3.5000000000000004
decision_type=2 2 2 2 2 2
left_child=2 -2 3 -1 -4 -6
right_child=1 -3 4 -5 5 -7
leaf_value=-0.01321842126809286 0.0047416888177394872 0.038964069692329288 -0.003429178016908143 0.018413998745381834 -0.018372221067547798 -0.03176827372983098
leaf_weight=31 20 21 23 20 20 20
leaf_count=31 20 21 23 20 20 20
internal_value=-0.00135544 0.0222702 -0.00985239 -0.000813551 -0.0171695 -0.0250702
internal_weight=155 41 114 51 63 40
internal_count=155 41 114 51 63 40
is_linear=0
shrinkage=0.05


Tree=35
num_leaves=5
num_cat=0
split_feature=28 15 4 23
split_gain=14.2204 4.33329 3.91987 2.12367
threshold=1.5000000000000002 0.70581671595573436 1.0000000180025095e-35 2.5000000000000004
decision_type=2 2 2 2
left_child=1 2 -1 -4
right_child=-2 -3 3 -5
leaf_value=0.0092475865582196878 0.023557428574483646 -0.026725209234898691 -0.00434832569660136 -0.025023654305740547
leaf_weight=29 38 34 27 23
leaf_count=29 38 34 27 23
internal_value=-0.00290228 -0.0118002 -0.00537682 -0.013859
internal_weight=151 113 79 50
internal_count=151 113 79 50
is_linear=0
shrinkage=0.05


Tree=36
num_leaves=6
num_cat=0
split_feature=25 18 28 16 9
split_gain=13.1197 4.2772 11.5977 3.32201 1.79396
threshold=3.928571462631226 2.5000000000000004 -1.4999999999999998 1.0000000180025095e-35 12.500000000000002
decision_type=2 2 2 2 2
left_child=1 4 -3 -2 -1
right_child=3 2 -4 -5 -6
leaf_value=-0.03440771071705967 0.0073849737551063312 -0.023823021848996484 0.01876694076589399 0.036203416623175146 -0.014650389412418009
leaf_weight=20 20 33 31 20 27
leaf_count=20 20 33 31 20 27
internal_value=-0.00275716 -0.0116045 -0.00319351 0.0217942 -0.0230578
internal_weight=151 111 64 40 47
internal_count=151 111 64 40 47
is_linear=0
shrinkage=0.05


Tree=37
num_leaves=6
num_cat=0
split_feature=28 18 28 5 26
split_gain=12.9008 4.99265 4.82806 3.44437 0.938004
threshold=1.5000000000000002 2.5000000000000004 -1.4999999999999998 2.5000000000000004 3.5357142686843877
decision_type=2 2 2 2 2
left_child=1 -1 3 -3 -4
right_child=-2 2 4 -5 -6
leaf_value=-0.030319488281384113 0.022582801313776719 -0.030644052560356533 0.015075599627452902 -0.0035176405906677251 -0.00023782335687428714
leaf_weight=26 38 22 20 25 20
leaf_count=26 38 22 20 25 20
internal_value=-0.0026193 -0.0110943 -0.0053489 -0.0162151 0.00741889
internal_weight=151 113 87 47 40
internal_count=151 113 87 47 40
is_linear=0
shrinkage=0.05


Tree=38
num_leaves=6
num_cat=0
split_feature=28 18 28 5 28
split_gain=11.8269 6.51922 12.5506 4.9317 1.94133
threshold=2.5000000000000004 3.5000000000000004 -1.4999999999999998 2.5000000000000004 1.0000000180025095e-35
decision_type=2 2 2 2 2
left_child=1 4 3 -3 -1
right_child=-2 2 -4 -5 -6
leaf_value=-0.027695768409951901 0.028926318064332008 -0.02911184978756038 0.035374688720330595 0.0047633261552878789 -0.0099597169776205682
leaf_weight=36 25 22 20 21 27
leaf_count=36 25 22 20 21 27
internal_value=-0.00248834 -0.00872141 0.00265179 -0.0125682 -0.0200946
internal_weight=151 126 63 43 63
internal_count=151 126 63 43 63
is_linear=0
shrinkage=0.05


Tree=39
num_leaves=6
num_cat=0
split_feature=28 18 28 28 3
split_gain=10.6738 5.8836 11.3269 1.75205 1.22674
threshold=2.5000000000000004 3.5000000000000004 -1.4999999999999998 1.0000000180025095e-35 3.6000000238418584
decision_type=2 2 2 2 2
left_child=1 3 4 -1 -3
right_child=-2 2 -4 -5 -6
leaf_value=-0.026310979939686757 0.027480001032352448 -0.020583718367630528 0.033605954288505019 -0.0094617309807627295 -0.0036886919120495973
leaf_weight=36 25 21 20 27 22
leaf_count=36 25 21 20 27 22
internal_value=-0.00236392 -0.00828534 0.0025192 -0.0190899 -0.0119398
internal_weight=151 126 63 63 43
internal_count=151 126 63 63 43
is_linear=0
shrinkage=0.05


Tree=40
num_leaves=5
num_cat=0
split_feature=28 23 18 28
split_gain=16.722 5.73006 12.4202 4.40106
threshold=2.5000000000000004 3.5000000000000004 4.5000000000000009 1.0000000180025095e-35
decision_type=2 2 2 2
left_child=1 2 3 -1
right_child=-2 -3 -4 -5
leaf_value=-0.025490989839392048 0.038786215100082615 -0.025323813661741908 0.029095028972496158 0.0026645976888096854
leaf_weight=35 21 39 23 23
leaf_count=35 21 39 23 23
internal_value=-0.00237469 -0.00957785 -0.00199646 -0.0143258
internal_weight=141 120 81 58
internal_count=141 120 81 58
is_linear=0
shrinkage=0.05


Tree=41
num_leaves=5
num_cat=0
split_feature=28 23 18 28
split_gain=15.0916 5.17138 11.2092 3.97195
threshold=2.5000000000000004 3.5000000000000004 4.5000000000000009 1.0000000180025095e-35
decision_type=2 2 2 2
left_child=1 2 3 -1
right_child=-2 -3 -4 -5
leaf_value=-0.024216440553178214 0.036846903232591495 -0.024057623058653031 0.027640277082505434 0.0025313676699348121
leaf_weight=35 21 39 23 23
leaf_count=35 21 39 23 23
internal_value=-0.00225596 -0.00909896 -0.00189664 -0.0136096
internal_weight=141 120 81 58
internal_count=141 120 81 58
is_linear=0
shrinkage=0.05


Tree=42
num_leaves=5
num_cat=0
split_feature=28 23 18 28
split_gain=13.6201 4.66717 10.1163 3.58469
threshold=2.5000000000000004 3.5000000000000004 4.5000000000000009 1.0000000180025095e-35
decision_type=2 2 2 2
left_child=1 2 3 -1
right_child=-2 -3 -4 -5
leaf_value=-0.02300561857010637 0.035004557873166746 -0.02285474183228918 0.026258263072889781 0.0024047992475654768
leaf_weight=35 21 39 23 23
leaf_count=35 21 39 23 23
internal_value=-0.00214316 -0.00864401 -0.00180181 -0.0129291
internal_weight=141 120 81 58
internal_count=141 120 81 58
is_linear=0
shrinkage=0.05


Tree=43
num_leaves=6
num_cat=0
split_feature=28 15 18 28 26
split_gain=12.2922 4.52943 5.83969 9.13406 1.15075
threshold=2.5000000000000004 0.70581671595573436 3.5000000000000004 -1.4999999999999998 3.1785713434219365
decision_type=2 2 2 2 2
left_child=1 2 4 -4 -1
right_child=-2 -3 3 -5 -6
leaf_value=-0.0073668255750089888 0.033254330339176318 -0.023984429093472887 -0.0095405238107419948 0.035404240461066369 -0.02412502743813786
leaf_weight=20 21 33 26 20 21
leaf_count=20 21 33 26 20 21
internal_value=-0.002036 -0.00821181 -0.00222909 0.0100007 -0.0159503
internal_weight=141 120 87 46 41
internal_count=141 120 87 46 41
is_linear=0
shrinkage=0.05


Tree=44
num_leaves=6
num_cat=0
split_feature=28 18 28 18 23
split_gain=11.0937 4.10927 10.2581 5.02597 4.05842
threshold=2.5000000000000004 2.5000000000000004 -1.4999999999999998 3.5000000000000004 2.5000000000000004
decision_type=2 2 2 2 2
left_child=1 -1 4 -4 -3
right_child=-2 2 3 -5 -6
leaf_value=-0.022220281311976061 0.031591614353514853 -0.0046200288459658624 -0.00063763419571130175 0.033634027345106003 -0.035740536041557795
leaf_weight=35 21 22 23 20 20
leaf_count=35 21 22 23 20 20
internal_value=-0.0019342 -0.00780122 -0.00186396 0.0153027 -0.0194393
internal_weight=141 120 85 43 42
internal_count=141 120 85 43 42
is_linear=0
shrinkage=0.05


Tree=45
num_leaves=6
num_cat=0
split_feature=27 20 28 21 6
split_gain=6.80541 6.20857 6.60899 3.73411 1.9381
threshold=3.7833333015441899 2.5000000000000004 -1.0000000180025095e-35 2.5000000000000004 3.5000000000000004
decision_type=2 2 2 2 2
left_child=1 2 -1 -3 -5
right_child=-2 3 -4 4 -6
leaf_value=-0.0053392987941730426 0.02876911537688492 0.003516599776283387 0.03437399266287685 -0.0074650090949779204 -0.027296361061079161
leaf_weight=22 21 31 20 22 28
leaf_count=22 21 31 20 22 28
internal_value=0.00246287 -0.00202844 0.0135718 -0.0101175 -0.0185706
internal_weight=144 123 42 81 50
internal_count=144 123 42 81 50
is_linear=0
shrinkage=0.05


Tree=46
num_leaves=5
num_cat=0
split_feature=27 27 18 28
split_gain=6.14189 4.65256 4.08545 8.13097
threshold=3.7833333015441899 3.0166666507720952 2.5000000000000004 -1.4999999999999998
decision_type=2 2 2 2
left_child=1 -1 -3 -4
right_child=-2 2 3 -5
leaf_value=0.015580645473352795 0.027330659865956043 -0.021837645070627333 -0.0204553143431743 0.016063881900959781
leaf_weight=29 21 32 27 35
leaf_count=29 21 32 27 35
internal_value=0.00233972 -0.00192702 -0.00732832 0.000160361
internal_weight=144 123 94 62
internal_count=144 123 94 62
is_linear=0
shrinkage=0.05


Tree=47
num_leaves=6
num_cat=0
split_feature=25 28 26 15 20
split_gain=5.5994 5.06303 4.54862 4.01946 2.28268
threshold=3.928571462631226 1.0000000180025095e-35 3.3214286565780644 0.17992616817355159 3.5000000000000004
decision_type=2 2 2 2 2
left_child=1 4 -3 -2 -1
right_child=3 2 -4 -5 -6
leaf_value=-0.0066732692039188218 0.0018081915786024184 0.020832493581942151 -0.0099511048889585913 0.033128135371953249 -0.027961293421685698
leaf_weight=34 20 28 21 21 20
leaf_count=34 20 28 21 21 20
internal_value=0.00222274 -0.00399787 0.00763952 0.0178501 -0.0145577
internal_weight=144 103 49 41 54
internal_count=144 103 49 41 54
is_linear=0
shrinkage=0.05


Tree=48
num_leaves=5
num_cat=0
split_feature=19 25 28 13
split_gain=5.16375 7.28843 5.16774 2.00749
threshold=4.5000000000000009 3.928571462631226 1.0000000180025095e-35 1.0000000180025095e-35
decision_type=2 2 2 2
left_child=1 2 3 -1
right_child=-2 -3 -4 -5
leaf_value=-0.00010482456535100937 -0.013424195553988029 0.031447039594873792 0.013878030153481583 -0.021992293762212452
leaf_weight=20 39 25 38 22
leaf_count=20 39 25 38 22
internal_value=0.0021116 0.00788204 0.000517977 -0.0115697
internal_weight=144 105 80 42
internal_count=144 105 80 42
is_linear=0
shrinkage=0.05


Tree=49
num_leaves=6
num_cat=0
split_feature=27 20 28 18 21
split_gain=4.9197 5.6379 5.35318 3.28459 4.63595
threshold=3.7833333015441899 2.5000000000000004 -1.0000000180025095e-35 2.5000000000000004 2.5000000000000004
decision_type=2 2 2 2 2
left_child=1 2 -1 -3 -5
right_child=-2 3 -4 4 -6
leaf_value=-0.0039665015911768105 0.024372673424936476 -0.021664129112931817 0.031775118745863438 0.017213272890076042 -0.014305271979953564
leaf_weight=22 21 33 20 20 28
leaf_count=22 21 33 20 20 28
internal_value=0.00200602 -0.00181268 0.0130533 -0.00952097 -0.00117254
internal_weight=144 123 42 81 48
internal_count=144 123 42 81 48
is_linear=0
shrinkage=0.05


Tree=50
num_leaves=5
num_cat=0
split_feature=28 4 9 19
split_gain=5.09328 5.35498 2.63424 1.7612
threshold=1.0000000180025095e-35 1.0000000180025095e-35 20.500000000000004 2.5000000000000004
decision_type=2 2 2 2
left_child=2 -2 3 -1
right_child=1 -3 -4 -5
leaf_value=-0.0040595966205000875 -0.006377634919922927 0.022676370420626233 0.0024534569272110542 -0.022758508029886906
leaf_weight=20 29 35 31 34
leaf_count=20 29 35 31 34
internal_value=-0.0011423 0.00951127 -0.00916381 -0.015833
internal_weight=149 64 85 54
internal_count=149 64 85 54
is_linear=0
shrinkage=0.05


Tree=51
num_leaves=6
num_cat=0
split_feature=18 28 9 9 19
split_gain=7.61043 12.8112 4.90314 2.2985 1.18859
threshold=2.5000000000000004 1.0000000180025095e-35 21.500000000000004 20.500000000000004 3.5000000000000004
decision_type=2 2 2 2 2
left_child=2 3 -1 4 -2
right_child=1 -3 -4 -5 -6
leaf_value=-0.0280921299349178 -0.0033484313637018206 0.036573471179387224 0.0028134909236714953 0.0075480033356982931 -0.020190086057409646
leaf_weight=33 22 27 21 26 20
leaf_count=33 22 27 21 26 20
internal_value=-0.00108518 0.00743436 -0.0160733 -0.00413558 -0.0113683
internal_weight=149 95 54 68 42
internal_count=149 95 54 68 42
is_linear=0
shrinkage=0.05


Tree=52
num_leaves=6
num_cat=0
split_feature=18 28 9 9 19
split_gain=6.86841 11.5621 4.42509 2.0744 1.0727
threshold=2.5000000000000004 1.0000000180025095e-35 21.500000000000004 20.500000000000004 3.5000000000000004
decision_type=2 2 2 2 2
left_child=2 3 -1 4 -2
right_child=1 -3 -4 -5 -6
leaf_value=-0.026687523389630249 -0.0031810094348408962 0.034744797292148209 0.0026728162453288126 0.0071706028153690014 -0.019180581653490666
leaf_weight=33 22 27 21 26 20
leaf_count=33 22 27 21 26 20
internal_value=-0.00103092 0.00706265 -0.0152696 -0.0039288 -0.0107999
internal_weight=149 95 54 68 42
internal_count=149 95 54 68 42
is_linear=0
shrinkage=0.05


Tree=53
num_leaves=5
num_cat=0
split_feature=18 28 9 28
split_gain=6.21897 10.5678 2.12319 3.10506
threshold=1.5000000000000002 1.5000000000000002 20.500000000000004 -1.0000000180025095e-35
decision_type=2 2 2 2
left_child=-1 2 3 -2
right_child=1 -3 -4 -5
leaf_value=-0.022693088826619918 -0.019601759229165815 0.033562674546071022 0.0057914150989075248 0.0032617080680750034
leaf_weight=27 33 24 38 27
leaf_count=27 33 24 38 27
internal_value=-0.000979378 0.00382611 -0.00345631 -0.0093132
internal_weight=149 122 98 60
internal_count=149 122 98 60
is_linear=0
shrinkage=0.05


Tree=54
num_leaves=6
num_cat=0
split_feature=18 28 9 4 27
split_gain=6.02408 9.80622 3.78521 1.89747 1.76103
threshold=2.5000000000000004 1.0000000180025095e-35 21.500000000000004 1.0000000180025095e-35 3.4701755046844487
decision_type=2 2 2 2 2
left_child=2 3 -1 -2 -5
right_child=1 -3 -4 4 -6
leaf_value=-0.024825393751432952 0.0074807686842978012 0.032143009583793444 0.0023293121584824156 0.00051509190705560507 -0.019727544351057572
leaf_weight=33 25 27 21 21 22
leaf_count=33 25 27 21 21 22
internal_value=-0.000930409 0.00664938 -0.0142652 -0.00347309 -0.00984161
internal_weight=149 95 54 68 43
internal_count=149 95 54 68 43
is_linear=0
shrinkage=0.05


Tree=55
num_leaves=5
num_cat=0
split_feature=28 18 28 9
split_gain=6.60823 5.16656 1.29911 0.508683
threshold=1.5000000000000002 4.5000000000000009 1.0000000180025095e-35 17.500000000000004
decision_type=2 2 2 2
left_child=1 2 3 -1
right_child=-2 -3 -4 -5
leaf_value=-0.026320652308918183 0.017657769505333688 0.0079024298768490559 -0.0053221895406022667 -0.015664888014240812
leaf_weight=21 35 35 20 24
leaf_count=21 35 35 20 24
internal_value=-0.00104095 -0.0075855 -0.0159252 -0.0206376
internal_weight=135 100 65 45
internal_count=135 100 65 45
is_linear=0
shrinkage=0.05


Tree=56
num_leaves=5
num_cat=0
split_feature=28 18 28 9
split_gain=5.96393 4.66282 1.17244 0.459086
threshold=1.5000000000000002 4.5000000000000009 1.0000000180025095e-35 17.500000000000004
decision_type=2 2 2 2
left_child=1 2 3 -1
right_child=-2 -3 -4 -5
leaf_value=-0.02500461946640696 0.016774880822215763 0.0075073083776182369 -0.0050560799753293396 -0.014881643684930168
leaf_weight=21 35 35 20 24
leaf_count=21 35 35 20 24
internal_value=-0.0009889 -0.00720622 -0.0151289 -0.0196057
internal_weight=135 100 65 45
internal_count=135 100 65 45
is_linear=0
shrinkage=0.05


Tree=57
num_leaves=5
num_cat=0
split_feature=18 28 9 4
split_gain=5.78668 8.52025 2.68118 2.41318
threshold=2.5000000000000004 1.0000000180025095e-35 19.500000000000004 1.0000000180025095e-35
decision_type=2 2 2 2
left_child=2 3 -1 -2
right_child=1 -3 -4 -5
leaf_value=-0.025925735448702025 0.0085315228157183069 0.031962390218783797 -0.0015751006780192257 -0.011018518503069093
leaf_weight=26 27 24 20 38
leaf_count=26 27 24 20 38
internal_value=-0.000939454 0.00650275 -0.0153385 -0.00289773
internal_weight=135 89 46 65
internal_count=135 89 46 65
is_linear=0
shrinkage=0.05


Tree=58
num_leaves=5
num_cat=0
split_feature=28 18 19 27
split_gain=5.3467 4.17701 0.975319 0.0201514
threshold=1.5000000000000002 4.5000000000000009 2.5000000000000004 3.5108696222305302
decision_type=2 2 2 2
left_child=1 2 -1 -4
right_child=-2 -3 3 -5
leaf_value=-0.0065306589305400842 0.015926976099477283 0.0071466808233942303 -0.020242170994170014 -0.017997657510859428
leaf_weight=25 35 35 20 20
leaf_count=25 35 35 20 20
internal_value=-0.000892482 -0.00677929 -0.0142779 -0.0191199
internal_weight=135 100 65 40
internal_count=135 100 65 40
is_linear=0
shrinkage=0.05


Tree=59
num_leaves=5
num_cat=0
split_feature=18 28 13 4
split_gain=5.29568 7.59597 2.43668 2.14302
threshold=2.5000000000000004 1.0000000180025095e-35 0.25000000000000011 1.0000000180025095e-35
decision_type=2 2 2 2
left_child=2 3 -1 -2
right_child=1 -3 -4 -5
leaf_value=-0.026130244652133275 0.0081661692441061702 0.030310689064208418 -0.0031147450613586802 -0.010257081952142089
leaf_weight=23 27 24 23 38
leaf_count=23 27 24 23 38
internal_value=-0.000847858 0.00627162 -0.0146225 -0.00260435
internal_weight=135 89 46 65
internal_count=135 89 46 65
is_linear=0
shrinkage=0.05


Tree=60
num_leaves=6
num_cat=0
split_feature=28 9 5 20 27
split_gain=7.19399 3.36964 3.01646 2.65938 1.89851
threshold=2.5000000000000004 7.5000000000000009 2.5000000000000004 3.5000000000000004 3.2500000000000004
decision_type=2 2 2 2 2
left_child=1 -1 4 -4 -3
right_child=-2 2 3 -5 -6
leaf_value=0.016496528946268168 0.029239983358032379 -0.0030127622187137606 0.013551355692847024 -0.0092152830334785198 -0.023405488010495901
leaf_weight=23 24 21 29 23 25
leaf_count=23 24 21 29 23 25
internal_value=0.00423319 -0.000726837 -0.00476906 0.0034815 -0.0140958
internal_weight=145 121 98 52 46
internal_count=145 121 98 52 46
is_linear=0
shrinkage=0.05


Tree=61
num_leaves=6
num_cat=0
split_feature=3 25 27 20 11
split_gain=3.86881 5.45484 4.33639 2.43327 1.94449
threshold=2.2500000000000004 3.928571462631226 3.0166666507720952 3.5000000000000004 27.500000000000004
decision_type=2 2 2 2 2
left_child=3 2 -2 -1 -4
right_child=1 -3 4 -5 -6
leaf_value=0.0022391339830522025 0.020207665517756886 0.027972536676479021 -0.017044045079661452 -0.020276013602103508 0.00374832203484733
leaf_weight=28 22 29 23 21 22
leaf_count=28 22 29 23 21 22
internal_value=0.00402153 0.00985648 0.0020152 -0.00741021 -0.00687889
internal_weight=145 96 67 49 45
internal_count=145 96 67 49 45
is_linear=0
shrinkage=0.05


Tree=62
num_leaves=5
num_cat=0
split_feature=28 18 28 19
split_gain=6.43647 4.39084 1.32871 0.788395
threshold=2.5000000000000004 4.5000000000000009 1.0000000180025095e-35 2.5000000000000004
decision_type=2 2 2 2
left_child=1 2 3 -1
right_child=-2 -3 -4 -5
leaf_value=-0.0048657643568256635 0.027474043130253752 0.013480088890001581 0.0012443116272212746 -0.017083594495911274
leaf_weight=23 24 37 30 31
leaf_count=23 24 37 30 31
internal_value=0.00382045 -0.000871168 -0.00719256 -0.0118797
internal_weight=145 121 84 54
internal_count=145 121 84 54
is_linear=0
shrinkage=0.05


Tree=63
num_leaves=6
num_cat=0
split_feature=28 19 23 14 20
split_gain=5.80892 2.9362 2.04725 1.75205 0.853949
threshold=2.5000000000000004 2.5000000000000004 3.5000000000000004 0.17992616817355159 3.5000000000000004
decision_type=2 2 2 2 2
left_child=1 3 4 -1 -3
right_child=-2 2 -4 -5 -6
leaf_value=0.018396053727095327 0.026100340920190021 0.0044139031586902478 -0.019418898722885745 -0.00091574170130669433 -0.0085886372698713905
leaf_weight=24 24 28 23 23 23
leaf_count=24 24 28 23 23 23
internal_value=0.00362943 -0.00082761 -0.00703492 0.0089456 -0.00144999
internal_weight=145 121 74 47 51
internal_count=145 121 74 47 51
is_linear=0
shrinkage=0.05


Tree=64
num_leaves=6
num_cat=0
split_feature=5 28 18 28 18
split_gain=5.49782 6.33886 3.37815 9.63682 2.59845
threshold=2.5000000000000004 1.5000000000000002 2.5000000000000004 -1.4999999999999998 3.5000000000000004
decision_type=2 2 2 2 2
left_child=2 4 -1 -4 -2
right_child=1 -3 3 -5 -6
leaf_value=-0.023289038875902241 -0.0077842690947431117 0.035076357895145932 -0.022325975138863381 0.025027305075144841 0.013432461461953579
leaf_weight=22 27 22 22 21 31
leaf_count=22 27 22 22 21 31
internal_value=0.00344796 0.0122239 -0.00735318 0.000800045 0.00355571
internal_weight=145 80 65 43 58
internal_count=145 80 65 43 58
is_linear=0
shrinkage=0.05


Tree=65
num_leaves=6
num_cat=0
split_feature=18 26 20 23 15
split_gain=9.78292 4.64751 3.8448 3.16581 1.86238
threshold=1.5000000000000002 4.1071429252624521 1.5000000000000002 3.5000000000000004 -1.7225463847432912e-16
decision_type=2 2 2 2 2
left_child=-1 2 -2 4 -4
right_child=1 -3 3 -5 -6
leaf_value=-0.025959438113150775 0.020715655337857165 0.029383730776607993 0.013480389247146937 -0.018581025116145612 -0.0056327491179108619
leaf_weight=27 23 20 26 22 25
leaf_count=27 23 20 26 22 25
internal_value=0.00114768 0.0074571 0.00288905 -0.00272755 0.0041112
internal_weight=143 116 96 73 51
internal_count=143 116 96 73 51
is_linear=0
shrinkage=0.05


Tree=66
num_leaves=6
num_cat=0
split_feature=18 26 20 23 15
split_gain=8.82909 4.19438 3.46993 2.85714 1.68079
threshold=1.5000000000000002 4.1071429252624521 1.5000000000000002 3.5000000000000004 -1.7225463847432912e-16
decision_type=2 2 2 2 2
left_child=-1 2 -2 4 -4
right_child=1 -3 3 -5 -6
leaf_value=-0.024661465982596081 0.019679872365668417 0.027914544660598041 0.01280637002335145 -0.017651973724026573 -0.0053511114940047264
leaf_weight=27 23 20 26 22 25
leaf_count=27 23 20 26 22 25
internal_value=0.0010903 0.00708424 0.0027446 -0.00259117 0.00390564
internal_weight=143 116 96 73 51
internal_count=143 116 96 73 51
is_linear=0
shrinkage=0.05


Tree=67
num_leaves=6
num_cat=0
split_feature=26 21 20 25 27
split_gain=4.33485 3.56203 3.64715 2.24795 0.564512
threshold=4.1071429252624521 3.5000000000000004 1.5000000000000002 3.5000000000000004 3.4701755046844487
decision_type=2 2 2 2 2
left_child=1 2 -1 -4 -3
right_child=-2 4 3 -5 -6
leaf_value=0.022030970621854069 0.02145176357166334 -0.0083621956594288355 -0.010757809060492687 0.009109980574188133 -0.019968790177848528
leaf_weight=20 22 20 35 24 22
leaf_count=20 22 20 35 24 22
internal_value=0.00103578 -0.00267621 0.00357893 -0.002676 -0.0144418
internal_weight=143 121 79 59 42
internal_count=143 121 79 59 42
is_linear=0
shrinkage=0.05


Tree=68
num_leaves=5
num_cat=0
split_feature=18 28 18 25
split_gain=7.79934 6.26026 1.98092 1.52062
threshold=1.5000000000000002 1.5000000000000002 4.5000000000000009 3.2142857313156132
decision_type=2 2 2 2
left_child=-1 2 3 -2
right_child=1 -3 -4 -5
leaf_value=-0.023219493817951947 0.0033703257762161751 0.03132282678658764 0.0098081347508690297 -0.013108147587627173
leaf_weight=27 28 21 39 28
leaf_count=27 28 21 39 28
internal_value=0.000983995 0.00661757 0.0011564 -0.00486891
internal_weight=143 116 95 56
internal_count=143 116 95 56
is_linear=0
shrinkage=0.05


Tree=69
num_leaves=5
num_cat=0
split_feature=18 28 18 25
split_gain=7.0389 5.64989 1.78778 1.37236
threshold=1.5000000000000002 1.5000000000000002 4.5000000000000009 3.2142857313156132
decision_type=2 2 2 2
left_child=-1 2 3 -2
right_child=1 -3 -4 -5
leaf_value=-0.02205851838268616 0.0032018096286005209 0.02975668657925867 0.0093177284042422603 -0.012452740235520262
leaf_weight=27 28 21 39 28
leaf_count=27 28 21 39 28
internal_value=0.000934796 0.00628669 0.00109858 -0.00462547
internal_weight=143 116 95 56
internal_count=143 116 95 56
is_linear=0
shrinkage=0.05


Tree=70
num_leaves=6
num_cat=0
split_feature=18 28 26 19 25
split_gain=4.36271 7.94061 3.63674 1.39714 0.813092
threshold=4.5000000000000009 -2.4999999999999996 2.8571429252624516 4.5000000000000009 3.5000000000000004
decision_type=2 2 2 2 2
left_child=2 -2 -1 4 -4
right_child=1 -3 3 -5 -6
leaf_value=0.01076272489277251 -0.0041100710954355161 0.038967591663822534 -0.010087933954283861 -0.019448066429923413 0.0029272159805432672
leaf_weight=33 23 20 28 23 21
leaf_count=33 23 20 28 23 21
internal_value=0.00251145 0.0159261 -0.00298215 -0.00928189 -0.00451001
internal_weight=148 43 105 72 49
internal_count=148 43 105 72 49
is_linear=0
shrinkage=0.05


Tree=71
num_leaves=6
num_cat=0
split_feature=18 26 26 19 25
split_gain=3.93735 3.28216 3.22512 1.26092 0.733815
threshold=4.5000000000000009 2.8571429252624516 3.6785713434219365 4.5000000000000009 3.5000000000000004
decision_type=2 2 2 2 2
left_child=1 -1 -2 4 -3
right_child=2 3 -4 -5 -6
leaf_value=0.010224588520147584 0.0017512509768659421 -0.0095835373903225586 0.029145317342564731 -0.018475663339030807 0.0027808553517042174
leaf_weight=33 22 28 21 23 21
leaf_count=33 22 28 21 23 21
internal_value=0.00238587 -0.00283305 0.0151297 -0.0088178 -0.00428451
internal_weight=148 105 43 72 49
internal_count=148 105 43 72 49
is_linear=0
shrinkage=0.05


Tree=72
num_leaves=6
num_cat=0
split_feature=18 28 27 21 3
split_gain=3.55346 7.11123 2.98145 1.21482 1.53822
threshold=4.5000000000000009 -2.4999999999999996 3.0166666507720952 4.5000000000000009 3.6000000238418584
decision_type=2 2 2 2 2
left_child=2 -2 -1 4 -4
right_child=1 -3 3 -5 -6
leaf_value=0.0094838909969172068 -0.004587653522258219 0.03617831188254058 0.0052795376507160461 -0.018282554434104401 -0.012471611826465681
leaf_weight=34 23 20 23 22 26
leaf_count=34 23 20 23 22 26
internal_value=0.00226658 0.0143733 -0.00269139 -0.00852181 -0.00413944
internal_weight=148 43 105 71 49
internal_count=148 43 105 71 49
is_linear=0
shrinkage=0.05


Tree=73
num_leaves=7
num_cat=0
split_feature=18 26 1 27 20 16
split_gain=3.20699 2.8586 2.82745 3.54131 2.63884 0.638356
threshold=4.5000000000000009 3.6785713434219365 17.500000000000004 3.375640988349915 2.5000000000000004 1.0000000180025095e-35
decision_type=2 2 2 2 2 2
left_child=2 -2 3 4 -1 -5
right_child=1 -3 -4 5 -6 -7
leaf_value=0.024374737980819884 0.0010592215440490028 0.026849752912918731 -0.019471651762723925 -0.014450966809685765 -0.0010024760011583566 -0.0024060125684958293
leaf_weight=21 22 21 20 22 20 22
leaf_count=21 22 21 20 22 20 22
internal_value=0.00215325 0.0136546 -0.00255682 0.00142313 0.0119956 -0.00842849
internal_weight=148 43 105 85 41 44
internal_count=148 43 105 85 41 44
is_linear=0
shrinkage=0.05


Tree=74
num_leaves=5
num_cat=0
split_feature=19 25 27 13
split_gain=2.89439 5.19015 3.33846 2.48994
threshold=4.5000000000000009 3.928571462631226 2.9500000476837163 1.0000000180025095e-35
decision_type=2 2 2 2
left_child=1 2 -1 -4
right_child=-2 -3 3 -5
leaf_value=0.013516150589919451 -0.010065357867829703 0.028465137808095842 0.0045482515012500464 -0.016381278534730277
leaf_weight=33 37 21 27 30
leaf_count=33 37 21 27 30
internal_value=0.00204559 0.00608257 0.000859971 -0.00646729
internal_weight=148 111 90 57
internal_count=148 111 90 57
is_linear=0
shrinkage=0.05


Tree=75
num_leaves=6
num_cat=0
split_feature=27 27 3 5 7
split_gain=3.70677 4.17618 2.37808 2.13574 0.989841
threshold=3.0166666507720952 3.7833333015441899 3.6000000238418584 2.5000000000000004 6.5000000000000009
decision_type=2 2 2 2 2
left_child=-1 2 3 -2 -4
right_child=1 -3 4 -5 -6
leaf_value=0.014500196935195062 -0.010886889539659023 0.014586895215325059 -0.009232977889478208 0.010742457344063691 -0.024442239822130195
leaf_weight=36 25 24 20 21 23
leaf_count=36 25 24 20 21 23
internal_value=0.00052806 -0.00392324 -0.00891474 -0.00101262 -0.0173682
internal_weight=149 113 89 46 43
internal_count=149 113 89 46 43
is_linear=0
shrinkage=0.05


Tree=76
num_leaves=6
num_cat=0
split_feature=18 28 9 18 6
split_gain=3.04621 7.04153 3.69122 3.6469 0.132688
threshold=2.5000000000000004 -1.4999999999999998 13.500000000000002 3.5000000000000004 2.5000000000000004
decision_type=2 2 2 2 2
left_child=2 4 -1 -3 -2
right_child=1 3 -4 -5 -6
leaf_value=-0.024250344583845659 -0.013359642028808594 0.0033549622253135399 0.0027828349083262897 0.028490214168484653 -0.0076001203153282411
leaf_weight=23 20 27 28 31 20
leaf_count=23 20 27 28 31 20
internal_value=0.000501657 0.00565903 -0.0094086 0.0167893 -0.0104799
internal_weight=149 98 51 58 40
internal_count=149 98 51 58 40
is_linear=0
shrinkage=0.05


Tree=77
num_leaves=5
num_cat=0
split_feature=27 18 28 9
split_gain=3.39935 3.69048 7.22064 2.72867
threshold=3.0166666507720952 2.5000000000000004 -1.4999999999999998 17.500000000000004
decision_type=2 2 2 2
left_child=-1 -2 -3 -4
right_child=1 2 3 -5
leaf_value=0.013856783980089757 -0.017559709954623352 -0.015248743450159537 0.02844357444416909 0.003764067281736061
leaf_weight=36 34 34 21 24
leaf_count=36 34 34 21 24
internal_value=0.000476574 -0.00378615 0.00214171 0.0152812
internal_weight=149 113 79 45
internal_count=149 113 79 45
is_linear=0
shrinkage=0.05


Tree=78
num_leaves=6
num_cat=0
split_feature=27 27 3 5 7
split_gain=3.06792 3.48892 2.22095 1.91302 0.789704
threshold=3.0166666507720952 3.7833333015441899 3.6000000238418584 2.5000000000000004 6.5000000000000009
decision_type=2 2 2 2 2
left_child=-1 2 3 -2 -4
right_child=1 -3 4 -5 -6
leaf_value=0.013163944711494777 -0.0098678121753036988 0.013321807297567526 -0.0090622020140290263 0.010602712804185493 -0.022647130928690667
leaf_weight=36 25 24 20 21 23
leaf_count=36 25 24 20 21 23
internal_value=0.000452745 -0.00359684 -0.00815917 -0.000522573 -0.0163286
internal_weight=149 113 89 46 43
internal_count=149 113 89 46 43
is_linear=0
shrinkage=0.05


Tree=79
num_leaves=6
num_cat=0
split_feature=18 28 9 18 6
split_gain=2.53866 5.68682 3.26319 3.19244 0.118752
threshold=2.5000000000000004 -1.4999999999999998 12.500000000000002 3.5000000000000004 2.5000000000000004
decision_type=2 2 2 2 2
left_child=2 4 -1 -3 -2
right_child=1 3 -4 -5 -6
leaf_value=-0.023733640089631081 -0.01208966076374054 0.0025712945498526096 0.0019647385894010464 0.026088334686092791 -0.0066409878572449097
leaf_weight=21 20 27 30 31 20
leaf_count=21 20 27 30 31 20
internal_value=0.000430108 0.00513827 -0.00861695 0.0151407 -0.00936532
internal_weight=149 98 51 58 40
internal_count=149 98 51 58 40
is_linear=0
shrinkage=0.05


Tree=80
num_leaves=5
num_cat=0
split_feature=27 26 25 20
split_gain=3.54238 3.07697 2.37322 3.07816
threshold=3.716666698455811 3.8214286565780644 2.928571462631226 2.5000000000000004
decision_type=2 2 2 2
left_child=1 2 -1 -4
right_child=-2 -3 3 -5
leaf_value=-0.0076743907533968108 0.019748990010956063 -0.019574012726079674 0.023053043284876784 -0.00044803730285677474
leaf_weight=39 23 20 22 38
leaf_count=39 23 20 22 38
internal_value=0.00178582 -0.00168605 0.00192768 0.00816903
internal_weight=142 119 99 60
internal_count=142 119 99 60
is_linear=0
shrinkage=0.05


Tree=81
num_leaves=5
num_cat=0
split_feature=27 26 25 9
split_gain=3.197 2.77697 2.14183 2.94877
threshold=3.716666698455811 3.8214286565780644 2.928571462631226 15.500000000000002
decision_type=2 2 2 2
left_child=1 2 -1 -4
right_child=-2 -3 3 -5
leaf_value=-0.0072906710899984231 0.018761540244778861 -0.018595312554389239 -0.0036997481987907973 0.018481522039960948
leaf_weight=39 23 20 29 31
leaf_count=39 23 20 29 31
internal_value=0.00169653 -0.00160175 0.0018313 0.00776057
internal_weight=142 119 99 60
internal_count=142 119 99 60
is_linear=0
shrinkage=0.05


Tree=82
num_leaves=6
num_cat=0
split_feature=28 11 18 23 28
split_gain=2.91393 1.97125 2.04809 2.32263 0.982298
threshold=2.5000000000000004 16.500000000000004 3.5000000000000004 3.5000000000000004 -1.0000000180025095e-35
decision_type=2 2 2 2 2
left_child=1 4 -3 -4 -1
right_child=-2 2 3 -5 -6
leaf_value=-0.018061225333949552 0.018339726294983517 -0.0059485008502661281 0.022505500657661333 -0.00074185867719775574 -0.0030575608291352791
leaf_weight=20 22 33 21 22 24
leaf_count=20 22 33 21 22 24
internal_value=0.0016117 -0.0014551 0.00342097 0.0106115 -0.00987741
internal_weight=142 120 76 43 44
internal_count=142 120 76 43 44
is_linear=0
shrinkage=0.05


Tree=83
num_leaves=5
num_cat=0
split_feature=28 18 26 11
split_gain=2.74359 7.83434 2.18985 1.43285
threshold=-1.4999999999999998 3.5000000000000004 2.8571429252624516 36.500000000000007
decision_type=2 2 2 2
left_child=-1 2 -2 -4
right_child=1 -3 3 -5
leaf_value=-0.0097635056185073413 0.010714801561350571 0.029538466265568365 -0.013954912420184188 0.0029111101105809213
leaf_weight=39 23 26 34 20
leaf_count=39 23 26 34 20
internal_value=0.00153112 0.00580773 -0.00220525 -0.00770824
internal_weight=142 103 77 54
internal_count=142 103 77 54
is_linear=0
shrinkage=0.05


Tree=84
num_leaves=6
num_cat=0
split_feature=28 28 14 25 26
split_gain=2.63665 1.50661 1.79737 0.363883 0.590459
threshold=2.5000000000000004 -2.4999999999999996 -0.61559370160102833 2.7857142686843877 3.3928571939468388
decision_type=2 2 2 2 2
left_child=1 -1 -3 -4 -5
right_child=-2 2 3 4 -6
leaf_value=-0.011618044832721353 0.017366817491975699 0.014094221473417498 -0.0072807109604279205 0.005978891956012534 -0.005350739116092091
leaf_weight=28 22 22 24 23 23
leaf_count=28 22 22 24 23 23
internal_value=0.00145456 -0.00146268 0.00162808 -0.00228985 0.000314076
internal_weight=142 120 92 70 46
internal_count=142 120 92 70 46
is_linear=0
shrinkage=0.05


Tree=85
num_leaves=6
num_cat=0
split_feature=9 25 19 27 13
split_gain=2.65065 4.50442 3.53058 1.85075 0.138463
threshold=21.500000000000004 3.2142857313156132 2.5000000000000004 3.6166666746139531 0.25000000000000011
decision_type=2 2 2 2 2
left_child=2 -2 4 -4 -1
right_child=1 -3 3 -5 -6
leaf_value=-0.0005499327275902033 -0.0093710417035393987 0.020667740659943472 -0.010508740984667572 -0.029216535787563769 0.0053335740789771085
leaf_weight=20 26 24 39 20 20
leaf_count=20 26 24 39 20 20
internal_value=-0.00433638 0.00504757 -0.00907575 -0.0168504 0.00239182
internal_weight=149 50 99 59 40
internal_count=149 50 99 59 40
is_linear=0
shrinkage=0.05


Tree=86
num_leaves=6
num_cat=0
split_feature=9 25 14 18 28
split_gain=2.39221 4.06524 2.87905 2.37307 1.99259
threshold=21.500000000000004 3.2142857313156132 -0.78574731945991505 2.5000000000000004 -1.4999999999999998
decision_type=2 2 2 2 2
left_child=2 -2 -1 -4 -5
right_child=1 -3 3 4 -6
leaf_value=-0.024121536302339774 -0.0089024895873780433 0.019634353276342154 -0.015179109505923659 -0.0089529537688940765 0.011869434701899689
leaf_weight=23 26 24 29 20 27
leaf_count=23 26 24 29 20 27
internal_value=-0.00411956 0.00479519 -0.00862196 -0.0039313 0.00300884
internal_weight=149 50 99 76 47
internal_count=149 50 99 76 47
is_linear=0
shrinkage=0.05


Tree=87
num_leaves=7
num_cat=0
split_feature=9 14 19 26 3 3
split_gain=2.18866 3.11447 2.84066 1.4316 1.23746 0.532579
threshold=22.500000000000004 0.060268338769674627 2.5000000000000004 3.8928571939468388 2.7500000000000004 3.6000000238418584
decision_type=2 2 2 2 2 2
left_child=2 -2 4 5 -1 -4
right_child=1 -3 3 -5 -6 -7
leaf_value=0.011332102240994573 0.019373912257807598 -0.007546097067428161 -0.0033613388116161026 -0.024736407659524545 -0.0058522953270849862 -0.014622090242448309
leaf_weight=20 21 22 21 22 22 21
leaf_count=20 21 22 21 22 22 21
internal_value=-0.00391358 0.00560088 -0.00777322 -0.014404 0.00233075 -0.00899171
internal_weight=149 43 106 64 42 42
internal_count=149 43 106 64 42 42
is_linear=0
shrinkage=0.05


Tree=88
num_leaves=6
num_cat=0
split_feature=28 18 5 23 16
split_gain=2.19477 3.15651 1.43581 1.32975 0.646637
threshold=-2.4999999999999996 2.5000000000000004 2.5000000000000004 3.5000000000000004 1.0000000180025095e-35
decision_type=2 2 2 2 2
left_child=-1 3 -3 -2 -4
right_child=1 2 4 -5 -6
leaf_value=-0.016916771362034174 -0.0037240767519345838 0.015509915172767182 -0.0056448203245443966 -0.019726583986942256 0.0067632912525108883
leaf_weight=26 34 26 21 21 21
leaf_count=26 34 26 21 21 21
internal_value=-0.0037179 -0.000927896 0.00627567 -0.00983412 0.000559235
internal_weight=149 123 68 55 42
internal_count=149 123 68 55 42
is_linear=0
shrinkage=0.05


Tree=89
num_leaves=5
num_cat=0
split_feature=28 18 14 23
split_gain=2.02981 3.79353 1.42306 1.2001
threshold=-1.4999999999999998 2.5000000000000004 -0.70581671595573414 3.5000000000000004
decision_type=2 2 2 2
left_child=-1 3 -3 -2
right_child=1 2 -4 -5
leaf_value=-0.013332955104609332 -0.0035378729390418704 0.019867629995569586 0.0031484804262540168 -0.018740254431031646
leaf_weight=39 34 20 35 21
leaf_count=39 34 20 35 21
internal_value=-0.00353201 -5.71237e-05 0.00922817 -0.00934242
internal_weight=149 110 55 55
internal_count=149 110 55 55
is_linear=0
shrinkage=0.05


Tree=90
num_leaves=6
num_cat=0
split_feature=28 9 18 7 25
split_gain=5.22547 1.22079 1.33935 1.03674 0.812584
threshold=2.5000000000000004 13.500000000000002 4.5000000000000009 5.5000000000000009 3.3571429252624516
decision_type=2 2 2 2 2
left_child=1 3 4 -1 -3
right_child=-2 2 -4 -5 -6
leaf_value=-0.0027025009258650244 0.021331689334832704 0.0010230888133972056 0.010987374956973574 -0.017584874948740684 -0.011352919401334864
leaf_weight=25 26 36 22 22 21
leaf_count=25 26 36 22 22 21
internal_value=0.000923265 -0.003288 0.000508128 -0.00966872 -0.00353649
internal_weight=152 126 79 47 57
internal_count=152 126 79 47 57
is_linear=0
shrinkage=0.05


Tree=91
num_leaves=6
num_cat=0
split_feature=28 9 18 7 25
split_gain=4.71599 1.10176 1.20877 0.935657 0.733357
threshold=2.5000000000000004 13.500000000000002 4.5000000000000009 5.5000000000000009 3.3571429252624516
decision_type=2 2 2 2 2
left_child=1 3 4 -1 -3
right_child=-2 2 -4 -5 -6
leaf_value=-0.0025673759058117869 0.02026510455000859 0.00097193436813540761 0.010438006252727727 -0.016705631206489421 -0.010785273611102077
leaf_weight=25 26 36 22 22 21
leaf_count=25 26 36 22 22 21
internal_value=0.000877102 -0.0031236 0.000482722 -0.00918528 -0.00335967
internal_weight=152 126 79 47 57
internal_count=152 126 79 47 57
is_linear=0
shrinkage=0.05


Tree=92
num_leaves=6
num_cat=0
split_feature=28 9 18 7 25
split_gain=4.25618 0.994341 1.09091 0.84443 0.661855
threshold=2.5000000000000004 13.500000000000002 4.5000000000000009 5.5000000000000009 3.3571429252624516
decision_type=2 2 2 2 2
left_child=1 3 4 -1 -3
right_child=-2 2 -4 -5 -6
leaf_value=-0.0024390070629306138 0.01925184920143623 0.00092333768843673176 0.0099161060950295494 -0.015870349665849725 -0.010246009990528581
leaf_weight=25 26 36 22 22 21
leaf_count=25 26 36 22 22 21
internal_value=0.000833247 -0.00296742 0.000458586 -0.00872602 -0.00319169
internal_weight=152 126 79 47 57
internal_count=152 126 79 47 57
is_linear=0
shrinkage=0.05


Tree=93
num_leaves=5
num_cat=0
split_feature=28 21 9 27
split_gain=3.8412 0.994348 1.38215 0.50179
threshold=2.5000000000000004 1.5000000000000002 13.500000000000002 3.2500000000000004
decision_type=2 2 2 2
left_child=1 -1 -3 -4
right_child=-2 2 3 -5
leaf_value=0.0051265958494817222 0.018289257120341063 -0.0130473319149966 0.0051446252735331656 -0.0042600046638776928
leaf_weight=30 26 36 23 37
leaf_count=30 26 36 23 37
internal_value=0.000791584 -0.00281905 -0.00530206 -0.000654897
internal_weight=152 126 96 60
internal_count=152 126 96 60
is_linear=0
shrinkage=0.05


Tree=94
num_leaves=5
num_cat=0
split_feature=28 21 9 18
split_gain=3.46668 0.897399 1.24739 0.493376
threshold=2.5000000000000004 1.5000000000000002 13.500000000000002 3.5000000000000004
decision_type=2 2 2 2
left_child=1 -1 -3 -4
right_child=-2 2 3 -5
leaf_value=0.0048702660744311295 0.017374793970240995 -0.012394965336554582 -0.0056346988456897201 0.0034790232558875827
leaf_weight=30 26 36 27 33
leaf_count=30 26 36 27 33
internal_value=0.000752005 -0.00267809 -0.00503696 -0.000622152
internal_weight=152 126 96 60
internal_count=152 126 96 60
is_linear=0
shrinkage=0.05


Tree=95
num_leaves=6
num_cat=0
split_feature=18 28 28 6 15
split_gain=6.28042 3.84554 2.23769 2.06972 0.838774
threshold=2.5000000000000004 1.0000000180025095e-35 2.5000000000000004 4.5000000000000009 0.17992616817355159
decision_type=2 2 2 2 2
left_child=2 3 -1 4 -2
right_child=1 -3 -4 -5 -6
leaf_value=-0.004574649385861395 0.0041186480383787845 0.02580711324512959 -0.025651836104225369 0.014864940487314016 -0.0094361107274889954
leaf_weight=34 21 25 20 24 25
leaf_count=34 21 25 20 24 25
internal_value=0.00123457 0.00897395 -0.012381 0.00296211 -0.00324807
internal_weight=149 95 54 70 46
internal_count=149 95 54 70 46
is_linear=0
shrinkage=0.05


Tree=96
num_leaves=6
num_cat=0
split_feature=18 28 28 6 23
split_gain=5.66808 3.4706 2.01952 1.86793 0.775876
threshold=2.5000000000000004 1.0000000180025095e-35 2.5000000000000004 4.5000000000000009 2.5000000000000004
decision_type=2 2 2 2 2
left_child=2 3 -1 4 -2
right_child=1 -3 -4 -5 -6
leaf_value=-0.0043459171833841112 0.0028658401742577555 0.024516757726669312 -0.024369243555702271 0.014121693287355207 -0.010170790637355476
leaf_weight=34 25 25 20 24 21
leaf_count=34 25 25 20 24 21
internal_value=0.00117284 0.00852525 -0.011762 0.002814 -0.00308567
internal_weight=149 95 54 70 46
internal_count=149 95 54 70 46
is_linear=0
shrinkage=0.05


Tree=97
num_leaves=6
num_cat=0
split_feature=18 28 28 21 27
split_gain=5.11544 3.13221 1.82261 1.81099 1.26423
threshold=2.5000000000000004 1.0000000180025095e-35 2.5000000000000004 4.5000000000000009 3.2500000000000004
decision_type=2 2 2 2 2
left_child=2 3 -1 4 -2
right_child=1 -3 -4 -5 -6
leaf_value=-0.0041286212565062345 0.0062011451338944232 0.023290919259190562 -0.023150781551375985 0.015389244146645071 -0.0097511172518824005
leaf_weight=34 23 25 20 20 27
leaf_count=34 23 25 20 20 27
internal_value=0.0011142 0.00809899 -0.0111739 0.0026733 -0.00241308
internal_weight=149 95 54 70 50
internal_count=149 95 54 70 50
is_linear=0
shrinkage=0.05


Tree=98
num_leaves=5
num_cat=0
split_feature=18 18 28 25
split_gain=4.64159 2.31826 1.69355 1.53174
threshold=4.5000000000000009 1.5000000000000002 1.5000000000000002 3.2142857313156132
decision_type=2 2 2 2
left_child=1 -1 3 -3
right_child=-2 2 -4 -5
leaf_value=-0.016922792783265729 0.015879379948362329 0.0027480210473930294 0.011479420214891435 -0.013310268559251671
leaf_weight=27 39 33 23 27
leaf_count=27 39 33 23 27
internal_value=0.00105849 -0.00419619 -5.62156e-05 -0.00447821
internal_weight=149 110 83 60
internal_count=149 110 83 60
is_linear=0
shrinkage=0.05


Tree=99
num_leaves=6
num_cat=0
split_feature=25 18 22 20 5
split_gain=4.4378 2.46288 1.71301 4.36168 0.953972
threshold=4.5000000000000009 1.5000000000000002 2.5000000000000004 3.5000000000000004 2.5000000000000004
decision_type=2 2 2 2 2
left_child=1 -1 4 -4 -3
right_child=-2 2 3 -5 -6
leaf_value=-0.016483166862279179 0.022920515444129708 0.001091069711202925 0.016334758211786933 -0.012384659829549491 -0.013472533444671529
leaf_weight=25 20 22 39 20 23
leaf_count=25 20 22 39 20 23
internal_value=0.00100556 -0.0023921 0.00099517 0.00659936 -0.00635255
internal_weight=149 129 104 59 45
internal_count=149 129 104 59 45
is_linear=0
shrinkage=0.05


Tree=100
num_leaves=6
num_cat=0
split_feature=18 28 18 27 6
split_gain=3.61224 4.30634 2.39555 1.91065 1.16676
threshold=5.5000000000000009 -1.4999999999999998 3.5000000000000004 2.9500000476837163 3.5000000000000004
decision_type=2 2 2 2 2
left_child=1 -1 3 -3 -5
right_child=-2 2 -4 4 -6
leaf_value=-0.021377805179065984 0.021041724267415702 0.011097878661184085 0.016388016939163207 0.0002647389802311001 -0.014321950792621536
leaf_weight=23 20 21 24 29 26
leaf_count=23 20 21 24 29 26
internal_value=0.0013344 -0.00187004 0.00261675 -0.00173208 -0.00663079
internal_weight=143 123 100 76 55
internal_count=143 123 100 76 55
is_linear=0
shrinkage=0.05


Tree=101
num_leaves=6
num_cat=0
split_feature=18 28 3 28 26
split_gain=3.26004 3.88647 2.24579 3.7105 0.801274
threshold=5.5000000000000009 -1.4999999999999998 2.2500000000000004 1.5000000000000002 3.5357142686843877
decision_type=2 2 2 2 2
left_child=1 -1 -3 4 -4
right_child=-2 2 3 -5 -6
leaf_value=-0.020308915097468898 0.019989638504339383 -0.0089598102339853835 0.0049894835597471057 0.022366552900236387 -0.0085192063912039716
leaf_weight=23 20 30 23 26 21
leaf_count=23 20 30 23 26 21
internal_value=0.00126768 -0.00177654 0.00248591 0.00739122 -0.00145785
internal_weight=143 123 100 70 44
internal_count=143 123 100 70 44
is_linear=0
shrinkage=0.05


Tree=102
num_leaves=6
num_cat=0
split_feature=18 28 18 27 6
split_gain=2.94219 3.50754 2.17127 1.74094 1.04242
threshold=5.5000000000000009 -1.4999999999999998 3.5000000000000004 2.9500000476837163 3.5000000000000004
decision_type=2 2 2 2 2
left_child=1 -1 3 -3 -5
right_child=-2 2 -4 4 -6
leaf_value=-0.019293469289803637 0.018990156271029263 0.010468302134956633 0.01547237834893167 6.3013813683185095e-05 -0.013724519879682562
leaf_weight=23 20 21 24 29 26
leaf_count=23 20 21 24 29 26
internal_value=0.0012043 -0.00168771 0.00236161 -0.00177863 -0.00645473
internal_weight=143 123 100 76 55
internal_count=143 123 100 76 55
is_linear=0
shrinkage=0.05


Tree=103
num_leaves=6
num_cat=0
split_feature=18 28 3 28 7
split_gain=2.65533 3.16555 2.00443 3.40309 0.567914
threshold=5.5000000000000009 -1.4999999999999998 2.2500000000000004 1.5000000000000002 5.5000000000000009
decision_type=2 2 2 2 2
left_child=1 -1 -3 4 -4
right_child=-2 2 3 -5 -6
leaf_value=-0.018328796043668105 0.018040648028254509 -0.0085696689505130059 0.0046258359123021366 0.021219358899487326 -0.0067823648996030291
leaf_weight=23 20 30 20 26 24
leaf_count=23 20 30 20 26 24
internal_value=0.00114408 -0.00160333 0.00224353 0.00687776 -0.00159682
internal_weight=143 123 100 70 44
internal_count=143 123 100 70 44
is_linear=0
shrinkage=0.05


Tree=104
num_leaves=5
num_cat=0
split_feature=18 3 3 4
split_gain=2.39643 2.33913 1.85635 4.26392
threshold=5.5000000000000009 2.2500000000000004 4.1500000953674325 1.0000000180025095e-35
decision_type=2 2 2 2
left_child=1 -1 3 -3
right_child=-2 2 -4 -5
leaf_value=-0.012035340264697585 0.017138615753501656 -0.0044895194670131712 -0.0054541949572897448 0.025064856437561307
leaf_weight=37 20 26 37 23
leaf_count=37 20 26 37 23
internal_value=0.00108688 -0.00152316 0.00299952 0.00938294
internal_weight=143 123 86 49
internal_count=143 123 86 49
is_linear=0
shrinkage=0.05


Tree=105
num_leaves=6
num_cat=0
split_feature=28 18 7 9 5
split_gain=3.16638 3.49512 2.32278 2.20999 1.41818
threshold=-1.4999999999999998 2.5000000000000004 7.5000000000000009 12.500000000000002 2.5000000000000004
decision_type=2 2 2 2 2
left_child=4 3 -3 -2 -1
right_child=1 2 -4 -5 -6
leaf_value=-0.020424907299734299 -0.015872795840867027 0.004999468176428116 0.025442683778237551 0.004194972527158611 -0.0018210564495529981
leaf_weight=21 23 33 24 34 20
leaf_count=21 23 33 24 34 20
internal_value=0.000566564 0.00485229 0.0136071 -0.00390255 -0.0113499
internal_weight=155 114 57 57 41
internal_count=155 114 57 57 41
is_linear=0
shrinkage=0.05


Tree=106
num_leaves=6
num_cat=0
split_feature=14 27 26 15 27
split_gain=1.57291 2.23661 2.18309 2.36487 0.808741
threshold=0.85421994328498851 2.8333332538604741 3.5357142686843877 -0.060268338769674384 3.5108696222305302
decision_type=2 2 2 2 2
left_child=1 -1 4 -4 -3
right_child=-2 2 3 -5 -6
leaf_value=0.016723093422858614 -0.012185048731598295 -0.002742042427818323 -0.0047476366378499998 0.015008535404040508 -0.015626055654138327
leaf_weight=23 21 29 28 33 21
leaf_count=23 21 29 28 33 21
internal_value=0.000538236 0.00253218 -0.000408275 0.00594013 -0.00815333
internal_weight=155 134 111 61 50
internal_count=155 134 111 61 50
is_linear=0
shrinkage=0.05


Tree=107
num_leaves=6
num_cat=0
split_feature=28 18 11 1 5
split_gain=2.86229 3.11314 1.97185 1.89425 1.26497
threshold=-1.4999999999999998 2.5000000000000004 30.500000000000004 12.500000000000002 2.5000000000000004
decision_type=2 2 2 2 2
left_child=4 3 -3 -2 -1
right_child=1 2 -4 -5 -6
leaf_value=-0.019389286335735098 0.0055996764709042128 0.0043318914024219396 0.023003304334214103 -0.012632893387565453 -0.0018190652620978652
leaf_weight=21 28 31 26 29 20
leaf_count=21 28 31 26 29 20
internal_value=0.000511324 0.00458607 0.0128487 -0.00367654 -0.0108184
internal_weight=155 114 57 57 41
internal_count=155 114 57 57 41
is_linear=0
shrinkage=0.05


Tree=108
num_leaves=6
num_cat=0
split_feature=28 28 19 9 1
split_gain=2.64945 1.38967 1.0504 1.02392 0.711409
threshold=1.5000000000000002 -2.4999999999999996 2.5000000000000004 12.500000000000002 14.500000000000002
decision_type=2 2 2 2 2
left_child=1 -1 -3 -2 -4
right_child=3 2 4 -5 -6
leaf_value=-0.013109401613473893 0.0032894912548363207 0.0070757506595503896 -0.0090762283695353715 0.019097275882294137 0.0025313801470805298
leaf_weight=28 20 31 33 21 22
leaf_count=28 20 31 33 21 22
internal_value=0.000485758 -0.00343456 -0.000284615 0.0113862 -0.00443318
internal_weight=155 114 86 41 55
internal_count=155 114 86 41 55
is_linear=0
shrinkage=0.05


Tree=109
num_leaves=6
num_cat=0
split_feature=28 28 16 5 9
split_gain=2.39113 1.25418 1.0115 1.06217 0.924091
threshold=1.5000000000000002 -2.4999999999999996 1.0000000180025095e-35 2.5000000000000004 12.500000000000002
decision_type=2 2 2 2 2
left_child=1 -1 3 -3 -2
right_child=4 2 -4 -5 -6
leaf_value=-0.012453931167588703 0.0031250165589153766 0.011319522567093373 -0.0078726458250834002 -0.0024354496446903798 0.018142411937671049
leaf_weight=28 20 25 29 32 21
leaf_count=28 20 25 29 32 21
internal_value=0.00046147 -0.00326283 -0.000270384 0.00359743 0.0108169
internal_weight=155 114 86 57 41
internal_count=155 114 86 57 41
is_linear=0
shrinkage=0.05


Tree=110
num_leaves=6
num_cat=0
split_feature=15 11 20 9 18
split_gain=2.21512 4.04641 1.6524 2.18129 0.931079
threshold=0.61559370160102855 5.5000000000000009 4.5000000000000009 21.500000000000004 3.5000000000000004
decision_type=2 2 2 2 2
left_child=2 -2 3 4 -1
right_child=1 -3 -4 -5 -6
leaf_value=-0.013743519336761288 -0.0068631163840605462 0.023130979372755343 -0.014709076648578049 0.011947376368081441 0.00018396738062923153
leaf_weight=24 22 23 30 23 24
leaf_count=24 22 23 30 23 24
internal_value=-0.000759506 0.0084672 -0.00487041 -0.000713234 -0.00677978
internal_weight=146 45 101 71 48
internal_count=146 45 101 71 48
is_linear=0
shrinkage=0.05


Tree=111
num_leaves=6
num_cat=0
split_feature=15 11 26 3 11
split_gain=1.99915 3.65188 1.58079 1.77026 1.26653
threshold=0.61559370160102855 5.5000000000000009 3.8928571939468388 4.1500000953674325 24.500000000000004
decision_type=2 2 2 2 2
left_child=2 -2 3 4 -1
right_child=1 -3 -4 -5 -6
leaf_value=-0.0019560575789700336 -0.0065199605358595208 0.021974430451898473 -0.013407898239572259 -0.012199611154695353 0.014780079283518717
leaf_weight=26 22 23 34 21 20
leaf_count=26 22 23 34 21 20
internal_value=-0.000721531 0.00804384 -0.00462689 -0.000170862 0.00532052
internal_weight=146 45 101 67 46
internal_count=146 45 101 67 46
is_linear=0
shrinkage=0.05


Tree=112
num_leaves=6
num_cat=0
split_feature=15 11 9 18 26
split_gain=1.80423 3.29582 1.50612 1.60334 2.27424
threshold=0.61559370160102855 5.5000000000000009 10.500000000000002 4.5000000000000009 3.8214286565780644
decision_type=2 2 2 2 2
left_child=2 -2 -1 4 -4
right_child=1 -3 3 -5 -6
leaf_value=-0.01476565897017001 -0.0061939625027166174 0.020875708742634114 0.0028259480421459586 0.010922424127126025 -0.018222406488798915
leaf_weight=26 22 23 33 21 21
leaf_count=26 22 23 33 21 21
internal_value=-0.000685454 0.00764165 -0.00439555 -0.000800578 -0.00535952
internal_weight=146 45 101 75 54
internal_count=146 45 101 75 54
is_linear=0
shrinkage=0.05


Tree=113
num_leaves=6
num_cat=0
split_feature=15 11 9 25 3
split_gain=1.62832 2.97448 1.40446 1.43743 0.803474
threshold=0.61559370160102855 5.5000000000000009 21.500000000000004 3.7857142686843877 3.6000000238418584
decision_type=2 2 2 2 2
left_child=2 -2 3 4 -1
right_child=1 -3 -4 -5 -6
leaf_value=0.0034688760010201645 -0.0058842643841423778 0.01983192328201688 0.0041010147713891722 -0.018178827761827658 -0.010233986147213728
leaf_weight=23 22 23 34 24 20
leaf_count=23 22 23 34 24 20
internal_value=-0.000651182 0.00725956 -0.00417577 -0.00837593 -0.00290455
internal_weight=146 45 101 67 43
internal_count=146 45 101 67 43
is_linear=0
shrinkage=0.05


Tree=114
num_leaves=6
num_cat=0
split_feature=15 26 20 9 3
split_gain=1.46956 2.72039 1.38273 1.75765 0.998424
threshold=0.61559370160102855 3.0357142686843877 4.5000000000000009 21.500000000000004 3.6000000238418584
decision_type=2 2 2 2 2
left_child=2 -2 3 4 -1
right_child=1 -3 -4 -5 -6
leaf_value=0.0013069396689534187 -0.0051268046316893211 0.019466496064242993 -0.01296707103960216 0.011200728583271089 -0.013127974732576507
leaf_weight=25 23 22 30 23 23
leaf_count=25 23 22 30 23 23
internal_value=-0.000618623 0.00689659 -0.00396698 -0.000164129 -0.00560979
internal_weight=146 45 101 71 48
internal_count=146 45 101 71 48
is_linear=0
shrinkage=0.05


Tree=115
num_leaves=6
num_cat=0
split_feature=18 28 18 28 25
split_gain=2.62001 3.14204 4.17511 1.16911 0.980813
threshold=1.5000000000000002 -2.4999999999999996 4.5000000000000009 1.5000000000000002 3.2142857313156132
decision_type=2 2 2 2 2
left_child=-1 -2 3 4 -3
right_child=1 2 -4 -5 -6
leaf_value=-0.016194544546306134 -0.013589326421996312 0.0034292399240647298 0.025793413931969558 0.010383480454662017 -0.0094808486831043995
leaf_weight=26 28 28 20 21 31
leaf_count=26 28 28 20 21 31
internal_value=-0.00172419 0.0012151 0.00536034 0.000252069 -0.00335403
internal_weight=154 128 100 80 59
internal_count=154 128 100 80 59
is_linear=0
shrinkage=0.05


Tree=116
num_leaves=6
num_cat=0
split_feature=18 28 18 28 25
split_gain=2.36456 2.83569 3.76803 1.05513 0.885184
threshold=1.5000000000000002 -2.4999999999999996 4.5000000000000009 1.5000000000000002 3.2142857313156132
decision_type=2 2 2 2 2
left_child=-1 -2 3 4 -3
right_child=1 2 -4 -5 -6
leaf_value=-0.01538481699446073 -0.012909859591828927 0.0032577777231511265 0.024503742882516236 0.0098643066405895222 -0.0090068062861269754
leaf_weight=26 28 28 20 21 31
leaf_count=26 28 28 20 21 31
internal_value=-0.00163798 0.00115434 0.00509232 0.000239465 -0.00318633
internal_weight=154 128 100 80 59
internal_count=154 128 100 80 59
is_linear=0
shrinkage=0.05


Tree=117
num_leaves=6
num_cat=0
split_feature=18 28 18 26 15
split_gain=2.13401 2.55921 3.40065 1.01308 1.13907
threshold=1.5000000000000002 -2.4999999999999996 4.5000000000000009 3.8928571939468388 -0.61559370160102833
decision_type=2 2 2 2 2
left_child=-1 -2 3 4 -3
right_child=1 2 -4 -5 -6
leaf_value=-0.01461557624861598 -0.012264366993414504 -0.0055781649848954248 0.023278556107543411 -0.0095180790964514012 0.0087179098183313691
leaf_weight=26 28 22 20 20 38
leaf_count=26 28 22 20 20 38
internal_value=-0.00155608 0.00109663 0.0048377 0.000227492 0.00347602
internal_weight=154 128 100 80 60
internal_count=154 128 100 80 60
is_linear=0
shrinkage=0.05


Tree=118
num_leaves=6
num_cat=0
split_feature=18 28 9 9 6
split_gain=1.92595 2.39155 2.00039 0.942264 0.687895
threshold=1.5000000000000002 -1.0000000180025095e-35 12.500000000000002 23.500000000000004 4.5000000000000009
decision_type=2 2 2 2 2
left_child=-1 4 -3 -4 -2
right_child=1 2 3 -5 -6
leaf_value=-0.013884797144251374 -0.010054210487933 0.019181184067080418 -0.0067689047963358472 0.0082263768311928633 0.00084840750686176461
leaf_weight=26 39 24 20 22 23
leaf_count=26 39 24 20 22 23
internal_value=-0.00147828 0.0010418 0.00766592 0.00108577 -0.00600969
internal_weight=154 128 66 42 62
internal_count=154 128 66 42 62
is_linear=0
shrinkage=0.05


Tree=119
num_leaves=6
num_cat=0
split_feature=28 3 15 7 9
split_gain=1.35748 1.42958 2.83907 0.858571 0.588023
threshold=-2.4999999999999996 2.2500000000000004 0.61559370160102855 7.5000000000000009 19.500000000000004
decision_type=2 2 2 2 2
left_child=-1 4 3 -3 -2
right_child=1 2 -4 -5 -6
leaf_value=-0.011362596508115531 -0.011683234475397816 -0.0053592526901362313 0.021126245979976376 0.0067834799721216161 -0.00022656905487002362
leaf_weight=28 24 37 20 24 21
leaf_count=28 24 37 20 24 21
internal_value=-0.00140436 0.000808575 0.00477822 -0.000581784 -0.00633679
internal_weight=154 126 81 61 45
internal_count=154 126 81 61 45
is_linear=0
shrinkage=0.05


Tree=120
num_leaves=5
num_cat=0
split_feature=26 26 27 3
split_gain=1.88914 2.46448 1.8614 0.943527
threshold=3.8928571939468388 3.6071428060531621 2.9500000476837163 3.6000000238418584
decision_type=2 2 2 2
left_child=1 2 -1 -4
right_child=-2 -3 3 -5
leaf_value=0.0080332633816878503 -0.010490908453432032 0.017727378908810872 -0.00074945807291735569 -0.013534390208897767
leaf_weight=34 39 21 31 27
leaf_count=34 39 21 31 27
internal_value=-0.00100264 0.00227207 -0.00125577 -0.00670106
internal_weight=152 113 92 58
internal_count=152 113 92 58
is_linear=0
shrinkage=0.05


Tree=121
num_leaves=6
num_cat=0
split_feature=15 3 21 3 27
split_gain=1.83342 2.88706 1.15263 0.953787 0.242582
threshold=-0.5163939595222472 3.6000000238418584 2.5000000000000004 3.6000000238418584 3.4152299165725712
decision_type=2 2 2 2 2
left_child=1 -1 4 -4 -2
right_child=2 -3 3 -5 -6
leaf_value=-0.0044059383312952168 0.0054342283933822601 0.019913036463296285 -0.0037402837385889145 -0.016382984129282144 -0.0021656143966884839
leaf_weight=26 21 23 35 26 21
leaf_count=26 21 23 35 26 21
internal_value=-0.000952508 0.00700909 -0.00474006 -0.00912898 0.00163431
internal_weight=152 49 103 61 42
internal_count=152 49 103 61 42
is_linear=0
shrinkage=0.05


Tree=122
num_leaves=7
num_cat=0
split_feature=15 3 19 1 23 1
split_gain=1.65467 2.60557 1.29395 1.06865 0.368683 0.213705
threshold=-0.5163939595222472 3.6000000238418584 2.5000000000000004 9.5000000000000018 2.5000000000000004 11.500000000000002
decision_type=2 2 2 2 2 2
left_child=1 -1 5 -4 -5 -2
right_child=2 -3 3 4 -6 -7
leaf_value=-0.0041856419563723298 -0.0078815483604557819 0.018917383810343302 -0.0086253798349112589 0.0001001489971531555 0.0097007028013467791 -0.015190880878362806
leaf_weight=26 20 23 23 20 20 20
leaf_count=26 20 23 23 20 20 20
internal_value=-0.000904883 0.00665864 -0.00450306 -3.75667e-05 0.00490043 -0.0115362
internal_weight=152 49 103 63 40 40
internal_count=152 49 103 63 40 40
is_linear=0
shrinkage=0.05


Tree=123
num_leaves=5
num_cat=0
split_feature=26 26 27 3
split_gain=1.62105 2.14431 1.66647 0.933555
threshold=3.8928571939468388 3.6071428060531621 2.9500000476837163 3.6000000238418584
decision_type=2 2 2 2
left_child=1 2 -1 -4
right_child=-2 -3 3 -5
leaf_value=0.0076723096289617173 -0.0096489144154848216 0.016590305821349224 -0.00034910653747858542 -0.013066296686452848
leaf_weight=34 39 21 31 27
leaf_count=34 39 21 31 27
internal_value=-0.000859638 0.00217383 -0.00111689 -0.00626918
internal_weight=152 113 92 58
internal_count=152 113 92 58
is_linear=0
shrinkage=0.05


Tree=124
num_leaves=6
num_cat=0
split_feature=15 3 19 17 1
split_gain=1.48693 2.36621 1.19669 0.969777 0.178903
threshold=-0.5163939595222472 3.6000000238418584 2.5000000000000004 1.0000000180025095e-35 11.500000000000002
decision_type=2 2 2 2 2
left_child=1 -1 4 -4 -2
right_child=2 -3 3 -5 -6
leaf_value=-0.0039809123953231254 -0.007647404677700251 0.018035381978742129 -0.0058479773021782892 0.0065730794317399466 -0.014335143771022558
leaf_weight=26 20 23 33 30 20
leaf_count=26 20 23 33 30 20
internal_value=-0.000816656 0.00635327 -0.00422759 6.68116e-05 -0.0109913
internal_weight=152 49 103 63 40
internal_count=152 49 103 63 40
is_linear=0
shrinkage=0.05


Tree=125
num_leaves=6
num_cat=0
split_feature=28 9 13 14 28
split_gain=3.57614 1.14109 1.24546 0.599682 0.954833
threshold=2.5000000000000004 7.5000000000000009 0.68301269412040722 0.78574731945991527 -1.4999999999999998
decision_type=2 2 2 2 2
left_child=1 -1 3 4 -3
right_child=-2 2 -4 -5 -6
leaf_value=0.010616535110318143 0.022352286364713855 0.012836462910054254 -0.011683888228920599 -0.0055475042469840009 -0.00066065372084267437
leaf_weight=23 22 20 24 23 38
leaf_count=23 22 20 24 23 38
internal_value=0.00373033 0.000529678 -0.00167982 0.00128434 0.00399352
internal_weight=150 128 105 81 58
internal_count=150 128 105 81 58
is_linear=0
shrinkage=0.05


Tree=126
num_leaves=6
num_cat=0
split_feature=28 3 27 7 14
split_gain=3.22747 1.08753 1.71541 0.899989 0.807429
threshold=2.5000000000000004 2.7500000000000004 3.375640988349915 8.5000000000000018 0.51639395952224743
decision_type=2 2 2 2 2
left_child=1 2 -1 4 -3
right_child=-2 3 -4 -5 -6
leaf_value=-0.0024793615763041158 0.021234672266820617 0.0066250332599828172 0.015892416422138924 -0.011530398213021133 -0.0056113591234731889
leaf_weight=27 22 26 24 23 28
leaf_count=27 22 26 24 23 28
internal_value=0.00354381 0.000503194 0.00616618 -0.00324761 0.000280237
internal_weight=150 128 51 77 54
internal_count=150 128 51 77 54
is_linear=0
shrinkage=0.05


Tree=127
num_leaves=6
num_cat=0
split_feature=16 23 25 9 7
split_gain=2.31407 1.43888 1.68176 1.05959 0.567893
threshold=-0.87837970256805409 3.5000000000000004 3.5000000000000004 13.500000000000002 6.5000000000000009
decision_type=2 2 2 2 2
left_child=-1 2 3 -2 -3
right_child=1 4 -4 -5 -6
leaf_value=0.01725328358821571 -0.010630145653267392 -0.0011378859796206512 0.012341138073620764 0.0046778084750537978 -0.012765982702729248
leaf_weight=25 20 21 37 26 21
leaf_count=25 20 21 37 26 21
internal_value=0.00336662 0.000589288 0.00440533 -0.00197782 -0.00695193
internal_weight=150 125 83 46 42
internal_count=150 125 83 46 42
is_linear=0
shrinkage=0.05


Tree=128
num_leaves=6
num_cat=0
split_feature=28 9 13 18 25
split_gain=2.86544 1.01402 1.07154 1.10625 0.459676
threshold=2.5000000000000004 7.5000000000000009 0.68301269412040722 4.5000000000000009 3.2142857313156132
decision_type=2 2 2 2 2
left_child=1 -1 3 4 -3
right_child=-2 2 -4 -5 -6
leaf_value=0.0098419207188746218 0.019867457373237071 0.0013129189517349007 -0.011028891468110185 0.0097452198788523688 -0.0077703643196190778
leaf_weight=23 22 30 24 25 26
leaf_count=23 22 30 24 25 26
internal_value=0.00319829 0.000333276 -0.00174957 0.000999859 -0.00290432
internal_weight=150 128 105 81 56
internal_count=150 128 105 81 56
is_linear=0
shrinkage=0.05


Tree=129
num_leaves=6
num_cat=0
split_feature=28 3 27 7 11
split_gain=2.58606 0.967103 1.49393 0.776818 0.351369
threshold=2.5000000000000004 2.7500000000000004 3.375640988349915 8.5000000000000018 18.500000000000004
decision_type=2 2 2 2 2
left_child=1 2 -1 4 -3
right_child=-2 3 -4 -5 -6
leaf_value=-0.0024112937489041576 0.018874083298512482 -0.0041283673015781322 0.0147335411097932 -0.010915590132303213 0.0039436598108815299
leaf_weight=27 22 26 24 23 28
leaf_count=27 22 26 24 23 28
internal_value=0.00303837 0.000316613 0.00565686 -0.00322044 5.71282e-05
internal_weight=150 128 51 77 54
internal_count=150 128 51 77 54
is_linear=0
shrinkage=0.05


Tree=130
num_leaves=6
num_cat=0
split_feature=28 19 12 20 22
split_gain=1.83366 1.11229 0.947769 0.626504 0.565147
threshold=2.5000000000000004 4.5000000000000009 0.68301269412040722 4.5000000000000009 2.5000000000000004
decision_type=2 2 2 2 2
left_child=1 2 3 4 -1
right_child=-2 -3 -4 -5 -6
leaf_value=0.0018177816923707726 0.013816773394743602 -0.0096616115591799234 -0.0068508120086044066 -0.0023086942478337071 0.013198149491411945
leaf_weight=20 24 30 25 22 24
leaf_count=20 24 30 25 22 24
internal_value=0.00119175 -0.00131239 0.00144011 0.00458061 0.00802526
internal_weight=145 121 91 66 44
internal_count=145 121 91 66 44
is_linear=0
shrinkage=0.05


Tree=131
num_leaves=5
num_cat=0
split_feature=27 14 25 20
split_gain=2.46567 1.24129 0.992979 0.699662
threshold=2.7679487466812138 -0.70581671595573414 3.5000000000000004 2.5000000000000004
decision_type=2 2 2 2
left_child=-1 -2 3 -3
right_child=1 2 -4 -5
leaf_value=0.016548978895033626 0.0058869758375773304 -0.016234828730045014 0.0013211337487316795 -0.0042227239904200865
leaf_weight=22 38 22 36 27
leaf_count=22 38 22 36 27
internal_value=0.00113216 -0.00162532 -0.00498375 -0.00961591
internal_weight=145 123 85 49
internal_count=145 123 85 49
is_linear=0
shrinkage=0.05


Tree=132
num_leaves=5
num_cat=0
split_feature=27 14 25 20
split_gain=2.22527 1.12027 0.896163 0.631445
threshold=2.7679487466812138 -0.70581671595573414 3.5000000000000004 2.5000000000000004
decision_type=2 2 2 2
left_child=-1 -2 3 -3
right_child=1 2 -4 -5
leaf_value=0.015721529876728629 0.0055926271616236166 -0.015423086871901019 0.0012550771288159822 -0.0040115877483643736
leaf_weight=22 38 22 36 27
leaf_count=22 38 22 36 27
internal_value=0.00107556 -0.00154405 -0.00473456 -0.00913512
internal_weight=145 123 85 49
internal_count=145 123 85 49
is_linear=0
shrinkage=0.05


Tree=133
num_leaves=6
num_cat=0
split_feature=27 14 19 25 27
split_gain=2.0083 1.01104 0.879496 2.1085 0.181936
threshold=2.7679487466812138 -0.70581671595573414 4.5000000000000009 3.5000000000000004 3.3266665935516362
decision_type=2 2 2 2 2
left_child=-1 -2 3 4 -3
right_child=1 2 -4 -5 -6
leaf_value=0.014935454128863058 0.0053129955427721146 -0.004968833271414042 -0.013376707662384781 0.010532537535966738 -0.011632235522293264
leaf_weight=22 38 20 21 23 21
leaf_count=22 38 20 21 23 21
internal_value=0.00102178 -0.00146685 -0.00449784 -0.00158446 -0.0083818
internal_weight=145 123 85 64 41
internal_count=145 123 85 64 41
is_linear=0
shrinkage=0.05


Tree=134
num_leaves=6
num_cat=0
split_feature=15 3 19 3 27
split_gain=1.84237 1.6414 0.633508 0.744681 1.38503
threshold=-0.5163939595222472 3.6000000238418584 1.5000000000000002 2.2500000000000004 3.5833332538604741
decision_type=2 2 2 2 2
left_child=1 -1 -2 -4 -5
right_child=2 -3 3 4 -6
leaf_value=-0.00062594822692600173 -0.0099416807992383852 0.018281747709261255 -0.0074482291883144246 -0.0052157243527472018 0.011600255601418516
leaf_weight=22 24 24 26 25 24
leaf_count=22 24 24 26 25 24
internal_value=0.000970688 0.00923894 -0.00287112 -0.000608546 0.00302067
internal_weight=145 46 99 75 49
internal_count=145 46 99 75 49
is_linear=0
shrinkage=0.05


Tree=135
num_leaves=5
num_cat=0
split_feature=1 4 7 18
split_gain=1.87262 2.70439 4.55559 1.76702
threshold=15.500000000000002 1.0000000180025095e-35 5.5000000000000009 3.5000000000000004
decision_type=2 2 2 2
left_child=1 -1 -3 -2
right_child=3 2 -4 -5
leaf_value=-0.004726621208903499 -0.017667652033269404 0.0014793584218774087 0.029166294510165853 0.0030985774428007149
leaf_weight=39 20 39 24 21
leaf_count=39 20 39 24 21
internal_value=0.00199346 0.00562106 0.0120268 -0.00703129
internal_weight=143 102 63 41
internal_count=143 102 63 41
is_linear=0
shrinkage=0.05


Tree=136
num_leaves=5
num_cat=0
split_feature=1 4 11 18
split_gain=1.69004 2.44072 4.11142 1.59473
threshold=15.500000000000002 1.0000000180025095e-35 22.500000000000004 3.5000000000000004
decision_type=2 2 2 2
left_child=1 -1 -3 -2
right_child=3 2 -4 -5
leaf_value=-0.004490290103683201 -0.016784269451163708 0.0014053903782787996 0.027707980231692395 0.0029436488414094561
leaf_weight=39 20 39 24 21
leaf_count=39 20 39 24 21
internal_value=0.00189379 0.00534 0.0114254 -0.00667973
internal_weight=143 102 63 41
internal_count=143 102 63 41
is_linear=0
shrinkage=0.05


Tree=137
num_leaves=6
num_cat=0
split_feature=18 1 28 25 26
split_gain=1.59499 2.34345 2.28903 1.36648 1.3601
threshold=4.5000000000000009 17.500000000000004 1.5000000000000002 3.2142857313156132 3.7500000000000004
decision_type=2 2 2 2 2
left_child=1 2 3 -1 -2
right_child=4 -3 -4 -5 -6
leaf_value=0.0024509436761339506 0.0012407297002417703 -0.016433187840240344 0.013874220924584993 -0.014112004947382956 0.01945967352250591
leaf_weight=33 21 21 28 20 20
leaf_count=33 21 21 28 20 20
internal_value=0.0017991 -0.0015488 0.00231011 -0.00379923 0.010128
internal_weight=143 102 81 53 41
internal_count=143 102 81 53 41
is_linear=0
shrinkage=0.05


Tree=138
num_leaves=6
num_cat=0
split_feature=18 1 28 25 26
split_gain=1.43948 2.11497 2.06585 1.23325 1.22749
threshold=4.5000000000000009 17.500000000000004 1.5000000000000002 3.2142857313156132 3.7500000000000004
decision_type=2 2 2 2 2
left_child=1 2 3 -1 -2
right_child=4 -3 -4 -5 -6
leaf_value=0.0023283965239291621 0.0011786931859595435 -0.015611528457763294 0.013180510412036842 -0.013406404596753419 0.018486688975244761
leaf_weight=33 21 21 28 20 20
leaf_count=33 21 21 28 20 20
internal_value=0.00170914 -0.00147136 0.00219461 -0.00360926 0.00962162
internal_weight=143 102 81 53 41
internal_count=143 102 81 53 41
is_linear=0
shrinkage=0.05


Tree=139
num_leaves=5
num_cat=0
split_feature=17 15 15 25
split_gain=1.56742 1.84502 1.61851 2.44541
threshold=-0.56174489110708226 -0.5163939595222472 0.40966403484344488 3.0714285373687749
decision_type=2 2 2 2
left_child=-1 -2 -3 -4
right_child=1 2 3 -5
leaf_value=-0.0075717597321740219 0.014675103794434109 -0.0075341993031491127 -0.0048120871895835516 0.01961731204763055
leaf_weight=35 32 35 21 20
leaf_count=35 32 35 21 20
internal_value=0.00162369 0.00460369 0.000363098 0.00710469
internal_weight=143 108 76 41
internal_count=143 108 76 41
is_linear=0
shrinkage=0.05


Tree=140
num_leaves=6
num_cat=0
split_feature=3 14 1 1 26
split_gain=1.6843 2.12897 2.89486 1.25376 1.2188
threshold=2.2500000000000004 -0.70581671595573414 6.5000000000000009 14.500000000000002 3.4642857313156132
decision_type=2 2 2 2 2
left_child=3 -2 -3 -1 -4
right_child=1 2 4 -5 -6
leaf_value=-0.015930362266954035 0.016244746323812894 0.014038984777774509 -3.825266742044025e-05 0.00028774482556260552 -0.015892344078218396
leaf_weight=22 27 24 27 26 22
leaf_count=22 27 24 27 26 22
internal_value=0.00055333 0.00424879 -0.000188065 -0.00714555 -0.00715642
internal_weight=148 100 73 48 49
internal_count=148 100 73 48 49
is_linear=0
shrinkage=0.05


Tree=141
num_leaves=6
num_cat=0
split_feature=3 14 1 20 20
split_gain=1.52008 1.9214 2.61261 2.17595 1.20667
threshold=2.2500000000000004 -0.70581671595573414 6.5000000000000009 3.5000000000000004 3.5000000000000004
decision_type=2 2 2 2 2
left_child=4 -2 -3 -4 -1
right_child=1 2 3 -5 -6
leaf_value=0.00050409160411128641 0.015432509083162856 0.01333703545484847 -0.015923475848311292 0.0053679114118928006 -0.0154065293175253
leaf_weight=26 27 24 28 21 22
leaf_count=26 27 24 28 21 22
internal_value=0.000525663 0.00403635 -0.000178662 -0.0067986 -0.00678828
internal_weight=148 100 73 49 48
internal_count=148 100 73 49 48
is_linear=0
shrinkage=0.05


Tree=142
num_leaves=5
num_cat=0
split_feature=19 14 4 6
split_gain=1.43109 2.43085 2.22006 0.294935
threshold=4.5000000000000009 0.29696027934551245 1.0000000180025095e-35 3.5000000000000004
decision_type=2 2 2 2
left_child=1 2 -1 -3
right_child=-2 3 -4 -5
leaf_value=-0.0012161687132902445 -0.0078658257929706266 -0.001361463741669732 0.018645768218180713 -0.0090358593434627568
leaf_weight=24 38 31 34 21
leaf_count=24 38 31 34 21
internal_value=0.00049938 0.00338918 0.010427 -0.00446074
internal_weight=148 110 58 52
internal_count=148 110 58 52
is_linear=0
shrinkage=0.05


Tree=143
num_leaves=5
num_cat=0
split_feature=19 14 21 21
split_gain=1.29156 2.19384 2.62336 0.31653
threshold=4.5000000000000009 0.29696027934551245 4.5000000000000009 2.5000000000000004
decision_type=2 2 2 2
left_child=1 2 -1 -3
right_child=-2 3 -4 -5
leaf_value=0.0021911741209853638 -0.0074725344237920495 0.00050195338470595218 0.024563252800144257 -0.0074484362206872438
leaf_weight=38 38 21 20 31
leaf_count=38 38 21 20 31
internal_value=0.000474411 0.00321972 0.00990568 -0.0042377
internal_weight=148 110 58 52
internal_count=148 110 58 52
is_linear=0
shrinkage=0.05


Tree=144
num_leaves=5
num_cat=0
split_feature=19 14 21 21
split_gain=1.16563 1.97994 2.36758 0.285668
threshold=4.5000000000000009 0.29696027934551245 4.5000000000000009 2.5000000000000004
decision_type=2 2 2 2
left_child=1 2 -1 -3
right_child=-2 3 -4 -5
leaf_value=0.0020816151763459567 -0.0070989078204882778 0.00047685571369670686 0.02333509013638832 -0.0070760144401461854
leaf_weight=38 38 21 20 31
leaf_count=38 38 21 20 31
internal_value=0.000450691 0.00305873 0.0094104 -0.00402582
internal_weight=148 110 58 52
internal_count=148 110 58 52
is_linear=0
shrinkage=0.05


Tree=145
num_leaves=6
num_cat=0
split_feature=18 26 19 28 15
split_gain=1.3623 1.28735 0.949684 1.62834 0.653803
threshold=5.5000000000000009 3.8928571939468388 1.5000000000000002 1.5000000000000002 -0.5163939595222472
decision_type=2 2 2 2 2
left_child=1 2 -1 4 -4
right_child=-2 -3 3 -5 -6
leaf_value=-0.0068616562320486371 0.012975097494199873 -0.0089493864524253716 -0.0062404620663627335 0.01655361642617555 0.0049644082908829055
leaf_weight=23 20 37 23 21 30
leaf_count=23 20 37 23 21 30
internal_value=0.000802494 -0.00101431 0.00201247 0.00477064 0.000101917
internal_weight=154 134 97 74 53
internal_count=154 134 97 74 53
is_linear=0
shrinkage=0.05


Tree=146
num_leaves=7
num_cat=0
split_feature=15 3 15 18 26 9
split_gain=1.27854 2.1652 1.32582 1.58124 0.512748 0.509862
threshold=-0.5163939595222472 3.6000000238418584 -0.060268338769674384 4.5000000000000009 2.9642857313156132 19.500000000000004
decision_type=2 2 2 2 2 2
left_child=1 -1 -2 4 -4 -6
right_child=2 -3 3 -5 5 -7
leaf_value=-0.0035389318718048544 -0.013898970773443582 0.017718255786225202 0.0027481635926630012 0.012321267321351029 -0.011713879510922277 -0.00079818061552941802
leaf_weight=23 20 25 22 21 23 20
leaf_count=23 20 25 22 21 23 20
internal_value=0.00076237 0.00753252 -0.00230336 0.000393295 -0.00346036 -0.00663681
internal_weight=154 48 106 86 65 43
internal_count=154 48 106 86 65 43
is_linear=0
shrinkage=0.05


Tree=147
num_leaves=6
num_cat=0
split_feature=18 3 28 25 25
split_gain=1.17158 1.48265 2.06053 1.0328 0.602571
threshold=5.5000000000000009 2.2500000000000004 1.5000000000000002 3.3571429252624516 3.0714285373687749
decision_type=2 2 2 2 2
left_child=1 4 3 -3 -1
right_child=-2 2 -4 -5 -6
leaf_value=-0.002755700517445803 0.012012648079544306 0.0037997821162483007 0.013905975052901859 -0.0089097985952732075 -0.014733568705352291
leaf_weight=21 20 33 28 31 21
leaf_count=21 20 33 28 31 21
internal_value=0.000724251 -0.000960584 0.002593 -0.00235642 -0.00874463
internal_weight=154 134 92 64 42
internal_count=154 134 92 64 42
is_linear=0
shrinkage=0.05


Tree=148
num_leaves=5
num_cat=0
split_feature=26 18 28 5
split_gain=1.05905 1.04817 1.65015 1.60586
threshold=2.9642857313156132 2.5000000000000004 -2.4999999999999996 2.5000000000000004
decision_type=2 2 2 2
left_child=-1 -2 -3 -4
right_child=1 2 3 -5
leaf_value=0.00793247368725899 -0.0090662842958836865 -0.0099849023653761221 0.016900239268406517 -0.0003282806983119563
leaf_weight=38 34 23 21 38
leaf_count=38 34 23 21 38
internal_value=0.000688039 -0.00168514 0.00137534 0.0058039
internal_weight=154 116 82 59
internal_count=154 116 82 59
is_linear=0
shrinkage=0.05


Tree=149
num_leaves=6
num_cat=0
split_feature=15 3 15 18 25
split_gain=1.12737 1.93205 1.16742 1.38495 0.416443
threshold=-0.5163939595222472 3.6000000238418584 -0.060268338769674384 4.5000000000000009 3.0714285373687749
decision_type=2 2 2 2 2
left_child=1 -1 -2 4 -4
right_child=2 -3 3 -5 -6
leaf_value=-0.0034474359096392342 -0.013106073448434473 0.01663268425129354 0.00076292992234812125 0.011468416532235487 -0.00724227473661868
leaf_weight=23 20 25 32 21 33
leaf_count=23 20 25 32 21 33
internal_value=0.000653637 0.00701096 -0.00222515 0.000305296 -0.00330125
internal_weight=154 48 106 86 65
internal_count=154 48 106 86 65
is_linear=0
shrinkage=0.05


Tree=150
num_leaves=5
num_cat=0
split_feature=1 5 14 7
split_gain=1.89391 1.61475 2.05455 0.696807
threshold=6.5000000000000009 1.5000000000000002 -0.61559370160102833 5.5000000000000009
decision_type=2 2 2 2
left_child=-1 -2 -3 -4
right_child=1 2 3 -5
leaf_value=0.010263732862464774 -0.015814101798459889 0.010730633023997835 1.9094903613082492e-05 -0.011449115057648333
leaf_weight=36 20 29 26 27
leaf_count=36 20 29 26 27
internal_value=0.000404138 -0.00307572 3.12039e-05 -0.0058232
internal_weight=138 102 82 53
internal_count=138 102 82 53
is_linear=0
shrinkage=0.05


Tree=151
num_leaves=5
num_cat=0
split_feature=27 23 17 25
split_gain=1.28213 1.26448 1.90464 1.00757
threshold=2.9500000476837163 2.5000000000000004 1.0000000180025095e-35 3.928571462631226
decision_type=2 2 2 2
left_child=-1 3 -3 -2
right_child=1 2 -4 -5
leaf_value=0.0097274639459069955 -0.002423800740701457 -0.017225721161902095 0.0011246928885098428 0.011663788844915954
leaf_weight=29 30 26 31 22
leaf_count=29 30 26 31 22
internal_value=0.000383931 -0.00210196 -0.00724567 0.00353633
internal_weight=138 109 57 52
internal_count=138 109 57 52
is_linear=0
shrinkage=0.05


Tree=152
num_leaves=5
num_cat=0
split_feature=1 18 28 7
split_gain=1.65017 0.958356 1.7127 1.66017
threshold=6.5000000000000009 2.5000000000000004 -1.4999999999999998 7.5000000000000009
decision_type=2 2 2 2
left_child=-1 -2 -3 -4
right_child=1 2 3 -5
leaf_value=0.0095680380915938376 -0.0098916006020524291 -0.0093567048613395955 -0.0026939528570933779 0.017210241369903088
leaf_weight=36 33 27 22 20
leaf_count=36 33 27 22 20
internal_value=0.000364735 -0.00288349 0.000468215 0.00678423
internal_weight=138 102 69 42
internal_count=138 102 69 42
is_linear=0
shrinkage=0.05


Tree=153
num_leaves=5
num_cat=0
split_feature=5 15 1 27
split_gain=1.66834 1.28185 2.77389 0.709494
threshold=1.0000000180025095e-35 0.78574731945991527 7.5000000000000009 3.4701755046844487
decision_type=2 2 2 2
left_child=-1 2 -2 -4
right_child=1 -3 3 -5
leaf_value=-0.013007119838148357 0.018925097125961826 -0.0067332454059006912 -0.0056209484520818925 0.0049925551691558214
leaf_weight=20 27 28 31 32
leaf_count=20 27 28 31 32
internal_value=0.000346498 0.00260982 0.00551656 -0.000229962
internal_weight=138 118 90 63
internal_count=138 118 90 63
is_linear=0
shrinkage=0.05


Tree=154
num_leaves=5
num_cat=0
split_feature=1 23 15 28
split_gain=1.32595 0.880313 1.3462 1.67008
threshold=6.5000000000000009 4.5000000000000009 -0.78574731945991505 -1.0000000180025095e-35
decision_type=2 2 2 2
left_child=-1 2 -2 -4
right_child=1 -3 3 -5
leaf_value=0.0085789520629785121 -0.011096713189035655 -0.010734505459666253 -0.0064254689313795257 0.011019596010994386
leaf_weight=36 20 25 23 34
leaf_count=36 20 25 23 34
internal_value=0.000329173 -0.00258251 6.42366e-05 0.00398036
internal_weight=138 102 77 57
internal_count=138 102 77 57
is_linear=0
shrinkage=0.05


Tree=155
num_leaves=6
num_cat=0
split_feature=15 3 11 9 15
split_gain=1.4804 1.08476 0.729313 0.72893 0.346658
threshold=-0.5163939595222472 3.6000000238418584 7.5000000000000009 13.500000000000002 0.29696027934551245
decision_type=2 2 2 2 2
left_child=1 -1 -2 -4 -5
right_child=2 -3 3 4 -6
leaf_value=-0.00050932939259589393 0.0041337437983602291 0.014713842295110226 -0.012470345342388521 0.0019818322062492371 -0.0067322203179910074
leaf_weight=22 25 25 26 25 21
leaf_count=22 25 25 26 25 21
internal_value=0.000305032 0.0075881 -0.00322388 -0.00577861 -0.00199632
internal_weight=144 47 97 72 46
internal_count=144 47 97 72 46
is_linear=0
shrinkage=0.05


Tree=156
num_leaves=6
num_cat=0
split_feature=15 5 11 9 3
split_gain=1.33606 0.994433 0.658205 0.657859 0.3265
threshold=-0.5163939595222472 2.5000000000000004 7.5000000000000009 13.500000000000002 3.6000000238418584
decision_type=2 2 2 2 2
left_child=1 -1 -2 -4 -5
right_child=2 -3 3 4 -6
leaf_value=-0.00088386309244448233 0.0039270567670464515 0.01374499581467647 -0.011846827812349567 0.0023159259201391883 -0.0061089382790352996
leaf_weight=21 25 26 26 23 23
leaf_count=21 25 26 26 23 23
internal_value=0.00028978 0.0072087 -0.00306268 -0.00548968 -0.00189651
internal_weight=144 47 97 72 46
internal_count=144 47 97 72 46
is_linear=0
shrinkage=0.05


Tree=157
num_leaves=6
num_cat=0
split_feature=15 1 11 9 15
split_gain=1.20579 1.02897 0.59403 0.593718 0.308689
threshold=-0.5163939595222472 17.500000000000004 7.5000000000000009 13.500000000000002 0.29696027934551245
decision_type=2 2 2 2 2
