tree
version=v4
num_class=1
num_tree_per_iteration=1
label_index=0
max_feature_idx=29
objective=regression
feature_names=material region unit_price lead_time_days late_delivery_risk shipping_mode day_of_week month is_weekend day_of_month quarter week_of_year month_sin month_cos week_sin week_cos day_of_week_sin day_of_week_cos quantity_lag_1 quantity_lag_3 quantity_lag_5 quantity_lag_7 quantity_lag_14 quantity_lag_30 price_lag_7 quantity_rolling_mean_7 quantity_rolling_mean_14 quantity_rolling_mean_30 quantity_used_diff unit_price_diff
feature_infos=none [0:22] none [0:6] [0:1] [0:3] [0:6] [1:12] [0:1] [1:31] [1:4] [1:53] [-1:1] [-1:1] [-1:1] [-1:1] [-0.97492790222167969:0.97492790222167969] [-0.90096884965896606:1] [0:12] [0:12] [0:12] [0:12] [0:12] [0:12] none [1.7142857313156128:5] [1.9285714626312256:4.7857141494750977] [2.1666667461395264:4.1999998092651367] [-11:8] none
tree_sizes=547 573 571 573 572 657 570 574 572 656 740 737 655 741 652 655 658 653 656 658 660 734 658 660 658 656 659 660 656 664 580 655 660 662 657 745 579 739 661 581 576 576 576 578 654 656 665 657 577 663 652 657 658 661 658 657 572 660 578 664 578 661 662 666 665 656 652 748 584 668 661 742 663 657 660 659 662 661 576 662 657 661 663 745 750 750 660 655 663 659 670 743 662 663 743 665 664 658 660 667 579 658 580 577 579 579 661 659 664 667

Tree=0
num_leaves=5
num_cat=0
split_feature=28 28 18 18
split_gain=275.944 50.8436 43.0273 15.2848
threshold=2.5000000000000004 -1.0000000180025095e-35 2.5000000000000004 4.5000000000000009
decision_type=2 2 2 2
left_child=1 3 -3 -1
right_child=-2 2 -4 -5
leaf_value=3.2946292002359856 3.5406320040039501 3.3451836347930404 3.4308896532787898 3.3451297553719002
leaf_weight=31 23 32 27 29
leaf_count=31 23 32 27 29
internal_value=3.38209 3.35145 3.38441 3.31904
internal_weight=142 119 59 60
internal_count=142 119 59 60
is_linear=0
shrinkage=1


Tree=1
num_leaves=5
num_cat=0
split_feature=28 28 18 18
split_gain=250.371 23.5052 31.468 13.7946
threshold=1.5000000000000002 -1.0000000180025095e-35 2.5000000000000004 4.5000000000000009
decision_type=2 2 2 2
left_child=1 3 -3 -1
right_child=-2 2 -4 -5
leaf_value=-0.08247339345755117 0.11245764546297693 -0.050592514500021939 0.033217422593207584 -0.034497866085891067
leaf_weight=31 37 24 21 29
leaf_count=31 37 24 21 29
internal_value=0.000613839 -0.0387978 -0.0114812 -0.0592852
internal_weight=142 105 45 60
internal_count=142 105 45 60
is_linear=0
shrinkage=0.05


Tree=2
num_leaves=5
num_cat=0
split_feature=28 28 18 18
split_gain=230.89 40.3582 35.9931 12.4496
threshold=2.5000000000000004 -1.0000000180025095e-35 2.5000000000000004 4.5000000000000009
decision_type=2 2 2 2
left_child=1 3 -3 -1
right_child=-2 2 -4 -5
leaf_value=-0.078349726358729027 0.1456063879572827 -0.03395518255420029 0.044432718444753577 -0.032772974053333549
leaf_weight=31 23 32 27 29
leaf_count=31 23 32 27 29
internal_value=0.000583146 -0.0274466 0.00191725 -0.056321
internal_weight=142 119 59 60
internal_count=142 119 59 60
is_linear=0
shrinkage=0.05


Tree=3
num_leaves=5
num_cat=0
split_feature=28 28 18 18
split_gain=208.378 36.4233 32.4838 11.2358
threshold=2.5000000000000004 -1.0000000180025095e-35 2.5000000000000004 4.5000000000000009
decision_type=2 2 2 2
left_child=1 3 -3 -1
right_child=-2 2 -4 -5
leaf_value=-0.074432238119263805 0.13832606958306357 -0.03225742420181632 0.042211082025810531 -0.03113432639631732
leaf_weight=31 23 32 27 29
leaf_count=31 23 32 27 29
internal_value=0.000553989 -0.0260742 0.00182138 -0.0535049
internal_weight=142 119 59 60
internal_count=142 119 59 60
is_linear=0
shrinkage=0.05


Tree=4
num_leaves=5
num_cat=0
split_feature=28 28 18 25
split_gain=190.258 17.4847 24.4413 2.82242
threshold=1.5000000000000002 -1.4999999999999998 2.5000000000000004 3.5000000000000004
decision_type=2 2 2 2
left_child=1 3 -3 -1
right_child=-2 2 -4 -5
leaf_value=-0.073120838329195983 0.098023128489384784 -0.053068893030285835 0.008847968260178694 -0.046557591967284678
leaf_weight=20 37 28 37 20
leaf_count=20 37 28 37 20
internal_value=0.000526289 -0.0338297 -0.0178239 -0.0598392
internal_weight=142 105 65 40
internal_count=142 105 65 40
is_linear=0
shrinkage=0.05


Tree=5
num_leaves=6
num_cat=0
split_feature=28 25 28 18 25
split_gain=142.731 24.5805 24.1478 12.0575 4.08855
threshold=1.5000000000000002 3.6428570747375493 -1.0000000180025095e-35 4.5000000000000009 3.2142857313156132
decision_type=2 2 2 2 2
left_child=2 -2 3 -1 -4
right_child=1 -3 4 -5 -6
leaf_value=-0.068509450957581805 0.041054427836622512 0.11850640639662742 -0.017499327388676732 -0.025449711341282419 0.012650546366753786
leaf_weight=37 21 20 22 29 23
leaf_count=37 21 20 22 29 23
internal_value=-0.000885808 0.0788359 -0.0303326 -0.0495893 -0.00208939
internal_weight=152 41 111 66 45
internal_count=152 41 111 66 45
is_linear=0
shrinkage=0.05


Tree=6
num_leaves=5
num_cat=0
split_feature=25 25 3 3
split_gain=45.8545 15.1888 6.82748 13.8819
threshold=4.2142856121063241 2.7857142686843877 4.7500000000000009 2.1499999761581425
decision_type=2 2 2 2
left_child=1 -1 3 -3
right_child=-2 2 -4 -5
leaf_value=-0.041700281654343467 0.064196896275793933 -0.01775406978253628 -0.022156146392226222 0.028192300609620621
leaf_weight=33 23 31 30 35
leaf_count=33 23 31 30 35
internal_value=-0.000841518 -0.0124375 -0.00237844 0.00661143
internal_weight=152 129 96 66
internal_count=152 129 96 66
is_linear=0
shrinkage=0.05


Tree=7
num_leaves=5
num_cat=0
split_feature=28 28 18 18
split_gain=128.646 37.896 14.4973 10.1507
threshold=2.5000000000000004 -1.0000000180025095e-35 2.5000000000000004 4.5000000000000009
decision_type=2 2 2 2
left_child=1 3 -3 -1
right_child=-2 2 -4 -5
leaf_value=-0.064445756222247283 0.10543013319062691 -0.016825655102729799 0.031530083956256991 -0.024937335401773453
leaf_weight=37 24 31 31 29
leaf_count=37 24 31 31 29
internal_value=-0.000799442 -0.0207175 0.00735221 -0.047086
internal_weight=152 128 62 66
internal_count=152 128 62 66
is_linear=0
shrinkage=0.05


Tree=8
num_leaves=5
num_cat=0
split_feature=28 28 18 18
split_gain=116.103 34.2011 13.0838 9.16099
threshold=2.5000000000000004 -1.0000000180025095e-35 2.5000000000000004 4.5000000000000009
decision_type=2 2 2 2
left_child=1 3 -3 -1
right_child=-2 2 -4 -5
leaf_value=-0.061223467391903034 0.1001586268035074 -0.015984372482184442 0.029953580277581372 -0.02369046969146564
leaf_weight=37 24 31 31 29
leaf_count=37 24 31 31 29
internal_value=-0.00075947 -0.0196816 0.0069846 -0.0447317
internal_weight=152 128 62 66
internal_count=152 128 62 66
is_linear=0
shrinkage=0.05


Tree=9
num_leaves=6
num_cat=0
split_feature=28 25 28 18 25
split_gain=106.748 19.8957 17.3181 8.26779 3.11515
threshold=1.5000000000000002 3.6428570747375493 -1.0000000180025095e-35 4.5000000000000009 3.2142857313156132
decision_type=2 2 2 2 2
left_child=2 -2 3 -1 -4
right_child=1 -3 4 -5 -6
leaf_value=-0.058162294660468364 0.03423193019060862 0.10391331106424331 -0.015720529955896467 -0.022505946508769331 0.010596728972766711
leaf_weight=37 21 20 22 29 23
leaf_count=37 21 20 22 29 23
internal_value=-0.000721497 0.0682228 -0.0261874 -0.0424951 -0.00226949
internal_weight=152 41 111 66 45
internal_count=152 41 111 66 45
is_linear=0
shrinkage=0.05


Tree=10
num_leaves=7
num_cat=0
split_feature=28 28 18 1 28 16
split_gain=83.55 19.3475 32.3634 18.2193 7.03032 0.465322
threshold=1.5000000000000002 -1.4999999999999998 3.5000000000000004 17.500000000000004 1.0000000180025095e-35 1.0000000180025095e-35
decision_type=2 2 2 2 2 2
left_child=1 5 4 -2 -3 -1
right_child=3 2 -4 -5 -6 -7
leaf_value=-0.059459113888442522 0.023576525208495916 -0.051138184577226645 0.041544636906612489 0.089439431826273605 -0.014002980564076168 -0.048673448450863362
leaf_weight=20 21 25 21 21 26 20
leaf_count=20 21 25 21 21 26 20
internal_value=-0.00363254 -0.0261852 -0.0106958 0.056508 -0.0322065 -0.0540663
internal_weight=154 112 72 42 51 40
internal_count=154 112 72 42 51 40
is_linear=0
shrinkage=0.05


Tree=11
num_leaves=7
num_cat=0
split_feature=28 28 18 9 28 16
split_gain=75.4038 17.4611 29.208 14.7131 6.34486 0.419953
threshold=1.5000000000000002 -1.4999999999999998 3.5000000000000004 14.500000000000002 1.0000000180025095e-35 1.0000000180025095e-35
decision_type=2 2 2 2 2 2
left_child=1 5 4 -2 -3 -1
right_child=3 2 -4 -5 -6 -7
leaf_value=-0.05648615814279765 0.083276148353304186 -0.048581275269389157 0.03946740563426699 0.024089010521059946 -0.013302830929079882 -0.046239777076989418
leaf_weight=20 21 25 21 21 26 20
leaf_count=20 21 25 21 21 26 20
internal_value=-0.00345091 -0.024876 -0.010161 0.0536826 -0.0305962 -0.051363
internal_weight=154 112 72 42 51 40
internal_count=154 112 72 42 51 40
is_linear=0
shrinkage=0.05


Tree=12
num_leaves=6
num_cat=0
split_feature=28 1 28 18 28
split_gain=68.052 16.6658 15.9826 23.5055 8.07526
threshold=1.5000000000000002 17.500000000000004 -2.4999999999999996 3.5000000000000004 1.0000000180025095e-35
decision_type=2 2 2 2 2
left_child=2 -2 -1 4 -4
right_child=1 -3 3 -5 -6
leaf_value=-0.057983809254633693 0.019502187129997073 0.082494716239827015 -0.051012289663776758 0.021571360472890159 -0.012637689881599868
leaf_weight=26 21 21 29 31 26
leaf_count=26 21 21 29 31 26
internal_value=-0.00327837 0.0509985 -0.0236322 -0.0132468 -0.0328716
internal_weight=154 42 112 86 55
internal_count=154 42 112 86 55
is_linear=0
shrinkage=0.05


Tree=13
num_leaves=7
num_cat=0
split_feature=28 1 28 18 18 16
split_gain=61.4169 15.0409 14.9083 24.3023 5.59362 0.319588
threshold=1.5000000000000002 17.500000000000004 -1.4999999999999998 3.5000000000000004 2.5000000000000004 1.0000000180025095e-35
decision_type=2 2 2 2 2 2
left_child=2 -2 5 4 -4 -1
right_child=1 -3 3 -5 -6 -7
leaf_value=-0.051394181605428461 0.018527077493213473 0.078369980553785967 -0.041348104995364947 0.036415466896834829 -0.0077022707888058251 -0.042455669858027255
leaf_weight=20 21 21 30 21 21 20
leaf_count=20 21 21 30 21 21 20
internal_value=-0.00311445 0.0484485 -0.0224506 -0.00885369 -0.0274939 -0.0469249
internal_weight=154 42 112 72 51 40
internal_count=154 42 112 72 51 40
is_linear=0
shrinkage=0.05


Tree=14
num_leaves=6
num_cat=0
split_feature=25 26 9 27 19
split_gain=37.0756 9.28472 6.72772 4.55949 2.61448
threshold=3.928571462631226 2.9642857313156132 14.500000000000002 3.8166666030883794 3.5000000000000004
decision_type=2 2 2 2 2
left_child=1 2 -1 4 -3
right_child=-2 3 -4 -5 -6
leaf_value=-0.013922989063642241 0.046918673828865096 0.010771109450918933 -0.05302577848461542 -0.024260570650750941 -0.011107196743515405
leaf_weight=22 30 36 22 22 22
leaf_count=22 30 36 22 22 22
internal_value=-0.00295872 -0.0150258 -0.0334744 -0.00487914 0.00247244
internal_weight=154 124 44 80 58
internal_count=154 124 44 80 58
is_linear=0
shrinkage=0.05


Tree=15
num_leaves=6
num_cat=0
split_feature=28 9 28 18 28
split_gain=52.9029 11.5552 11.1817 18.6093 7.39133
threshold=1.5000000000000002 16.500000000000004 -2.4999999999999996 3.5000000000000004 1.0000000180025095e-35
decision_type=2 2 2 2 2
left_child=2 -2 -1 4 -4
right_child=1 -3 3 -5 -6
leaf_value=-0.049933871502677606 0.068458294977123538 0.016998974983580412 -0.04806448867810624 0.016139610951197231 -0.009810785834333334
leaf_weight=24 24 20 28 36 23
leaf_count=24 24 20 28 36 23
internal_value=-0.00132814 0.0450677 -0.0197193 -0.0113842 -0.0308128
internal_weight=155 44 111 87 51
internal_count=155 44 111 87 51
is_linear=0
shrinkage=0.05


Tree=16
num_leaves=6
num_cat=0
split_feature=28 26 28 18 18
split_gain=47.7449 11.1546 10.5485 15.3805 5.42546
threshold=1.5000000000000002 3.6785713434219365 -1.0000000180025095e-35 2.5000000000000004 4.5000000000000009
decision_type=2 2 2 2 2
left_child=2 -2 4 -4 -1
right_child=1 -3 3 -5 -6
leaf_value=-0.044780926758216488 0.018758710732926495 0.069160919124260548 -0.03123744838363068 0.026084741264581681 -0.015434998468429382
leaf_weight=36 23 21 22 25 28
leaf_count=36 23 21 22 25 28
internal_value=-0.00126174 0.0428143 -0.0187333 -0.000746922 -0.0319421
internal_weight=155 44 111 47 64
internal_count=155 44 111 47 64
is_linear=0
shrinkage=0.05


Tree=17
num_leaves=6
num_cat=0
split_feature=28 9 28 26 19
split_gain=43.0897 10.4734 9.95002 5.051 2.97957
threshold=1.5000000000000002 16.500000000000004 -2.4999999999999996 2.8901098966598515 3.5000000000000004
decision_type=2 2 2 2 2
left_child=2 -2 -1 -4 -5
right_child=1 -3 3 4 -6
leaf_value=-0.046298603682468339 0.062942394490043324 0.013951036380603909 -0.028387492493941235 0.0077788109223440515 -0.014469147706404329
leaf_weight=24 24 20 26 34 27
leaf_count=24 24 20 26 34 27
internal_value=-0.00119865 0.0406736 -0.0177967 -0.00993405 -0.00206865
internal_weight=155 44 111 87 61
internal_count=155 44 111 87 61
is_linear=0
shrinkage=0.05


Tree=18
num_leaves=6
num_cat=0
split_feature=28 18 18 18 18
split_gain=39.3113 57.8428 6.84608 5.14859 1.33089
threshold=1.0000000180025095e-35 2.5000000000000004 4.5000000000000009 1.5000000000000002 3.5000000000000004
decision_type=2 2 2 2 2
left_child=2 3 4 -2 -1
right_child=1 -3 -4 -5 -6
leaf_value=-0.043481302075088026 -0.023644298946727878 0.08722020614147187 -0.0063665763084446228 0.0091350833056494593 -0.027248872614101222
leaf_weight=28 23 25 31 25 23
leaf_count=28 23 25 31 25 23
internal_value=-0.00113872 0.0255488 -0.0248971 -0.0065717 -0.0361608
internal_weight=155 73 82 48 51
internal_count=155 73 82 48 51
is_linear=0
shrinkage=0.05


Tree=19
num_leaves=6
num_cat=0
split_feature=28 26 28 18 28
split_gain=36.9202 9.61541 8.90167 15.5857 5.23458
threshold=1.5000000000000002 3.6785713434219365 -2.4999999999999996 3.5000000000000004 1.0000000180025095e-35
decision_type=2 2 2 2 2
left_child=2 -2 -1 4 -4
right_child=1 -3 3 -5 -6
leaf_value=-0.043404316436499363 0.01534275622005858 0.062138530467858624 -0.041307236653353487 0.016179982220960988 -0.0091148547058844051
leaf_weight=24 23 21 28 36 23
leaf_count=24 23 21 28 36 23
internal_value=-0.00108178 0.0376771 -0.0164457 -0.00900879 -0.0267891
internal_weight=155 44 111 87 51
internal_count=155 44 111 87 51
is_linear=0
shrinkage=0.05


Tree=20
num_leaves=6
num_cat=0
split_feature=28 18 28 25 9
split_gain=51.5356 7.4995 13.9775 3.83245 1.64976
threshold=2.5000000000000004 2.5000000000000004 -1.0000000180025095e-35 3.5000000000000004 16.500000000000004
decision_type=2 2 2 2 2
left_child=1 4 3 -3 -1
right_child=-2 2 -4 -5 -6
leaf_value=-0.020725979808984059 0.065203613199293617 -0.031990897841751575 0.024875711456493099 -0.0060570232935474614 -0.040545166924355384
leaf_weight=21 25 28 27 29 21
leaf_count=21 25 28 27 29 21
internal_value=-0.000373234 -0.0133845 -0.00475898 -0.0187965 -0.0306356
internal_weight=151 126 84 57 42
internal_count=151 126 84 57 42
is_linear=0
shrinkage=0.05


Tree=21
num_leaves=7
num_cat=0
split_feature=28 18 28 18 25 9
split_gain=46.5109 6.7683 12.642 5.7377 3.47764 1.48891
threshold=2.5000000000000004 2.5000000000000004 -1.4999999999999998 3.5000000000000004 3.5000000000000004 16.500000000000004
decision_type=2 2 2 2 2 2
left_child=1 5 4 -4 -3 -1
right_child=-2 2 3 -5 -6 -7
leaf_value=-0.019689680828845927 0.061943434223532684 -0.039007998630404474 -0.002744389189915224 0.034258644245564941 -0.010200146574061365 -0.038517908331760692
leaf_weight=21 25 20 22 20 22 21
leaf_count=21 25 20 22 20 22 21
internal_value=-0.000354572 -0.0127153 -0.00452103 0.0148761 -0.0239182 -0.0291038
internal_weight=151 126 84 42 42 42
internal_count=151 126 84 42 42 42
is_linear=0
shrinkage=0.05


Tree=22
num_leaves=6
num_cat=0
split_feature=28 28 18 20 18
split_gain=41.9761 6.4961 10.0227 1.59277 1.13994
threshold=2.5000000000000004 1.0000000180025095e-35 4.5000000000000009 2.5000000000000004 3.5000000000000004
decision_type=2 2 2 2 2
left_child=1 2 4 -3 -1
right_child=-2 3 -4 -5 -6
leaf_value=-0.039995528260866803 0.058846261635422704 0.013712984509766102 0.0019092165734036826 -0.0057608624753941393 -0.025011071765964683
leaf_weight=30 25 21 32 21 22
leaf_count=30 25 21 32 21 22
internal_value=-0.000336844 -0.0120795 -0.0201073 0.00397606 -0.033656
internal_weight=151 126 84 42 52
internal_count=151 126 84 42 52
is_linear=0
shrinkage=0.05


Tree=23
num_leaves=6
num_cat=0
split_feature=28 18 28 25 9
split_gain=37.8834 6.05861 11.5647 3.0428 1.24268
threshold=2.5000000000000004 2.5000000000000004 -1.0000000180025095e-35 3.5000000000000004 16.500000000000004
decision_type=2 2 2 2 2
left_child=1 4 3 -3 -1
right_child=-2 2 -4 -5 -6
leaf_value=-0.018380528350271996 0.055903949470259257 -0.028248166771871704 0.023233076047014307 -0.0051399589451993338 -0.035581591468126998
leaf_weight=21 25 28 27 29 21
leaf_count=21 25 28 27 29 21
internal_value=-0.000320001 -0.0114755 -0.00372279 -0.0164914 -0.0269811
internal_weight=151 126 84 57 42
internal_count=151 126 84 57 42
is_linear=0
shrinkage=0.05


Tree=24
num_leaves=6
num_cat=0
split_feature=28 28 18 20 18
split_gain=34.1898 5.7308 8.88767 1.28918 0.999045
threshold=2.5000000000000004 1.0000000180025095e-35 4.5000000000000009 2.5000000000000004 3.5000000000000004
decision_type=2 2 2 2 2
left_child=1 2 4 -3 -1
right_child=-2 3 -4 -5 -6
leaf_value=-0.037135189399123192 0.053108752176165591 0.0129383914083952 0.0022905947873368862 -0.0045815190699483666 -0.023107302057641475
leaf_weight=30 25 21 32 21 22
leaf_count=30 25 21 32 21 22
internal_value=-0.000304001 -0.0109018 -0.0184419 0.00417844 -0.0312003
internal_weight=151 126 84 42 52
internal_count=151 126 84 42 52
is_linear=0
shrinkage=0.05


Tree=25
num_leaves=6
num_cat=0
split_feature=28 9 15 7 18
split_gain=30.6806 8.86758 6.87441 4.68547 3.51879
threshold=1.5000000000000002 15.500000000000002 -1.7225463847432912e-16 2.5000000000000004 4.5000000000000009
decision_type=2 2 2 2 2
left_child=2 -2 4 -4 -1
right_child=1 -3 3 -5 -6
leaf_value=-0.012673928055705297 0.060758169470645954 0.014238143020442554 -0.011612048993508022 -0.043951856515680753 0.012362800660016745
leaf_weight=36 20 21 21 24 23
leaf_count=36 20 21 21 24 23
internal_value=0.000300344 0.0369308 -0.0141405 -0.0288599 -0.00291385
internal_weight=145 41 104 45 59
internal_count=145 41 104 45 59
is_linear=0
shrinkage=0.05


Tree=26
num_leaves=6
num_cat=0
split_feature=25 25 28 18 26
split_gain=37.232 7.46248 4.35454 3.41774 0.875338
threshold=4.2142856121063241 3.5000000000000004 1.0000000180025095e-35 2.5000000000000004 2.9642857313156132
decision_type=2 2 2 2 2
left_child=1 2 4 -3 -1
right_child=-2 3 -4 -5 -6
leaf_value=-0.037669791518287227 0.058637885757438515 -0.010760379051789642 -0.0061513804980824075 0.016510016984237288 -0.023565170084210961
leaf_weight=22 23 20 31 27 22
leaf_count=22 23 20 31 27 22
internal_value=0.000285326 -0.0107156 -0.0205048 0.00490559 -0.0306175
internal_weight=145 122 75 47 44
internal_count=145 122 75 47 44
is_linear=0
shrinkage=0.05


Tree=27
num_leaves=6
num_cat=0
split_feature=25 25 28 18 28
split_gain=33.6018 6.73488 3.92998 3.08451 0.840751
threshold=4.2142856121063241 3.5000000000000004 1.0000000180025095e-35 2.5000000000000004 -1.4999999999999998
decision_type=2 2 2 2 2
left_child=1 2 4 -3 -1
right_child=-2 3 -4 -5 -6
leaf_value=-0.036657865121960641 0.055705992312615984 -0.010222359914332629 -0.0058438113980716277 0.015684516247872832 -0.022777224859843653
leaf_weight=20 23 20 31 27 24
leaf_count=20 23 20 31 27 24
internal_value=0.00027106 -0.0101798 -0.0194796 0.00466031 -0.0290866
internal_weight=145 122 75 47 44
internal_count=145 122 75 47 44
is_linear=0
shrinkage=0.05


Tree=28
num_leaves=6
num_cat=0
split_feature=25 25 28 1 26
split_gain=30.3257 6.07823 3.5468 3.022 0.797449
threshold=4.2142856121063241 3.5000000000000004 1.0000000180025095e-35 16.000000000000004 2.9642857313156132
decision_type=2 2 2 2 2
left_child=1 2 4 -3 -1
right_child=-2 3 -4 -5 -6
leaf_value=-0.034363518655300143 0.052920692600309849 0.019158391426317395 -0.0055516211135733518 -0.0064846235085968627 -0.020901034840128639
leaf_weight=22 23 20 31 27 22
leaf_count=22 23 20 31 27 22
internal_value=0.000257507 -0.0096708 -0.0185056 0.0044273 -0.0276323
internal_weight=145 122 75 47 44
internal_count=145 122 75 47 44
is_linear=0
shrinkage=0.05


Tree=29
num_leaves=6
num_cat=0
split_feature=25 25 28 18 9
split_gain=27.3689 5.48561 3.23954 2.77089 0.988168
threshold=4.2142856121063241 3.5000000000000004 -1.0000000180025095e-35 2.5000000000000004 14.500000000000002
decision_type=2 2 2 2 2
left_child=1 2 -1 -3 -4
right_child=-2 3 4 -5 -6
leaf_value=-0.029626254644244912 0.050274656518645912 -0.0098998710466548807 -0.00085785882104010805 0.014654676578249093 -0.016021327996118506
leaf_weight=32 23 20 21 27 22
leaf_count=32 23 20 21 27 22
internal_value=0.000244631 -0.00918726 -0.0175803 0.00420593 -0.00861591
internal_weight=145 122 75 47 43
internal_count=145 122 75 47 43
is_linear=0
shrinkage=0.05


Tree=30
num_leaves=5
num_cat=0
split_feature=28 28 18 28
split_gain=23.2913 6.4873 9.80717 3.55684
threshold=2.5000000000000004 -2.4999999999999996 3.5000000000000004 1.0000000180025095e-35
decision_type=2 2 2 2
left_child=1 -1 3 -3
right_child=-2 2 -4 -5
leaf_value=-0.02623192395629554 0.044842725320320048 -0.024373951117540229 0.020362062432253972 -0.00098694739611567667
leaf_weight=29 28 29 39 37
leaf_count=29 28 29 39 37
internal_value=0.00336808 -0.00529826 0.000483417 -0.0112631
internal_weight=162 134 105 66
internal_count=162 134 105 66
is_linear=0
shrinkage=0.05


Tree=31
num_leaves=6
num_cat=0
split_feature=25 3 11 25 9
split_gain=30.1598 3.99668 2.63139 2.29828 1.62456
threshold=4.2142856121063241 5.1500000953674325 10.500000000000002 3.2142857313156132 15.500000000000002
decision_type=2 2 2 2 2
left_child=1 2 -1 -4 -5
right_child=-2 -3 3 4 -6
leaf_value=0.01306653771634129 0.05254085998122509 -0.025744728244502437 -0.015395169889029021 0.010594181886509709 -0.0070682953267047809
leaf_weight=22 26 22 39 23 30
leaf_count=22 26 22 39 23 30
internal_value=0.00319968 -0.00623319 -0.00246781 -0.00618255 0.000596553
internal_weight=162 136 114 92 53
internal_count=162 136 114 92 53
is_linear=0
shrinkage=0.05


Tree=32
num_leaves=6
num_cat=0
split_feature=25 18 28 18 26
split_gain=27.2192 6.24588 9.16823 3.23917 2.11022
threshold=4.2142856121063241 1.5000000000000002 -1.0000000180025095e-35 2.5000000000000004 3.0773808956146245
decision_type=2 2 2 2 2
left_child=1 -1 4 -4 -3
right_child=-2 2 3 -5 -6
leaf_value=-0.029672032805240674 0.049913814090765445 -0.028861507410183552 0.0006221120550843149 0.0240564634775122 -0.0083934414364835799
leaf_weight=23 26 20 29 30 34
leaf_count=23 26 20 29 30 34
internal_value=0.00303969 -0.00592153 -0.00108736 0.0125379 -0.0159742
internal_weight=162 136 113 59 54
internal_count=162 136 113 59 54
is_linear=0
shrinkage=0.05


Tree=33
num_leaves=6
num_cat=0
split_feature=25 18 28 18 26
split_gain=24.5653 5.63691 8.27433 2.92335 1.90448
threshold=4.2142856121063241 1.5000000000000002 -1.0000000180025095e-35 2.5000000000000004 3.0773808956146245
decision_type=2 2 2 2 2
left_child=1 -1 4 -4 -3
right_child=-2 2 3 -5 -6
leaf_value=-0.028188431311560715 0.047418125460927302 -0.027418431462720039 0.00059100638288233818 0.022853640175114077 -0.0079737695427063628
leaf_weight=23 26 20 29 30 34
leaf_count=23 26 20 29 30 34
internal_value=0.00288771 -0.00562546 -0.00103299 0.011911 -0.0151755
internal_weight=162 136 113 59 54
internal_count=162 136 113 59 54
is_linear=0
shrinkage=0.05


Tree=34
num_leaves=6
num_cat=0
split_feature=25 3 11 25 3
split_gain=22.1702 3.26922 2.30938 1.90636 1.4666
threshold=4.2142856121063241 5.1500000953674325 10.500000000000002 3.2142857313156132 2.6000000238418584
decision_type=2 2 2 2 2
left_child=1 2 -1 -4 -5
right_child=-2 -3 3 4 -6
leaf_value=0.012614168392346158 0.045047218897021735 -0.022990887163376269 -0.013809134309681562 -0.0091178151101551277 0.0077621537925405132
leaf_weight=22 26 22 39 22 31
leaf_count=22 26 22 39 22 31
internal_value=0.00274332 -0.00534419 -0.00193868 -0.00541871 0.000755374
internal_weight=162 136 114 92 53
internal_count=162 136 114 92 53
is_linear=0
shrinkage=0.05


Tree=35
num_leaves=7
num_cat=0
split_feature=28 28 25 27 28 26
split_gain=26.099 8.07036 2.3022 2.16469 0.939033 0.499949
threshold=2.5000000000000004 -2.4999999999999996 2.6190476417541508 3.7500000000000004 -1.0000000180025095e-35 3.3214286565780644
decision_type=2 2 2 2 2 2
left_child=1 -1 -3 4 -4 -6
right_child=-2 2 3 -5 5 -7
leaf_value=-0.033549252691967735 0.04744405371906317 -0.017402900380936139 -0.0040991319809108974 -0.014099521301686763 0.0038629271090030674 0.014785650714766237
leaf_weight=29 23 24 20 20 22 20
leaf_count=29 23 24 20 20 22 20
internal_value=-0.00178899 -0.0101768 -0.0037825 0.000203955 0.00481798 0.00906422
internal_weight=158 135 106 82 62 42
internal_count=158 135 106 82 62 42
is_linear=0
shrinkage=0.05


Tree=36
num_leaves=5
num_cat=0
split_feature=28 28 18 28
split_gain=23.5544 7.2835 8.50999 3.62712
threshold=2.5000000000000004 -2.4999999999999996 3.5000000000000004 1.0000000180025095e-35
decision_type=2 2 2 2
left_child=1 -1 3 -3
right_child=-2 2 -4 -5
leaf_value=-0.031871789513990799 0.045071850247357208 -0.026076439384258156 0.015358148267076009 -0.0029710035611476217
leaf_weight=29 23 33 38 35
leaf_count=29 23 33 38 35
internal_value=-0.00169954 -0.009668 -0.00359338 -0.0141839
internal_weight=158 135 106 68
internal_count=158 135 106 68
is_linear=0
shrinkage=0.05


Tree=37
num_leaves=7
num_cat=0
split_feature=28 28 18 27 18 21
split_gain=21.2578 6.79895 9.58722 2.40271 2.39401 0.859698
threshold=2.5000000000000004 -1.4999999999999998 3.5000000000000004 3.4833333492279057 2.5000000000000004 2.5000000000000004
decision_type=2 2 2 2 2 2
left_child=1 3 4 -1 5 -3
right_child=-2 2 -4 -5 -6 -7
leaf_value=-0.013365082086428351 0.042818258484096636 -0.011551438467133614 0.025139092076569797 -0.036219608038663864 0.0015370955528772397 -0.026036165934056044
leaf_weight=23 23 21 25 23 23 20
leaf_count=23 23 21 25 23 23 20
internal_value=-0.00161456 -0.0091846 -0.00111767 -0.0247923 -0.0113742 -0.0186172
internal_weight=158 135 89 46 64 41
internal_count=158 135 89 46 64 41
is_linear=0
shrinkage=0.05


Tree=38
num_leaves=6
num_cat=0
split_feature=28 28 18 28 27
split_gain=19.1852 6.13605 8.65246 2.30677 2.16845
threshold=2.5000000000000004 -1.4999999999999998 3.5000000000000004 1.0000000180025095e-35 3.4833333492279057
decision_type=2 2 2 2 2
left_child=1 4 3 -3 -1
right_child=-2 2 -4 -5 -6
leaf_value=-0.012696827875207302 0.040677345943186088 -0.02123389466312425 0.023882137410342695 -0.0021648530023438591 -0.034408627815402881
leaf_weight=23 23 29 25 35 23
leaf_count=23 23 29 25 35 23
internal_value=-0.00153383 -0.00872537 -0.00106179 -0.0108055 -0.0235527
internal_weight=158 135 89 64 46
internal_count=158 135 89 64 46
is_linear=0
shrinkage=0.05


Tree=39
num_leaves=5
num_cat=0
split_feature=28 28 18 28
split_gain=17.3146 5.68137 6.65404 3.02037
threshold=2.5000000000000004 -2.4999999999999996 3.5000000000000004 1.0000000180025095e-35
decision_type=2 2 2 2
left_child=1 -1 3 -3
right_child=-2 2 -4 -5
leaf_value=-0.027899366090523788 0.038643477962392835 -0.023141112551093104 0.013833975208629119 -0.0020566102968794962
leaf_weight=29 23 33 38 35
leaf_count=29 23 33 38 35
internal_value=-0.00145714 -0.0082891 -0.00292403 -0.0122888
internal_weight=158 135 106 68
internal_count=158 135 106 68
is_linear=0
shrinkage=0.05


Tree=40
num_leaves=5
num_cat=0
split_feature=28 28 18 27
split_gain=23.1541 7.00447 6.77928 2.40156
threshold=2.5000000000000004 -1.0000000180025095e-35 2.5000000000000004 3.6500000953674321
decision_type=2 2 2 2
left_child=1 3 -3 -1
right_child=-2 2 -4 -5
leaf_value=-0.010966306873352122 0.043904075992328151 -0.012058294112794103 0.02128320939598545 -0.030920094586908822
leaf_weight=38 27 30 31 25
leaf_count=38 27 30 31 25
internal_value=0.00194516 -0.00719106 0.00488575 -0.0188845
internal_weight=151 124 61 63
internal_count=151 124 61 63
is_linear=0
shrinkage=0.05


Tree=41
num_leaves=5
num_cat=0
split_feature=28 28 18 18
split_gain=20.8966 6.32153 6.1183 2.24746
threshold=2.5000000000000004 -1.0000000180025095e-35 2.5000000000000004 4.5000000000000009
decision_type=2 2 2 2
left_child=1 3 -3 -1
right_child=-2 2 -4 -5
leaf_value=-0.026662027896107998 0.041708871322097607 -0.011455379429583749 0.020219048665415858 -0.0077147230891318162
leaf_weight=34 27 30 31 29
leaf_count=34 27 30 31 29
internal_value=0.0018479 -0.00683151 0.00464146 -0.0179403
internal_weight=151 124 61 63
internal_count=151 124 61 63
is_linear=0
shrinkage=0.05


Tree=42
num_leaves=5
num_cat=0
split_feature=28 28 18 27
split_gain=18.8591 5.70518 5.52176 2.1889
threshold=2.5000000000000004 -1.0000000180025095e-35 2.5000000000000004 3.6500000953674321
decision_type=2 2 2 2
left_child=1 3 -3 -1
right_child=-2 2 -4 -5
leaf_value=-0.0094837808920266598 0.039623427563519394 -0.010882610430320105 0.019208096295985726 -0.028533617988228802
leaf_weight=38 27 30 31 25
leaf_count=38 27 30 31 25
internal_value=0.0017555 -0.00648993 0.00440939 -0.0170432
internal_weight=151 124 61 63
internal_count=151 124 61 63
is_linear=0
shrinkage=0.05


Tree=43
num_leaves=5
num_cat=0
split_feature=28 28 18 18
split_gain=17.0204 5.14893 4.98339 2.04885
threshold=2.5000000000000004 -1.0000000180025095e-35 2.5000000000000004 4.5000000000000009
decision_type=2 2 2 2
left_child=1 3 -3 -1
right_child=-2 2 -4 -5
leaf_value=-0.024518563721315279 0.037642257648554667 -0.010338479839265348 0.018247691364658456 -0.0064278183440709931
leaf_weight=34 27 30 31 29
leaf_count=34 27 30 31 29
internal_value=0.00166773 -0.00616543 0.00418892 -0.0161911
internal_weight=151 124 61 63
internal_count=151 124 61 63
is_linear=0
shrinkage=0.05


Tree=44
num_leaves=6
num_cat=0
split_feature=28 28 18 27 18
split_gain=15.3609 4.7094 6.38583 3.03989 1.58836
threshold=2.5000000000000004 -1.4999999999999998 3.5000000000000004 3.6166666746139531 2.5000000000000004
decision_type=2 2 2 2 2
left_child=1 3 4 -1 -3
right_child=-2 2 -4 -5 -6
leaf_value=-0.0068338482478714508 0.03576014355100967 -0.013887732305253545 0.024233059669760141 -0.03348733836784959 0.0029333969497162362
leaf_weight=23 27 36 22 20 23
leaf_count=23 27 36 22 20 23
internal_value=0.00158434 -0.00585716 0.00124243 -0.0192308 -0.00733034
internal_weight=151 124 81 43 59
internal_count=151 124 81 43 59
is_linear=0
shrinkage=0.05


Tree=45
num_leaves=6
num_cat=0
split_feature=18 28 3 18 25
split_gain=13.3083 17.116 6.79526 3.02844 1.31068
threshold=1.5000000000000002 1.0000000180025095e-35 3.7500000000000004 4.5000000000000009 3.2142857313156132
decision_type=2 2 2 2 2
left_child=-1 3 -3 4 -2
right_child=1 2 -4 -5 -6
leaf_value=-0.033674769038739415 -0.0077799627790227539 0.046215440923797674 0.0083313360810279846 0.0045578165023471232 -0.025110986488871279
leaf_weight=23 24 29 20 32 20
leaf_count=23 24 29 20 32 20
internal_value=0.00127883 0.00771029 0.0307525 -0.0071459 -0.0156577
internal_weight=148 125 49 76 44
internal_count=148 125 49 76 44
is_linear=0
shrinkage=0.05


Tree=46
num_leaves=6
num_cat=0
split_feature=25 18 28 18 18
split_gain=12.1528 6.29991 2.18667 2.21502 1.68026
threshold=4.2142856121063241 1.5000000000000002 -1.0000000180025095e-35 4.5000000000000009 2.5000000000000004
decision_type=2 2 2 2 2
left_child=1 -1 3 -3 -4
right_child=-2 2 4 -5 -6
leaf_value=-0.028797247260808945 0.037461497066542504 -0.016347088219065751 -0.00088085191634794087 0.0051346086808258581 0.016312206533082105
leaf_weight=22 20 28 30 21 27
leaf_count=22 20 28 30 21 27
internal_value=0.00121488 -0.00444865 0.000604833 -0.00714065 0.00726323
internal_weight=148 128 106 49 57
internal_count=148 128 106 49 57
is_linear=0
shrinkage=0.05


Tree=47
num_leaves=6
num_cat=0
split_feature=18 28 26 23 26
split_gain=11.0494 15.0511 7.22222 2.59611 2.21907
threshold=1.5000000000000002 1.0000000180025095e-35 3.5357142686843877 3.5000000000000004 3.3928571939468388
decision_type=2 2 2 2 2
left_child=-1 3 -3 4 -2
right_child=1 2 -4 -5 -6
leaf_value=-0.03069520897191504 -0.0041718315471101696 0.011997997335025243 0.050787553924047171 0.0055323513552408528 -0.025564277993345805
leaf_weight=23 27 28 21 27 22
leaf_count=23 27 28 21 27 22
internal_value=0.00115414 0.00701442 0.0286221 -0.00691684 -0.0137766
internal_weight=148 125 49 76 49
internal_count=148 125 49 76 49
is_linear=0
shrinkage=0.05


Tree=48
num_leaves=5
num_cat=0
split_feature=25 18 28 18
split_gain=10.4684 4.98666 1.75283 2.65053
threshold=4.2142856121063241 1.5000000000000002 -1.4999999999999998 2.5000000000000004
decision_type=2 2 2 2
left_child=1 -1 -3 -4
right_child=-2 2 3 -5
leaf_value=-0.025822624496438285 0.034737442745827143 -0.0090204555596060613 -0.0053875778363469771 0.01382879087652423
leaf_weight=22 20 34 34 38
leaf_count=22 20 34 34 38
internal_value=0.00109643 -0.00415998 0.000336046 0.00475439
internal_weight=148 128 106 72
internal_count=148 128 106 72
is_linear=0
shrinkage=0.05


Tree=49
num_leaves=6
num_cat=0
split_feature=25 18 28 18 18
split_gain=9.44772 4.50046 1.58827 2.02406 1.39141
threshold=4.2142856121063241 1.5000000000000002 -1.0000000180025095e-35 4.5000000000000009 2.5000000000000004
decision_type=2 2 2 2 2
left_child=1 -1 3 -3 -4
right_child=-2 2 4 -5 -6
leaf_value=-0.024531493539159951 0.033000570833683011 -0.015082527521631814 -0.0014171704277396203 0.0054523064621857242 0.014228419897456965
leaf_weight=22 20 28 30 21 27
leaf_count=22 20 28 30 21 27
internal_value=0.00104161 -0.00395198 0.000319244 -0.00628188 0.0059939
internal_weight=148 128 106 49 57
internal_count=148 128 106 49 57
is_linear=0
shrinkage=0.05


Tree=50
num_leaves=6
num_cat=0
split_feature=28 9 3 1 22
split_gain=6.01366 5.08443 3.4227 1.81206 1.02665
threshold=-2.4999999999999996 13.500000000000002 3.7500000000000004 19.500000000000004 2.5000000000000004
decision_type=2 2 2 2 2
left_child=-1 2 -2 4 -3
right_child=1 3 -4 -5 -6
leaf_value=-0.025129774771630767 0.028624793482215513 -0.0047740240377606826 0.0013472363271791004 0.0054404781833291057 -0.018297058053314687
leaf_weight=25 23 32 23 25 25
leaf_count=25 23 32 23 25 25
internal_value=-0.00269981 0.00168104 0.014986 -0.00578272 -0.0107052
internal_weight=153 128 46 82 57
internal_count=153 128 46 82 57
is_linear=0
shrinkage=0.05


Tree=51
num_leaves=6
num_cat=0
split_feature=18 28 18 28 18
split_gain=7.44293 12.6634 7.83977 2.6808 2.2634
threshold=1.5000000000000002 1.0000000180025095e-35 2.5000000000000004 -2.4999999999999996 3.5000000000000004
decision_type=2 2 2 2 2
left_child=-1 3 -3 -2 -5
right_child=1 2 -4 4 -6
leaf_value=-0.029475237175144931 -0.023873285640031102 0.0041912141816283109 0.04407682769762522 -0.013880960257916615 0.0062360597843373264
leaf_weight=22 25 28 22 29 27
leaf_count=22 25 28 22 29 27
internal_value=-0.00256482 0.00195449 0.0217409 -0.0102593 -0.00418168
internal_weight=153 131 50 81 56
internal_count=153 131 50 81 56
is_linear=0
shrinkage=0.05


Tree=52
num_leaves=6
num_cat=0
split_feature=18 28 18 28 18
split_gain=6.71724 11.4287 7.07539 2.41943 2.04272
threshold=1.5000000000000002 1.0000000180025095e-35 2.5000000000000004 -2.4999999999999996 3.5000000000000004
decision_type=2 2 2 2 2
left_child=-1 3 -3 -2 -5
right_child=1 2 -4 4 -6
leaf_value=-0.028001475401900035 -0.022679620735347274 0.003981653214681761 0.04187298594889316 -0.013186912058756271 0.0059242570069963467
leaf_weight=22 25 28 22 29 27
leaf_count=22 25 28 22 29 27
internal_value=-0.00243658 0.00185676 0.0206538 -0.00974637 -0.0039726
internal_weight=153 131 50 81 56
internal_count=153 131 50 81 56
is_linear=0
shrinkage=0.05


Tree=53
num_leaves=6
num_cat=0
split_feature=18 28 18 28 18
split_gain=6.06231 10.3144 6.38554 2.18353 1.84355
threshold=1.5000000000000002 1.0000000180025095e-35 2.5000000000000004 -2.4999999999999996 3.5000000000000004
decision_type=2 2 2 2 2
left_child=-1 3 -3 -2 -5
right_child=1 2 -4 4 -6
leaf_value=-0.026601401708004152 -0.021545640632510188 0.0037825707745339186 0.039779336840464648 -0.012527566553286179 0.0056280440590516841
leaf_weight=22 25 28 22 29 27
leaf_count=22 25 28 22 29 27
internal_value=-0.00231475 0.00176392 0.0196211 -0.00925905 -0.00377397
internal_weight=153 131 50 81 56
internal_count=153 131 50 81 56
is_linear=0
shrinkage=0.05


Tree=54
num_leaves=6
num_cat=0
split_feature=18 28 18 28 18
split_gain=5.47123 9.30875 5.76295 1.97064 1.66381
threshold=1.5000000000000002 1.0000000180025095e-35 2.5000000000000004 -2.4999999999999996 3.5000000000000004
decision_type=2 2 2 2 2
left_child=-1 3 -3 -2 -5
right_child=1 2 -4 4 -6
leaf_value=-0.025271331006661058 -0.02046835828293115 0.003593442249777062 0.037790370259476319 -0.011901188270863275 0.0053466418068166136
leaf_weight=22 25 28 22 29 27
leaf_count=22 25 28 22 29 27
internal_value=-0.00219901 0.00167573 0.0186401 -0.0087961 -0.00358527
internal_weight=153 131 50 81 56
internal_count=153 131 50 81 56
is_linear=0
shrinkage=0.05


Tree=55
num_leaves=6
num_cat=0
split_feature=25 18 26 27 3
split_gain=7.38985 2.41099 2.31186 0.794556 0.775568
threshold=4.2142856121063241 3.5000000000000004 3.4642857313156132 2.9500000476837163 3.7500000000000004
decision_type=2 2 2 2 2
left_child=1 2 3 -1 -3
right_child=-2 4 -4 -5 -6
leaf_value=-0.010606407929056635 0.029128308196086441 0.012058109485290269 -0.02327775169784824 0.0015114877588677056 -0.00069753725905544487
leaf_weight=24 20 22 21 31 26
leaf_count=24 20 22 21 31 26
internal_value=0.000924848 -0.0036241 -0.00916487 -0.00377632 0.0051488
internal_weight=144 124 76 55 48
internal_count=144 124 76 55 48
is_linear=0
shrinkage=0.05


Tree=56
num_leaves=5
num_cat=0
split_feature=18 28 20 9
split_gain=5.85361 6.73338 3.10819 1.42078
threshold=3.5000000000000004 -1.4999999999999998 3.5000000000000004 10.500000000000002
decision_type=2 2 2 2
left_child=2 -2 3 -1
right_child=1 -3 -4 -5
leaf_value=0.010223239014158026 -0.0015311322226706479 0.03186101375434261 -0.020055366583983415 -0.0069813137862365692
leaf_weight=20 36 26 32 30
leaf_count=20 36 26 32 30
internal_value=0.000878606 0.012472 -0.00788715 -9.94927e-05
internal_weight=144 62 82 50
internal_count=144 62 82 50
is_linear=0
shrinkage=0.05


Tree=57
num_leaves=6
num_cat=0
split_feature=25 18 26 19 27
split_gain=6.44164 1.90053 2.0518 0.725926 0.718741
threshold=4.2142856121063241 3.5000000000000004 3.4642857313156132 3.5000000000000004 2.9500000476837163
decision_type=2 2 2 2 2
left_child=1 2 4 -3 -1
right_child=-2 3 -4 -5 -6
leaf_value=-0.0097514154079059775 0.027166608925908803 0.0095733456679486812 -0.021627199243465886 -0.0028988472428318349 0.0017738565734978164
leaf_weight=24 20 28 21 20 31
leaf_count=24 20 28 21 20 31
internal_value=0.000834676 -0.00341241 -0.00833178 0.0043766 -0.00325535
internal_weight=144 124 76 48 55
internal_count=144 124 76 48 55
is_linear=0
shrinkage=0.05


Tree=58
num_leaves=5
num_cat=0
split_feature=18 28 20 4
split_gain=4.87436 5.96972 2.80798 1.32728
threshold=3.5000000000000004 -1.4999999999999998 3.5000000000000004 1.0000000180025095e-35
decision_type=2 2 2 2
left_child=2 -2 3 -1
right_child=1 -3 -4 -5
leaf_value=-0.0089944406931119214 -0.0018129035733484974 0.029628707040907244 -0.018771732755703853 0.0074169606822709153
leaf_weight=22 36 26 32 28
leaf_count=22 36 26 32 28
internal_value=0.000792942 0.0113723 -0.00720608 0.000195944
internal_weight=144 62 82 50
internal_count=144 62 82 50
is_linear=0
shrinkage=0.05


Tree=59
num_leaves=6
num_cat=0
split_feature=25 14 18 27 28
split_gain=5.60461 1.88015 2.1882 1.61517 1.17087
threshold=4.2142856121063241 0.78574731945991527 4.5000000000000009 3.6833333969116215 1.0000000180025095e-35
decision_type=2 2 2 2 2
left_child=1 2 3 4 -1
right_child=-2 -3 -4 -5 -6
leaf_value=-0.0065410540710824239 0.02531492544338107 -0.01611012954912756 0.014540650709532203 -0.015489690230143342 0.0075483001907083111
leaf_weight=30 20 23 20 22 29
leaf_count=30 20 23 20 22 29
internal_value=0.000753295 -0.00320826 -0.000270209 -0.00392721 0.000384222
internal_weight=144 124 101 81 59
internal_count=144 124 101 81 59
is_linear=0
shrinkage=0.05


Tree=60
num_leaves=5
num_cat=0
split_feature=25 25 28 27
split_gain=9.01451 0.814353 1.13787 1.11169
threshold=4.2142856121063241 2.4642857313156132 -1.4999999999999998 3.3499999046325688
decision_type=2 2 2 2
left_child=1 -1 -3 -4
right_child=-2 2 3 -5
leaf_value=-0.012790698488242925 0.030158671491186728 -0.010983561722015769 0.0066860248671697558 -0.005489813360209401
leaf_weight=24 22 29 38 37
leaf_count=24 22 29 38 37
internal_value=0.00059291 -0.0044887 -0.00257286 0.000679278
internal_weight=150 128 104 75
internal_count=150 128 104 75
is_linear=0
shrinkage=0.05


Tree=61
num_leaves=6
num_cat=0
split_feature=25 18 21 6 9
split_gain=8.1356 2.62407 1.15572 0.851826 0.402467
threshold=4.2142856121063241 1.5000000000000002 4.5000000000000009 3.5000000000000004 15.500000000000002
decision_type=2 2 2 2 2
left_child=1 -1 3 4 -3
right_child=-2 2 -4 -5 -6
leaf_value=-0.020424038473339307 0.028650738552890045 -0.0037101153767434879 0.0078520195869108047 0.0014504597025193477 -0.013408300894029116
leaf_weight=21 22 20 27 37 23
leaf_count=21 22 20 27 37 23
internal_value=0.000563265 -0.00426427 -0.00109273 -0.00411158 -0.00889752
internal_weight=150 128 107 80 43
internal_count=150 128 107 80 43
is_linear=0
shrinkage=0.05


Tree=62
num_leaves=6
num_cat=0
split_feature=28 28 18 21 7
split_gain=7.78267 1.6728 1.13708 0.701614 0.044718
threshold=2.5000000000000004 -1.4999999999999998 2.5000000000000004 3.5000000000000004 6.5000000000000009
decision_type=2 2 2 2 2
left_child=1 -1 4 -4 -3
right_child=-2 2 3 -5 -6
leaf_value=-0.013093648013033855 0.027297596034148466 -0.0051454111933708193 -0.00063722642080392693 0.011452832157235771 -0.0084889854956418289
leaf_weight=38 23 20 28 21 20
leaf_count=38 23 20 28 21 20
internal_value=0.000535102 -0.00431165 -0.000562031 0.00454423 -0.0068172
internal_weight=150 127 89 49 40
internal_count=150 127 89 49 40
is_linear=0
shrinkage=0.05


Tree=63
num_leaves=6
num_cat=0
split_feature=25 14 14 22 23
split_gain=7.17897 0.748176 1.04795 0.869379 0.773358
threshold=4.2142856121063241 0.85421994328498851 0.51639395952224743 2.5000000000000004 3.5000000000000004
decision_type=2 2 2 2 2
left_child=1 2 3 -1 -5
right_child=-2 -3 -4 4 -6
leaf_value=0.0022681075212513577 0.026892854458525441 -0.011984014181264987 0.0077880932173381261 -0.01444841850531736 -0.0024811934550396271
leaf_weight=29 22 24 21 27 27
leaf_count=29 22 24 21 27 27
internal_value=0.000508347 -0.00402649 -0.00219014 -0.00471475 -0.00846481
internal_weight=150 128 104 83 54
internal_count=150 128 104 83 54
is_linear=0
shrinkage=0.05


Tree=64
num_leaves=6
num_cat=0
split_feature=28 28 18 21 7
split_gain=6.9278 1.46915 0.999593 0.645583 0.0374758
threshold=2.5000000000000004 -1.4999999999999998 2.5000000000000004 3.5000000000000004 6.5000000000000009
decision_type=2 2 2 2 2
left_child=1 -1 4 -4 -3
right_child=-2 2 3 -5 -6
leaf_value=-0.012319974721973076 0.025732851449562156 -0.0049103062972426417 -0.00075856985256125755 0.010838692604253691 -0.0079711807519197465
leaf_weight=38 23 20 28 21 20
leaf_count=38 23 20 28 21 20
internal_value=0.000482929 -0.00408989 -0.000575923 0.00421169 -0.00644074
internal_weight=150 127 89 49 40
internal_count=150 127 89 49 40
is_linear=0
shrinkage=0.05


Tree=65
num_leaves=6
num_cat=0
split_feature=18 21 20 19 6
split_gain=4.09541 3.84656 1.37958 1.36773 1.31363
threshold=3.5000000000000004 4.5000000000000009 3.5000000000000004 3.5000000000000004 2.5000000000000004
decision_type=2 2 2 2 2
left_child=3 2 -2 4 -1
right_child=1 -3 -4 -5 -6
leaf_value=0.0063234616575452195 -0.0083138098242394026 0.025384022109210494 0.0091997205364433201 -0.014874905866344233 -0.0093706769123673445
leaf_weight=24 23 23 22 37 30
leaf_count=24 23 23 22 37 30
internal_value=-0.00053283 0.00875013 0.000248361 -0.00746955 -0.0023955
internal_weight=159 68 45 91 54
internal_count=159 68 45 91 54
is_linear=0
shrinkage=0.05


Tree=66
num_leaves=6
num_cat=0
split_feature=9 3 18 20 11
split_gain=4.45647 8.73187 1.25205 1.3482 1.0111
threshold=9.5000000000000018 3.7500000000000004 2.5000000000000004 3.5000000000000004 30.500000000000004
decision_type=2 2 2 2 2
left_child=1 -1 4 -4 -2
right_child=2 -3 3 -5 -6
leaf_value=0.03279428948648274 -0.021206746548414229 -0.0082141703460365534 -0.008660795725882053 0.0057839336696391304 -0.0056733599863946441
leaf_weight=25 20 27 35 30 22
leaf_count=25 20 27 35 30 22
internal_value=-0.000506189 0.0115014 -0.00634167 -0.001994 -0.0130702
internal_weight=159 52 107 65 42
internal_count=159 52 107 65 42
is_linear=0
shrinkage=0.05


Tree=67
num_leaves=7
num_cat=0
split_feature=28 28 19 19 3 11
split_gain=5.29437 2.27033 1.08461 0.984246 0.658766 0.133538
threshold=2.5000000000000004 -2.4999999999999996 3.5000000000000004 2.5000000000000004 3.7500000000000004 32.500000000000007
decision_type=2 2 2 2 2 2
left_child=1 -1 3 5 -4 -3
right_child=-2 2 4 -5 -6 -7
leaf_value=-0.017244902935012112 0.019692724901768897 0.00091788386926054959 -0.014080241151386872 0.010836767942722265 -0.0012470213230699303 -0.0048600487597286711
leaf_weight=28 27 20 20 24 20 20
leaf_count=28 27 20 20 24 20 20
internal_value=-0.000480879 -0.0046073 -0.00120487 0.00283186 -0.00766363 -0.00197108
internal_weight=159 132 104 64 40 40
internal_count=159 132 104 64 40 40
is_linear=0
shrinkage=0.05


Tree=68
num_leaves=5
num_cat=0
split_feature=28 28 18 28
split_gain=4.77816 2.04897 1.07818 0.87216
threshold=2.5000000000000004 -2.4999999999999996 3.5000000000000004 1.0000000180025095e-35
decision_type=2 2 2 2
left_child=1 -1 3 -3
right_child=-2 2 -4 -5
leaf_value=-0.016382657653386042 0.018708087973020697 -0.010641813127211098 0.0060034653810518129 0.0006116038602259424
leaf_weight=28 27 33 35 36
leaf_count=28 27 33 35 36
internal_value=-0.000456836 -0.00437693 -0.00114462 -0.00477047
internal_weight=159 132 104 69
internal_count=159 132 104 69
is_linear=0
shrinkage=0.05


Tree=69
num_leaves=6
num_cat=0
split_feature=28 28 16 28 6
split_gain=4.31229 1.84919 1.05813 1.07898 0.476275
threshold=2.5000000000000004 -2.4999999999999996 0.6078576147556306 1.0000000180025095e-35 3.5000000000000004
decision_type=2 2 2 2 2
left_child=1 -1 3 4 -3
right_child=-2 2 -4 -5 -6
leaf_value=-0.015563524867008842 0.017772684080733191 -0.014643776234948919 0.0074295895933001142 0.0027605387579762576 -0.0042289637110155568
leaf_weight=28 27 21 27 33 23
leaf_count=28 27 21 27 33 23
internal_value=-0.000433994 -0.00415809 -0.00108739 -0.00407387 -0.00919967
internal_weight=159 132 104 77 44
internal_count=159 132 104 77 44
is_linear=0
shrinkage=0.05


Tree=70
num_leaves=6
num_cat=0
split_feature=18 28 5 18 26
split_gain=5.06752 11.6808 2.63031 0.886813 0.530144
threshold=1.5000000000000002 1.5000000000000002 2.5000000000000004 4.5000000000000009 3.0773808956146245
decision_type=2 2 2 2 2
left_child=-1 2 -2 4 -4
right_child=1 -3 3 -5 -6
leaf_value=-0.023359766280786558 -0.015758024852747392 0.030606646806900874 0.0020552036026492714 0.0081772343814373021 -0.009319350553587789
leaf_weight=22 38 29 20 25 21
leaf_count=22 38 29 20 25 21
internal_value=-0.00113096 0.00254599 -0.00527862 0.000754978 -0.00377079
internal_weight=155 133 104 66 41
internal_count=155 133 104 66 41
is_linear=0
shrinkage=0.05


Tree=71
num_leaves=7
num_cat=0
split_feature=9 25 26 5 15 9
split_gain=4.86456 5.88459 2.23526 1.4524 1.32573 0.894361
threshold=13.500000000000002 3.5000000000000004 3.8214286565780644 2.5000000000000004 1.0000000180025095e-35 6.5000000000000009
decision_type=2 2 2 2 2 2
left_child=1 5 3 -2 -5 -1
right_child=2 -3 -4 4 -6 -7
leaf_value=0.0055781310459133244 -0.015446882927790284 0.028962026420049372 -0.022530452293259177 0.0099843889541391811 -0.0069064271349746457 -0.0090310114298269833
leaf_weight=20 20 24 22 21 26 22
leaf_count=20 20 24 22 21 26 22
internal_value=-0.00107441 0.00921165 -0.00870228 -0.00416168 0.000640533 -0.00207428
internal_weight=155 66 89 67 47 42
internal_count=155 66 89 67 47 42
is_linear=0
shrinkage=0.05


Tree=72
num_leaves=6
num_cat=0
split_feature=25 18 28 18 26
split_gain=4.52676 1.66496 2.28128 0.682484 0.115889
threshold=4.2142856121063241 1.5000000000000002 -1.4999999999999998 2.5000000000000004 3.0357142686843877
decision_type=2 2 2 2 2
left_child=1 -1 -3 -4 -5
right_child=-2 2 3 4 -6
leaf_value=-0.017738650978675909 0.018012261053081603 -0.013072704028009492 -0.0032414648014431197 0.0093496502633206562 0.0041962046913492186
leaf_weight=21 26 34 30 20 24
leaf_count=21 26 34 30 20 24
internal_value=-0.00102069 -0.00485679 -0.00235198 0.00257376 0.00653868
internal_weight=155 129 108 74 44
internal_count=155 129 108 74 44
is_linear=0
shrinkage=0.05


Tree=73
num_leaves=6
num_cat=0
split_feature=9 18 26 5 18
split_gain=4.37104 5.20839 2.16096 1.30139 0.80177
threshold=13.500000000000002 3.5000000000000004 3.8214286565780644 2.5000000000000004 2.5000000000000004
decision_type=2 2 2 2 2
left_child=1 -1 3 -2 -5
right_child=2 -3 -4 4 -6
leaf_value=-0.0044382589243884604 -0.014418178312480451 0.023705284325255746 -0.021796647836030886 -0.0061515596271915877 0.0069361137226223949
leaf_weight=35 20 31 22 22 25
leaf_count=35 20 31 22 22 25
internal_value=-0.000969655 0.00878068 -0.00820024 -0.00373575 0.000809969
internal_weight=155 66 89 67 47
internal_count=155 66 89 67 47
is_linear=0
shrinkage=0.05


Tree=74
num_leaves=6
num_cat=0
split_feature=25 18 28 18 3
split_gain=4.18609 1.40199 2.17362 0.55111 0.117342
threshold=4.2142856121063241 1.5000000000000002 -1.4999999999999998 2.5000000000000004 3.1499999761581425
decision_type=2 2 2 2 2
left_child=1 -1 -3 -4 -5
right_child=-2 2 3 4 -6
leaf_value=-0.016430989291430231 0.017381593760532828 -0.012776295896636678 -0.0027291246045691273 0.0033571987257649503 0.0085267066226705265
leaf_weight=21 26 34 30 21 23
leaf_count=21 26 34 30 21 23
internal_value=-0.000921172 -0.0046101 -0.0023116 0.00249651 0.00605944
internal_weight=155 129 108 74 44
internal_count=155 129 108 74 44
is_linear=0
shrinkage=0.05


Tree=75
num_leaves=6
num_cat=0
split_feature=18 28 18 27 18
split_gain=3.0613 4.12945 4.08541 1.62412 1.03456
threshold=1.5000000000000002 1.0000000180025095e-35 2.5000000000000004 3.6500000953674321 4.5000000000000009
decision_type=2 2 2 2 2
left_child=-1 3 -3 4 -2
right_child=1 2 -4 -5 -6
leaf_value=-0.01588059757249775 -0.0053334306521962095 0.001674262021832099 0.031489595603197813 -0.014932454001158477 0.0091363432806073914
leaf_weight=27 30 27 20 25 21
leaf_count=27 30 27 20 25 21
internal_value=-0.000634868 0.00271176 0.0143616 -0.00449278 0.000624712
internal_weight=150 123 47 76 51
internal_count=150 123 47 76 51
is_linear=0
shrinkage=0.05


Tree=76
num_leaves=6
num_cat=0
split_feature=18 28 18 25 26
split_gain=2.76283 3.72683 3.68708 1.27669 0.761115
threshold=1.5000000000000002 1.0000000180025095e-35 2.5000000000000004 3.7857142686843877 3.0357142686843877
decision_type=2 2 2 2 2
left_child=-1 3 -3 4 -2
right_child=1 2 -4 -5 -6
leaf_value=-0.015086567458800144 -0.0072909189007160343 0.0015905494624921296 0.0299151153373532 -0.014421063013882799 0.0047901590529363606
leaf_weight=27 22 27 20 22 32
leaf_count=27 22 27 20 22 32
internal_value=-0.000603125 0.00257617 0.0136436 -0.00426814 -0.000131762
internal_weight=150 123 47 76 54
internal_count=150 123 47 76 54
is_linear=0
shrinkage=0.05


Tree=77
num_leaves=6
num_cat=0
split_feature=18 28 18 27 18
split_gain=2.49345 3.36347 3.32759 1.44075 0.938035
threshold=1.5000000000000002 1.0000000180025095e-35 2.5000000000000004 3.6500000953674321 4.5000000000000009
decision_type=2 2 2 2 2
left_child=-1 3 -3 4 -2
right_child=1 2 -4 -5 -6
leaf_value=-0.0143322385599647 -0.0049081839908224839 0.0015110221587949328 0.028419360309926561 -0.013887424990534783 0.0088700741003516926
leaf_weight=27 30 27 20 25 21
leaf_count=27 30 27 20 25 21
internal_value=-0.000572968 0.00244736 0.0129614 -0.00405473 0.000765216
internal_weight=150 123 47 76 51
internal_count=150 123 47 76 51
is_linear=0
shrinkage=0.05


Tree=78
num_leaves=5
num_cat=0
split_feature=26 14 25 22
split_gain=2.3106 2.11764 4.19126 0.777836
threshold=3.9642857313156132 0.85421994328498851 3.5000000000000004 2.5000000000000004
decision_type=2 2 2 2
left_child=1 2 3 -1
right_child=-2 -3 -4 -5
leaf_value=0.0036736337348466392 -0.014420554820448163 -0.010167649710826853 0.021214508332001669 -0.0070634609013195005
leaf_weight=37 25 27 30 31
leaf_count=37 25 27 30 31
internal_value=-0.00054432 0.00223093 0.00564686 -0.00122122
internal_weight=150 125 98 68
internal_count=150 125 98 68
is_linear=0
shrinkage=0.05


Tree=79
num_leaves=6
num_cat=0
split_feature=18 28 18 26 26
split_gain=2.21646 2.99524 3.00053 1.0341 0.961125
threshold=1.5000000000000002 1.0000000180025095e-35 2.5000000000000004 3.5357142686843877 3.0357142686843877
decision_type=2 2 2 2 2
left_child=-1 3 -3 4 -2
right_child=1 2 -4 -5 -6
leaf_value=-0.013489634228042431 -0.0066440203258852394 0.0013792428050052239 0.026931013779249044 -0.011027436573834469 0.0078244263463905853
leaf_weight=27 22 27 20 30 24
leaf_count=27 22 27 20 30 24
internal_value=-0.000517104 0.00233052 0.0122523 -0.00380533 0.000904734
internal_weight=150 123 47 76 46
internal_count=150 123 47 76 46
is_linear=0
shrinkage=0.05


Tree=80
num_leaves=6
num_cat=0
split_feature=18 21 21 19 27
split_gain=3.85145 7.16798 1.37427 1.36963 0.866074
threshold=3.5000000000000004 4.5000000000000009 2.5000000000000004 3.5000000000000004 2.9833333492279057
decision_type=2 2 2 2 2
left_child=3 2 -2 4 -1
right_child=1 -3 -4 -5 -6
leaf_value=-0.0082301449999213228 0.006133152982996156 0.034167388943023978 -0.01161332330084406 -0.013904236200247206 0.0045735855453780724
leaf_weight=25 24 20 20 38 28
leaf_count=25 24 20 20 38 28
internal_value=-5.01756e-05 0.00934808 -0.00193343 -0.00665994 -0.00146591
internal_weight=155 64 44 91 53
internal_count=155 64 44 91 53
is_linear=0
shrinkage=0.05


Tree=81
num_leaves=6
num_cat=0
split_feature=18 21 28 21 28
split_gain=3.47594 6.4691 1.6347 1.24028 0.303719
threshold=3.5000000000000004 4.5000000000000009 2.5000000000000004 2.5000000000000004 1.0000000180025095e-35
decision_type=2 2 2 2 2
left_child=2 3 4 -2 -1
right_child=1 -3 -4 -5 -6
leaf_value=-0.0060076864439796542 0.0058264951473878078 0.032459019116358838 -0.018195041404529055 -0.011032657315954568 0.00063314061747708674
leaf_weight=33 24 20 22 20 36
leaf_count=33 24 20 22 20 36
internal_value=-4.7667e-05 0.00888067 -0.00632694 -0.00183676 -0.00254291
internal_weight=155 64 91 44 69
internal_count=155 64 91 44 69
is_linear=0
shrinkage=0.05


Tree=82
num_leaves=6
num_cat=0
split_feature=18 21 28 21 28
split_gain=3.13703 5.83836 1.47531 1.11935 0.274106
threshold=3.5000000000000004 4.5000000000000009 2.5000000000000004 2.5000000000000004 1.0000000180025095e-35
decision_type=2 2 2 2 2
left_child=2 3 4 -2 -1
right_child=1 -3 -4 -5 -6
leaf_value=-0.0057073021251143833 0.0055351705115754164 0.03083606753498316 -0.017285289810123769 -0.010481024426408112 0.00060148355777427153
leaf_weight=33 24 20 22 20 36
leaf_count=33 24 20 22 20 36
internal_value=-4.52838e-05 0.00843664 -0.00601059 -0.00174492 -0.00241576
internal_weight=155 64 91 44 69
internal_count=155 64 91 44 69
is_linear=0
shrinkage=0.05


Tree=83
num_leaves=7
num_cat=0
split_feature=25 28 1 12 22 6
split_gain=3.0285 3.18104 0.992496 0.826413 1.00387 0.443899
threshold=4.2142856121063241 2.5000000000000004 19.500000000000004 -0.68301269412040699 1.5000000000000002 3.5000000000000004
decision_type=2 2 2 2 2 2
left_child=1 2 3 -1 -5 -6
right_child=-2 -3 -4 4 5 -7
leaf_value=-0.010216256161220372 0.017611694564333275 -0.021202249203342946 0.010531124644912779 0.0092059287378409259 -0.0079302043402567513 0.0016947548026623933
leaf_weight=22 21 20 20 24 25 23
leaf_count=22 21 20 20 24 25 23
internal_value=-4.30193e-05 -0.0028098 0.000416942 -0.00173501 0.00085648 -0.00331824
internal_weight=155 134 114 94 72 48
internal_count=155 134 114 94 72 48
is_linear=0
shrinkage=0.05


Tree=84
num_leaves=7
num_cat=0
split_feature=25 28 1 28 7 3
split_gain=2.73322 2.87089 0.895727 0.746598 0.960887 0.228741
threshold=4.2142856121063241 2.5000000000000004 19.500000000000004 -1.0000000180025095e-35 6.5000000000000009 3.7500000000000004
decision_type=2 2 2 2 2 2
left_child=1 2 3 4 -1 -5
right_child=-2 -3 -4 5 -6 -7
leaf_value=0.00084760576972494955 0.016731109882571867 -0.02014213692280464 0.010004568444564939 -0.00059104821367117651 -0.013768685604868967 0.006254211327304012
leaf_weight=23 21 20 20 26 22 23
leaf_count=23 21 20 20 26 22 23
internal_value=-4.08684e-05 -0.00266931 0.000396095 -0.00164826 -0.00629814 0.00262203
internal_weight=155 134 114 94 45 49
internal_count=155 134 114 94 45 49
is_linear=0
shrinkage=0.05


Tree=85
num_leaves=7
num_cat=0
split_feature=28 18 27 25 18 14
split_gain=3.14489 6.5052 2.37757 1.2595 0.418898 0.0396598
threshold=1.0000000180025095e-35 2.5000000000000004 3.3499999046325688 3.7857142686843877 4.5000000000000009 1.0000000180025095e-35
decision_type=2 2 2 2 2 2
left_child=3 2 -2 4 5 -1
right_child=1 -3 -4 -5 -6 -7
leaf_value=-0.0062282579529675704 0.0067778200421553976 0.030042737815529109 -0.015045932505745442 -0.018635167697952551 0.00062973713502287873 -0.0093011719307729192
leaf_weight=21 26 20 24 22 23 21
leaf_count=21 26 20 24 22 23 21
internal_value=-0.0019467 0.00594251 -0.00369758 -0.00829434 -0.00479437 -0.00776471
internal_weight=157 70 50 87 65 42
internal_count=157 70 50 87 65 42
is_linear=0
shrinkage=0.05


Tree=86
num_leaves=6
num_cat=0
split_feature=28 18 27 25 26
split_gain=2.83826 5.87094 2.14576 1.1367 0.952159
threshold=1.0000000180025095e-35 2.5000000000000004 3.3499999046325688 3.7857142686843877 2.9642857313156132
decision_type=2 2 2 2 2
left_child=3 2 -2 4 -1
right_child=1 -3 -4 -5 -6
leaf_value=-0.011966282265404096 0.0064389291013447723 0.028540600996930156 -0.014293636045961953 -0.017703409099274061 0.00038643527823763017
leaf_weight=26 26 20 24 22 39
leaf_count=26 26 20 24 22 39
internal_value=-0.00184937 0.00564538 -0.0035127 -0.00787962 -0.00455465
internal_weight=157 70 50 87 65
internal_count=157 70 50 87 65
is_linear=0
shrinkage=0.05


Tree=87
num_leaves=6
num_cat=0
split_feature=28 1 12 27 26
split_gain=2.65212 3.20434 3.05796 1.49874 2.66296
threshold=-1.4999999999999998 20.500000000000004 -0.25000000000000006 3.2833333015441899 2.8214286565780644
decision_type=2 2 2 2 2
left_child=2 3 -1 4 -2
right_child=1 -3 -4 -5 -6
leaf_value=-0.024766393204260134 -0.0083576816559070722 0.017325055212886246 0.0016235538425722292 -0.010198389037719205 0.014720281165093184
leaf_weight=23 25 27 21 36 25
leaf_count=23 25 27 21 36 25
internal_value=-0.0017569 0.00229823 -0.0121712 -0.0024195 0.0031813
internal_weight=157 113 44 86 50
internal_count=157 113 44 86 50
is_linear=0
shrinkage=0.05


Tree=88
num_leaves=6
num_cat=0
split_feature=28 18 19 25 26
split_gain=2.39745 5.22329 2.11802 0.973577 0.840199
threshold=1.0000000180025095e-35 2.5000000000000004 3.5000000000000004 3.7857142686843877 2.9642857313156132
decision_type=2 2 2 2 2
left_child=3 2 -2 4 -1
right_child=1 -3 -4 -5 -6
leaf_value=-0.011096377298235894 0.0053380653037336367 0.026814632378518583 -0.015512207939866044 -0.016302893008105456 0.00050738482998731807
leaf_weight=26 29 20 21 22 39
leaf_count=26 29 20 21 22 39
internal_value=-0.00166905 0.00521915 -0.00341905 -0.00721128 -0.00413412
internal_weight=157 70 50 87 65
internal_count=157 70 50 87 65
is_linear=0
shrinkage=0.05


Tree=89
num_leaves=6
num_cat=0
split_feature=28 18 12 20 11
split_gain=2.25783 5.47002 2.75986 2.44152 1.46701
threshold=-1.4999999999999998 3.5000000000000004 -0.25000000000000006 3.5000000000000004 19.500000000000004
decision_type=2 2 2 2 2
left_child=2 3 -1 4 -2
right_child=1 -3 -4 -5 -6
leaf_value=-0.023160187399986647 -0.0072575458875772632 0.022795337680727244 0.0019105253558206773 -0.014459343497980049 0.0094110595062375079
leaf_weight=23 22 25 21 33 33
leaf_count=23 22 25 21 33 33
internal_value=-0.0015856 0.00215597 -0.0111946 -0.00370749 0.00274362
internal_weight=157 113 44 88 55
internal_count=157 113 44 88 55
is_linear=0
shrinkage=0.05


Tree=90
num_leaves=6
num_cat=0
split_feature=18 28 28 18 16
split_gain=1.68726 2.19379 0.826611 0.521062 0.200454
threshold=1.5000000000000002 1.5000000000000002 -2.4999999999999996 3.5000000000000004 -1.0000000180025095e-35
decision_type=2 2 2 2 2
left_child=-1 2 -2 4 -4
right_child=1 -3 3 -5 -6
leaf_value=-0.013522011088207365 -0.0097640973033516539 0.01255862358448212 0.0006228891709311443 0.0058576781147470086 -0.0059211307540535931
leaf_weight=23 28 32 22 27 25
leaf_count=23 28 32 22 27 25
internal_value=-0.00101078 0.00113667 -0.00244669 0.000322062 -0.00285797
internal_weight=157 134 102 74 47
internal_count=157 134 102 74 47
is_linear=0
shrinkage=0.05


Tree=91
num_leaves=7
num_cat=0
split_feature=26 26 21 5 9 9
split_gain=1.57031 2.34089 0.865555 1.35395 1.21075 0.331621
threshold=3.9642857313156132 3.6785713434219365 2.5000000000000004 2.5000000000000004 15.500000000000002 15.500000000000002
decision_type=2 2 2 2 2 2
left_child=1 2 4 -4 -1 -5
right_child=-2 -3 3 5 -6 -7
leaf_value=0.011626636066838452 -0.012450508774258198 0.016524193489125798 -0.016343164073769005 -0.0048632591497153044 -0.0039845420703015942 0.0041329284780658787
leaf_weight=23 25 21 20 21 27 20
leaf_count=23 25 21 20 21 27 20
internal_value=-0.000960241 0.00121595 -0.00168021 -0.00567759 0.0031966 -0.000474875
internal_weight=157 132 111 61 50 41
internal_count=157 132 111 61 50 41
is_linear=0
shrinkage=0.05


Tree=92
num_leaves=6
num_cat=0
split_feature=18 28 28 18 3
split_gain=1.49329 2.0098 0.723203 0.48737 0.212651
threshold=1.5000000000000002 1.5000000000000002 -2.4999999999999996 3.5000000000000004 3.7500000000000004
decision_type=2 2 2 2 2
left_child=-1 2 -2 4 -4
right_child=1 -3 3 -5 -6
leaf_value=-0.01268233853675749 -0.0091662162981395214 0.012040518238654841 -0.0058300896619374945 0.00562164626327878 0.00093472435006073545
leaf_weight=23 28 32 26 27 21
leaf_count=23 28 32 26 27 21
internal_value=-0.000912229 0.00110801 -0.00232179 0.000267991 -0.00280751
internal_weight=157 134 102 74 47
internal_count=157 134 102 74 47
is_linear=0
shrinkage=0.05


Tree=93
num_leaves=6
num_cat=0
split_feature=18 17 19 25 22
split_gain=1.48409 2.66408 3.18715 1.26387 0.797498
threshold=4.5000000000000009 -0.56174489110708226 3.5000000000000004 3.0714285373687749 2.5000000000000004
decision_type=2 2 2 2 2
left_child=1 3 4 -1 -3
right_child=-2 2 -4 -5 -6
leaf_value=-0.0014452816253261907 0.0087413103810831672 0.0059200576972216375 -0.020236654382418187 0.016117315804585815 -0.0067092584855854513
leaf_weight=21 32 25 34 20 25
leaf_count=21 32 25 34 20 25
internal_value=-0.000866617 -0.00332625 -0.00842591 0.00712184 -0.0003946
internal_weight=157 125 84 41 50
internal_count=157 125 84 41 50
is_linear=0
shrinkage=0.05


Tree=94
num_leaves=7
num_cat=0
split_feature=26 26 21 5 9 9
split_gain=1.39479 2.08462 0.785537 1.28167 1.06087 0.304989
threshold=3.9642857313156132 3.6785713434219365 2.5000000000000004 2.5000000000000004 15.500000000000002 15.500000000000002
decision_type=2 2 2 2 2 2
left_child=1 2 4 -4 -1 -5
right_child=-2 -3 3 5 -6 -7
leaf_value=0.01103160357831613 -0.011652348160743715 0.015673692080946194 -0.015690440014004711 -0.0044600454292127063 -0.0035814367044993026 0.0041673429240472615
leaf_weight=23 25 21 20 21 27 20
leaf_count=23 25 21 20 21 27 20
internal_value=-0.000823286 0.00122767 -0.00150536 -0.00531349 0.00314056 -0.000251563
internal_weight=157 132 111 61 50 41
internal_count=157 132 111 61 50 41
is_linear=0
shrinkage=0.05


Tree=95
num_leaves=6
num_cat=0
split_feature=28 18 26 28 7
split_gain=4.32548 1.29999 2.03286 0.297256 0.227644
threshold=2.5000000000000004 4.5000000000000009 3.6071428060531621 1.0000000180025095e-35 7.5000000000000009
decision_type=2 2 2 2 2
left_child=1 2 3 4 -1
right_child=-2 -3 -4 -5 -6
leaf_value=0.0012916715058963746 0.022052518106997016 0.0076115909792647211 -0.017927553710978827 0.0040126745492733758 -0.0060788244400596762
leaf_weight=20 25 34 20 29 22
leaf_count=20 25 34 20 29 22
internal_value=0.00306682 -0.000730321 -0.00384708 0.000119251 -0.00256906
internal_weight=150 125 91 71 42
internal_count=150 125 91 71 42
is_linear=0
shrinkage=0.05


Tree=96
num_leaves=6
num_cat=0
split_feature=28 18 25 28 7
split_gain=3.90375 1.17324 2.01631 0.233722 0.131202
threshold=2.5000000000000004 4.5000000000000009 3.6428570747375493 1.0000000180025095e-35 6.5000000000000009
decision_type=2 2 2 2 2
left_child=1 2 3 4 -1
right_child=-2 -3 -4 -5 -6
leaf_value=0.00073981027468107653 0.0209498912319541 0.0072310113512417855 -0.017677773972973227 0.0036491116601973777 -0.0049187665941038483
leaf_weight=20 25 34 20 30 21
leaf_count=20 25 34 20 30 21
internal_value=0.00291348 -0.000693805 -0.00365473 0.000295429 -0.00215849
internal_weight=150 125 91 71 41
internal_count=150 125 91 71 41
is_linear=0
shrinkage=0.05


Tree=97
num_leaves=6
num_cat=0
split_feature=28 19 25 7 27
split_gain=3.52313 1.07338 1.5808 0.395101 0.626074
threshold=2.5000000000000004 3.5000000000000004 3.5000000000000004 8.5000000000000018 2.8397434949874882
decision_type=2 2 2 2 2
left_child=1 3 -3 4 -1
right_child=-2 2 -4 -5 -6
leaf_value=-0.00062916369199575418 0.019902397135272625 0.0045547950465697797 -0.013592767653365931 -0.0017147652416800458 0.010881810373178235
leaf_weight=21 25 20 30 27 27
leaf_count=21 25 20 30 27 27
internal_value=0.0027678 -0.000659115 -0.00633374 0.00312397 0.00584576
internal_weight=150 125 50 75 48
internal_count=150 125 50 75 48
is_linear=0
shrinkage=0.05


Tree=98
num_leaves=6
num_cat=0
split_feature=21 22 26 21 13
split_gain=3.37864 1.6139 2.81594 0.953488 0.569853
threshold=4.5000000000000009 4.5000000000000009 3.7500000000000004 1.5000000000000002 0.25000000000000011
decision_type=2 2 2 2 2
left_child=1 2 3 -1 -5
right_child=-2 -3 -4 4 -6
leaf_value=0.0087295038583265119 0.016759065366491226 0.009113768049116646 -0.021169171684887262 -0.0088306825625925119 0.0022433087642725912
leaf_weight=22 33 28 20 26 21
leaf_count=22 33 28 20 26 21
internal_value=0.00262941 -0.00135587 -0.00464969 0.000138563 -0.00388273
internal_weight=150 117 89 69 47
internal_count=150 117 89 69 47
is_linear=0
shrinkage=0.05


Tree=99
num_leaves=6
num_cat=0
split_feature=28 18 25 28 7
split_gain=3.24285 1.00914 1.60598 0.211719 0.120559
threshold=2.5000000000000004 4.5000000000000009 3.6428570747375493 1.0000000180025095e-35 6.5000000000000009
decision_type=2 2 2 2 2
left_child=1 2 3 4 -1
right_child=-2 -3 -4 -5 -6
leaf_value=0.00043219793937169013 0.018936840135604146 0.0065598958411582703 -0.016050980798900129 0.0031814083869297371 -0.0049920279432886412
leaf_weight=20 25 34 20 30 21
leaf_count=20 25 34 20 30 21
internal_value=0.00249794 -0.000789836 -0.00353589 -1.05123e-05 -0.00234606
internal_weight=150 125 91 71 41
internal_count=150 125 91 71 41
is_linear=0
shrinkage=0.05


Tree=100
num_leaves=5
num_cat=0
split_feature=18 17 27 22
split_gain=2.28458 2.85282 2.41129 1.9473
threshold=4.5000000000000009 -0.56174489110708226 3.6500000953674321 2.5000000000000004
decision_type=2 2 2 2
left_child=1 -1 3 -3
right_child=-2 2 -4 -5
leaf_value=0.0075754776129829948 0.010145920941508131 0.0062016790716684072 -0.020617938968192404 -0.012121587462024764
leaf_weight=38 38 29 29 29
leaf_count=38 38 29 29 29
internal_value=-0.000590089 -0.00385384 -0.00884595 -0.00295995
internal_weight=163 125 87 58
internal_count=163 125 87 58
is_linear=0
shrinkage=0.05


Tree=101
num_leaves=6
num_cat=0
split_feature=18 6 3 5 21
split_gain=2.06184 2.59163 1.96094 2.71459 0.671417
threshold=4.5000000000000009 4.5000000000000009 2.1499999761581425 2.5000000000000004 2.5000000000000004
decision_type=2 2 2 2 2
left_child=1 2 -1 -4 -5
right_child=-2 -3 3 4 -6
leaf_value=-0.010303461936612926 0.009638625084373513 -0.016760147284367123 0.019957558449269053 0.0050149219064041977 -0.0072760796807706364
leaf_weight=30 38 29 21 20 25
leaf_count=30 38 29 21 20 25
internal_value=-0.000560584 -0.00366114 0.000295847 0.00511371 -0.00181341
internal_weight=163 125 96 66 45
internal_count=163 125 96 66 45
is_linear=0
shrinkage=0.05


Tree=102
num_leaves=5
num_cat=0
split_feature=18 17 26 22
split_gain=1.86081 2.41627 4.85174 1.02779
threshold=4.5000000000000009 -0.56174489110708226 3.8928571939468388 2.5000000000000004
decision_type=2 2 2 2
left_child=1 -1 3 -3
right_child=-2 2 -4 -5
leaf_value=0.007040464040246182 0.0091566938036856688 0.0046646367280504131 -0.029683730900287631 -0.0077222594114787439
leaf_weight=38 38 33 20 34
leaf_count=38 38 33 20 34
internal_value=-0.000532555 -0.00347809 -0.0080724 -0.00162125
internal_weight=163 125 87 67
internal_count=163 125 87 67
is_linear=0
shrinkage=0.05


Tree=103
num_leaves=5
num_cat=0
split_feature=22 27 22 27
split_gain=1.73554 3.24931 1.80616 3.2249
threshold=4.5000000000000009 3.6833333969116215 2.5000000000000004 2.9833333492279057
decision_type=2 2 2 2
left_child=1 2 3 -1
right_child=-2 -3 -4 -5
leaf_value=-0.0028315677893260729 0.0088515062320144167 -0.017093435686547309 -0.0068210690768841569 0.022036293083378539
leaf_weight=32 38 32 39 22
leaf_count=32 38 32 39 22
internal_value=-0.000505927 -0.00335059 0.00137814 0.00729978
internal_weight=163 125 93 54
internal_count=163 125 93 54
is_linear=0
shrinkage=0.05


Tree=104
num_leaves=5
num_cat=0
split_feature=18 17 26 22
split_gain=1.65416 2.14864 4.19319 0.897955
threshold=4.5000000000000009 -0.56174489110708226 3.8928571939468388 2.5000000000000004
decision_type=2 2 2 2
left_child=1 -1 3 -3
right_child=-2 2 -4 -5
leaf_value=0.0066611238323323625 0.008654779719041758 0.0042826328673541093 -0.02768136489670724 -0.0072954924462143994
leaf_weight=38 38 33 20 34
leaf_count=38 38 33 20 34
internal_value=-0.000480631 -0.0032578 -0.0075902 -0.00159283
internal_weight=163 125 87 67
internal_count=163 125 87 67
is_linear=0
shrinkage=0.05


Tree=105
num_leaves=5
num_cat=0
split_feature=28 18 27 11
split_gain=1.99204 3.05568 0.942727 1.88434
threshold=-2.4999999999999996 3.5000000000000004 3.6833333969116215 19.500000000000004
decision_type=2 2 2 2
left_child=-1 2 3 -2
right_child=1 -3 -4 -5
leaf_value=-0.014566066228086129 -0.0091622206149622794 0.013223571447047611 -0.012976383267563174 0.0071304984131295773
leaf_weight=25 36 36 22 35
leaf_count=25 36 36 22 35
internal_value=-0.00164842 0.000855005 -0.00393283 -0.0011306
internal_weight=154 129 93 71
internal_count=154 129 93 71
is_linear=0
shrinkage=0.05


Tree=106
num_leaves=6
num_cat=0
split_feature=21 3 22 9 12
split_gain=1.34812 1.48002 3.20105 1.25037 1.01968
threshold=1.5000000000000002 3.7500000000000004 2.5000000000000004 18.500000000000004 -0.25000000000000006
decision_type=2 2 2 2 2
left_child=-1 2 -2 -3 -4
right_child=1 3 4 -5 -6
leaf_value=0.0083578432278175446 0.015053529396223335 -0.014751285165309526 -0.015465312171727419 0.00038161251161779677 0.00050089696480426938
leaf_weight=28 26 39 20 21 20
leaf_count=28 26 39 20 21 20
internal_value=-0.00156599 -0.00377129 0.00139551 -0.00945477 -0.00748221
internal_weight=154 126 66 60 40
internal_count=154 126 66 60 40
is_linear=0
shrinkage=0.05


Tree=107
num_leaves=6
num_cat=0
split_feature=28 18 14 27 25
split_gain=1.73221 2.75813 0.897057 1.63128 1.85001
threshold=-2.4999999999999996 3.5000000000000004 0.70581671595573436 3.6833333969116215 2.928571462631226
decision_type=2 2 2 2 2
left_child=-1 2 3 4 -2
right_child=1 -3 -4 -5 -6
leaf_value=-0.013533454087097198 -0.0051349138969089842 0.012597696900936879 -0.012268896935426672 -0.012161598758856682 0.014514211978277434
leaf_weight=25 25 36 23 22 23
leaf_count=25 25 36 23 22 23
internal_value=-0.0014877 0.000846754 -0.003702 -0.000887159 0.00428029
internal_weight=154 129 93 70 48
internal_count=154 129 93 70 48
is_linear=0
shrinkage=0.05


Tree=108
num_leaves=6
num_cat=0
split_feature=28 18 20 9 9
split_gain=1.56332 2.48921 0.823339 0.987259 0.419128
threshold=-2.4999999999999996 3.5000000000000004 3.5000000000000004 8.5000000000000018 20.500000000000004
decision_type=2 2 2 2 2
left_child=-1 2 3 -2 -5
right_child=1 -3 -4 4 -6
leaf_value=-0.012856782117858529 0.0090424553607590507 0.011967812558739549 -0.0098605068181782524 -0.0096812520176172267 0.00055505843367427584
leaf_weight=25 20 36 33 20 20
leaf_count=25 20 36 33 20 20
internal_value=-0.00141331 0.000804417 -0.0035169 -2.79127e-05 -0.0045631
internal_weight=154 129 93 60 40
internal_count=154 129 93 60 40
is_linear=0
shrinkage=0.05


Tree=109
num_leaves=6
num_cat=0
split_feature=28 18 20 20 15
split_gain=1.41089 2.24651 0.743063 0.954551 0.445057
threshold=-2.4999999999999996 3.5000000000000004 3.5000000000000004 2.5000000000000004 0.51639395952224743
decision_type=2 2 2 2 2
left_child=-1 2 3 4 -2
right_child=1 -3 -4 -5 -6
leaf_value=-0.012213942788541318 -0.0097600393695756807 0.011369421819431916 -0.009367481564086946 0.0088923353661084555 0.00078815287910401818
leaf_weight=25 20 36 33 20 20
leaf_count=25 20 36 33 20 20
internal_value=-0.00134264 0.000764196 -0.00334105 -2.6517e-05 -0.00448594
internal_weight=154 129 93 60 40
internal_count=154 129 93 60 40
is_linear=0
shrinkage=0.05


end of trees

feature_importances:
quantity_used_diff=149
quantity_lag_1=134
quantity_rolling_mean_7=52
quantity_rolling_mean_14=32
day_of_month=24
quantity_rolling_mean_30=23
quantity_lag_7=17
lead_time_days=15
quantity_lag_14=12
quantity_lag_3=10
quantity_lag_5=10
region=8
month=8
shipping_mode=6
week_of_year=6
week_sin=6
day_of_week=5
day_of_week_sin=5
month_sin=4
day_of_week_cos=4
week_cos=3
quantity_lag_30=2
late_delivery_risk=1
month_cos=1

parameters:
[boosting: gbdt]
[objective: regression]
[metric: rmse]
[tree_learner: serial]
[device_type: cpu]
[data_sample_strategy: bagging]
[data: ]
[valid: ]
[num_iterations: 500]
[learning_rate: 0.05]
[num_leaves: 31]
[num_threads: 0]
[seed: 42]
[deterministic: 0]
[force_col_wise: 0]
[force_row_wise: 0]
[histogram_pool_size: -1]
[max_depth: -1]
[min_data_in_leaf: 20]
[min_sum_hessian_in_leaf: 0.001]
[bagging_fraction: 0.8]
[pos_bagging_fraction: 1]
[neg_bagging_fraction: 1]
[bagging_freq: 5]
[bagging_seed: 400]
[bagging_by_query: 0]
[feature_fraction: 0.9]
[feature_fraction_bynode: 1]
[feature_fraction_seed: 30056]
[extra_trees: 0]
[extra_seed: 12879]
[early_stopping_round: 0]
[early_stopping_min_delta: 0]
[first_metric_only: 0]
[max_delta_step: 0]
[lambda_l1: 0]
[lambda_l2: 0]
[linear_lambda: 0]
[min_gain_to_split: 0]
[drop_rate: 0.1]
[max_drop: 50]
[skip_drop: 0.5]
[xgboost_dart_mode: 0]
[uniform_drop: 0]
[drop_seed: 17869]
[top_rate: 0.2]
[other_rate: 0.1]
[min_data_per_group: 100]
[max_cat_threshold: 32]
[cat_l2: 10]
[cat_smooth: 10]
[max_cat_to_onehot: 4]
[top_k: 20]
[monotone_constraints: ]
[monotone_constraints_method: basic]
[monotone_penalty: 0]
[feature_contri: ]
[forcedsplits_filename: ]
[refit_decay_rate: 0.9]
[cegb_tradeoff: 1]
[cegb_penalty_split: 0]
[cegb_penalty_feature_lazy: ]
[cegb_penalty_feature_coupled: ]
[path_smooth: 0]
[interaction_constraints: ]
[verbosity: -1]
[saved_feature_importance_type: 0]
[use_quantized_grad: 0]
[num_grad_quant_bins: 4]
[quant_train_renew_leaf: 0]
[stochastic_rounding: 1]
[linear_tree: 0]
[max_bin: 255]
[max_bin_by_feature: ]
[min_data_in_bin: 3]
[bin_construct_sample_cnt: 200000]
[data_random_seed: 175]
[is_enable_sparse: 1]
[enable_bundle: 1]
[use_missing: 1]
[zero_as_missing: 0]
[feature_pre_filter: 1]
[pre_partition: 0]
[two_round: 0]
[header: 0]
[label_column: ]
[weight_column: ]
[group_column: ]
[ignore_column: ]
[categorical_feature: ]
[forcedbins_filename: ]
[precise_float_parser: 0]
[parser_config_file: ]
[objective_seed: 16083]
[num_class: 1]
[is_unbalance: 0]
[scale_pos_weight: 1]
[sigmoid: 1]
[boost_from_average: 1]
[reg_sqrt: 0]
[alpha: 0.9]
[fair_c: 1]
[poisson_max_delta_step: 0.7]
[tweedie_variance_power: 1.5]
[lambdarank_truncation_level: 30]
[lambdarank_norm: 1]
[label_gain: ]
[lambdarank_position_bias_regularization: 0]
[eval_at: ]
[multi_error_top_k: 1]
[auc_mu_weights: ]
[num_machines: 1]
[local_listen_port: 12400]
[time_out: 120]
[machine_list_filename: ]
[machines: ]
[gpu_platform_id: -1]
[gpu_device_id: -1]
[gpu_use_dp: 0]
[num_gpu: 1]

end of parameters

pandas_categorical:null
