tree
version=v4
num_class=1
num_tree_per_iteration=1
label_index=0
max_feature_idx=29
objective=regression
feature_names=material region unit_price lead_time_days late_delivery_risk shipping_mode day_of_week month is_weekend day_of_month quarter week_of_year month_sin month_cos week_sin week_cos day_of_week_sin day_of_week_cos quantity_lag_1 quantity_lag_3 quantity_lag_5 quantity_lag_7 quantity_lag_14 quantity_lag_30 price_lag_7 quantity_rolling_mean_7 quantity_rolling_mean_14 quantity_rolling_mean_30 quantity_used_diff unit_price_diff
feature_infos=none [1:22] none [0:6] [0:1] [0:3] [0:6] [1:12] [0:1] [1:31] [1:4] [1:53] [-1:1] [-1:1] [-1:1] [-1:1] [-0.97492790222167969:0.97492790222167969] [-0.90096884965896606:1] [0:12] [0:12] [0:12] [0:12] [0:12] [0:12] none [1.7142857313156128:5.7142858505249023] [2.2857143878936768:4.9285712242126465] [2.6333334445953369:4.4117646217346191] [-9:8] none
tree_sizes=540 568 569 651 562 571 565 568 570 570 572 575 575 573 570 576 570 577 578 571 572 657 573 656 568 575 578 577 577 573 577 646 581 581 570 576 575 578 653 574 578 576 577 657 571 574 658 656 657 657 651 575 659 660 573 490 574 567 487 572 573 569 577 573 580 576 574 579 659 659 576 656 579 654 577 579 574 574 571 660 571 658 578 579 660 576 577 662 576 662 578 576 663 657 580 654 655 572 568 659 496 656 654 663 577 574 576 659 575 583 580 580 581 653 577 745 743 579 740 661 742 653 743 747 653 662 659 662 665 575 578 665 579 581 583 590 586 587 578 578 664 583 580 663

Tree=0
num_leaves=5
num_cat=0
split_feature=28 25 26 13
split_gain=293.525 26.9716 20.133 11.0525
threshold=1.5000000000000002 3.7857142686843877 3.7321428060531621 -0.25000000000000006
decision_type=2 2 2 2
left_child=2 -2 3 -1
right_child=1 -3 -4 -5
leaf_value=3.4656291173891272 3.5778260866390621 3.6580533591360442 3.496040372481072 3.4243885877380227
leaf_weight=33 20 22 28 32
leaf_count=33 20 22 28 32
internal_value=3.51014 3.61985 3.46059 3.44533
internal_weight=135 42 93 65
internal_count=135 42 93 65
is_linear=0
shrinkage=1


Tree=1
num_leaves=5
num_cat=0
split_feature=28 25 27 13
split_gain=264.906 24.3419 19.2612 14.1809
threshold=1.5000000000000002 3.7857142686843877 3.8166666030883794 -0.25000000000000006
decision_type=2 2 2 2
left_child=2 -2 3 -1
right_child=1 -3 -4 -5
leaf_value=-0.039386742923940933 0.063608695417642594 0.13982460315931927 -0.010232956767082215 -0.085072921713193264
leaf_weight=35 20 22 25 33
leaf_count=35 20 22 25 33
internal_value=-0.000692231 0.103531 -0.0477609 -0.061558
internal_weight=135 42 93 68
internal_count=135 42 93 68
is_linear=0
shrinkage=0.05


Tree=2
num_leaves=5
num_cat=0
split_feature=28 25 18 28
split_gain=239.078 21.9686 17.9051 44.9531
threshold=1.5000000000000002 3.7857142686843877 2.5000000000000004 -1.4999999999999998
decision_type=2 2 2 2
left_child=2 -2 -1 -4
right_child=1 -3 3 -5
leaf_value=-0.084785437245260595 0.060428261756896973 0.13283337720415808 -0.073509992829390941 0.0060680950267447374
leaf_weight=22 20 22 35 36
leaf_count=22 20 22 35 36
internal_value=-0.000657618 0.0983548 -0.0453729 -0.0331605
internal_weight=135 42 93 71
internal_count=135 42 93 71
is_linear=0
shrinkage=0.05


Tree=3
num_leaves=6
num_cat=0
split_feature=28 25 27 28 18
split_gain=215.768 19.8266 16.6345 12.5995 24.7495
threshold=1.5000000000000002 3.7857142686843877 3.8166666030883794 -1.4999999999999998 2.5000000000000004
decision_type=2 2 2 2 2
left_child=2 -2 3 -1 -5
right_child=1 -3 -4 4 -6
leaf_value=-0.083280661874092554 0.057406848073005681 0.12619170558384873 -0.0082288942933082584 -0.079247727394104017 -0.002396362613547932
leaf_weight=26 20 22 25 20 22
leaf_count=26 20 22 25 20 22
internal_value=-0.000624738 0.093437 -0.0431042 -0.0559261 -0.0389923
internal_weight=135 42 93 68 42
internal_count=135 42 93 68 42
is_linear=0
shrinkage=0.05


Tree=4
num_leaves=5
num_cat=0
split_feature=28 25 18 28
split_gain=194.73 17.8935 15.8279 38.5103
threshold=1.5000000000000002 3.7857142686843877 3.5000000000000004 -1.4999999999999998
decision_type=2 2 2 2
left_child=2 -2 -1 -4
right_child=1 -3 3 -5
leaf_value=-0.06576494362793471 0.054536506384611133 0.1198821210471744 -0.060616541389496098 0.023746721260249615
leaf_weight=38 20 22 31 24
leaf_count=38 20 22 31 24
internal_value=-0.0005935 0.0887652 -0.040949 -0.0238035
internal_weight=135 42 93 55
internal_count=135 42 93 55
is_linear=0
shrinkage=0.05


Tree=5
num_leaves=5
num_cat=0
split_feature=28 28 25 28
split_gain=176.938 38.7816 16.8326 4.6799
threshold=1.0000000180025095e-35 2.5000000000000004 3.5000000000000004 -1.4999999999999998
decision_type=2 2 2 2
left_child=2 -2 3 -1
right_child=1 -3 -4 -5
leaf_value=-0.080689379998615807 0.035076245758682491 0.12019497062201086 -0.018565458412233154 -0.049696303158998492
leaf_weight=21 32 23 38 29
leaf_count=21 32 23 38 29
internal_value=0.000320049 0.0706713 -0.0436495 -0.0627134
internal_weight=143 55 88 50
internal_count=143 55 88 50
is_linear=0
shrinkage=0.05


Tree=6
num_leaves=5
num_cat=0
split_feature=25 19 25 19
split_gain=69.3842 19.1782 16.5212 13.554
threshold=3.5000000000000004 4.5000000000000009 3.928571462631226 2.5000000000000004
decision_type=2 2 2 2
left_child=3 2 -2 -1
right_child=1 -3 -4 -5
leaf_value=-0.01193507182179019 0.028005968008575768 -0.0017006232440471649 0.087077106386423117 -0.056372939513341803
leaf_weight=32 29 25 20 37
leaf_count=32 29 25 20 37
internal_value=0.000304046 0.0339351 0.0521166 -0.0357641
internal_weight=143 74 49 69
internal_count=143 74 49 69
is_linear=0
shrinkage=0.05


Tree=7
num_leaves=5
num_cat=0
split_feature=28 28 28 18
split_gain=155.505 34.3624 14.1433 34.9171
threshold=1.0000000180025095e-35 2.5000000000000004 -1.4999999999999998 3.5000000000000004
decision_type=2 2 2 2
left_child=2 -2 -1 -4
right_child=1 -3 3 -5
leaf_value=-0.063924865346205867 0.0327360337250866 0.11285851194482784 -0.063601232069329577 0.020032615462938944
leaf_weight=38 32 23 26 24
leaf_count=38 32 23 26 24
internal_value=0.000288844 0.0662418 -0.0409318 -0.023457
internal_weight=143 55 88 50
internal_count=143 55 88 50
is_linear=0
shrinkage=0.05


Tree=8
num_leaves=5
num_cat=0
split_feature=28 28 28 18
split_gain=140.343 31.0121 12.7644 31.5127
threshold=1.0000000180025095e-35 2.5000000000000004 -1.4999999999999998 3.5000000000000004
decision_type=2 2 2 2
left_child=2 -2 -1 -4
right_child=1 -3 3 -5
leaf_value=-0.060728623031785611 0.031099232344422491 0.10721558448453637 -0.06042117189544325 0.019030984677374366
leaf_weight=38 32 23 26 24
leaf_count=38 32 23 26 24
internal_value=0.000274401 0.0629297 -0.0388852 -0.0222841
internal_weight=143 55 88 50
internal_count=143 55 88 50
is_linear=0
shrinkage=0.05


Tree=9
num_leaves=5
num_cat=0
split_feature=28 28 25 18
split_gain=126.66 27.9884 11.8639 4.19587
threshold=1.0000000180025095e-35 2.5000000000000004 3.5000000000000004 3.5000000000000004
decision_type=2 2 2 2
left_child=2 -2 3 -1
right_child=1 -3 -4 -5
leaf_value=-0.068638968192364855 0.029544270696351307 0.10185480835321158 -0.015881999974188054 -0.039577315085464054
leaf_weight=23 32 23 38 27
leaf_count=23 32 23 38 27
internal_value=0.000260682 0.0597832 -0.0369409 -0.0529457
internal_weight=143 55 88 50
internal_count=143 55 88 50
is_linear=0
shrinkage=0.05


Tree=10
num_leaves=5
num_cat=0
split_feature=28 25 28 18
split_gain=108.937 27.9039 11.0239 23.7766
threshold=1.0000000180025095e-35 3.6190476417541508 -1.4999999999999998 3.5000000000000004
decision_type=2 2 2 2
left_child=2 -2 -1 -4
right_child=1 -3 3 -5
leaf_value=-0.059544235623131193 0.01114500580089433 0.078111834659108093 -0.053977266585247388 0.016959989922387259
leaf_weight=36 28 35 27 21
leaf_count=36 28 35 27 21
internal_value=-0.00135268 0.0483488 -0.0386288 -0.0229422
internal_weight=147 63 84 48
internal_count=147 63 84 48
is_linear=0
shrinkage=0.05


Tree=11
num_leaves=5
num_cat=0
split_feature=28 28 26 28
split_gain=98.3161 27.4185 11.9211 7.42374
threshold=1.0000000180025095e-35 2.5000000000000004 3.7321428060531621 -1.4999999999999998
decision_type=2 2 2 2
left_child=2 -2 3 -1
right_child=1 -3 -4 -5
leaf_value=-0.069194839477539058 0.019176658414500326 0.086598503440618521 -0.0060220169713315758 -0.033727793158808105
leaf_weight=25 38 25 23 36
leaf_count=25 38 25 23 36
internal_value=-0.00128505 0.0459314 -0.0366974 -0.0482635
internal_weight=147 63 84 61
internal_count=147 63 84 61
is_linear=0
shrinkage=0.05


Tree=12
num_leaves=5
num_cat=0
split_feature=28 25 26 28
split_gain=88.7302 24.8224 10.7588 6.69992
threshold=1.0000000180025095e-35 3.6190476417541508 3.7321428060531621 -1.4999999999999998
decision_type=2 2 2 2
left_child=2 -2 3 -1
right_child=1 -3 -4 -5
leaf_value=-0.065735097765922554 0.0085453574412635395 0.071706339088933813 -0.0057209164390097499 -0.032041402853145787
leaf_weight=25 28 35 23 36
leaf_count=25 28 35 23 36
internal_value=-0.0012208 0.0436348 -0.0348625 -0.0458503
internal_weight=147 63 84 61
internal_count=147 63 84 61
is_linear=0
shrinkage=0.05


Tree=13
num_leaves=5
num_cat=0
split_feature=28 28 26 28
split_gain=80.0791 24.4048 9.7098 6.04668
threshold=1.0000000180025095e-35 2.5000000000000004 3.7321428060531621 -1.4999999999999998
decision_type=2 2 2 2
left_child=2 -2 3 -1
right_child=1 -3 -4 -5
leaf_value=-0.062448342680931093 0.016211533291559471 0.079820160806179041 -0.005434870873780355 -0.030439333333116436
leaf_weight=25 38 25 23 36
leaf_count=25 38 25 23 36
internal_value=-0.00115976 0.0414531 -0.0331194 -0.0435578
internal_weight=147 63 84 61
internal_count=147 63 84 61
is_linear=0
shrinkage=0.05


Tree=14
num_leaves=5
num_cat=0
split_feature=25 4 11 19
split_gain=44.6239 19.9665 9.23599 6.6535
threshold=3.5000000000000004 1.0000000180025095e-35 24.500000000000004 2.5000000000000004
decision_type=2 2 2 2
left_child=3 -2 -3 -1
right_child=1 2 -4 -5
leaf_value=-0.013696292974054815 -0.0047322754211949584 0.070687747560441494 0.025282847338045641 -0.04483093666164456
leaf_weight=32 33 21 24 37
leaf_count=32 33 21 24 37
internal_value=-0.00110177 0.0248085 0.0464718 -0.0303917
internal_weight=147 78 45 69
internal_count=147 78 45 69
is_linear=0
shrinkage=0.05


Tree=15
num_leaves=5
num_cat=0
split_feature=28 18 28 26
split_gain=65.3218 19.2199 27.0504 4.62055
threshold=2.5000000000000004 2.5000000000000004 -1.0000000180025095e-35 3.5934065580368046
decision_type=2 2 2 2
left_child=1 -1 3 -3
right_child=-2 2 -4 -5
leaf_value=-0.048865735309349526 0.067160968972301047 -0.0416894952180209 0.031535039637838644 -0.012437881398256179
leaf_weight=37 27 27 31 27
leaf_count=37 27 27 31 27
internal_value=-0.00321167 -0.0187859 -0.00569239 -0.0270637
internal_weight=149 122 85 54
internal_count=149 122 85 54
is_linear=0
shrinkage=0.05


Tree=16
num_leaves=5
num_cat=0
split_feature=28 18 28 18
split_gain=58.9529 17.346 24.7324 2.36638
threshold=2.5000000000000004 2.5000000000000004 -1.4999999999999998 3.5000000000000004
decision_type=2 2 2 2
left_child=1 -1 -3 -4
right_child=-2 2 3 -5
leaf_value=-0.046422448341508174 0.063802921871171786 -0.036873679589997564 0.0050223127894458326 0.027225842859063834
leaf_weight=37 27 36 21 28
leaf_count=37 27 36 21 28
internal_value=-0.00305109 -0.0178466 -0.00540777 0.01771
internal_weight=149 122 85 49
internal_count=149 122 85 49
is_linear=0
shrinkage=0.05


Tree=17
num_leaves=5
num_cat=0
split_feature=28 25 28 13
split_gain=53.205 10.9134 6.2051 4.80159
threshold=2.5000000000000004 3.7857142686843877 1.0000000180025095e-35 -0.25000000000000006
decision_type=2 2 2 2
left_child=1 2 3 -1
right_child=-2 -3 -4 -5
leaf_value=-0.019990923572331669 0.060612775495758768 0.009233710741003355 -0.0030027653940993809 -0.046373286755645976
leaf_weight=35 27 30 23 34
leaf_count=35 27 30 23 34
internal_value=-0.00289853 -0.0169543 -0.0254939 -0.0329909
internal_weight=149 122 92 69
internal_count=149 122 92 69
is_linear=0
shrinkage=0.05


Tree=18
num_leaves=5
num_cat=0
split_feature=28 18 28 18
split_gain=48.0175 15.5277 22.3451 4.46486
threshold=2.5000000000000004 2.5000000000000004 -1.0000000180025095e-35 4.5000000000000009
decision_type=2 2 2 2
left_child=1 -1 3 -3
right_child=-2 2 -4 -5
leaf_value=-0.043143212201224794 0.057582136312568637 -0.041784444770642692 0.029497367708433059 -0.012292462254338193
leaf_weight=37 27 21 31 33
leaf_count=37 27 21 31 33
internal_value=-0.00275361 -0.0161066 -0.00433772 -0.0237616
internal_weight=149 122 85 54
internal_count=149 122 85 54
is_linear=0
shrinkage=0.05


Tree=19
num_leaves=5
num_cat=0
split_feature=28 18 28 18
split_gain=43.3358 14.0138 20.7462 2.3271
threshold=2.5000000000000004 2.5000000000000004 -1.4999999999999998 3.5000000000000004
decision_type=2 2 2 2
left_child=1 -1 -3 -4
right_child=-2 2 3 -5
leaf_value=-0.040986051188932886 0.05470302808615897 -0.032939711978865992 0.0044702371316296717 0.026488706868674074
leaf_weight=37 27 36 21 28
leaf_count=37 27 36 21 28
internal_value=-0.00261593 -0.0153013 -0.00412083 0.0170522
internal_weight=149 122 85 49
internal_count=149 122 85 49
is_linear=0
shrinkage=0.05


Tree=20
num_leaves=5
num_cat=0
split_feature=28 18 18 28
split_gain=65.3155 33.4326 11.6909 10.8032
threshold=1.0000000180025095e-35 2.5000000000000004 3.5000000000000004 -1.4999999999999998
decision_type=2 2 2 2
left_child=2 -2 -1 -4
right_child=1 -3 3 -5
leaf_value=-0.049905333603764403 0.0098057450155817696 0.086687840807896405 -0.027893129490419395 0.016579963944175029
leaf_weight=29 31 26 36 22
leaf_count=29 31 26 36 22
internal_value=0.00327232 0.0448748 -0.0239845 -0.011024
internal_weight=144 57 87 58
internal_count=144 57 87 58
is_linear=0
shrinkage=0.05


Tree=21
num_leaves=6
num_cat=0
split_feature=28 18 28 17 14
split_gain=59.6162 11.5296 16.2177 8.18796 3.78208
threshold=1.5000000000000002 2.5000000000000004 -1.4999999999999998 1.0000000180025095e-35 0.17992616817355159
decision_type=2 2 2 2 2
left_child=1 -1 4 -2 -3
right_child=3 2 -4 -5 -6
leaf_value=-0.049895331983200536 0.072760225034764286 -0.046712000464904126 0.013974975211880146 0.029016771167516709 -0.015962710473686456
leaf_weight=22 23 20 39 20 20
leaf_count=22 23 20 39 20 20
internal_value=0.0031087 -0.0178828 -0.00896798 0.0524144 -0.0313374
internal_weight=144 101 79 43 40
internal_count=144 101 79 43 40
is_linear=0
shrinkage=0.05


Tree=22
num_leaves=5
num_cat=0
split_feature=28 18 18 28
split_gain=54.1078 29.5437 10.0837 8.76959
threshold=1.0000000180025095e-35 2.5000000000000004 3.5000000000000004 -1.4999999999999998
decision_type=2 2 2 2
left_child=2 -2 -1 -4
right_child=1 -3 3 -5
leaf_value=-0.045928344991186573 0.0078521910153569723 0.080124558995549502 -0.025017019891594019 0.015052217075770553
leaf_weight=29 31 26 36 22
leaf_count=29 31 26 36 22
internal_value=0.00295327 0.0408185 -0.021855 -0.00981834
internal_weight=144 57 87 58
internal_count=144 57 87 58
is_linear=0
shrinkage=0.05


Tree=23
num_leaves=6
num_cat=0
split_feature=28 26 17 18 28
split_gain=49.8416 10.1275 7.10741 4.95215 10.3536
threshold=1.5000000000000002 3.7321428060531621 1.0000000180025095e-35 2.5000000000000004 -1.4999999999999998
decision_type=2 2 2 2 2
left_child=1 3 -2 -1 -5
right_child=2 -3 -4 4 -6
leaf_value=-0.045837518881837076 0.066844238818663623 0.0098236100058312764 0.026089237704873088 -0.037407733731228736 0.0075137801873295211
leaf_weight=22 23 27 20 29 23
leaf_count=22 23 27 20 29 23
internal_value=0.0028056 -0.0163881 0.0478884 -0.0259518 -0.0175386
internal_weight=144 101 43 74 52
internal_count=144 101 43 74 52
is_linear=0
shrinkage=0.05


Tree=24
num_leaves=5
num_cat=0
split_feature=28 18 28 19
split_gain=44.982 9.23065 11.7779 5.13524
threshold=1.5000000000000002 3.5000000000000004 -1.4999999999999998 3.5000000000000004
decision_type=2 2 2 2
left_child=1 -1 -3 -2
right_child=3 2 -4 -5
leaf_value=-0.035031411599514908 0.062375632504170588 -0.022551773410911361 0.02113414627534372 0.027808486732343835
leaf_weight=38 22 36 27 21
leaf_count=38 22 36 27 21
internal_value=0.00266532 -0.0155687 -0.00382924 0.045494
internal_weight=144 101 63 43
internal_count=144 101 63 43
is_linear=0
shrinkage=0.05


Tree=25
num_leaves=5
num_cat=0
split_feature=28 18 28 3
split_gain=38.8497 11.9387 24.8279 2.17131
threshold=2.5000000000000004 2.5000000000000004 -1.0000000180025095e-35 2.7500000000000004
decision_type=2 2 2 2
left_child=1 -1 3 -3
right_child=-2 2 -4 -5
leaf_value=-0.038625009537541444 0.05861404117755592 -0.012065830752253533 0.031071656064263417 -0.033802001992309531
leaf_weight=28 25 20 35 27
leaf_count=28 25 20 35 27
internal_value=0.00235102 -0.010436 -0.000810521 -0.0245526
internal_weight=135 110 82 47
internal_count=135 110 82 47
is_linear=0
shrinkage=0.05


Tree=26
num_leaves=5
num_cat=0
split_feature=28 18 28 19
split_gain=35.0618 10.7746 22.4072 1.90555
threshold=2.5000000000000004 2.5000000000000004 -1.0000000180025095e-35 3.5000000000000004
decision_type=2 2 2 2
left_child=1 -1 3 -3
right_child=-2 2 -4 -5
leaf_value=-0.036693759255909494 0.055683337315917014 -0.013880580365657808 0.029518073121351858 -0.03405716431073167
leaf_weight=28 25 25 35 22
leaf_count=28 25 25 35 22
internal_value=0.00223347 -0.00991423 -0.000769995 -0.0233249
internal_weight=135 110 82 47
internal_count=135 110 82 47
is_linear=0
shrinkage=0.05


Tree=27
num_leaves=5
num_cat=0
split_feature=28 18 28 3
split_gain=31.6433 9.72411 20.2225 1.92045
threshold=2.5000000000000004 2.5000000000000004 -1.0000000180025095e-35 2.7500000000000004
decision_type=2 2 2 2
left_child=1 -1 3 -3
right_child=-2 2 -4 -5
leaf_value=-0.034859070321545005 0.052899172332137825 -0.010415420010685921 0.028042170082085899 -0.030857411882391685
leaf_weight=28 25 20 35 27
leaf_count=28 25 20 35 27
internal_value=0.0021218 -0.00941851 -0.000731495 -0.0221587
internal_weight=135 110 82 47
internal_count=135 110 82 47
is_linear=0
shrinkage=0.05


Tree=28
num_leaves=5
num_cat=0
split_feature=28 18 28 28
split_gain=28.5581 8.77601 18.2508 1.9045
threshold=2.5000000000000004 2.5000000000000004 -1.0000000180025095e-35 -2.4999999999999996
decision_type=2 2 2 2
left_child=1 -1 3 -3
right_child=-2 2 -4 -5
leaf_value=-0.03311611694682922 0.050254212021827699 -0.031780038282952526 0.026640061076198308 -0.011608990281820298
leaf_weight=28 25 22 35 25
leaf_count=28 25 22 35 25
internal_value=0.00201571 -0.00894759 -0.00069492 -0.0210508
internal_weight=135 110 82 47
internal_count=135 110 82 47
is_linear=0
shrinkage=0.05


Tree=29
num_leaves=5
num_cat=0
split_feature=28 18 28 11
split_gain=25.7737 8.34446 17.0946 2.65661
threshold=2.5000000000000004 3.5000000000000004 -1.4999999999999998 31.500000000000004
decision_type=2 2 2 2
left_child=1 3 -3 -1
right_child=-2 2 -4 -5
leaf_value=-0.012969513200888677 0.047741502809803937 -0.023070442284746417 0.030764744480450953 -0.035903309787745065
leaf_weight=28 25 29 30 23
leaf_count=28 25 29 30 23
internal_value=0.00191492 -0.00850021 0.00430338 -0.0233122
internal_weight=135 110 59 51
internal_count=135 110 59 51
is_linear=0
shrinkage=0.05


Tree=30
num_leaves=5
num_cat=0
split_feature=28 18 18 28
split_gain=23.3418 25.8407 5.51163 4.09893
threshold=1.0000000180025095e-35 2.5000000000000004 4.5000000000000009 -1.0000000180025095e-35
decision_type=2 2 2 2
left_child=2 -2 3 -1
right_child=1 -3 -4 -5
leaf_value=-0.0392191662453115 -0.00057229141179376689 0.065368519533270358 -0.00065941377297828075 -0.01112248358130455
leaf_weight=27 39 24 38 25
leaf_count=27 39 24 38 25
internal_value=0.0012058 0.024548 -0.0151337 -0.0257111
internal_weight=153 63 90 52
internal_count=153 63 90 52
is_linear=0
shrinkage=0.05


Tree=31
num_leaves=6
num_cat=0
split_feature=26 21 19 3 1
split_gain=15.1486 11.7431 7.0936 5.9759 5.54647
threshold=3.5277777910232548 4.5000000000000009 3.5000000000000004 2.7500000000000004 11.500000000000002
decision_type=2 2 2 2 2
left_child=3 2 -2 -1 -5
right_child=1 -3 -4 4 -6
leaf_value=-0.030366540799150243 0.027607364287333833 0.050524894483387477 -0.010282076240206758 0.015347160951679815 -0.018066005505345487
leaf_weight=32 21 20 30 23 27
leaf_count=32 21 20 30 23 27
internal_value=0.00114551 0.0180534 0.00531946 -0.0134942 -0.00269595
internal_weight=153 71 51 82 50
internal_count=153 71 51 82 50
is_linear=0
shrinkage=0.05


Tree=32
num_leaves=5
num_cat=0
split_feature=28 18 18 28
split_gain=20.9519 22.3691 4.64623 3.61921
threshold=1.0000000180025095e-35 2.5000000000000004 4.5000000000000009 -1.0000000180025095e-35
decision_type=2 2 2 2
left_child=2 -2 3 -1
right_child=1 -3 -4 -5
leaf_value=-0.036796799957476277 -0.00016886764205992222 0.061182880463699497 -0.0011027415773194088 -0.010395408045500517
leaf_weight=27 39 24 38 25
leaf_count=27 39 24 38 25
internal_value=0.00108824 0.0232032 -0.0143923 -0.0241038
internal_weight=153 63 90 52
internal_count=153 63 90 52
is_linear=0
shrinkage=0.05


Tree=33
num_leaves=5
num_cat=0
split_feature=28 18 18 28
split_gain=18.9091 20.1881 4.19322 3.26634
threshold=1.0000000180025095e-35 2.5000000000000004 4.5000000000000009 -1.0000000180025095e-35
decision_type=2 2 2 2
left_child=2 -2 3 -1
right_child=1 -3 -4 -5
leaf_value=-0.034956960352482622 -0.00016042425786742034 0.058123735676053917 -0.001047604560459915 -0.0098756376765668404
leaf_weight=27 39 24 38 25
leaf_count=27 39 24 38 25
internal_value=0.00103383 0.0220431 -0.0136726 -0.0228986
internal_weight=153 63 90 52
internal_count=153 63 90 52
is_linear=0
shrinkage=0.05


Tree=34
num_leaves=5
num_cat=0
split_feature=25 26 3 1
split_gain=12.6518 4.99153 2.97008 2.88287
threshold=3.928571462631226 3.5277777910232548 2.7500000000000004 13.500000000000002
decision_type=2 2 2 2
left_child=1 2 -1 -4
right_child=-2 -3 3 -5
leaf_value=-0.026637494748380661 0.026902601313647918 0.0076118591987790587 0.0037735324718856387 -0.021081185601651672
leaf_weight=30 36 39 28 20
leaf_count=30 36 39 28 20
internal_value=0.000982134 -0.00699339 -0.014296 -0.0065826
internal_weight=153 117 78 48
internal_count=153 117 78 48
is_linear=0
shrinkage=0.05


Tree=35
num_leaves=5
num_cat=0
split_feature=28 28 27 14
split_gain=11.6588 7.56371 5.69084 3.0355
threshold=2.5000000000000004 -2.4999999999999996 3.8166666030883794 -0.17992616817355153
decision_type=2 2 2 2
left_child=1 -1 3 -3
right_child=-2 2 -4 -5
leaf_value=-0.032335067692178268 0.028501969255506993 -0.021337732607780987 0.0157007996008421 -0.00034342775535252363
leaf_weight=27 25 33 30 36
leaf_count=27 25 33 30 36
internal_value=-0.00268862 -0.00887723 -0.00247964 -0.0103842
internal_weight=151 126 99 69
internal_count=151 126 99 69
is_linear=0
shrinkage=0.05


Tree=36
num_leaves=5
num_cat=0
split_feature=28 27 28 18
split_gain=10.5221 6.88803 4.45525 7.13974
threshold=2.5000000000000004 3.8166666030883794 -1.4999999999999998 2.5000000000000004
decision_type=2 2 2 2
left_child=1 2 -1 -4
right_child=-2 -3 3 -5
leaf_value=-0.031859909495788402 0.027076870594173671 0.010416956764778921 -0.026814278048862307 0.0072805534938679035
leaf_weight=29 25 35 28 34
leaf_count=29 25 35 28 34
internal_value=-0.00255419 -0.00843337 -0.0156835 -0.00811711
internal_weight=151 126 91 62
internal_count=151 126 91 62
is_linear=0
shrinkage=0.05


Tree=37
num_leaves=5
num_cat=0
split_feature=28 18 28 14
split_gain=9.65175 15.2918 9.00542 1.59783
threshold=-2.4999999999999996 3.5000000000000004 2.5000000000000004 1.0000000180025095e-35
decision_type=2 2 2 2
left_child=-1 2 3 -2
right_child=1 -3 -4 -5
leaf_value=-0.029516771563363298 -0.026105638942681253 0.029394023543080461 0.018299156224921995 -0.010043773200983803
leaf_weight=27 32 39 23 30
leaf_count=27 32 39 23 30
internal_value=-0.00242648 0.00347221 -0.00842133 -0.0183338
internal_weight=151 124 85 62
internal_count=151 124 85 62
is_linear=0
shrinkage=0.05


Tree=38
num_leaves=6
num_cat=0
split_feature=28 18 28 18 21
split_gain=8.88048 14.2738 3.73169 7.14492 2.13062
threshold=1.0000000180025095e-35 1.5000000000000002 -2.4999999999999996 3.5000000000000004 3.5000000000000004
decision_type=2 2 2 2 2
left_child=2 -2 -1 -4 -3
right_child=1 4 3 -5 -6
leaf_value=-0.028040932796688546 -0.019360269282175147 0.018532901474391111 -0.02254844629355977 0.011680387416854503 0.04161222926806659
leaf_weight=27 23 20 31 30 20
leaf_count=27 23 20 31 30 20
internal_value=-0.00230516 0.0120257 -0.0125647 -0.00571459 0.0300726
internal_weight=151 63 88 61 40
internal_count=151 63 88 61 40
is_linear=0
shrinkage=0.05


Tree=39
num_leaves=5
num_cat=0
split_feature=28 27 28 18
split_gain=8.53636 5.59949 3.38156 5.65329
threshold=2.5000000000000004 3.8166666030883794 -1.4999999999999998 2.5000000000000004
decision_type=2 2 2 2
left_child=1 2 -1 -4
right_child=-2 -3 3 -5
leaf_value=-0.028115303849737195 0.024499156460165979 0.009510607921651433 -0.024067743990703355 0.0062710413271013432
leaf_weight=29 25 35 28 34
leaf_count=29 25 35 28 34
internal_value=-0.0021899 -0.00748535 -0.0140223 -0.00743035
internal_weight=151 126 91 62
internal_count=151 126 91 62
is_linear=0
shrinkage=0.05


Tree=40
num_leaves=5
num_cat=0
split_feature=28 21 3 28
split_gain=7.31916 7.46362 4.42174 3.62537
threshold=-1.4999999999999998 4.5000000000000009 2.7500000000000004 1.0000000180025095e-35
decision_type=2 2 2 2
left_child=-1 2 -2 -4
right_child=1 -3 3 -5
leaf_value=-0.020184006330531998 -0.017779980951534779 0.027795493310051309 -0.0072521325385120393 0.019696647072067627
leaf_weight=37 29 28 24 26
leaf_count=37 29 28 24 26
internal_value=-0.00101453 0.00561417 -0.00224757 0.00676123
internal_weight=144 107 79 50
internal_count=144 107 79 50
is_linear=0
shrinkage=0.05


Tree=41
num_leaves=5
num_cat=0
split_feature=28 21 18 3
split_gain=6.73207 6.35035 4.74949 4.45484
threshold=-2.4999999999999996 4.5000000000000009 3.5000000000000004 2.7500000000000004
decision_type=2 2 2 2
left_child=-1 2 3 -2
right_child=1 -3 -4 -5
leaf_value=-0.023995052063121247 -0.026371131770312785 0.023976799913992486 0.015778044238686562 0.00080544484907908275
leaf_weight=26 25 30 25 38
leaf_count=26 25 30 25 38
internal_value=-0.000963803 0.00411088 -0.00266159 -0.00997891
internal_weight=144 118 88 63
internal_count=144 118 88 63
is_linear=0
shrinkage=0.05


Tree=42
num_leaves=5
num_cat=0
split_feature=28 18 18 21
split_gain=6.48724 9.18134 3.57801 2.77938
threshold=-1.0000000180025095e-35 1.5000000000000002 4.5000000000000009 3.5000000000000004
decision_type=2 2 2 2
left_child=2 -2 -1 -3
right_child=1 3 -4 -5
leaf_value=-0.026525541035724538 -0.016635801815069639 0.0095945613220630391 -0.0020511244249064478 0.031696528851985935
leaf_weight=28 26 33 32 25
leaf_count=28 26 33 32 25
internal_value=-0.000915613 0.00805361 -0.0134725 0.0191213
internal_weight=144 84 60 58
internal_count=144 84 60 58
is_linear=0
shrinkage=0.05


Tree=43
num_leaves=6
num_cat=0
split_feature=28 18 19 28 21
split_gain=5.98147 8.07907 2.91837 3.05062 2.76074
threshold=1.0000000180025095e-35 1.5000000000000002 2.5000000000000004 -1.4999999999999998 3.5000000000000004
decision_type=2 2 2 2 2
left_child=2 -2 -1 -4 -3
right_child=1 4 3 -5 -6
leaf_value=0.0031878360940528847 -0.014096411424023764 0.011065887057920918 -0.027928522565136001 -0.0041439478751271967 0.037337255310267208
leaf_weight=29 21 20 28 26 20
leaf_count=29 21 20 28 26 20
internal_value=-0.000869832 0.011017 -0.00960595 -0.0164767 0.0242016
internal_weight=144 61 83 54 40
internal_count=144 61 83 54 40
is_linear=0
shrinkage=0.05


Tree=44
num_leaves=5
num_cat=0
split_feature=28 3 28 18
split_gain=5.46619 8.49152 2.70252 4.50286
threshold=1.5000000000000002 2.2500000000000004 -2.4999999999999996 3.5000000000000004
decision_type=2 2 2 2
left_child=2 -2 -1 -4
right_child=1 -3 3 -5
leaf_value=-0.02147986042814759 -0.010895555848920983 0.031497228021423025 -0.015650917586925276 0.0097221114246672704
leaf_weight=26 21 27 34 36
leaf_count=26 21 27 34 36
internal_value=-0.000826341 0.0129504 -0.0077147 -0.00260193
internal_weight=144 48 96 70
internal_count=144 48 96 70
is_linear=0
shrinkage=0.05


Tree=45
num_leaves=5
num_cat=0
split_feature=18 28 28 18
split_gain=9.88736 12.4399 3.21552 1.4597
threshold=1.5000000000000002 1.5000000000000002 -1.4999999999999998 3.5000000000000004
decision_type=2 2 2 2
left_child=-1 2 -2 -4
right_child=1 -3 3 -5
leaf_value=-0.029803360826694048 -0.015487792296335103 0.036340864789478171 -0.0056108492740389454 0.011256257553809677
leaf_weight=26 37 24 23 29
leaf_count=26 37 24 23 29
internal_value=-0.00200268 0.00439393 -0.00422097 0.00379581
internal_weight=139 113 89 52
internal_count=139 113 89 52
is_linear=0
shrinkage=0.05


Tree=46
num_leaves=6
num_cat=0
split_feature=18 18 28 25 22
split_gain=9.61359 4.59635 7.98396 3.78968 1.62226
threshold=4.5000000000000009 1.5000000000000002 -1.0000000180025095e-35 3.7857142686843877 2.5000000000000004
decision_type=2 2 2 2 2
left_child=1 -1 -3 -2 -4
right_child=3 2 4 -5 -6
leaf_value=-0.028313192739509621 0.0033941440121270719 -0.026743522237986331 0.018978347596712412 0.034174334450508471 0.00033357972029729617
leaf_weight=26 20 25 20 20 28
leaf_count=26 20 25 20 20 28
internal_value=-0.00190255 -0.0102608 -0.00383124 0.0187842 0.00810223
internal_weight=139 99 73 40 48
internal_count=139 99 73 40 48
is_linear=0
shrinkage=0.05


Tree=47
num_leaves=6
num_cat=0
split_feature=18 18 28 25 22
split_gain=8.67627 4.1482 7.20552 3.42019 1.46409
threshold=4.5000000000000009 1.5000000000000002 -1.0000000180025095e-35 3.7857142686843877 2.5000000000000004
decision_type=2 2 2 2 2
left_child=1 -1 -3 -2 -4
right_child=3 2 4 -5 -6
leaf_value=-0.026897533194949998 0.0032244366744998846 -0.025406346455216406 0.018029430059250447 0.03246561737731099 0.00031690058364932029
leaf_weight=26 20 25 20 20 28
leaf_count=26 20 25 20 20 28
internal_value=-0.00180742 -0.00974781 -0.00363968 0.017845 0.00769712
internal_weight=139 99 73 40 48
internal_count=139 99 73 40 48
is_linear=0
shrinkage=0.05


Tree=48
num_leaves=6
num_cat=0
split_feature=18 18 28 25 22
split_gain=7.83033 3.74375 6.50298 3.08672 1.32134
threshold=4.5000000000000009 1.5000000000000002 -1.0000000180025095e-35 3.7857142686843877 2.5000000000000004
decision_type=2 2 2 2 2
left_child=1 -1 -3 -2 -4
right_child=3 2 4 -5 -6
leaf_value=-0.025552656315267087 0.0030632141651585698 -0.024136028900742533 0.01712795878527686 0.030842336341738705 0.00030105564801488074
leaf_weight=26 20 25 20 20 28
leaf_count=26 20 25 20 20 28
internal_value=-0.00171705 -0.00926041 -0.0034577 0.0169528 0.00731227
internal_weight=139 99 73 40 48
internal_count=139 99 73 40 48
is_linear=0
shrinkage=0.05


Tree=49
num_leaves=6
num_cat=0
split_feature=18 18 28 25 22
split_gain=7.06687 3.37874 5.86894 2.78576 1.19251
threshold=4.5000000000000009 1.5000000000000002 -1.0000000180025095e-35 3.7857142686843877 2.5000000000000004
decision_type=2 2 2 2 2
left_child=1 -1 -3 -2 -4
right_child=3 2 4 -5 -6
leaf_value=-0.024275023536756635 0.0029100536857731641 -0.022929227232933044 0.01627156066533644 0.029300219397991895 0.00028600278726246745
leaf_weight=26 20 25 20 20 28
leaf_count=26 20 25 20 20 28
internal_value=-0.0016312 -0.00879739 -0.00328481 0.0161051 0.00694665
internal_weight=139 99 73 40 48
internal_count=139 99 73 40 48
is_linear=0
shrinkage=0.05


Tree=50
num_leaves=6
num_cat=0
split_feature=28 19 16 19 1
split_gain=13.1227 2.5867 2.84042 1.493 1.36546
threshold=2.5000000000000004 1.5000000000000002 0.6078576147556306 4.5000000000000009 14.500000000000002
decision_type=2 2 2 2 2
left_child=1 -1 3 4 -3
right_child=-2 2 -4 -5 -6
leaf_value=0.0077126434359412925 0.031722705799620603 -0.018260691501200198 0.0043809788590297109 -0.026798510614316914 -0.001682053312011387
leaf_weight=26 28 27 25 20 23
leaf_count=26 28 27 25 20 23
internal_value=0.000876462 -0.00626151 -0.010086 -0.0152528 -0.0106345
internal_weight=149 121 95 70 50
internal_count=149 121 95 70 50
is_linear=0
shrinkage=0.05


Tree=51
num_leaves=5
num_cat=0
split_feature=28 18 28 27
split_gain=11.8432 4.63481 9.95434 0.730043
threshold=2.5000000000000004 3.5000000000000004 -1.4999999999999998 3.5833332538604741
decision_type=2 2 2 2
left_child=1 3 -3 -1
right_child=-2 2 -4 -5
leaf_value=-0.010615121527701957 0.030136570756855819 -0.013293705773207227 0.028015600539743904 -0.021591859540369893
leaf_weight=33 28 35 25 28
leaf_count=33 28 35 25 28
internal_value=0.000832639 -0.00594844 0.00391851 -0.0156536
internal_weight=149 121 60 61
internal_count=149 121 60 61
is_linear=0
shrinkage=0.05


Tree=52
num_leaves=6
num_cat=0
split_feature=28 18 28 15 9
split_gain=10.6885 4.18292 8.98379 0.699707 0.674962
threshold=2.5000000000000004 3.5000000000000004 -1.4999999999999998 -0.70581671595573414 17.500000000000004
decision_type=2 2 2 2 2
left_child=1 3 -3 -1 -5
right_child=-2 2 -4 4 -6
leaf_value=-0.0072036845970433212 0.02862974295525679 -0.012629020490816663 0.026614820685237645 -0.012350366244624768 -0.025184807461919263
leaf_weight=20 28 35 25 21 20
leaf_count=20 28 35 25 21 20
internal_value=0.000791007 -0.00565101 0.00372258 -0.0148709 -0.0186111
internal_weight=149 121 60 61 41
internal_count=149 121 60 61 41
is_linear=0
shrinkage=0.05


Tree=53
num_leaves=6
num_cat=0
split_feature=28 18 28 15 27
split_gain=9.6464 3.77508 8.10787 0.631486 0.635426
threshold=2.5000000000000004 3.5000000000000004 -1.4999999999999998 -0.70581671595573414 3.6243590116500859
decision_type=2 2 2 2 2
left_child=1 3 -3 -1 -5
right_child=-2 2 -4 4 -6
leaf_value=-0.0068435002176556736 0.027198254809315717 -0.011997569203044156 0.025284079788252714 -0.011302211582660676 -0.023755091202578377
leaf_weight=20 28 35 25 20 21
leaf_count=20 28 35 25 20 21
internal_value=0.000751457 -0.00536846 0.00353645 -0.0141274 -0.0176805
internal_weight=149 121 60 61 41
internal_count=149 121 60 61 41
is_linear=0
shrinkage=0.05


Tree=54
num_leaves=5
num_cat=0
split_feature=25 4 18 28
split_gain=8.80459 16.8997 1.60677 1.56597
threshold=3.6190476417541508 1.0000000180025095e-35 2.5000000000000004 -1.4999999999999998
decision_type=2 2 2 2
left_child=2 -2 -1 -4
right_child=1 -3 3 -5
leaf_value=-0.018073376397498783 -0.014234493155000284 0.036743297177442423 -0.013765060969374396 0.004525595910847187
leaf_weight=36 29 37 22 25
leaf_count=36 29 37 22 25
internal_value=0.000713884 0.014344 -0.0101245 -0.00403599
internal_weight=149 66 83 47
internal_count=149 66 83 47
is_linear=0
shrinkage=0.05


Tree=55
num_leaves=4
num_cat=0
split_feature=18 9 28
split_gain=9.96346 3.19792 3.82881
threshold=4.5000000000000009 21.500000000000004 1.0000000180025095e-35
decision_type=2 2 2
left_child=1 2 -1
right_child=-2 -3 -4
leaf_value=-0.010942488706981142 0.025490915599757021 -0.017376662536778234 0.013921016491076445
leaf_weight=30 38 33 32
leaf_count=30 38 33 32
internal_value=0.0038528 -0.00480244 0.00189029
internal_weight=133 95 62
internal_count=133 95 62
is_linear=0
shrinkage=0.05


Tree=56
num_leaves=5
num_cat=0
split_feature=18 28 9 28
split_gain=8.99203 2.9227 1.20352 0.77313
threshold=4.5000000000000009 2.5000000000000004 8.5000000000000018 -1.0000000180025095e-35
decision_type=2 2 2 2
left_child=1 2 -1 -4
right_child=-2 -3 3 -5
leaf_value=0.001412313673645258 0.024216369731584565 0.012420736942440273 -0.020752698020078245 -0.0084293556830380128
leaf_weight=20 38 20 20 35
leaf_count=20 38 20 20 35
internal_value=0.00366016 -0.00456232 -0.00909114 -0.0129106
internal_weight=133 95 75 55
internal_count=133 95 75 55
is_linear=0
shrinkage=0.05


Tree=57
num_leaves=5
num_cat=0
split_feature=28 19 20 9
split_gain=8.34483 4.53696 2.32187 1.50315
threshold=2.5000000000000004 2.5000000000000004 4.5000000000000009 13.500000000000002
decision_type=2 2 2 2
left_child=1 -1 3 -3
right_child=-2 2 -4 -5
leaf_value=0.011543946974990449 0.03016789285466075 0.0058977247300473134 -0.0233566747893664 -0.011708923264544596
leaf_weight=38 24 22 22 27
leaf_count=38 24 22 22 27
internal_value=0.00347715 -0.0023997 -0.0098625 -0.0038039
internal_weight=133 109 71 49
internal_count=133 109 71 49
is_linear=0
shrinkage=0.05


Tree=58
num_leaves=4
num_cat=0
split_feature=18 7 9
split_gain=8.02187 2.70178 1.96513
threshold=4.5000000000000009 5.5000000000000009 14.500000000000002
decision_type=2 2 2
left_child=1 -1 -3
right_child=-2 2 -4
leaf_value=0.0065771854482591157 0.022718948699337872 0.00057392171077916157 -0.018037385283340073
leaf_weight=35 38 23 37
leaf_count=35 38 23 37
internal_value=0.0033033 -0.00446296 -0.0109031
internal_weight=133 95 60
internal_count=133 95 60
is_linear=0
shrinkage=0.05


Tree=59
num_leaves=5
num_cat=0
split_feature=28 19 9 5
split_gain=7.54353 3.95395 2.07699 1.46251
threshold=2.5000000000000004 2.5000000000000004 9.5000000000000018 2.5000000000000004
decision_type=2 2 2 2
left_child=1 -1 -3 -4
right_child=-2 2 3 -5
leaf_value=0.010567521547751599 0.028515058973183235 0.0042398622538894412 -0.0042301730252802374 -0.021572563408182994
leaf_weight=38 24 20 20 31
leaf_count=38 24 20 20 31
internal_value=0.00313813 -0.00244945 -0.00941628 -0.0147716
internal_weight=133 109 71 51
internal_count=133 109 71 51
is_linear=0
shrinkage=0.05


Tree=60
num_leaves=5
num_cat=0
split_feature=28 19 6 22
split_gain=10.2616 2.03196 1.73652 1.17144
threshold=2.5000000000000004 1.5000000000000002 4.5000000000000009 2.5000000000000004
decision_type=2 2 2 2
left_child=1 -1 3 -3
right_child=-2 2 -4 -5
leaf_value=0.011036104643717409 0.030221660302153661 -0.0097363385268383566 -0.016001877558301205 0.0038848081897748148
leaf_weight=20 28 27 32 38
leaf_count=20 28 27 32 38
internal_value=0.00303179 -0.00347518 -0.0064672 -0.00177321
internal_weight=145 117 97 65
internal_count=145 117 97 65
is_linear=0
shrinkage=0.05


Tree=61
num_leaves=5
num_cat=0
split_feature=25 11 1 18
split_gain=7.18444 2.38839 5.3506 1.67904
threshold=3.928571462631226 21.500000000000004 6.5000000000000009 2.5000000000000004
decision_type=2 2 2 2
left_child=1 2 -1 -3
right_child=-2 3 -4 -5
leaf_value=-0.012544868595986851 0.021895074189917461 -0.018919555463695101 0.022739657916297968 -0.002691105312692958
leaf_weight=21 37 28 22 37
leaf_count=21 37 28 22 37
internal_value=0.0028802 -0.00363415 0.00550768 -0.00968182
internal_weight=145 108 43 65
internal_count=145 108 43 65
is_linear=0
shrinkage=0.05


Tree=62
num_leaves=5
num_cat=0
split_feature=28 18 4 3
split_gain=9.12482 3.06717 1.38106 0.15162
threshold=2.5000000000000004 4.5000000000000009 1.0000000180025095e-35 4.2500000000000009
decision_type=2 2 2 2
left_child=1 2 -1 -4
right_child=-2 -3 3 -5
leaf_value=-0.0018232122478956305 0.028375848622194361 0.0085041250530126927 -0.011960390425242839 -0.017900057541291144
leaf_weight=37 28 37 21 22
leaf_count=37 28 37 21 22
internal_value=0.00273619 -0.00339979 -0.00890535 -0.0149993
internal_weight=145 117 80 43
internal_count=145 117 80 43
is_linear=0
shrinkage=0.05


Tree=63
num_leaves=5
num_cat=0
split_feature=28 19 6 22
split_gain=8.23515 1.86119 1.53292 1.09614
threshold=2.5000000000000004 1.5000000000000002 4.5000000000000009 2.5000000000000004
decision_type=2 2 2 2
left_child=1 -1 3 -3
right_child=-2 2 -4 -5
leaf_value=0.010658309210557491 0.026957055952932154 -0.0093860255899252728 -0.015051625331398101 0.0037900427895549097
leaf_weight=20 28 27 32 38
leaf_count=20 28 27 32 38
internal_value=0.00259938 -0.0032298 -0.00609333 -0.00168309
internal_weight=145 117 97 65
internal_count=145 117 97 65
is_linear=0
shrinkage=0.05


Tree=64
num_leaves=5
num_cat=0
split_feature=28 18 4 13
split_gain=7.43223 2.74766 1.22945 0.145111
threshold=2.5000000000000004 4.5000000000000009 1.0000000180025095e-35 -0.25000000000000006
decision_type=2 2 2 2
left_child=1 2 -1 -4
right_child=-2 -3 3 -5
leaf_value=-0.0015971187426633126 0.025609203561076096 0.0081985394168343096 -0.011191142550457946 -0.017001903469541245
leaf_weight=37 28 37 22 21
leaf_count=37 28 37 22 21
internal_value=0.00246941 -0.00306831 -0.00827923 -0.014029
internal_weight=145 117 80 43
internal_count=145 117 80 43
is_linear=0
shrinkage=0.05


Tree=65
num_leaves=5
num_cat=0
split_feature=18 5 25 18
split_gain=4.72072 2.81875 1.39433 0.976656
threshold=4.5000000000000009 1.5000000000000002 3.6190476417541508 2.5000000000000004
decision_type=2 2 2 2
left_child=1 -1 3 -3
right_child=-2 2 -4 -5
leaf_value=-0.023601987416900339 0.01397475063800812 -0.014606199185696564 0.0048992968757044187 -0.0010096148774027824
leaf_weight=21 35 28 33 25
leaf_count=21 35 28 33 25
internal_value=-0.00196523 -0.00717924 -0.00316904 -0.00819272
internal_weight=142 107 86 53
internal_count=142 107 86 53
is_linear=0
shrinkage=0.05


Tree=66
num_leaves=5
num_cat=0
split_feature=18 5 27 9
split_gain=4.26045 2.54392 1.35419 2.74596
threshold=4.5000000000000009 1.5000000000000002 3.4500000476837163 14.500000000000002
decision_type=2 2 2 2
left_child=1 -1 -3 -4
right_child=-2 2 3 -5
leaf_value=-0.022421887838503435 0.013276013221059528 0.0047487207167946251 0.0038566628843545916 -0.019140124521045774
leaf_weight=21 35 34 25 27
leaf_count=21 35 34 25 27
internal_value=-0.00186697 -0.00682028 -0.00301058 -0.00808398
internal_weight=142 107 86 52
internal_count=142 107 86 52
is_linear=0
shrinkage=0.05


Tree=67
num_leaves=5
num_cat=0
split_feature=28 25 15 4
split_gain=5.32742 5.80595 9.08407 1.38167
threshold=-2.4999999999999996 3.6190476417541508 -0.5163939595222472 1.0000000180025095e-35
decision_type=2 2 2 2
left_child=-1 3 -3 -2
right_child=1 2 -4 -5
leaf_value=-0.025020642543122886 0.0001429026664206476 -0.0076951914311697081 0.034225393361079375 -0.014021187068687546
leaf_weight=21 33 24 28 36
leaf_count=21 33 24 28 36
internal_value=-0.00177362 0.00226099 0.0148774 -0.00724706
internal_weight=142 121 52 69
internal_count=142 121 52 69
is_linear=0
shrinkage=0.05


Tree=68
num_leaves=6
num_cat=0
split_feature=28 18 28 27 27
split_gain=4.808 9.70545 5.87058 1.91112 1.61335
threshold=-2.4999999999999996 3.5000000000000004 -1.0000000180025095e-35 3.5833332538604741 3.2761905193328862
decision_type=2 2 2 2 2
left_child=-1 3 -3 4 -2
right_child=1 2 -4 -5 -6
leaf_value=-0.023769609754284226 -0.011094621410593392 0.0039923208806177841 0.041031891983002423 -0.016604844533611794 0.0087481411794821436
leaf_weight=21 20 23 20 37 21
leaf_count=21 20 23 20 37 21
internal_value=-0.00168494 0.00214794 0.02122 -0.00836616 -0.000931255
internal_weight=142 121 43 78 41
internal_count=142 121 43 78 41
is_linear=0
shrinkage=0.05


Tree=69
num_leaves=6
num_cat=0
split_feature=28 18 28 27 9
split_gain=4.33922 8.75917 5.2982 1.79551 2.07776
threshold=-2.4999999999999996 3.5000000000000004 -1.0000000180025095e-35 3.4500000476837163 14.500000000000002
decision_type=2 2 2 2 2
left_child=-1 3 -3 -2 -5
right_child=1 2 -4 4 -6
leaf_value=-0.022581129361476219 0.0016478532428542772 0.0037927048847727152 0.038980296533554795 -0.0016365114040672779 -0.022737072978634389
leaf_weight=21 30 23 20 20 28
leaf_count=21 30 23 20 20 28
internal_value=-0.00160069 0.00204054 0.020159 -0.00794785 -0.0139452
internal_weight=142 121 43 78 48
internal_count=142 121 43 78 48
is_linear=0
shrinkage=0.05


Tree=70
num_leaves=5
num_cat=0
split_feature=18 28 3 6
split_gain=4.22178 5.68695 1.50934 1.39039
threshold=1.5000000000000002 -1.0000000180025095e-35 3.1000000238418584 2.5000000000000004
decision_type=2 2 2 2
left_child=-1 3 -3 -2
right_child=1 2 -4 -5
leaf_value=-0.02125186997431296 -0.0011745389913105303 0.0051499588919493057 0.021337554054722811 -0.016097156384431228
leaf_weight=27 27 36 24 37
leaf_count=27 27 36 24 37
internal_value=-0.00333515 0.000566068 0.011625 -0.00980168
internal_weight=151 124 60 64
internal_count=151 124 60 64
is_linear=0
shrinkage=0.05


Tree=71
num_leaves=6
num_cat=0
split_feature=18 5 21 25 25
split_gain=3.81016 2.89197 4.59388 2.57577 2.35713
threshold=1.5000000000000002 2.5000000000000004 4.5000000000000009 3.5000000000000004 3.6190476417541508
decision_type=2 2 2 2 2
left_child=-1 3 4 -2 -3
right_child=1 2 -4 -5 -6
leaf_value=-0.020189276861923715 -0.0014397065155208112 -0.0025357254449221676 0.015382925371107246 0.023632409379241014 -0.022074693619626867
leaf_weight=27 20 33 21 21 29
leaf_count=27 20 33 21 21 29
internal_value=-0.00316839 0.000537765 -0.00482896 0.0114021 -0.0116749
internal_weight=151 124 83 41 62
internal_count=151 124 83 41 62
is_linear=0
shrinkage=0.05


Tree=72
num_leaves=5
num_cat=0
split_feature=18 28 27 6
split_gain=3.43867 5.05212 1.58402 1.23535
threshold=1.5000000000000002 -1.0000000180025095e-35 3.6833333969116215 2.5000000000000004
decision_type=2 2 2 2
left_child=-1 3 -3 -2
right_child=1 2 -4 -5
leaf_value=-0.019179812722184039 -0.0011291361353532583 0.019619324253705731 0.0033349043911584889 -0.015195206233703002
leaf_weight=27 27 28 32 37
leaf_count=27 27 28 32 37
internal_value=-0.00300998 0.000510877 0.0109343 -0.00926108
internal_weight=151 124 60 64
internal_count=151 124 60 64
is_linear=0
shrinkage=0.05


Tree=73
num_leaves=6
num_cat=0
split_feature=18 5 21 25 25
split_gain=3.1034 2.56598 4.17019 2.29981 2.12242
threshold=1.5000000000000002 2.5000000000000004 4.5000000000000009 3.5000000000000004 3.6190476417541508
decision_type=2 2 2 2 2
left_child=-1 3 4 -2 -3
right_child=1 2 -4 -5 -6
leaf_value=-0.018220821906019143 -0.0014153612405061722 -0.0024202513543776041 0.014687413661851592 0.022275617866987542 -0.020960926473269179
leaf_weight=27 20 33 21 21 29
leaf_count=27 20 33 21 21 29
internal_value=-0.00285948 0.000485333 -0.00456987 0.010719 -0.0110925
internal_weight=151 124 83 41 62
internal_count=151 124 83 41 62
is_linear=0
shrinkage=0.05


Tree=74
num_leaves=5
num_cat=0
split_feature=18 28 27 6
split_gain=2.80082 4.48815 1.47203 1.09774
threshold=1.5000000000000002 -1.0000000180025095e-35 3.6833333969116215 2.5000000000000004
decision_type=2 2 2 2
left_child=-1 3 -3 -2
right_child=1 2 -4 -5
leaf_value=-0.017309780729313693 -0.0010836949416746697 0.018657854294204818 0.0029596763051813468 -0.01434317836412103
leaf_weight=27 27 28 32 37
leaf_count=27 27 28 32 37
internal_value=-0.0027165 0.000461066 0.0102855 -0.00874933
internal_weight=151 124 60 64
internal_count=151 124 60 64
is_linear=0
shrinkage=0.05


Tree=75
num_leaves=5
num_cat=0
split_feature=28 28 18 25
split_gain=4.79817 2.57924 4.27563 0.703309
threshold=2.5000000000000004 -2.4999999999999996 3.5000000000000004 3.3571429252624516
decision_type=2 2 2 2
left_child=1 -1 3 -3
right_child=-2 2 -4 -5
leaf_value=-0.018204310850705951 0.019092553510115698 -0.0040836580629054937 0.01284007859713812 -0.015234640537976072
leaf_weight=27 26 31 36 26
leaf_count=27 26 31 36 26
internal_value=-0.000380556 -0.00459973 -0.000650013 -0.00917007
internal_weight=146 120 93 57
internal_count=146 120 93 57
is_linear=0
shrinkage=0.05


Tree=76
num_leaves=5
num_cat=0
split_feature=20 25 22 18
split_gain=5.78315 9.96268 3.59407 1.35966
threshold=4.5000000000000009 3.928571462631226 3.5000000000000004 2.5000000000000004
decision_type=2 2 2 2
left_child=1 2 3 -1
right_child=-2 -3 -4 -5
leaf_value=-0.019707144442058747 -0.016844496403773054 0.036521203115227677 0.01138514843187295 -0.0034323574043810369
leaf_weight=21 39 21 32 33
leaf_count=21 39 21 32 33
internal_value=-0.000361529 0.00564628 -0.00189294 -0.00976144
internal_weight=146 107 86 54
internal_count=146 107 86 54
is_linear=0
shrinkage=0.05


Tree=77
num_leaves=5
num_cat=0
split_feature=20 25 22 18
split_gain=5.21929 8.99132 3.24364 1.22709
threshold=4.5000000000000009 3.928571462631226 3.5000000000000004 2.5000000000000004
decision_type=2 2 2 2
left_child=1 2 3 -1
right_child=-2 -3 -4 -5
leaf_value=-0.018721787159198099 -0.016002271833638542 0.034695143625140194 0.010815891044330783 -0.0032607395540584223
leaf_weight=21 39 21 32 33
leaf_count=21 39 21 32 33
internal_value=-0.000343452 0.00536397 -0.0017983 -0.00927337
internal_weight=146 107 86 54
internal_count=146 107 86 54
is_linear=0
shrinkage=0.05


Tree=78
num_leaves=5
num_cat=0
split_feature=20 25 22 18
split_gain=4.71041 8.11467 2.92739 1.10745
threshold=4.5000000000000009 3.928571462631226 3.5000000000000004 2.5000000000000004
decision_type=2 2 2 2
left_child=1 2 3 -1
right_child=-2 -3 -4 -5
leaf_value=-0.017785697998035522 -0.015202158205330564 0.03296038630817618 0.010275096255645622 -0.003097702596675266
leaf_weight=21 39 21 32 33
leaf_count=21 39 21 32 33
internal_value=-0.00032628 0.00509577 -0.00170838 -0.0088097
internal_weight=146 107 86 54
internal_count=146 107 86 54
is_linear=0
shrinkage=0.05


Tree=79
num_leaves=6
num_cat=0
split_feature=28 20 18 13 28
split_gain=4.49015 6.4161 3.79663 2.43652 2.75177
threshold=1.0000000180025095e-35 4.5000000000000009 2.5000000000000004 -0.68301269412040699 -1.4999999999999998
decision_type=2 2 2 2 2
left_child=3 2 -2 -1 -5
right_child=1 -3 -4 4 -6
leaf_value=0.0050141067718728807 0.0065178803611724151 -0.013176917453529315 0.036957289215642959 -0.025950431171804667 -0.0040983495199778943
leaf_weight=26 21 20 20 25 34
leaf_count=26 21 20 20 25 34
internal_value=-0.000309966 0.0100407 0.0213664 -0.00773809 -0.0133577
internal_weight=146 61 41 85 59
internal_count=146 61 41 85 59
is_linear=0
shrinkage=0.05


Tree=80
num_leaves=5
num_cat=0
split_feature=3 27 6 4
split_gain=3.42177 3.97303 3.14279 4.48859
threshold=2.2500000000000004 3.7833333015441899 4.5000000000000009 1.0000000180025095e-35
decision_type=2 2 2 2
left_child=1 -1 3 -2
right_child=2 -3 -4 -5
leaf_value=-0.018960213394732112 -0.0038024750824358004 0.0084055551167000978 -0.0080114594548940654 0.023961614006878559
leaf_weight=36 24 21 25 37
leaf_count=36 24 21 25 37
internal_value=0.000622257 -0.00887809 0.006919 0.013038
internal_weight=143 57 86 61
internal_count=143 57 86 61
is_linear=0
shrinkage=0.05


Tree=81
num_leaves=6
num_cat=0
split_feature=28 18 6 1 13
split_gain=4.19664 8.50341 1.0394 0.88234 0.199464
threshold=1.0000000180025095e-35 2.5000000000000004 4.5000000000000009 16.000000000000004 0.25000000000000011
decision_type=2 2 2 2 2
left_child=2 -2 3 4 -1
right_child=1 -3 -4 -5 -6
leaf_value=-0.0036759672631021772 -0.0049985601256291069 0.034605489574048832 -0.01488743710704148 0.0055238488127499642 -0.01065298642963171
leaf_weight=21 33 23 25 21 20
leaf_count=21 33 23 25 21 20
internal_value=0.000591144 0.0112674 -0.00628092 -0.00281055 -0.00707939
internal_weight=143 56 87 62 41
internal_count=143 56 87 62 41
is_linear=0
shrinkage=0.05


Tree=82
num_leaves=5
num_cat=0
split_feature=28 18 28 18
split_gain=3.78747 7.67432 0.996178 0.454768
threshold=1.0000000180025095e-35 2.5000000000000004 -2.4999999999999996 3.5000000000000004
decision_type=2 2 2 2
left_child=2 -2 -1 -4
right_child=1 -3 3 -5
leaf_value=-0.013942644372151267 -0.004748632053308415 0.032875214662888778 -0.006588024345429374 0.0021228282800715031
leaf_weight=27 33 23 31 29
leaf_count=27 33 23 31 29
internal_value=0.000561587 0.010704 -0.00596688 -0.00237778
internal_weight=143 56 87 60
internal_count=143 56 87 60
is_linear=0
shrinkage=0.05


Tree=83
num_leaves=5
num_cat=0
split_feature=28 18 6 18
split_gain=3.41819 6.92608 0.931923 0.804505
threshold=1.0000000180025095e-35 2.5000000000000004 4.5000000000000009 4.5000000000000009
decision_type=2 2 2 2
left_child=2 -2 3 -1
right_child=1 -3 -4 -5
leaf_value=-0.0069088739336860411 -0.0045112006253365316 0.031231455168808289 -0.013817942570894956 0.0047843141539487995
leaf_weight=38 33 23 25 24
leaf_count=38 33 23 25 24
internal_value=0.000533508 0.0101688 -0.00566853 -0.00238248
internal_weight=143 56 87 62
internal_count=143 56 87 62
is_linear=0
shrinkage=0.05


Tree=84
num_leaves=6
num_cat=0
split_feature=28 27 28 27 6
split_gain=3.11105 1.77473 1.1644 0.690412 0.259853
threshold=2.5000000000000004 3.8166666030883794 -2.4999999999999996 3.6243590116500859 3.5000000000000004
decision_type=2 2 2 2 2
left_child=1 2 -1 4 -4
right_child=-2 -3 3 -5 -6
leaf_value=-0.017147679231129587 0.01615133062005043 0.0064560293083819236 0.0041028057358094621 -0.011113164918497205 -0.0038606470171362165
leaf_weight=21 26 35 21 20 20
leaf_count=21 26 35 21 20 20
internal_value=0.000506832 -0.00296972 -0.00699291 -0.00349701 0.000218195
internal_weight=143 117 82 61 41
internal_count=143 117 82 61 41
is_linear=0
shrinkage=0.05


Tree=85
num_leaves=5
num_cat=0
split_feature=28 18 25 3
split_gain=6.74215 1.76191 0.982015 0.431372
threshold=2.5000000000000004 4.5000000000000009 3.5000000000000004 3.6000000238418584
decision_type=2 2 2 2
left_child=1 2 3 -1
right_child=-2 -3 -4 -5
leaf_value=0.0018249264245645868 0.024467760186504435 0.006255546659231186 -0.013195027703595525 -0.0077299551772219803
leaf_weight=27 27 35 37 21
leaf_count=27 27 35 37 21
internal_value=0.00189321 -0.00318607 -0.00707379 -0.00235533
internal_weight=147 120 85 48
internal_count=147 120 85 48
is_linear=0
shrinkage=0.05


Tree=86
num_leaves=5
num_cat=0
split_feature=28 18 26 18
split_gain=6.08479 1.59012 1.21928 0.262443
threshold=2.5000000000000004 4.5000000000000009 3.7321428060531621 2.5000000000000004
decision_type=2 2 2 2
left_child=1 2 3 -1
right_child=-2 -3 -4 -5
leaf_value=-0.0062976842125256859 0.023244372713896965 0.0059427698169435775 -0.016267213042010554 0.00026242465471788763
leaf_weight=30 27 35 24 31
leaf_count=30 27 35 24 31
internal_value=0.00179855 -0.00302676 -0.0067201 -0.00296386
internal_weight=147 120 85 61
internal_count=147 120 85 61
is_linear=0
shrinkage=0.05


Tree=87
num_leaves=6
num_cat=0
split_feature=28 5 28 26 21
split_gain=5.49152 1.53405 2.07173 0.590299 0.667739
threshold=2.5000000000000004 1.5000000000000002 -2.4999999999999996 3.7321428060531621 3.5000000000000004
decision_type=2 2 2 2 2
left_child=1 -1 -3 4 -4
right_child=-2 2 3 -5 -6
leaf_value=0.009765650549670683 0.022082153928500634 -0.018954668803648517 0.0055366481914568477 -0.0085212677801874553 -0.0056426995349201292
leaf_weight=20 27 22 34 22 22
leaf_count=20 27 22 34 22 22
internal_value=0.00170862 -0.00287542 -0.00540364 -0.00158155 0.00114476
internal_weight=147 120 100 78 56
internal_count=147 120 100 78 56
is_linear=0
shrinkage=0.05


Tree=88
num_leaves=5
num_cat=0
split_feature=28 18 26 18
split_gain=4.9561 1.54888 1.04444 0.243048
threshold=2.5000000000000004 4.5000000000000009 3.7321428060531621 2.5000000000000004
decision_type=2 2 2 2
left_child=1 2 3 -1
right_child=-2 -3 -4 -5
leaf_value=-0.006108551453799009 0.020978045684319956 0.0061208059801720087 -0.015212902888015379 0.00020450345060277371
leaf_weight=30 27 35 24 31
leaf_count=30 27 35 24 31
internal_value=0.00162319 -0.00273165 -0.00637678 -0.00290028
internal_weight=147 120 85 61
internal_count=147 120 85 61
is_linear=0
shrinkage=0.05


Tree=89
num_leaves=6
num_cat=0
split_feature=28 5 28 18 26
split_gain=4.47288 1.40517 1.95815 0.904494 0.274964
threshold=2.5000000000000004 1.5000000000000002 -2.4999999999999996 3.5000000000000004 3.3214286565780644
decision_type=2 2 2 2 2
left_child=1 -1 -3 4 -4
right_child=-2 2 3 -5 -6
leaf_value=0.0095033629308454697 0.019929143593267161 -0.018189112029292367 -0.0020601183589961792 0.0056999017741402678 -0.00959042003166608
leaf_weight=20 27 22 27 29 22
leaf_count=20 27 22 27 29 22
internal_value=0.00154203 -0.00259507 -0.00501476 -0.00129891 -0.00544107
internal_weight=147 120 100 78 49
internal_count=147 120 100 78 49
is_linear=0
shrinkage=0.05


Tree=90
num_leaves=5
num_cat=0
split_feature=18 26 3 28
split_gain=4.00869 2.82366 4.18516 2.24981
threshold=4.5000000000000009 3.8214286565780644 2.7500000000000004 1.0000000180025095e-35
decision_type=2 2 2 2
left_child=1 2 -1 -4
right_child=-2 -3 3 -5
leaf_value=-0.01628381975926459 0.013069917924248761 -0.020166211926306674 -0.0014539231720846148 0.019316874800080604
leaf_weight=30 38 26 32 22
leaf_count=30 38 26 32 22
internal_value=-0.000930632 -0.00576719 -0.00131034 0.00700825
internal_weight=148 110 84 54
internal_count=148 110 84 54
is_linear=0
shrinkage=0.05


Tree=91
num_leaves=5
num_cat=0
split_feature=18 26 3 28
split_gain=3.61785 2.54836 3.77711 2.03045
threshold=4.5000000000000009 3.8214286565780644 2.7500000000000004 1.0000000180025095e-35
decision_type=2 2 2 2
left_child=1 2 -1 -4
right_child=-2 -3 3 -5
leaf_value=-0.015469628466914099 0.012416422473707875 -0.019157901542404526 -0.0013812269691698021 0.01835103084079244
leaf_weight=30 38 26 32 22
leaf_count=30 38 26 32 22
internal_value=-0.0008841 -0.00547883 -0.00124483 0.00665784
internal_weight=148 110 84 54
internal_count=148 110 84 54
is_linear=0
shrinkage=0.05


Tree=92
num_leaves=6
num_cat=0
split_feature=23 18 28 22 25
split_gain=3.61294 3.82002 3.34536 2.15517 1.27079
threshold=1.5000000000000002 1.5000000000000002 -1.0000000180025095e-35 2.5000000000000004 3.3571429252624516
decision_type=2 2 2 2 2
left_child=3 -2 4 -1 -3
right_child=1 2 -4 -5 -6
leaf_value=-0.0010153624816753326 -0.024019110704893654 -0.0022299061868001117 0.010097160356471667 0.02071216002106667 -0.019644165271893145
leaf_weight=21 23 22 37 25 20
leaf_count=21 23 22 37 25 20
internal_value=-0.000839895 -0.00608614 -0.000865143 0.0107931 -0.0105224
internal_weight=148 102 79 46 42
internal_count=148 102 79 46 42
is_linear=0
shrinkage=0.05


Tree=93
num_leaves=6
num_cat=0
split_feature=23 21 11 22 25
split_gain=3.26068 4.24104 3.05391 1.94504 1.01232
threshold=1.5000000000000002 4.5000000000000009 34.500000000000007 2.5000000000000004 3.6190476417541508
decision_type=2 2 2 2 2
left_child=3 2 4 -1 -2
right_child=1 -3 -4 -5 -6
leaf_value=-0.00096459441577150895 -0.013291425700299443 0.012111098799854517 -9.3220977931085861e-05 0.019676551923155788 -0.028522676997818054
leaf_weight=21 24 25 33 25 20
leaf_count=21 24 25 33 25 20
internal_value=-0.0007979 -0.00578183 -0.0115912 0.0102534 -0.0202147
internal_weight=148 102 77 46 44
internal_count=148 102 77 46 44
is_linear=0
shrinkage=0.05


Tree=94
num_leaves=5
num_cat=0
split_feature=18 26 3 28
split_gain=3.17146 2.41129 3.30412 1.81703
threshold=4.5000000000000009 3.8214286565780644 2.7500000000000004 1.0000000180025095e-35
decision_type=2 2 2 2
left_child=1 2 -1 -4
right_child=-2 -3 3 -5
leaf_value=-0.014245774031927189 0.011694982577433908 -0.018366056062782615 -0.0011549168036708579 0.017511539160940712
leaf_weight=30 38 26 32 22
leaf_count=30 38 26 32 22
internal_value=-0.000758006 -0.00505995 -0.000941389 0.00644994
internal_weight=148 110 84 54
internal_count=148 110 84 54
is_linear=0
shrinkage=0.05


Tree=95
num_leaves=6
num_cat=0
split_feature=28 9 28 21 3
split_gain=2.94404 1.59493 2.84809 1.07352 1.04433
threshold=2.5000000000000004 12.500000000000002 -1.4999999999999998 2.5000000000000004 3.6000000238418584
decision_type=2 2 2 2 2
left_child=1 3 -3 -1 -4
right_child=-2 2 4 -5 -6
leaf_value=-0.0026537893014998799 0.016453011896317968 -0.022839210381498561 0.0049904480983968824 0.012150855520740153 -0.0093592106431190456
leaf_weight=24 26 20 32 25 21
leaf_count=24 26 20 32 25 21
internal_value=0.0011772 -0.0020783 -0.0067621 0.0048996 -0.000695266
internal_weight=148 122 73 49 53
internal_count=148 122 73 49 53
is_linear=0
shrinkage=0.05


Tree=96
num_leaves=6
num_cat=0
split_feature=28 9 28 21 3
split_gain=2.657 1.43943 2.5704 0.968854 0.942505
threshold=2.5000000000000004 12.500000000000002 -1.4999999999999998 2.5000000000000004 3.6000000238418584
decision_type=2 2 2 2 2
left_child=1 3 -3 -1 -4
right_child=-2 2 4 -5 -6
leaf_value=-0.0025211000543398161 0.015630362261659824 -0.021697249826975171 0.0047409258666448297 0.0115433129966259 -0.0088912501771812365
leaf_weight=24 26 20 32 25 21
leaf_count=24 26 20 32 25 21
internal_value=0.00111834 -0.00197439 -0.00642399 0.00465462 -0.000660502
internal_weight=148 122 73 49 53
internal_count=148 122 73 49 53
is_linear=0
shrinkage=0.05


Tree=97
num_leaves=5
num_cat=0
split_feature=18 27 9 9
split_gain=2.74406 2.15022 3.58254 3.07493
threshold=4.5000000000000009 3.6243590116500859 14.500000000000002 17.500000000000004
decision_type=2 2 2 2
left_child=1 3 -3 -1
right_child=-2 2 -4 -5
leaf_value=-0.0059957633763852141 0.012854667628857284 0.0050569548795465387 -0.020331738683197535 0.018133256130892297
leaf_weight=31 37 24 33 23
leaf_count=31 37 24 33 23
internal_value=0.00106242 -0.00286833 -0.00964176 0.00428141
internal_weight=148 111 57 54
internal_count=148 111 57 54
is_linear=0
shrinkage=0.05


Tree=98
num_leaves=5
num_cat=0
split_feature=18 27 9 9
split_gain=2.47651 1.94057 3.23324 2.77512
threshold=4.5000000000000009 3.6243590116500859 14.500000000000002 17.500000000000004
decision_type=2 2 2 2
left_child=1 3 -3 -1
right_child=-2 2 -4 -5
leaf_value=-0.005695975304491098 0.012211934521139877 0.004804107150024114 -0.019315151706563706 0.01722659387666246
leaf_weight=31 37 24 33 23
leaf_count=31 37 24 33 23
internal_value=0.0010093 -0.00272491 -0.00915967 0.00406734
internal_weight=148 111 57 54
internal_count=148 111 57 54
is_linear=0
shrinkage=0.05


Tree=99
num_leaves=6
num_cat=0
split_feature=28 28 18 3 25
split_gain=2.53411 1.38686 2.1232 0.889586 0.600576
threshold=2.5000000000000004 -2.4999999999999996 3.5000000000000004 3.6000000238418584 3.3571429252624516
decision_type=2 2 2 2 2
left_child=1 -1 4 -4 -3
right_child=-2 2 3 -5 -6
leaf_value=-0.012833972413015241 0.015131304860831455 -0.0012604633455767353 0.016895203698950353 0.0019822415057569745 -0.011591000030360496
leaf_weight=24 26 34 20 20 24
leaf_count=24 26 34 20 20 24
internal_value=0.000958836 -0.00206153 0.000576624 0.00943872 -0.00553517
internal_weight=148 122 98 40 58
internal_count=148 122 98 40 58
is_linear=0
shrinkage=0.05


Tree=100
num_leaves=4
num_cat=0
split_feature=18 23 18
split_gain=2.87513 0.934012 0.987137
threshold=4.5000000000000009 2.5000000000000004 2.5000000000000004
decision_type=2 2 2
left_child=1 -1 -3
right_child=-2 2 -4
leaf_value=0.0035879528200304187 0.013462927704838673 -0.012718428447260522 -0.0008694569263846064
leaf_weight=37 36 32 39
leaf_count=37 36 32 39
internal_value=0.00122584 -0.00285319 -0.00620984
internal_weight=144 108 71
internal_count=144 108 71
is_linear=0
shrinkage=0.05


Tree=101
num_leaves=6
num_cat=0
split_feature=25 23 27 13 18
split_gain=3.06238 1.51576 2.12656 1.81985 1.18968
threshold=4.0714285373687753 2.5000000000000004 3.6348485946655278 0.25000000000000011 2.5000000000000004
decision_type=2 2 2 2 2
left_child=1 2 -1 4 -3
right_child=-2 3 -4 -5 -6
leaf_value=0.0172742650937289 0.01707278674375266 -0.020310912721536376 -0.0055069345093908765 0.0051872042939066889 -0.0052067840850213544
leaf_weight=20 25 22 21 24 32
leaf_count=20 25 22 21 24 32
internal_value=0.00116455 -0.00217752 0.00560585 -0.00626877 -0.0113603
internal_weight=144 119 41 78 54
internal_count=144 119 41 78 54
is_linear=0
shrinkage=0.05


Tree=102
num_leaves=6
num_cat=0
split_feature=25 23 27 13 18
split_gain=2.7638 1.36797 1.91922 1.64242 1.07369
threshold=4.0714285373687753 2.5000000000000004 3.6348485946655278 0.25000000000000011 2.5000000000000004
decision_type=2 2 2 2 2
left_child=1 2 -1 4 -3
right_child=-2 3 -4 -5 -6
leaf_value=0.01641055177198723 0.01621914691105485 -0.0192953670905395 -0.0052315878548792431 0.0049278442747890949 -0.0049464447693026159
leaf_weight=20 25 22 21 24 32
leaf_count=20 25 22 21 24 32
internal_value=0.00110632 -0.00206864 0.00532555 -0.00595533 -0.0107923
internal_weight=144 119 41 78 54
internal_count=144 119 41 78 54
is_linear=0
shrinkage=0.05


Tree=103
num_leaves=6
num_cat=0
split_feature=25 28 3 7 25
split_gain=2.49433 1.10159 1.78465 0.812998 0.752113
threshold=4.0714285373687753 -1.0000000180025095e-35 2.2500000000000004 6.5000000000000009 3.3571429252624516
decision_type=2 2 2 2 2
left_child=1 4 -3 -4 -1
right_child=-2 2 3 -5 -6
leaf_value=-0.0021657663416117432 0.015408189838752152 -0.0075060815302034224 0.015100592081646689 0.0013466225227429754 -0.015001211221152472
leaf_weight=25 25 30 22 21 21
leaf_count=25 25 30 22 21 21
internal_value=0.00105101 -0.00196521 0.00185356 0.00838354 -0.00802543
internal_weight=144 119 73 43 46
internal_count=144 119 73 43 46
is_linear=0
shrinkage=0.05


Tree=104
num_leaves=5
num_cat=0
split_feature=18 26 23 14
split_gain=2.35299 1.14638 1.93214 0.856399
threshold=4.5000000000000009 3.7321428060531621 2.5000000000000004 0.29696027934551245
decision_type=2 2 2 2
left_child=1 2 -1 -4
right_child=-2 -3 3 -5
leaf_value=0.0117981397183612 0.012068766069650237 -0.011839999365083015 -0.00019298927703251441 -0.01289828107470558
leaf_weight=25 36 26 36 21
leaf_count=25 36 26 36 21
internal_value=0.000998455 -0.00269165 0.000209048 -0.00487389
internal_weight=144 108 82 57
internal_count=144 108 82 57
is_linear=0
shrinkage=0.05


Tree=105
num_leaves=5
num_cat=0
split_feature=9 25 4 1
split_gain=1.87334 3.57957 2.1647 1.24927
threshold=12.500000000000002 3.7857142686843877 1.0000000180025095e-35 13.500000000000002
decision_type=2 2 2 2
left_child=2 3 -1 -2
right_child=1 -3 -4 -5
leaf_value=-0.006189228831950961 -0.0085485027743769544 -0.023114169563632461 0.013301504177174399 0.0049085416283239335
leaf_weight=29 35 28 28 34
leaf_count=29 35 28 28 34
internal_value=-0.00380876 -0.00803612 0.00338517 -0.0019175
internal_weight=154 97 57 69
internal_count=154 97 57 69
is_linear=0
shrinkage=0.05


Tree=106
num_leaves=5
num_cat=0
split_feature=20 20 18 3
split_gain=1.79113 1.72861 2.51124 1.51866
threshold=4.5000000000000009 3.5000000000000004 2.5000000000000004 2.7500000000000004
decision_type=2 2 2 2
left_child=1 2 -1 -4
right_child=-2 -3 3 -5
leaf_value=-0.016967688751621888 -0.013039626857559933 0.010549579950532427 0.010180969069395881 -0.0054417719585554943
leaf_weight=26 38 27 28 35
leaf_count=26 38 27 28 35
internal_value=-0.00361832 -0.000532036 -0.00389387 0.00150167
internal_weight=154 116 89 63
internal_count=154 116 89 63
is_linear=0
shrinkage=0.05


Tree=107
num_leaves=6
num_cat=0
split_feature=16 6 19 14 26
split_gain=1.1698 1.51851 3.45279 1.83074 2.21522
threshold=-0.87837970256805409 3.5000000000000004 3.5000000000000004 0.61559370160102855 3.654761910438538
decision_type=2 2 2 2 2
left_child=-1 3 -3 4 -2
right_child=1 2 -4 -5 -6
leaf_value=-0.013837514133395061 -0.0028266618713079132 0.019932270016182554 -0.0084122186038820528 0.0041658271627966316 -0.023188698605041615
leaf_weight=23 34 22 21 32 22
leaf_count=23 34 22 21 32 22
internal_value=-0.00343741 -0.00161144 0.00608961 -0.00537445 -0.010826
internal_weight=154 131 43 88 56
internal_count=154 131 43 88 56
is_linear=0
shrinkage=0.05


Tree=108
num_leaves=5
num_cat=0
split_feature=9 25 19 15
split_gain=1.7088 3.09917 2.0042 1.20133
threshold=12.500000000000002 3.7857142686843877 3.5000000000000004 -0.29696027934551233
decision_type=2 2 2 2
left_child=2 3 -1 -2
right_child=1 -3 -4 -5
leaf_value=0.013488049660291938 0.0043491717195138337 -0.021332806561674394 -0.0052893464329342053 -0.0089141849238301568
leaf_weight=27 38 28 30 31
leaf_count=27 38 28 30 31
internal_value=-0.00326554 -0.00730299 0.00360521 -0.00160973
internal_weight=154 97 57 69
internal_count=154 97 57 69
is_linear=0
shrinkage=0.05


Tree=109
num_leaves=5
num_cat=0
split_feature=20 17 9 17
split_gain=1.59111 1.64471 2.26405 1.13277
threshold=4.5000000000000009 1.0000000180025095e-35 11.500000000000002 -0.56174489110708226
decision_type=2 2 2 2
left_child=1 3 -3 -1
right_child=-2 2 -4 -5
leaf_value=0.0015841918658803811 -0.011981923231168798 0.019770973091945053 -0.0024245572000466016 -0.011240829892146092
leaf_weight=33 38 20 27 36
leaf_count=33 38 20 27 36
internal_value=-0.00310226 -0.000193406 0.00702035 -0.00510712
internal_weight=154 116 47 69
internal_count=154 116 47 69
is_linear=0
shrinkage=0.05


Tree=110
num_leaves=5
num_cat=0
split_feature=28 18 28 14
split_gain=2.17548 2.96199 1.5756 0.801167
threshold=-2.4999999999999996 3.5000000000000004 2.5000000000000004 0.17992616817355159
decision_type=2 2 2 2
left_child=-1 2 3 -2
right_child=1 -3 -4 -5
leaf_value=-0.017815239280462265 0.0023984619093508543 0.0099158012737078898 -0.018431286987933247 -0.009467923089861871
leaf_weight=25 33 38 22 25
leaf_count=25 33 38 22 25
internal_value=-0.00441691 -0.00157828 -0.00703796 -0.00271636
internal_weight=143 118 80 58
internal_count=143 118 80 58
is_linear=0
shrinkage=0.05


Tree=111
num_leaves=5
num_cat=0
split_feature=28 18 28 26
split_gain=1.96337 2.6732 1.42198 0.445581
threshold=-2.4999999999999996 3.5000000000000004 2.5000000000000004 3.2500000000000004
decision_type=2 2 2 2
left_child=-1 2 3 -2
right_child=1 -3 -4 -5
leaf_value=-0.016924477221444249 0.0018019324931283964 0.0094200111536529713 -0.017509722481058403 -0.0069630149655557916
leaf_weight=25 29 38 22 29
leaf_count=25 29 38 22 29
internal_value=-0.00419606 -0.00149936 -0.00668607 -0.00258054
internal_weight=143 118 80 58
internal_count=143 118 80 58
is_linear=0
shrinkage=0.05


Tree=112
num_leaves=5
num_cat=0
split_feature=28 18 28 14
split_gain=1.77194 2.41256 1.28333 0.705377
threshold=-2.4999999999999996 3.5000000000000004 2.5000000000000004 0.17992616817355159
decision_type=2 2 2 2
left_child=-1 2 3 -2
right_child=1 -3 -4 -5
leaf_value=-0.016078253155574204 0.0023478050659777542 0.0089490107603763282 -0.016634236737577756 -0.0087866154611110688
leaf_weight=25 33 38 22 25
leaf_count=25 33 38 22 25
internal_value=-0.00398626 -0.0014244 -0.00635176 -0.00245151
internal_weight=143 118 80 58
internal_count=143 118 80 58
is_linear=0
shrinkage=0.05


Tree=113
num_leaves=6
num_cat=0
split_feature=17 3 25 3 3
split_gain=1.62326 2.69609 2.34608 1.544 1.55381
threshold=-0.56174489110708226 3.6000000238418584 3.928571462631226 2.7500000000000004 4.2500000000000009
decision_type=2 2 2 2 2
left_child=1 -1 3 -2 -5
right_child=2 -3 -4 4 -6
leaf_value=0.016030330170431865 -0.011620300560025498 -0.0087490422296382132 -0.021738241409713574 0.011437380112086733 -0.0071860534138977533
leaf_weight=23 32 21 22 24 21
leaf_count=23 32 21 22 24 21
internal_value=-0.00378695 0.00420381 -0.00733839 -0.00322415 0.00274644
internal_weight=143 44 99 77 45
internal_count=143 44 99 77 45
is_linear=0
shrinkage=0.05


Tree=114
num_leaves=5
num_cat=0
split_feature=28 15 19 9
split_gain=1.52433 1.87524 0.853231 0.8911
threshold=-2.4999999999999996 0.40966403484344488 2.5000000000000004 17.500000000000004
decision_type=2 2 2 2
left_child=-1 2 -2 -4
right_child=1 -3 3 -5
leaf_value=-0.014812951695173979 -0.012883065496750463 0.008291434675144654 -0.0073848112078849226 0.005360385879612295
leaf_weight=25 26 36 32 24
leaf_count=25 26 36 32 24
internal_value=-0.0035976 -0.00122146 -0.00539786 -0.00192258
internal_weight=143 118 82 56
internal_count=143 118 82 56
is_linear=0
shrinkage=0.05


Tree=115
num_leaves=7
num_cat=0
split_feature=18 26 9 17 3 27
split_gain=2.37451 1.57501 1.55991 1.32006 1.1817 0.525397
threshold=4.5000000000000009 3.654761910438538 14.500000000000002 1.0000000180025095e-35 2.7500000000000004 3.4500000476837163
decision_type=2 2 2 2 2 2
left_child=1 4 -3 -2 -1 -6
right_child=3 2 -4 -5 5 -7
leaf_value=-0.0083959457647454529 0.018387451730668546 -0.0024433662788942456 -0.021737191288477994 0.0002211047150194645 -0.00097422614649292968 0.0099644920100336494
leaf_weight=28 20 20 22 20 21 23
leaf_count=28 20 20 22 20 21 23
internal_value=-0.00117712 -0.0048548 -0.0125497 0.00930428 -0.000366138 0.00474374
internal_weight=154 114 42 40 72 44
internal_count=154 114 42 40 72 44
is_linear=0
shrinkage=0.05


Tree=116
num_leaves=7
num_cat=0
split_feature=18 26 9 17 3 27
split_gain=2.143 1.42144 1.40782 1.19136 1.06649 0.47417
threshold=4.5000000000000009 3.654761910438538 14.500000000000002 1.0000000180025095e-35 2.7500000000000004 3.4500000476837163
decision_type=2 2 2 2 2 2
left_child=1 4 -3 -2 -1 -6
right_child=3 2 -4 -5 5 -7
leaf_value=-0.0079761484313556671 0.017468080152757467 -0.0023211976909078657 -0.020650331557474352 0.0002100493758916855 -0.0009255146075572287 0.0094662672531305135
leaf_weight=28 20 20 22 20 21 23
leaf_count=28 20 20 22 20 21 23
internal_value=-0.00111826 -0.00461206 -0.0119222 0.00883906 -0.000347831 0.00450655
internal_weight=154 114 42 40 72 44
internal_count=154 114 42 40 72 44
is_linear=0
shrinkage=0.05


Tree=117
num_leaves=5
num_cat=0
split_feature=18 28 13 1
split_gain=1.93843 5.11639 2.6048 1.32597
threshold=2.5000000000000004 1.0000000180025095e-35 0.25000000000000011 13.500000000000002
decision_type=2 2 2 2
left_child=2 3 -1 -2
right_child=1 -3 -4 -5
leaf_value=-0.017765903383406112 -0.010336191324504878 0.021606787466616543 0.0052362512797117233 0.0029614593216998352
leaf_weight=32 38 27 20 37
leaf_count=32 38 27 20 37
internal_value=-0.00106235 0.00294296 -0.00891892 -0.00377602
internal_weight=154 102 52 75
internal_count=154 102 52 75
is_linear=0
shrinkage=0.05


Tree=118
num_leaves=7
num_cat=0
split_feature=18 26 9 26 3 6
split_gain=1.91699 1.38453 1.26625 1.09534 0.974318 0.305281
threshold=4.5000000000000009 3.654761910438538 14.500000000000002 3.8214286565780644 2.7500000000000004 3.5000000000000004
decision_type=2 2 2 2 2 2
left_child=1 4 -3 -2 -1 -6
right_child=3 2 -4 -5 5 -7
leaf_value=-0.0073963998484292207 0.0001344247325323522 -0.0024228034587576988 -0.019805916347964247 0.016682366300374268 0.00036992888304997575 0.008699517339383336
leaf_weight=28 20 20 22 20 22 22
leaf_count=28 20 20 22 20 22 22
internal_value=-0.00100923 -0.00431366 -0.0115282 0.0084084 -0.000105158 0.00453472
internal_weight=154 114 42 40 72 44
internal_count=154 114 42 40 72 44
is_linear=0
shrinkage=0.05


Tree=119
num_leaves=6
num_cat=0
split_feature=13 25 27 11 9
split_gain=1.43988 2.24344 1.82148 1.42542 0.162743
threshold=0.25000000000000011 3.6190476417541508 3.8833333253860478 24.500000000000004 19.500000000000004
decision_type=2 2 2 2 2
left_child=2 -2 3 -1 -5
right_child=1 -3 -4 4 -6
leaf_value=0.0072646045933652207 -0.0030334813673107419 0.017438944769294366 -0.016551570505059014 -0.009820595303816456 -0.0036669179966503924
leaf_weight=32 32 23 24 21 22
leaf_count=32 32 23 24 21 22
internal_value=-0.000958771 0.00552772 -0.00456237 -0.000725831 -0.0066722
internal_weight=154 55 99 75 43
internal_count=154 55 99 75 43
is_linear=0
shrinkage=0.05


Tree=120
num_leaves=7
num_cat=0
split_feature=28 18 27 18 20 25
split_gain=2.29611 4.22455 2.63358 1.1431 0.570635 0.759604
threshold=-1.0000000180025095e-35 3.5000000000000004 3.4500000476837163 1.5000000000000002 2.5000000000000004 3.6190476417541508
decision_type=2 2 2 2 2 2
left_child=4 2 -2 -4 -1 -6
right_child=1 -3 3 -5 5 -7
leaf_value=0.0010298542209784499 0.015104166244197151 0.027039080457761884 -0.014223505090922118 0.0010940194033600135 -0.0024237142584752295 -0.01620417040074244
leaf_weight=20 23 20 21 29 20 20
leaf_count=20 23 20 21 29 20 20
internal_value=0.0017598 0.00667968 0.00110176 -0.00533934 -0.00586601 -0.00931394
internal_weight=153 93 73 50 60 40
internal_count=153 93 73 50 60 40
is_linear=0
shrinkage=0.05


Tree=121
num_leaves=6
num_cat=0
split_feature=9 21 27 5 6
split_gain=2.4774 2.27207 1.61941 2.09676 2.17136
threshold=26.500000000000004 4.5000000000000009 3.8833333253860478 2.5000000000000004 2.5000000000000004
decision_type=2 2 2 2 2
left_child=1 2 3 -1 -5
right_child=-2 -3 -4 4 -6
leaf_value=-0.015032150093466043 0.017623239548438939 0.010496070665381427 -0.016277739185708292 0.016067535742397675 -0.0040919363731518393
leaf_weight=20 21 33 23 22 34
leaf_count=20 21 33 23 22 34
internal_value=0.00167181 -0.000865915 -0.00465324 -0.0011353 0.00382786
internal_weight=153 132 99 76 56
internal_count=153 132 99 76 56
is_linear=0
shrinkage=0.05


Tree=122
num_leaves=7
num_cat=0
split_feature=9 11 23 20 18 27
split_gain=2.23585 2.10409 1.43592 2.07047 1.01228 0.640296
threshold=26.500000000000004 40.500000000000007 1.5000000000000002 3.5000000000000004 2.5000000000000004 3.6348485946655278
decision_type=2 2 2 2 2 2
left_child=1 2 3 -1 -4 -6
right_child=-2 -3 4 -5 5 -7
leaf_value=-0.0073936708537595611 0.016742076751376903 0.012568639414773012 -0.016534913789170484 0.01508505238685757 -0.0096780305685983462 0.0025279815308749676
leaf_weight=21 21 24 24 20 22 21
leaf_count=21 21 24 24 20 22 21
internal_value=0.00158822 -0.000822619 -0.00379845 0.00357156 -0.00830846 -0.00371695
internal_weight=153 132 108 41 67 43
internal_count=153 132 108 41 67 43
is_linear=0
shrinkage=0.05


Tree=123
num_leaves=7
num_cat=0
split_feature=28 18 27 18 20 25
split_gain=2.08583 3.68881 2.3241 0.989027 0.548204 0.647632
threshold=-1.0000000180025095e-35 3.5000000000000004 3.4500000476837163 1.5000000000000002 2.5000000000000004 3.6190476417541508
decision_type=2 2 2 2 2 2
left_child=4 2 -2 -4 -1 -6
right_child=1 -3 3 -5 5 -7
leaf_value=0.00099952540011145181 0.014139737519840507 0.025222716791322455 -0.01332885024270841 0.00091903887303738767 -0.0027767742553260182 -0.015501077566295863
leaf_weight=20 23 20 21 29 20 20
leaf_count=20 23 20 21 29 20 20
internal_value=0.00150881 0.00619801 0.000985757 -0.00506507 -0.00575944 -0.00913893
internal_weight=153 93 73 50 60 40
internal_count=153 93 73 50 60 40
is_linear=0
shrinkage=0.05


Tree=124
num_leaves=6
num_cat=0
split_feature=9 21 27 5 6
split_gain=1.97929 1.95224 1.50434 1.90163 1.92443
threshold=26.500000000000004 4.5000000000000009 3.8833333253860478 2.5000000000000004 2.5000000000000004
decision_type=2 2 2 2 2
left_child=1 2 3 -1 -5
right_child=-2 -3 -4 4 -6
leaf_value=-0.014189375098794699 0.015691299250881589 0.00969704010587355 -0.015549456488098141 0.01529435190975412 -0.0036842563865802196
leaf_weight=20 21 33 23 22 34
leaf_count=20 21 33 23 22 34
internal_value=0.00143337 -0.000834937 -0.0043456 -0.000954954 0.00377163
internal_weight=153 132 99 76 56
internal_count=153 132 99 76 56
is_linear=0
shrinkage=0.05


Tree=125
num_leaves=6
num_cat=0
split_feature=20 25 20 28 19
split_gain=2.34039 2.69421 1.67035 1.19655 0.643183
threshold=4.5000000000000009 3.928571462631226 3.5000000000000004 1.0000000180025095e-35 2.5000000000000004
decision_type=2 2 2 2 2
left_child=1 2 3 4 -1
right_child=-2 -3 -4 -5 -6
leaf_value=0.0078641915949992838 -0.0096695606237074405 0.019014579743146898 0.012977981059812011 -0.013030105528675699 -0.0043958702721916465
leaf_weight=20 39 25 20 22 23
leaf_count=20 39 25 20 22 23
internal_value=0.000854549 0.00458582 0.000342072 -0.0035459 0.00130648
internal_weight=149 110 85 65 43
internal_count=149 110 85 65 43
is_linear=0
shrinkage=0.05


Tree=126
num_leaves=6
num_cat=0
split_feature=20 28 11 28 1
split_gain=2.11886 2.05689 2.34666 1.37776 0.178353
threshold=1.5000000000000002 -2.4999999999999996 20.500000000000004 1.5000000000000002 16.000000000000004
decision_type=2 2 2 2 2
left_child=-1 -2 -3 4 -4
right_child=1 2 3 -5 -6
leaf_value=0.012212887473287993 -0.016480950256698722 0.01267649295482913 -0.0026176598996085969 -0.014960584106544654 0.0036090887880519682
leaf_weight=32 21 29 23 21 23
leaf_count=32 21 29 23 21 23
internal_value=0.000811821 -0.00230642 0.000794259 -0.0043488 0.000495714
internal_weight=149 117 96 67 46
internal_count=149 117 96 67 46
is_linear=0
shrinkage=0.05


Tree=127
num_leaves=6
num_cat=0
split_feature=20 25 20 18 16
split_gain=2.07123 2.49782 1.53097 1.62091 0.332187
threshold=4.5000000000000009 3.928571462631226 3.5000000000000004 2.5000000000000004 1.0000000180025095e-35
decision_type=2 2 2 2 2
left_child=1 2 3 -1 -5
right_child=-2 -3 -4 4 -6
leaf_value=-0.014196714344839363 -0.0091292213873925797 0.018174308832734822 0.012292438024887817 0.0069796953018521892 -0.0019237763565880331
leaf_weight=23 39 25 20 20 22
leaf_count=23 39 25 20 20 22
internal_value=0.00077123 0.00428139 0.000195237 -0.00352698 0.00231597
internal_weight=149 110 85 65 42
internal_count=149 110 85 65 42
is_linear=0
shrinkage=0.05


Tree=128
num_leaves=6
num_cat=0
split_feature=20 28 11 28 28
split_gain=1.952 1.91462 2.11448 1.23242 0.168257
threshold=1.5000000000000002 -2.4999999999999996 20.500000000000004 1.5000000000000002 -1.0000000180025095e-35
decision_type=2 2 2 2 2
left_child=-1 -2 -3 4 -4
right_child=1 2 3 -5 -6
leaf_value=0.011675626278156416 -0.015935797248745248 0.012010341261288729 -0.0030167350685223939 -0.014187240631630025 0.0030833150372088242
leaf_weight=32 21 29 20 21 26
leaf_count=32 21 29 20 21 26
internal_value=0.000732669 -0.00226028 0.000731243 -0.00415075 0.000431119
internal_weight=149 117 96 67 46
internal_count=149 117 96 67 46
is_linear=0
shrinkage=0.05


Tree=129
num_leaves=5
num_cat=0
split_feature=20 28 7 3
split_gain=1.82963 2.46939 1.02645 1.15938
threshold=4.5000000000000009 1.5000000000000002 4.5000000000000009 2.7500000000000004
decision_type=2 2 2 2
left_child=1 2 -1 -4
right_child=-2 -3 3 -5
leaf_value=-0.010336293133773974 -0.0086090868135961975 0.015438563207333739 0.011569635166564365 -0.0031611409551902288
leaf_weight=21 39 33 22 34
leaf_count=21 39 33 22 34
internal_value=0.000696035 0.00399512 -0.000909207 0.00262595
internal_weight=149 110 77 56
internal_count=149 110 77 56
is_linear=0
shrinkage=0.05


Tree=130
num_leaves=5
num_cat=0
split_feature=18 20 28 1
split_gain=3.03074 0.738505 1.46109 1.13453
threshold=4.5000000000000009 3.5000000000000004 1.5000000000000002 11.500000000000002
decision_type=2 2 2 2
left_child=1 2 -1 -3
right_child=-2 3 -4 -5
leaf_value=-0.001545574249246636 0.012576092310393087 -0.0077291255118325354 -0.018058058592889989 0.0074439066427398103
leaf_weight=37 39 22 21 28
leaf_count=37 39 22 21 28
internal_value=0.000628917 -0.00368534 -0.00752423 0.000767772
internal_weight=147 108 58 50
internal_count=147 108 58 50
is_linear=0
shrinkage=0.05


Tree=131
num_leaves=6
num_cat=0
split_feature=18 15 23 28 27
split_gain=2.73524 0.787687 0.959314 2.12444 0.116574
threshold=4.5000000000000009 0.61559370160102855 1.5000000000000002 1.5000000000000002 3.5166666507720952
decision_type=2 2 2 2 2
left_child=1 2 -1 4 -4
right_child=-2 -3 3 -5 -6
leaf_value=0.0029183299705872068 0.01194728753493669 0.0044874948813230734 -0.0050028452184051279 -0.021942536313352842 0.00039563440310303127
leaf_weight=23 39 24 20 21 20
leaf_count=23 39 24 20 21 20
internal_value=0.000597471 -0.00350107 -0.00578352 -0.00906455 -0.00230361
internal_weight=147 108 84 61 40
internal_count=147 108 84 61 40
is_linear=0
shrinkage=0.05


Tree=132
num_leaves=5
num_cat=0
split_feature=18 15 1 28
split_gain=2.46856 0.710887 0.920283 1.44247
threshold=4.5000000000000009 0.61559370160102855 20.500000000000004 1.5000000000000002
decision_type=2 2 2 2
left_child=1 2 3 -1
right_child=-2 -3 -4 -5
leaf_value=-0.0029054434096906336 0.011349923230516605 0.0042631198647238005 0.0027805215431726538 -0.01899321692233736
leaf_weight=38 39 24 24 22
leaf_count=38 39 24 24 22
internal_value=0.000567597 -0.00332602 -0.00549435 -0.00880429
internal_weight=147 108 84 60
internal_count=147 108 84 60
is_linear=0
shrinkage=0.05


Tree=133
num_leaves=5
num_cat=0
split_feature=18 23 18 7
split_gain=2.22787 0.689013 0.916725 0.268298
threshold=4.5000000000000009 1.5000000000000002 2.5000000000000004 7.5000000000000009
decision_type=2 2 2 2
left_child=1 -1 -3 -4
right_child=-2 2 3 -5
leaf_value=0.0032798750954680144 0.010782427079557705 -0.011342506326547812 -0.0044343823943996715 0.0036574406921863556
leaf_weight=30 39 37 21 20
leaf_count=30 39 37 21 20
internal_value=0.000539217 -0.00315972 -0.00563649 -0.000487152
internal_weight=147 108 78 41
internal_count=147 108 78 41
is_linear=0
shrinkage=0.05


Tree=134
num_leaves=5
num_cat=0
split_feature=25 23 18 15
split_gain=2.11737 1.12703 0.859216 0.459003
threshold=4.1714284420013437 1.5000000000000002 2.5000000000000004 -0.61559370160102833
decision_type=2 2 2 2
left_child=1 -1 -3 -4
right_child=-2 2 3 -5
leaf_value=0.0055393474875018002 0.015211179126830152 -0.010775380863531216 -0.0057707712575793269 0.0035503144741856627
leaf_weight=36 21 37 25 28
leaf_count=36 21 37 25 28
internal_value=0.000512256 -0.00193756 -0.00492833 -0.000846424
internal_weight=147 126 90 53
internal_count=147 126 90 53
is_linear=0
shrinkage=0.05


Tree=135
num_leaves=5
num_cat=0
split_feature=11 28 14 4
split_gain=3.27323 1.74551 1.05106 0.294508
threshold=15.500000000000002 1.0000000180025095e-35 -0.060268338769674454 1.0000000180025095e-35
decision_type=2 2 2 2
left_child=-1 2 3 -2
right_child=1 -3 -4 -5
leaf_value=-0.013470760338370587 -0.0016620864515148458 0.012556561088422314 0.0073771211532099798 -0.010139944168622607
leaf_weight=36 21 38 24 20
leaf_count=36 21 38 24 20
internal_value=-0.000492445 0.00404367 -0.000933104 -0.00579763
internal_weight=139 103 65 41
internal_count=139 103 65 41
is_linear=0
shrinkage=0.05


Tree=136
num_leaves=5
num_cat=0
split_feature=11 28 14 28
split_gain=2.95409 1.59866 0.613416 1.16817
threshold=15.500000000000002 1.5000000000000002 -0.060268338769674454 -1.0000000180025095e-35
decision_type=2 2 2 2
left_child=-1 2 3 -2
right_child=1 -3 -4 -5
leaf_value=-0.012797222340466558 -0.010484133522885923 0.014292384325354188 0.0058472747079514227 0.0053711801490169912
leaf_weight=36 26 27 29 21
leaf_count=36 26 27 29 21
internal_value=-0.000467823 0.00384148 0.000128662 -0.00339984
internal_weight=139 103 76 47
internal_count=139 103 76 47
is_linear=0
shrinkage=0.05


Tree=137
num_leaves=5
num_cat=0
split_feature=11 28 14 28
split_gain=2.66607 1.44279 0.553608 1.05427
threshold=15.500000000000002 1.5000000000000002 -0.060268338769674454 -1.0000000180025095e-35
decision_type=2 2 2 2
left_child=-1 2 3 -2
right_child=1 -3 -4 -5
leaf_value=-0.012157361125314816 -0.0099599269335158176 0.013577764309701269 0.0055549111329661364 0.0051026211887975001
leaf_weight=36 26 27 29 21
leaf_count=36 26 27 29 21
internal_value=-0.000444432 0.00364941 0.000122229 -0.00322985
internal_weight=139 103 76 47
internal_count=139 103 76 47
is_linear=0
shrinkage=0.05


Tree=138
num_leaves=5
num_cat=0
split_feature=11 1 9 4
split_gain=2.40613 1.38505 1.39415 0.827871
threshold=15.500000000000002 20.500000000000004 23.500000000000004 1.0000000180025095e-35
decision_type=2 2 2 2
left_child=-1 2 3 -2
right_child=1 -3 -4 -5
leaf_value=-0.011549492842621273 0.0027067353026583221 0.013708373039029539 0.011197424591297196 -0.0093914773225063294
leaf_weight=36 26 25 21 31
leaf_count=36 26 25 21 31
internal_value=-0.00042221 0.00346694 0.000184426 -0.00387299
internal_weight=139 103 78 57
internal_count=139 103 78 57
is_linear=0
shrinkage=0.05


Tree=139
num_leaves=5
num_cat=0
split_feature=11 28 3 11
split_gain=2.17153 1.29596 0.724725 0.412022
threshold=15.500000000000002 1.5000000000000002 2.7500000000000004 26.500000000000004
decision_type=2 2 2 2
left_child=-1 2 -2 -4
right_child=1 -3 3 -5
leaf_value=-0.010972018560601607 0.0059967030320937434 0.012703198460103185 0.0014030493842437865 -0.0081426388268412749
leaf_weight=36 30 27 20 26
leaf_count=36 30 27 20 26
internal_value=-0.0004011 0.00329359 -4.92965e-05 -0.00399234
internal_weight=139 103 76 46
internal_count=139 103 76 46
is_linear=0
shrinkage=0.05


Tree=140
num_leaves=6
num_cat=0
split_feature=21 28 25 7 15
split_gain=1.18079 1.99626 1.10608 0.849512 0.382513
threshold=1.5000000000000002 1.0000000180025095e-35 3.6190476417541508 5.5000000000000009 -0.5163939595222472
decision_type=2 2 2 2 2
left_child=-1 3 -3 -2 -5
right_child=1 2 -4 4 -6
leaf_value=-0.0082564283568045179 0.0046867236368019474 0.0025474735870957377 0.017420836836099626 -0.01179078733953445 -0.0023360712674912066
leaf_weight=33 22 25 25 23 20
leaf_count=33 22 25 25 23 20
internal_value=8.07028e-05 0.0024731 0.00998416 -0.00330464 -0.00739324
internal_weight=148 115 50 65 43
internal_count=148 115 50 65 43
is_linear=0
shrinkage=0.05


Tree=141
num_leaves=5
num_cat=0
split_feature=21 14 14 26
split_gain=1.06566 1.3655 2.05672 0.737398
threshold=1.5000000000000002 -0.85421994328498829 0.51639395952224743 3.5934065580368046
decision_type=2 2 2 2
left_child=-1 -2 3 -3
right_child=1 2 -4 -5
leaf_value=-0.0078436068576675927 0.013246179142278498 -0.00016442039608955384 0.0087400030848142265 -0.011791529825422913
leaf_weight=33 23 25 37 30
leaf_count=33 23 25 37 30
internal_value=7.66676e-05 0.00234944 -0.000374742 -0.00650648
internal_weight=148 115 92 55
internal_count=148 115 92 55
is_linear=0
shrinkage=0.05


Tree=142
num_leaves=5
num_cat=0
split_feature=28 15 15 9
split_gain=1.01875 1.06187 1.15748 0.858752
threshold=-2.4999999999999996 -0.78574731945991505 -0.29696027934551233 14.500000000000002
decision_type=2 2 2 2
left_child=-1 -2 -3 -4
right_child=1 2 3 -5
leaf_value=-0.0081543859094381343 -0.0059590423665940766 0.01378901728715461 0.0065605286840924662 -0.0052639329739447155
leaf_weight=30 30 26 34 28
leaf_count=30 30 26 34 28
internal_value=7.28341e-05 0.0021645 0.00493389 0.00122045
internal_weight=148 118 88 62
internal_count=148 118 88 62
is_linear=0
shrinkage=0.05


Tree=143
num_leaves=6
num_cat=0
split_feature=21 28 25 11 11
split_gain=0.978802 1.72367 1.00776 0.702827 0.348527
threshold=1.5000000000000002 1.0000000180025095e-35 3.6190476417541508 23.500000000000004 34.500000000000007
decision_type=2 2 2 2 2
left_child=-1 3 -3 -2 -5
right_child=1 2 -4 4 -6
leaf_value=-0.0075214503749245504 0.0036741281577027021 0.0021283555924892427 0.016325239434838296 -0.011598131876616251 -0.0023754913196899
leaf_weight=33 24 25 25 21 20
leaf_count=33 24 25 25 21 20
internal_value=6.91925e-05 0.00224738 0.0092268 -0.00312141 -0.00709928
internal_weight=148 115 50 65 41
internal_count=148 115 50 65 41
is_linear=0
shrinkage=0.05


end of trees

feature_importances:
quantity_used_diff=172
quantity_lag_1=120
quantity_rolling_mean_7=49
quantity_rolling_mean_30=29
lead_time_days=27
day_of_month=27
quantity_rolling_mean_14=23
quantity_lag_5=19
quantity_lag_3=17
quantity_lag_7=17
week_of_year=16
day_of_week=13
week_sin=12
region=11
week_cos=11
quantity_lag_14=11
month_cos=10
quantity_lag_30=10
late_delivery_risk=9
shipping_mode=9
day_of_week_cos=7
month=5
day_of_week_sin=3

parameters:
[boosting: gbdt]
[objective: regression]
[metric: rmse]
[tree_learner: serial]
[device_type: cpu]
[data_sample_strategy: bagging]
[data: ]
[valid: ]
[num_iterations: 500]
[learning_rate: 0.05]
[num_leaves: 31]
[num_threads: 0]
[seed: 42]
[deterministic: 0]
[force_col_wise: 0]
[force_row_wise: 0]
[histogram_pool_size: -1]
[max_depth: -1]
[min_data_in_leaf: 20]
[min_sum_hessian_in_leaf: 0.001]
[bagging_fraction: 0.8]
[pos_bagging_fraction: 1]
[neg_bagging_fraction: 1]
[bagging_freq: 5]
[bagging_seed: 400]
[bagging_by_query: 0]
[feature_fraction: 0.9]
[feature_fraction_bynode: 1]
[feature_fraction_seed: 30056]
[extra_trees: 0]
[extra_seed: 12879]
[early_stopping_round: 0]
[early_stopping_min_delta: 0]
[first_metric_only: 0]
[max_delta_step: 0]
[lambda_l1: 0]
[lambda_l2: 0]
[linear_lambda: 0]
[min_gain_to_split: 0]
[drop_rate: 0.1]
[max_drop: 50]
[skip_drop: 0.5]
[xgboost_dart_mode: 0]
[uniform_drop: 0]
[drop_seed: 17869]
[top_rate: 0.2]
[other_rate: 0.1]
[min_data_per_group: 100]
[max_cat_threshold: 32]
[cat_l2: 10]
[cat_smooth: 10]
[max_cat_to_onehot: 4]
[top_k: 20]
[monotone_constraints: ]
[monotone_constraints_method: basic]
[monotone_penalty: 0]
[feature_contri: ]
[forcedsplits_filename: ]
[refit_decay_rate: 0.9]
[cegb_tradeoff: 1]
[cegb_penalty_split: 0]
[cegb_penalty_feature_lazy: ]
[cegb_penalty_feature_coupled: ]
[path_smooth: 0]
[interaction_constraints: ]
[verbosity: -1]
[saved_feature_importance_type: 0]
[use_quantized_grad: 0]
[num_grad_quant_bins: 4]
[quant_train_renew_leaf: 0]
[stochastic_rounding: 1]
[linear_tree: 0]
[max_bin: 255]
[max_bin_by_feature: ]
[min_data_in_bin: 3]
[bin_construct_sample_cnt: 200000]
[data_random_seed: 175]
[is_enable_sparse: 1]
[enable_bundle: 1]
[use_missing: 1]
[zero_as_missing: 0]
[feature_pre_filter: 1]
[pre_partition: 0]
[two_round: 0]
[header: 0]
[label_column: ]
[weight_column: ]
[group_column: ]
[ignore_column: ]
[categorical_feature: ]
[forcedbins_filename: ]
[precise_float_parser: 0]
[parser_config_file: ]
[objective_seed: 16083]
[num_class: 1]
[is_unbalance: 0]
[scale_pos_weight: 1]
[sigmoid: 1]
[boost_from_average: 1]
[reg_sqrt: 0]
[alpha: 0.9]
[fair_c: 1]
[poisson_max_delta_step: 0.7]
[tweedie_variance_power: 1.5]
[lambdarank_truncation_level: 30]
[lambdarank_norm: 1]
[label_gain: ]
[lambdarank_position_bias_regularization: 0]
[eval_at: ]
[multi_error_top_k: 1]
[auc_mu_weights: ]
[num_machines: 1]
[local_listen_port: 12400]
[time_out: 120]
[machine_list_filename: ]
[machines: ]
[gpu_platform_id: -1]
[gpu_device_id: -1]
[gpu_use_dp: 0]
[num_gpu: 1]

end of parameters

pandas_categorical:null
