tree
version=v4
num_class=1
num_tree_per_iteration=1
label_index=0
max_feature_idx=29
objective=regression
feature_names=material region unit_price lead_time_days late_delivery_risk shipping_mode day_of_week month is_weekend day_of_month quarter week_of_year month_sin month_cos week_sin week_cos day_of_week_sin day_of_week_cos quantity_lag_1 quantity_lag_3 quantity_lag_5 quantity_lag_7 quantity_lag_14 quantity_lag_30 price_lag_7 quantity_rolling_mean_7 quantity_rolling_mean_14 quantity_rolling_mean_30 quantity_used_diff unit_price_diff
feature_infos=none [1:22] none [0:6] [0:1] [0:3] [0:6] [1:12] [0:1] [1:31] [1:4] [1:53] [-1:1] [-1:1] [-1:1] [-1:1] [-0.97492790222167969:0.97492790222167969] [-0.90096884965896606:1] [0:14] [0:14] [0:14] [0:14] [0:14] [0:14] none [2:6.4285712242126465] [2:5] [2:4.5] [-10:13] none
tree_sizes=546 572 569 575 570 570 659 575 581 580 572 574 573 659 572 654 654 577 654 654 662 575 660 579 661 572 574 572 572 576 659 659 658 662 653 573 576 574 574 574 655 653 655 661 572 577 576 577 574 575 491 575 572 575 573 573 570 570 573 571 574 652 580 576 578 580 666 573 576 577 574 574 572 572 574 662 575 658 661 657 576 663 661 665 662 657 578 570 656 656 578 657 579 574 577 574 578 578 579 573 659 580 576 581 578 658 657 661 661 578 574 581 578 580 663 670 657 667 661 666 670 582 659 665 577 661 583 747 662 590 580 579 661 583 578 750 661 662 659 659 574 579 575 583 580 582 667 583

Tree=0
num_leaves=5
num_cat=0
split_feature=28 26 28 28
split_gain=173.321 44.6811 25.6267 13.1178
threshold=1.5000000000000002 3.3928571939468388 -1.0000000180025095e-35 -1.4999999999999998
decision_type=2 2 2 2
left_child=1 3 -3 -1
right_child=-2 2 -4 -5
leaf_value=3.3895391080957218 3.5837057740504439 3.4530391071122453 3.5253724403859739 3.4429650338064088
leaf_weight=20 36 25 24 27
leaf_count=20 36 25 24 27
internal_value=3.49015 3.45506 3.48847 3.42023
internal_weight=132 96 49 47
internal_count=132 96 49 47
is_linear=0
shrinkage=1


Tree=1
num_leaves=5
num_cat=0
split_feature=28 28 18 18
split_gain=157.791 53.103 81.2104 18.384
threshold=2.5000000000000004 -1.0000000180025095e-35 2.5000000000000004 4.5000000000000009
decision_type=2 2 2 2
left_child=1 3 -3 -1
right_child=-2 2 -4 -5
leaf_value=-0.090712766562189379 0.11456471085548402 -0.054625960963743704 0.066907635224717002 -0.031722658395767211
leaf_weight=28 24 27 28 25
leaf_count=28 24 27 28 25
internal_value=-0.0014012 -0.0271714 0.00724569 -0.0628872
internal_weight=132 108 55 53
internal_count=132 108 55 53
is_linear=0
shrinkage=0.05


Tree=2
num_leaves=5
num_cat=0
split_feature=28 18 28 27
split_gain=143.827 39.3447 71.3891 4.9182
threshold=1.5000000000000002 3.5000000000000004 -1.4999999999999998 3.4058823585510258
decision_type=2 2 2 2
left_child=1 3 -3 -1
right_child=-2 2 -4 -5
leaf_value=-0.087265775246279584 0.083897800950540447 -0.055777273255009807 0.059085886180400851 -0.052620779648423203
leaf_weight=21 36 31 24 20
leaf_count=21 36 31 24 20
internal_value=-0.00133114 -0.033292 -0.00565517 -0.0703658
internal_weight=132 96 55 41
internal_count=132 96 55 41
is_linear=0
shrinkage=0.05


Tree=3
num_leaves=5
num_cat=0
split_feature=28 28 18 18
split_gain=131.602 43.9519 69.4604 15.9472
threshold=2.5000000000000004 -1.0000000180025095e-35 2.5000000000000004 4.5000000000000009
decision_type=2 2 2 2
left_child=1 3 -3 -1
right_child=-2 2 -4 -5
leaf_value=-0.083208150948796966 0.10464158436904353 -0.050708705352412335 0.061689453359161109 -0.028266567051410674
leaf_weight=28 24 27 28 25
leaf_count=28 24 27 28 25
internal_value=-0.00126458 -0.0247993 0.00651218 -0.0572923
internal_weight=132 108 55 53
internal_count=132 108 55 53
is_linear=0
shrinkage=0.05


Tree=4
num_leaves=5
num_cat=0
split_feature=28 18 28 27
split_gain=119.344 33.4524 59.7569 4.02215
threshold=1.5000000000000002 3.5000000000000004 -1.4999999999999998 3.4058823585510258
decision_type=2 2 2 2
left_child=1 3 -3 -1
right_child=-2 2 -4 -5
leaf_value=-0.079783488242399128 0.076435568556189548 -0.050688925962294309 0.054400493515034523 -0.04845303989946842
leaf_weight=21 36 31 24 20
leaf_count=21 36 31 24 20
internal_value=-0.00120135 -0.0303152 -0.00483172 -0.0645003
internal_weight=132 96 55 41
internal_count=132 96 55 41
is_linear=0
shrinkage=0.05


Tree=5
num_leaves=5
num_cat=0
split_feature=28 18 18 26
split_gain=78.1009 46.2774 35.127 4.56805
threshold=1.0000000180025095e-35 4.5000000000000009 1.5000000000000002 3.3928571939468388
decision_type=2 2 2 2
left_child=1 3 -2 -1
right_child=2 -3 -4 -5
leaf_value=-0.08288651412973802 -0.0084093925587478136 0.0066260028917055867 0.072961167308191452 -0.050531544759869575
leaf_weight=24 21 39 36 20
leaf_count=24 21 39 36 20
internal_value=-0.00208206 -0.03303 0.0429825 -0.0681797
internal_weight=140 83 57 44
internal_count=140 83 57 44
is_linear=0
shrinkage=0.05


Tree=6
num_leaves=6
num_cat=0
split_feature=25 20 17 25 27
split_gain=49.8641 14.5896 10.9079 2.65931 0.184173
threshold=3.7857142686843877 3.5000000000000004 1.0000000180025095e-35 3.3095238208770756 3.4366667270660405
decision_type=2 2 2 2 2
left_child=1 2 4 -3 -1
right_child=-2 3 -4 -5 -6
leaf_value=-0.017251618765294553 0.047809252948374362 -0.056371214687824245 0.022568796874712346 -0.030586965624243026 -0.024037134274840357
leaf_weight=20 37 20 23 20 20
leaf_count=20 37 20 23 20 20
internal_value=-0.00197796 -0.0198627 -0.00486814 -0.0434791 -0.0206444
internal_weight=140 103 63 40 40
internal_count=140 103 63 40 40
is_linear=0
shrinkage=0.05


Tree=7
num_leaves=5
num_cat=0
split_feature=28 28 18 18
split_gain=74.2724 33.529 63.2305 12.8091
threshold=2.5000000000000004 -1.0000000180025095e-35 2.5000000000000004 4.5000000000000009
decision_type=2 2 2 2
left_child=1 3 -3 -1
right_child=-2 2 -4 -5
leaf_value=-0.071511477690476638 0.087327231978997596 -0.047183252746860194 0.050497522064157432 -0.022341673655642404
leaf_weight=26 20 30 37 27
leaf_count=26 20 30 37 27
internal_value=-0.00187906 -0.0167468 0.00675986 -0.0464627
internal_weight=140 120 67 53
internal_count=140 120 67 53
is_linear=0
shrinkage=0.05


Tree=8
num_leaves=5
num_cat=0
split_feature=28 18 28 28
split_gain=67.0309 30.9473 57.6661 23.0313
threshold=2.5000000000000004 3.5000000000000004 -1.0000000180025095e-35 1.0000000180025095e-35
decision_type=2 2 2 2
left_child=1 3 -3 -1
right_child=-2 2 -4 -5
leaf_value=-0.073994059655173069 0.082960868985392164 -0.031416381993576097 0.065220287212958708 -0.0098225726297608146
leaf_weight=29 20 38 26 27
leaf_count=29 20 38 26 27
internal_value=-0.00178511 -0.0159094 0.00784226 -0.0430542
internal_weight=140 120 64 56
internal_count=140 120 64 56
is_linear=0
shrinkage=0.05


Tree=9
num_leaves=5
num_cat=0
split_feature=28 18 28 28
split_gain=60.4954 27.9299 52.0437 20.7857
threshold=2.5000000000000004 3.5000000000000004 -1.0000000180025095e-35 1.0000000180025095e-35
decision_type=2 2 2 2
left_child=1 3 -3 -1
right_child=-2 2 -4 -5
leaf_value=-0.070294357065496776 0.078812826722860344 -0.029845563322305681 0.061959273626024908 -0.0093314437954514131
leaf_weight=29 20 38 26 27
leaf_count=29 20 38 26 27
internal_value=-0.00169585 -0.015114 0.00745015 -0.0409015
internal_weight=140 120 64 56
internal_count=140 120 64 56
is_linear=0
shrinkage=0.05


Tree=10
num_leaves=5
num_cat=0
split_feature=28 28 18 18
split_gain=91.1228 36.7701 35.1695 9.37736
threshold=2.5000000000000004 -1.0000000180025095e-35 3.5000000000000004 4.5000000000000009
decision_type=2 2 2 2
left_child=1 3 -3 -1
right_child=-2 2 -4 -5
leaf_value=-0.0646733156207836 0.084968027114868172 -0.023275710377962361 0.06052822020082247 -0.025701534876535682
leaf_weight=33 25 31 21 29
leaf_count=33 25 31 21 29
internal_value=-0.0014807 -0.0204388 0.0105682 -0.0464446
internal_weight=139 114 52 62
internal_count=139 114 52 62
is_linear=0
shrinkage=0.05


Tree=11
num_leaves=5
num_cat=0
split_feature=28 28 18 18
split_gain=82.2383 33.185 31.7405 8.46307
threshold=2.5000000000000004 -1.0000000180025095e-35 3.5000000000000004 4.5000000000000009
decision_type=2 2 2 2
left_child=1 3 -3 -1
right_child=-2 2 -4 -5
leaf_value=-0.061439649151130163 0.080719626724720009 -0.02211192447331644 0.057501807803332451 -0.024416457283599625
leaf_weight=33 25 31 21 29
leaf_count=33 25 31 21 29
internal_value=-0.00140667 -0.0194168 0.0100398 -0.0441223
internal_weight=139 114 52 62
internal_count=139 114 52 62
is_linear=0
shrinkage=0.05


Tree=12
num_leaves=5
num_cat=0
split_feature=28 28 18 13
split_gain=74.3703 25.165 32.3945 3.16025
threshold=1.5000000000000002 -1.4999999999999998 3.5000000000000004 0.25000000000000011
decision_type=2 2 2 2
left_child=1 3 -3 -1
right_child=-2 2 -4 -5
leaf_value=-0.066151344935808862 0.061707853972911834 -0.034053601622581482 0.038839395965139079 -0.038720698299862091
leaf_weight=21 35 35 27 21
leaf_count=21 35 35 27 21
internal_value=-0.00133633 -0.0225531 -0.00230988 -0.052436
internal_weight=139 104 62 42
internal_count=139 104 62 42
is_linear=0
shrinkage=0.05


Tree=13
num_leaves=6
num_cat=0
split_feature=28 28 18 28 13
split_gain=68.3439 27.4539 35.2338 9.1649 2.85213
threshold=2.5000000000000004 -1.4999999999999998 3.5000000000000004 1.0000000180025095e-35 0.25000000000000011
decision_type=2 2 2 2 2
left_child=1 4 3 -3 -1
right_child=-2 2 -4 -5 -6
leaf_value=-0.062843779784799117 0.073598251104354862 -0.049197132172791855 0.043643566265959166 -0.0029175647720694545 -0.03678466436408815
leaf_weight=21 25 23 29 20 21
leaf_count=21 25 23 29 20 21
internal_value=-0.00126952 -0.0176879 0.00105247 -0.0276718 -0.0498142
internal_weight=139 114 72 43 42
internal_count=139 114 72 43 42
is_linear=0
shrinkage=0.05


Tree=14
num_leaves=5
num_cat=0
split_feature=25 27 19 6
split_gain=47.1723 6.53817 6.02016 5.87569
threshold=4.2142856121063241 3.5954544544219975 4.5000000000000009 2.5000000000000004
decision_type=2 2 2 2
left_child=1 2 3 -1
right_child=-2 -3 -4 -5
leaf_value=0.020262919144239278 0.065965854207223104 -0.037731557517595916 -0.024051037990203541 -0.011872677984788563
leaf_weight=25 22 23 36 33
leaf_count=25 22 23 36 33
internal_value=-0.00120604 -0.0138367 -0.00799003 0.00197887
internal_weight=139 117 94 58
internal_count=139 117 94 58
is_linear=0
shrinkage=0.05


Tree=15
num_leaves=6
num_cat=0
split_feature=28 28 18 18 28
split_gain=60.2636 22.2909 28.3652 8.97859 3.20483
threshold=2.5000000000000004 -1.4999999999999998 2.5000000000000004 4.5000000000000009 -2.4999999999999996
decision_type=2 2 2 2 2
left_child=1 4 -3 -4 -1
right_child=-2 2 3 -5 -6
leaf_value=-0.058105018516071139 0.073319427793224659 -0.03904038400256208 0.0071525474502281711 0.049608645886182787 -0.029799394430592659
leaf_weight=20 24 28 33 20 20
leaf_count=20 24 28 33 20 20
internal_value=0.000942443 -0.0134133 0.00166761 0.0231737 -0.0439522
internal_weight=145 121 81 53 40
internal_count=145 121 81 53 40
is_linear=0
shrinkage=0.05


Tree=16
num_leaves=6
num_cat=0
split_feature=28 28 18 18 28
split_gain=54.3879 20.1175 25.5996 8.10318 2.89236
threshold=2.5000000000000004 -1.4999999999999998 2.5000000000000004 4.5000000000000009 -2.4999999999999996
decision_type=2 2 2 2 2
left_child=1 4 -3 -4 -1
right_child=-2 2 3 -5 -6
leaf_value=-0.055199767239391809 0.069653456564992666 -0.037088364668722666 0.0067949201516581308 0.047128214389085772 -0.028309425353072584
leaf_weight=20 24 28 33 20 20
leaf_count=20 24 28 33 20 20
internal_value=0.000895321 -0.0127427 0.00158423 0.022015 -0.0417546
internal_weight=145 121 81 53 40
internal_count=145 121 81 53 40
is_linear=0
shrinkage=0.05


Tree=17
num_leaves=5
num_cat=0
split_feature=28 26 25 28
split_gain=51.2595 19.4359 11.0728 8.92237
threshold=1.0000000180025095e-35 3.5357142686843877 3.3095238208770756 -1.0000000180025095e-35
decision_type=2 2 2 2
left_child=2 -2 -1 -4
right_child=1 -3 3 -5
leaf_value=-0.047670336470248237 0.016191629368143206 0.076816518753767021 -0.025526840729372842 0.016337320692837238
leaf_weight=31 39 20 35 20
leaf_count=31 39 20 35 20
internal_value=0.000850555 0.0367424 -0.0237729 -0.0103035
internal_weight=145 59 86 55
internal_count=145 59 86 55
is_linear=0
shrinkage=0.05


Tree=18
num_leaves=6
num_cat=0
split_feature=28 28 18 18 28
split_gain=46.6349 16.3848 23.2002 7.39084 2.65581
threshold=2.5000000000000004 -1.4999999999999998 2.5000000000000004 4.5000000000000009 -2.4999999999999996
decision_type=2 2 2 2 2
left_child=1 4 -3 -4 -1
right_child=-2 2 3 -5 -6
leaf_value=-0.050886643445119263 0.064477089171608298 -0.035706529535985153 0.0060230752058101425 0.044542783498764039 -0.025119383018463851
leaf_weight=20 24 28 33 20 20
leaf_count=20 24 28 33 20 20
internal_value=0.000808027 -0.0118205 0.00110907 0.0205588 -0.038003
internal_weight=145 121 81 53 40
internal_count=145 121 81 53 40
is_linear=0
shrinkage=0.05


Tree=19
num_leaves=6
num_cat=0
split_feature=28 25 18 3 26
split_gain=43.9089 17.8018 16.5418 10.7817 1.40924
threshold=1.0000000180025095e-35 3.4642857313156132 4.5000000000000009 3.6000000238418584 3.2967033386230473
decision_type=2 2 2 2 2
left_child=2 -2 4 -4 -1
right_child=1 -3 3 -5 -6
leaf_value=-0.053625534306324663 0.010435679341282915 0.066015695951879033 0.021996587049216032 -0.027710691010870505 -0.035307990990224337
leaf_weight=21 34 25 24 20 21
leaf_count=21 34 25 24 20 21
internal_value=0.000767626 0.0339865 -0.0220221 -0.00059763 -0.0444668
internal_weight=145 59 86 44 42
internal_count=145 59 86 44 42
is_linear=0
shrinkage=0.05


Tree=20
num_leaves=6
num_cat=0
split_feature=28 28 18 28 26
split_gain=38.1283 13.4745 18.5122 5.94707 3.04191
threshold=2.5000000000000004 -1.4999999999999998 3.5000000000000004 1.0000000180025095e-35 3.3928571939468388
decision_type=2 2 2 2 2
left_child=1 4 3 -3 -1
right_child=-2 2 -4 -5 -6
leaf_value=-0.048775430507957934 0.055779016204178335 -0.038557654974812811 0.030240877309153161 -0.0021952514253232793 -0.022113095264395942
leaf_weight=20 25 22 31 23 23
leaf_count=20 25 22 31 23 23
internal_value=-0.000353655 -0.0121462 0.000509316 -0.0199724 -0.0345142
internal_weight=144 119 76 45 43
internal_count=144 119 76 45 43
is_linear=0
shrinkage=0.05


Tree=21
num_leaves=5
num_cat=0
split_feature=25 28 18 28
split_gain=35.4035 17.5467 14.4388 8.96812
threshold=4.0714285373687753 -1.4999999999999998 1.5000000000000002 1.0000000180025095e-35
decision_type=2 2 2 2
left_child=1 -1 -3 -4
right_child=-2 2 3 -5
leaf_value=-0.03973075476916213 0.053753856740891941 -0.0310819488329192 -0.0030137841169151566 0.036805241458261244
leaf_weight=38 25 24 31 26
leaf_count=38 25 24 31 26
internal_value=-0.000335973 -0.0116994 0.00145114 0.0151493
internal_weight=144 119 81 57
internal_count=144 119 81 57
is_linear=0
shrinkage=0.05


Tree=22
num_leaves=6
num_cat=0
split_feature=28 18 28 28 26
split_gain=33.5098 11.311 13.6592 11.6169 0.913416
threshold=2.5000000000000004 4.5000000000000009 -1.4999999999999998 1.0000000180025095e-35 3.3928571939468388
decision_type=2 2 2 2 2
left_child=1 3 -3 4 -1
right_child=-2 2 -4 -5 -6
leaf_value=-0.045234226819593465 0.052304164260625841 -0.016245707618072629 0.039191897064447402 0.0027421836844748922 -0.031290344618584799
leaf_weight=24 25 25 20 27 23
leaf_count=24 25 25 20 27 23
internal_value=-0.000319174 -0.0113745 0.00839323 -0.0233954 -0.0384106
internal_weight=144 119 45 74 47
internal_count=144 119 45 74 47
is_linear=0
shrinkage=0.05


Tree=23
num_leaves=5
num_cat=0
split_feature=25 28 18 28
split_gain=31.0529 14.4182 13.3062 7.47783
threshold=4.0714285373687753 -1.4999999999999998 1.5000000000000002 1.0000000180025095e-35
decision_type=2 2 2 2
left_child=1 -1 -3 -4
right_child=-2 2 3 -5
leaf_value=-0.036355444896770152 0.050354220045730473 -0.030255847300092384 -0.0024603390255041662 0.033899971531130946
leaf_weight=38 25 24 31 26
leaf_count=38 25 24 31 26
internal_value=-0.000303215 -0.0109455 0.000975166 0.0141251
internal_weight=144 119 81 57
internal_count=144 119 81 57
is_linear=0
shrinkage=0.05


Tree=24
num_leaves=6
num_cat=0
split_feature=28 18 28 28 26
split_gain=29.4918 10.1922 11.4799 9.78526 0.700892
threshold=2.5000000000000004 4.5000000000000009 -1.4999999999999998 1.0000000180025095e-35 3.3928571939468388
decision_type=2 2 2 2 2
left_child=1 3 -3 4 -1
right_child=-2 2 -4 -5 -6
leaf_value=-0.041828398899330453 0.049079623004421591 -0.014482747346162797 0.036340163424611098 0.0019183979542167101 -0.029613921418786049
leaf_weight=24 25 25 20 27 23
leaf_count=24 25 25 20 27 23
internal_value=-0.000288055 -0.0106594 0.00810521 -0.0220703 -0.0358511
internal_weight=144 119 45 74 47
internal_count=144 119 45 74 47
is_linear=0
shrinkage=0.05


Tree=25
num_leaves=5
num_cat=0
split_feature=28 18 28 9
split_gain=33.6614 11.7874 9.48513 1.25958
threshold=2.5000000000000004 4.5000000000000009 1.0000000180025095e-35 22.500000000000004
decision_type=2 2 2 2
left_child=1 2 -1 -3
right_child=-2 3 -4 -5
leaf_value=-0.03432450042785825 0.063237485685385772 0.025902712568640709 0.002849590068217367 0.0081574622262269268
leaf_weight=37 22 20 32 20
leaf_count=37 22 20 32 20
internal_value=0.00682144 -0.00456529 -0.0170843 0.0170301
internal_weight=131 109 69 40
internal_count=131 109 69 40
is_linear=0
shrinkage=0.05


Tree=26
num_leaves=5
num_cat=0
split_feature=25 20 28 11
split_gain=33.5574 10.9237 7.04689 1.24998
threshold=3.7857142686843877 3.5000000000000004 1.0000000180025095e-35 28.500000000000004
decision_type=2 2 2 2
left_child=1 2 -1 -3
right_child=-2 3 -4 -5
leaf_value=-0.012984198164821676 0.046816255013785654 -0.037721672784537079 0.023485991814070281 -0.020255833261069799
leaf_weight=26 37 20 27 21
leaf_count=26 37 20 27 21
internal_value=0.00648037 -0.00939652 0.00559496 -0.0287758
internal_weight=131 94 53 41
internal_count=131 94 53 41
is_linear=0
shrinkage=0.05


Tree=27
num_leaves=5
num_cat=0
split_feature=25 20 28 25
split_gain=30.2856 9.85862 6.35981 1.14825
threshold=3.7857142686843877 3.5000000000000004 1.0000000180025095e-35 3.3095238208770756
decision_type=2 2 2 2
left_child=1 2 -1 -3
right_child=-2 3 -4 -5
leaf_value=-0.012334987474605442 0.044475441549376056 -0.035502822266980295 0.022311691870843923 -0.018762818910181524
leaf_weight=26 37 21 27 20
leaf_count=26 37 21 27 20
internal_value=0.00615635 -0.0089267 0.00531521 -0.027337
internal_weight=131 94 53 41
internal_count=131 94 53 41
is_linear=0
shrinkage=0.05


Tree=28
num_leaves=5
num_cat=0
split_feature=28 18 28 9
split_gain=28.9916 10.1037 7.26724 1.1941
threshold=2.5000000000000004 4.5000000000000009 1.0000000180025095e-35 22.500000000000004
decision_type=2 2 2 2
left_child=1 2 -1 -3
right_child=-2 3 -4 -5
leaf_value=-0.031399890445676204 0.05820527825165879 0.023913626242429018 0.0011390456609660759 0.0066357693448662759
leaf_weight=37 22 20 32 20
leaf_count=37 22 20 32 20
internal_value=0.00584853 -0.00471889 -0.0163094 0.0152747
internal_weight=131 109 69 40
internal_count=131 109 69 40
is_linear=0
shrinkage=0.05


Tree=29
num_leaves=5
num_cat=0
split_feature=25 28 19 6
split_gain=26.6321 7.91711 6.4404 1.29936
threshold=3.7857142686843877 1.0000000180025095e-35 2.5000000000000004 3.5000000000000004
decision_type=2 2 2 2
left_child=1 2 -1 -3
right_child=-2 3 -4 -5
leaf_value=-0.00066078755665909157 0.041489639256552267 0.017031117575243115 -0.036033819148677496 -0.00077635744763981734
leaf_weight=22 37 20 31 21
leaf_count=22 37 20 31 21
internal_value=0.00555611 -0.00858795 -0.0213507 0.00791022
internal_weight=131 94 53 41
internal_count=131 94 53 41
is_linear=0
shrinkage=0.05


Tree=30
num_leaves=6
num_cat=0
split_feature=28 18 3 28 14
split_gain=12.0151 6.20056 10.7112 3.14377 0.917092
threshold=1.5000000000000002 4.5000000000000009 3.1499999761581425 1.0000000180025095e-35 0.40966403484344488
decision_type=2 2 2 2 2
left_child=1 3 -3 4 -1
right_child=-2 2 -4 -5 -6
leaf_value=-0.023098253025470871 0.01973063982664966 0.026274775578217075 -0.024282826967537405 -0.0060877725179307165 -0.037550298160030728
leaf_weight=23 39 22 20 20 21
leaf_count=23 39 22 20 20 21
internal_value=-0.00399785 -0.0127281 0.00219973 -0.0225246 -0.0299958
internal_weight=145 106 42 64 44
internal_count=145 106 42 64 44
is_linear=0
shrinkage=0.05


Tree=31
num_leaves=6
num_cat=0
split_feature=26 20 17 14 27
split_gain=8.04074 7.59112 5.35526 2.07163 0.733352
threshold=3.154761910438538 3.5000000000000004 1.0000000180025095e-35 -0.5163939595222472 3.303846120834351
decision_type=2 2 2 2 2
left_child=4 2 -2 -3 -1
right_child=1 3 -4 -5 -6
leaf_value=-0.029076327064207624 0.0037085584522393565 0.0033652333449572325 0.036862618493891899 -0.016914807057336851 -0.015698258616030216
leaf_weight=21 29 20 21 34 20
leaf_count=21 29 20 21 34 20
internal_value=-0.00379796 0.00359485 0.0176333 -0.00940368 -0.0225504
internal_weight=145 104 50 54 41
internal_count=145 104 50 54 41
is_linear=0
shrinkage=0.05


Tree=32
num_leaves=6
num_cat=0
split_feature=18 28 28 18 28
split_gain=11.452 22.2869 6.10394 6.7083 2.88821
threshold=1.5000000000000002 1.5000000000000002 -2.4999999999999996 4.5000000000000009 -1.0000000180025095e-35
decision_type=2 2 2 2 2
left_child=-1 2 -2 4 -4
right_child=1 -3 3 -5 -6
leaf_value=-0.0329835480010068 -0.030665253712372349 0.047275775743891364 -0.02434652175187417 0.020381403903476897 0.0002045994680374861
leaf_weight=27 22 23 23 25 25
leaf_count=27 22 23 23 25 25
internal_value=-0.00360806 0.00311345 -0.00757848 -0.000620821 -0.0115595
internal_weight=145 118 95 73 48
internal_count=145 118 95 73 48
is_linear=0
shrinkage=0.05


Tree=33
num_leaves=6
num_cat=0
split_feature=18 28 28 18 28
split_gain=10.3354 20.1139 5.5088 6.05424 2.60661
threshold=1.5000000000000002 1.5000000000000002 -2.4999999999999996 4.5000000000000009 -1.0000000180025095e-35
decision_type=2 2 2 2 2
left_child=-1 2 -2 4 -4
right_child=1 -3 3 -5 -6
leaf_value=-0.031334370478159852 -0.029131991856477482 0.044911987374982115 -0.023129196009477198 0.019362333938479425 0.00019436950236558913
leaf_weight=27 22 23 23 25 25
leaf_count=27 22 23 23 25 25
internal_value=-0.00342766 0.00295778 -0.00719956 -0.00058978 -0.0109815
internal_weight=145 118 95 73 48
internal_count=145 118 95 73 48
is_linear=0
shrinkage=0.05


Tree=34
num_leaves=6
num_cat=0
split_feature=6 26 22 12 9
split_gain=6.8355 3.89663 4.42084 3.80287 1.44201
threshold=5.5000000000000009 3.154761910438538 1.5000000000000002 -0.68301269412040699 18.500000000000004
decision_type=2 2 2 2 2
left_child=1 -1 -3 -4 -5
right_child=-2 2 3 4 -6
leaf_value=-0.021781143359839918 0.021746440701510595 0.017146894532594492 0.0092428974155336612 -0.00878919285023585 -0.026967776026576757
leaf_weight=36 23 22 20 24 20
leaf_count=36 23 22 20 24 20
internal_value=-0.00325627 -0.0079699 -0.00218845 -0.00883497 -0.0170522
internal_weight=145 122 86 64 44
internal_count=145 122 86 64 44
is_linear=0
shrinkage=0.05


Tree=35
num_leaves=5
num_cat=0
split_feature=28 26 19 20
split_gain=8.34487 6.53213 5.63529 3.75875
threshold=-1.0000000180025095e-35 3.154761910438538 2.5000000000000004 3.5000000000000004
decision_type=2 2 2 2
left_child=2 -2 -1 -3
right_child=1 3 -4 -5
leaf_value=0.0047031925851479181 -0.011891082276044221 0.029469083626754586 -0.02794106754545982 0.0039968892033877121
leaf_weight=20 29 30 39 28
leaf_count=20 29 30 39 28
internal_value=-0.00235955 0.00748441 -0.0168752 0.0171722
internal_weight=146 87 59 58
internal_count=146 87 59 58
is_linear=0
shrinkage=0.05


Tree=36
num_leaves=5
num_cat=0
split_feature=18 28 19 18
split_gain=10.0483 18.7938 5.08585 4.47891
threshold=1.5000000000000002 -1.0000000180025095e-35 2.5000000000000004 3.5000000000000004
decision_type=2 2 2 2
left_child=-1 2 -2 -3
right_child=1 3 -4 -5
leaf_value=-0.029779456900777643 0.0044680326431989674 0.011764388988890193 -0.026544014588953592 0.039332420679812248
leaf_weight=27 20 34 39 26
leaf_count=27 20 34 39 26
internal_value=-0.00224157 0.00400652 -0.0160315 0.0237105
internal_weight=146 119 59 60
internal_count=146 119 59 60
is_linear=0
shrinkage=0.05


Tree=37
num_leaves=5
num_cat=0
split_feature=18 28 19 18
split_gain=9.06856 16.9614 4.58998 4.04222
threshold=1.5000000000000002 -1.0000000180025095e-35 2.5000000000000004 3.5000000000000004
decision_type=2 2 2 2
left_child=-1 2 -2 -3
right_child=1 3 -4 -5
leaf_value=-0.028290484321338162 0.0042446313658729201 0.011176169378792539 -0.025216813464440071 0.037365799124997399
leaf_weight=27 20 34 39 26
leaf_count=27 20 34 39 26
internal_value=-0.00212949 0.0038062 -0.0152299 0.022525
internal_weight=146 119 59 60
internal_count=146 119 59 60
is_linear=0
shrinkage=0.05


Tree=38
num_leaves=5
num_cat=0
split_feature=18 28 19 18
split_gain=8.18437 15.3077 4.14246 3.6481
threshold=1.5000000000000002 -1.0000000180025095e-35 2.5000000000000004 3.5000000000000004
decision_type=2 2 2 2
left_child=-1 2 -2 -3
right_child=1 3 -4 -5
leaf_value=-0.02687595982656435 0.0040324001759290701 0.010617360751391115 -0.023955972834179801 0.035497509315609931
leaf_weight=27 20 34 39 26
leaf_count=27 20 34 39 26
internal_value=-0.00202302 0.00361589 -0.0144684 0.0213988
internal_weight=146 119 59 60
internal_count=146 119 59 60
is_linear=0
shrinkage=0.05


Tree=39
num_leaves=5
num_cat=0
split_feature=18 28 19 18
split_gain=7.38639 13.8152 3.73857 3.29241
threshold=1.5000000000000002 -1.0000000180025095e-35 2.5000000000000004 3.5000000000000004
decision_type=2 2 2 2
left_child=-1 2 -2 -3
right_child=1 3 -4 -5
leaf_value=-0.025532161877318112 0.0038307792297564446 0.010086492809247883 -0.02275817441270472 0.033722633648162276
leaf_weight=27 20 34 39 26
leaf_count=27 20 34 39 26
internal_value=-0.00192187 0.00343509 -0.013745 0.0203288
internal_weight=146 119 59 60
internal_count=146 119 59 60
is_linear=0
shrinkage=0.05


Tree=40
num_leaves=6
num_cat=0
split_feature=28 18 28 19 9
split_gain=20.6207 4.71355 6.88271 1.88128 0.791119
threshold=1.5000000000000002 3.5000000000000004 -2.4999999999999996 3.5000000000000004 17.500000000000004
decision_type=2 2 2 2 2
left_child=1 4 -3 -4 -1
right_child=-2 2 3 -5 -6
leaf_value=-0.028759887155611071 0.035984662984607417 -0.023195265618745575 0.022359468096401543 0.0017854974614456298 -0.015162790471525946
leaf_weight=20 34 22 20 25 23
leaf_count=20 34 22 20 25 23
internal_value=0.00195186 -0.00856737 -0.000275657 0.0109295 -0.021487
internal_weight=144 110 67 45 43
internal_count=144 110 67 45 43
is_linear=0
shrinkage=0.05


Tree=41
num_leaves=6
num_cat=0
split_feature=28 18 28 25 9
split_gain=18.6102 4.25398 6.21164 1.72558 0.713985
threshold=1.5000000000000002 3.5000000000000004 -2.4999999999999996 3.6428570747375493 17.500000000000004
decision_type=2 2 2 2 2
left_child=1 4 -3 -4 -1
right_child=-2 2 3 -5 -6
leaf_value=-0.027321892427280548 0.03418542911462924 -0.022035502151332119 0.020394150351851503 0.00080713689651178285 -0.014404651287781157
leaf_weight=20 34 22 22 23 23
leaf_count=20 34 22 22 23 23
internal_value=0.00185427 -0.008139 -0.000261874 0.010383 -0.0204127
internal_weight=144 110 67 45 43
internal_count=144 110 67 45 43
is_linear=0
shrinkage=0.05


Tree=42
num_leaves=6
num_cat=0
split_feature=28 18 28 19 9
split_gain=16.7957 3.83921 5.60601 1.61883 0.644371
threshold=1.5000000000000002 3.5000000000000004 -2.4999999999999996 3.5000000000000004 17.500000000000004
decision_type=2 2 2 2 2
left_child=1 4 -3 -4 -1
right_child=-2 2 3 -5 -6
leaf_value=-0.02595579819579143 0.032476157815579103 -0.020933726937933404 0.020466624740511183 0.0013816476663341746 -0.013684418742828395
leaf_weight=20 34 22 20 25 23
leaf_count=20 34 22 20 25 23
internal_value=0.00176155 -0.00773205 -0.000248781 0.00986386 -0.019392
internal_weight=144 110 67 45 43
internal_count=144 110 67 45 43
is_linear=0
shrinkage=0.05


Tree=43
num_leaves=6
num_cat=0
split_feature=28 18 28 3 22
split_gain=15.1581 3.60741 2.62905 2.10787 0.610317
threshold=1.5000000000000002 4.5000000000000009 1.0000000180025095e-35 3.1499999761581425 3.5000000000000004
decision_type=2 2 2 2 2
left_child=1 2 4 -3 -1
right_child=-2 3 -4 -5 -6
leaf_value=-0.016347471475251951 0.030852350789834473 0.015197185573301145 -0.00013042327703996782 -0.0067129173032615501 -0.028065886323747694
leaf_weight=25 34 21 21 23 20
leaf_count=25 34 21 21 23 20
internal_value=0.00167347 -0.00734545 -0.0147385 0.00374418 -0.0215557
internal_weight=144 110 66 44 45
internal_count=144 110 66 44 45
is_linear=0
shrinkage=0.05


Tree=44
num_leaves=5
num_cat=0
split_feature=26 28 18 27
split_gain=14.7068 2.91916 7.1212 0.648655
threshold=3.8928571939468388 -1.4999999999999998 2.5000000000000004 3.375640988349915
decision_type=2 2 2 2
left_child=1 -1 -3 -4
right_child=-2 2 3 -5
leaf_value=-0.018000676963679695 0.033409614987864066 -0.016447930761588445 0.020144647881388665 0.0074102960637537768
leaf_weight=37 29 38 20 20
leaf_count=37 29 38 20 20
internal_value=0.0015898 -0.00643433 -0.000947724 0.0137775
internal_weight=144 115 78 40
internal_count=144 115 78 40
is_linear=0
shrinkage=0.05


Tree=45
num_leaves=5
num_cat=0
split_feature=25 18 28 3
split_gain=15.7214 6.33891 6.47469 2.18495
threshold=4.0714285373687753 1.5000000000000002 -1.0000000180025095e-35 2.7500000000000004
decision_type=2 2 2 2
left_child=1 -1 3 -3
right_child=-2 2 -4 -5
leaf_value=-0.027124147117137912 0.04020198304206133 0.00066294795168297634 0.015773068294406702 -0.020672398090495595
leaf_weight=27 22 21 39 28
leaf_count=27 22 21 39 28
internal_value=0.00147691 -0.00593137 0.000570959 -0.0115287
internal_weight=137 115 88 49
internal_count=137 115 88 49
is_linear=0
shrinkage=0.05


Tree=46
num_leaves=5
num_cat=0
split_feature=25 18 28 27
split_gain=14.1885 5.72087 5.84341 1.97451
threshold=4.0714285373687753 1.5000000000000002 -1.0000000180025095e-35 3.375640988349915
decision_type=2 2 2 2
left_child=1 -1 3 -3
right_child=-2 2 -4 -5
leaf_value=-0.025767939951684738 0.038191883301955054 -0.0018921950676788887 0.01498441477246487 -0.022071396642025898
leaf_weight=27 22 27 39 22
leaf_count=27 22 27 39 22
internal_value=0.00140306 -0.0056348 0.000542411 -0.0109522
internal_weight=137 115 88 49
internal_count=137 115 88 49
is_linear=0
shrinkage=0.05


Tree=47
num_leaves=5
num_cat=0
split_feature=25 18 28 3
split_gain=12.8051 5.16308 5.35021 2.33722
threshold=4.0714285373687753 1.5000000000000002 1.0000000180025095e-35 2.7500000000000004
decision_type=2 2 2 2
left_child=1 -1 3 -3
right_child=-2 2 -4 -5
leaf_value=-0.024479542727823614 0.036282289603894409 0.0027837076904968575 0.017657528802131613 -0.017398645932553337
leaf_weight=27 22 26 30 32
leaf_count=27 22 26 30 32
internal_value=0.00133291 -0.00535306 0.000515291 -0.00835138
internal_weight=137 115 88 58
internal_count=137 115 88 58
is_linear=0
shrinkage=0.05


Tree=48
num_leaves=5
num_cat=0
split_feature=25 18 28 9
split_gain=11.5566 4.65968 4.89591 3.76261
threshold=4.0714285373687753 1.5000000000000002 -1.4999999999999998 20.500000000000004
decision_type=2 2 2 2
left_child=1 -1 -3 -4
right_child=-2 2 3 -5
leaf_value=-0.023255565919464941 0.034468175199898803 -0.014735904014246029 -0.0018821078875560255 0.024487853911705316
leaf_weight=27 22 33 31 24
leaf_count=27 22 33 31 24
internal_value=0.00126626 -0.00508541 0.000489526 0.00962478
internal_weight=137 115 88 55
internal_count=137 115 88 55
is_linear=0
shrinkage=0.05


Tree=49
num_leaves=5
num_cat=0
split_feature=25 18 28 3
split_gain=10.4299 4.20536 4.51327 2.0528
threshold=4.0714285373687753 1.5000000000000002 1.0000000180025095e-35 2.7500000000000004
decision_type=2 2 2 2
left_child=1 -1 3 -3
right_child=-2 2 -4 -5
leaf_value=-0.022092787509232208 0.032744767368686471 0.0027569774860659473 0.016209509168596318 -0.016157571045914667
leaf_weight=27 22 26 30 32
leaf_count=27 22 26 30 32
internal_value=0.00120295 -0.00483114 0.00046505 -0.00767864
internal_weight=137 115 88 58
internal_count=137 115 88 58
is_linear=0
shrinkage=0.05


Tree=50
num_leaves=4
num_cat=0
split_feature=28 27 1
split_gain=7.37908 5.64229 1.59824
threshold=-1.4999999999999998 3.6035714149475102 13.500000000000002
decision_type=2 2 2
left_child=-1 2 -2
right_child=1 -3 -4
leaf_value=-0.021430523996241391 -0.010070611248296259 0.02398251108825207 0.0044359691632099643
leaf_weight=38 37 27 39
leaf_count=38 37 27 39
internal_value=-0.00259888 0.00434872 -0.00262644
internal_weight=141 103 76
internal_count=141 103 76
is_linear=0
shrinkage=0.05


Tree=51
num_leaves=5
num_cat=0
split_feature=28 27 18 20
split_gain=6.65962 5.09217 5.65708 1.97596
threshold=-1.4999999999999998 3.6035714149475102 2.5000000000000004 3.5000000000000004
decision_type=2 2 2 2
left_child=-1 2 -2 -4
right_child=1 -3 3 -5
leaf_value=-0.020358997844404689 -0.018066844777168821 0.022783386352023594 0.019450105935254175 -0.0020387946534901856
leaf_weight=38 33 27 23 20
leaf_count=38 33 27 23 20
internal_value=-0.00246893 0.00413128 -0.00249512 0.00945527
internal_weight=141 103 76 43
internal_count=141 103 76 43
is_linear=0
shrinkage=0.05


Tree=52
num_leaves=5
num_cat=0
split_feature=28 11 18 19
split_gain=6.0103 4.53005 7.78052 1.50238
threshold=-1.4999999999999998 37.500000000000007 2.5000000000000004 3.5000000000000004
decision_type=2 2 2 2
left_child=-1 2 -2 -4
right_child=1 -3 3 -5
leaf_value=-0.019341047799312755 -0.018153844174000705 0.022949118314621351 0.023059132639318705 0.0039109802361400351
leaf_weight=38 38 24 20 21
leaf_count=38 38 24 20 21
internal_value=-0.00234549 0.00392472 -0.00185485 0.0132515
internal_weight=141 103 79 41
internal_count=141 103 79 41
is_linear=0
shrinkage=0.05


Tree=53
num_leaves=5
num_cat=0
split_feature=28 28 18 1
split_gain=5.54403 3.20771 5.13767 1.46441
threshold=1.5000000000000002 -2.4999999999999996 4.5000000000000009 12.500000000000002
decision_type=2 2 2 2
left_child=1 -1 3 -3
right_child=-2 2 -4 -5
leaf_value=-0.026225474327802659 0.014094792274562153 -0.019306852368666142 0.013996456666953034 -0.0028716934075498062
leaf_weight=20 38 33 27 23
leaf_count=20 38 33 27 23
internal_value=-0.00222821 -0.00825029 -0.00391892 -0.0125567
internal_weight=141 103 83 56
internal_count=141 103 83 56
is_linear=0
shrinkage=0.05


Tree=54
num_leaves=5
num_cat=0
split_feature=28 28 18 1
split_gain=5.00349 2.89496 4.63674 1.32163
threshold=1.5000000000000002 -2.4999999999999996 4.5000000000000009 12.500000000000002
decision_type=2 2 2 2
left_child=1 -1 3 -3
right_child=-2 2 -4 -5
leaf_value=-0.024914201200008396 0.013390051899784195 -0.018341509749492012 0.013296634151979729 -0.002728108804591972
leaf_weight=20 38 33 27 23
leaf_count=20 38 33 27 23
internal_value=-0.0021168 -0.00783778 -0.00372298 -0.0119289
internal_weight=141 103 83 56
internal_count=141 103 83 56
is_linear=0
shrinkage=0.05


Tree=55
num_leaves=5
num_cat=0
split_feature=20 18 15 9
split_gain=5.68026 8.49383 2.90515 1.89442
threshold=3.5000000000000004 4.5000000000000009 0.40966403484344488 14.500000000000002
decision_type=2 2 2 2
left_child=1 2 -1 -2
right_child=3 -3 -4 -5
leaf_value=-0.014741786925828664 -0.0037981105918463856 0.032821689266711473 0.0093533127103000886 -0.021138869267370967
leaf_weight=29 28 22 22 36
leaf_count=29 28 22 22 36
internal_value=-0.00267889 0.00685395 -0.00434782 -0.0135523
internal_weight=137 73 51 64
internal_count=137 73 51 64
is_linear=0
shrinkage=0.05


Tree=56
num_leaves=5
num_cat=0
split_feature=6 27 18 22
split_gain=5.61757 2.31787 3.5139 1.76675
threshold=4.5000000000000009 3.4058823585510258 3.5000000000000004 3.5000000000000004
decision_type=2 2 2 2
left_child=1 2 -1 -3
right_child=-2 3 -4 -5
leaf_value=-0.012008346450712646 0.013797217841554238 -0.0083372664712369447 0.014155113535179271 -0.028275115787982943
leaf_weight=33 38 25 21 20
leaf_count=33 38 25 21 20
internal_value=-0.00254495 -0.0088177 -0.00183367 -0.0171985
internal_weight=137 99 54 45
internal_count=137 99 54 45
is_linear=0
shrinkage=0.05


Tree=57
num_leaves=5
num_cat=0
split_feature=6 27 18 22
split_gain=5.06985 2.09188 3.1713 1.59449
threshold=4.5000000000000009 3.4058823585510258 3.5000000000000004 3.5000000000000004
decision_type=2 2 2 2
left_child=1 2 -1 -3
right_child=-2 3 -4 -5
leaf_value=-0.011407929006963968 0.013107356799178219 -0.0079204033138230451 0.013447357483562969 -0.026861359747126702
leaf_weight=33 38 25 21 20
leaf_count=33 38 25 21 20
internal_value=-0.0024177 -0.00837681 -0.00174198 -0.0163386
internal_weight=137 99 54 45
internal_count=137 99 54 45
is_linear=0
shrinkage=0.05


Tree=58
num_leaves=5
num_cat=0
split_feature=20 18 15 9
split_gain=5.01449 7.15682 2.80579 1.59747
threshold=3.5000000000000004 4.5000000000000009 0.40966403484344488 14.500000000000002
decision_type=2 2 2 2
left_child=1 2 -1 -2
right_child=3 -3 -4 -5
leaf_value=-0.013837128762027313 -0.0035560120795188211 0.030496451995250858 0.0098423681486482645 -0.019479794179399809
leaf_weight=29 28 22 22 36
leaf_count=29 28 22 22 36
internal_value=-0.00229681 0.00665996 -0.00362244 -0.0125131
internal_weight=137 73 51 64
internal_count=137 73 51 64
is_linear=0
shrinkage=0.05


Tree=59
num_leaves=5
num_cat=0
split_feature=6 27 18 22
split_gain=4.59152 1.85637 2.65863 1.41456
threshold=4.5000000000000009 3.4058823585510258 3.5000000000000004 3.5000000000000004
decision_type=2 2 2 2
left_child=1 2 -1 -3
right_child=-2 3 -4 -5
leaf_value=-0.010453045585503182 0.012592554347295511 -0.0074242338761687275 0.012304716674788368 -0.025264510025735945
leaf_weight=33 38 25 21 20
leaf_count=33 38 25 21 20
internal_value=-0.00218197 -0.00785301 -0.0016028 -0.0153532
internal_weight=137 99 54 45
internal_count=137 99 54 45
is_linear=0
shrinkage=0.05


Tree=60
num_leaves=5
num_cat=0
split_feature=5 28 7 9
split_gain=3.6109 3.55561 1.78133 1.43322
threshold=1.5000000000000002 1.0000000180025095e-35 6.5000000000000009 16.500000000000004
decision_type=2 2 2 2
left_child=-1 3 -3 -2
right_child=1 2 -4 -5
leaf_value=0.013427513465285302 -0.0058982620360674689 0.013884424815035386 -0.0062572096430120018 -0.021431518780335671
leaf_weight=29 27 23 21 33
leaf_count=29 27 23 21 33
internal_value=-0.0021741 -0.00652455 0.00427137 -0.0144416
internal_weight=133 104 44 60
internal_count=133 104 44 60
is_linear=0
shrinkage=0.05


Tree=61
num_leaves=6
num_cat=0
split_feature=18 20 21 3 22
split_gain=5.19992 4.64198 2.11293 1.29428 0.194944
threshold=2.5000000000000004 3.5000000000000004 2.5000000000000004 3.6000000238418584 3.5000000000000004
decision_type=2 2 2 2 2
left_child=4 2 -2 -3 -1
right_child=1 3 -4 -5 -6
leaf_value=-0.012525899219326675 0.028195587247610093 0.0013551328056068583 0.0065788422281352378 -0.01621931413654238 -0.019109377483634848
leaf_weight=22 20 22 26 20 23
leaf_count=22 20 22 26 20 23
internal_value=-0.00206539 0.00500441 0.0159774 -0.00701365 -0.0158908
internal_weight=133 88 46 42 45
internal_count=133 88 46 42 45
is_linear=0
shrinkage=0.05


Tree=62
num_leaves=5
num_cat=0
split_feature=18 28 18 22
split_gain=4.74515 7.29643 0.912534 0.175937
threshold=3.5000000000000004 -1.0000000180025095e-35 2.5000000000000004 3.5000000000000004
decision_type=2 2 2 2
left_child=2 -2 3 -1
right_child=1 -3 -4 -5
leaf_value=-0.011899604634064335 -0.0069208612712100149 0.027673485271494699 -0.0033301960426167804 -0.018153908864959427
leaf_weight=22 35 27 26 23
leaf_count=22 35 27 26 23
internal_value=-0.00196212 0.00814442 -0.0107876 -0.0150962
internal_weight=133 62 71 45
internal_count=133 62 71 45
is_linear=0
shrinkage=0.05


Tree=63
num_leaves=5
num_cat=0
split_feature=5 28 7 9
split_gain=3.25571 3.32462 1.50403 1.32113
threshold=1.5000000000000002 1.0000000180025095e-35 6.5000000000000009 16.500000000000004
decision_type=2 2 2 2
left_child=-1 3 -3 -2
right_child=1 2 -4 -5
leaf_value=0.012950396964904562 -0.0054480572265607347 0.013277567194207855 -0.0052300476724104518 -0.020361552767060472
leaf_weight=29 27 23 21 33
leaf_count=29 27 23 21 33
internal_value=-0.00186402 -0.00599496 0.00444439 -0.0136505
internal_weight=133 104 44 60
internal_count=133 104 44 60
is_linear=0
shrinkage=0.05


Tree=64
num_leaves=5
num_cat=0
split_feature=18 28 18 22
split_gain=4.41476 6.43165 0.872682 0.174569
threshold=3.5000000000000004 -1.0000000180025095e-35 2.5000000000000004 3.5000000000000004
decision_type=2 2 2 2
left_child=2 -2 3 -1
right_child=1 -3 -4 -5
leaf_value=-0.01131281738979107 -0.0061668250929298148 0.026312805981271798 -0.0029907561731166567 -0.017542770739806736
leaf_weight=22 35 27 26 23
leaf_count=22 35 27 26 23
internal_value=-0.00177082 0.00797753 -0.0102835 -0.014497
internal_weight=133 62 71 45
internal_count=133 62 71 45
is_linear=0
shrinkage=0.05


Tree=65
num_leaves=5
num_cat=0
split_feature=25 18 19 17
split_gain=10.0602 2.50513 1.43551 1.52357
threshold=4.2142856121063241 1.5000000000000002 2.5000000000000004 1.0000000180025095e-35
decision_type=2 2 2 2
left_child=1 -1 -3 -4
right_child=-2 2 3 -5
leaf_value=-0.019415526433537403 0.032571308931247114 0.0067000354241047583 -0.012691539175409293 0.0038744455405875394
leaf_weight=24 21 35 35 23
leaf_count=24 21 35 35 23
internal_value=0.000706047 -0.00501336 -0.00129667 -0.00612227
internal_weight=138 117 93 58
internal_count=138 117 93 58
is_linear=0
shrinkage=0.05


Tree=66
num_leaves=6
num_cat=0
split_feature=25 18 16 17 27
split_gain=9.07935 2.26088 1.34061 1.0513 0.978041
threshold=4.2142856121063241 1.5000000000000002 1.0000000180025095e-35 1.0000000180025095e-35 3.375640988349915
decision_type=2 2 2 2 2
left_child=1 -1 3 -3 -4
right_child=-2 2 4 -5 -6
leaf_value=-0.018444750000101828 0.030942744726226448 -0.013403361708063772 0.013442022928502412 0.00082590103335678585 -0.0020075277078874586
leaf_weight=24 21 27 20 25 21
leaf_count=24 21 27 20 25 21
internal_value=0.000670745 -0.00476269 -0.00123184 -0.00656237 0.00552884
internal_weight=138 117 93 52 41
internal_count=138 117 93 52 41
is_linear=0
shrinkage=0.05


Tree=67
num_leaves=5
num_cat=0
split_feature=28 19 28 3
split_gain=11.651 2.75128 1.4502 1.44066
threshold=2.5000000000000004 1.5000000000000002 1.0000000180025095e-35 3.6000000238418584
decision_type=2 2 2 2
left_child=1 -1 3 -3
right_child=-2 2 -4 -5
leaf_value=0.0081020004331582678 0.033123241478334307 -0.0082558007901892636 4.548775055445731e-05 -0.023825621313881131
leaf_weight=27 23 39 25 24
leaf_count=27 23 39 25 24
internal_value=0.000637207 -0.00586 -0.0101438 -0.0141872
internal_weight=138 115 88 63
internal_count=138 115 88 63
is_linear=0
shrinkage=0.05


Tree=68
num_leaves=5
num_cat=0
split_feature=28 19 9 28
split_gain=10.515 2.48303 1.42294 2.15102
threshold=2.5000000000000004 1.5000000000000002 14.500000000000002 -1.0000000180025095e-35
decision_type=2 2 2 2
left_child=1 -1 -3 -4
right_child=-2 2 3 -5
leaf_value=0.0076969001925101992 0.031467080391619516 -0.00142843767111613 -0.025799433801633617 -0.0058611746396749253
leaf_weight=27 23 33 24 31
leaf_count=27 23 33 24 31
internal_value=0.000605347 -0.005567 -0.00963661 -0.0145615
internal_weight=138 115 88 55
internal_count=138 115 88 55
is_linear=0
shrinkage=0.05


Tree=69
num_leaves=5
num_cat=0
split_feature=28 19 9 28
split_gain=9.4898 2.24093 1.2842 1.9413
threshold=2.5000000000000004 1.5000000000000002 14.500000000000002 -1.0000000180025095e-35
decision_type=2 2 2 2
left_child=1 -1 -3 -4
right_child=-2 2 3 -5
leaf_value=0.0073120553391399215 0.029893725867504661 -0.0013570154981800554 -0.024509462240772942 -0.0055681157669412997
leaf_weight=27 23 33 24 31
leaf_count=27 23 33 24 31
internal_value=0.00057508 -0.00528865 -0.00915477 -0.0138334
internal_weight=138 115 88 55
internal_count=138 115 88 55
is_linear=0
shrinkage=0.05


Tree=70
num_leaves=5
num_cat=0
split_feature=28 5 26 18
split_gain=7.04524 2.96785 1.90188 0.925687
threshold=2.5000000000000004 1.5000000000000002 3.5357142686843877 2.5000000000000004
decision_type=2 2 2 2
left_child=1 -1 3 -3
right_child=-2 2 -4 -5
leaf_value=0.011920982412993908 0.025020415967123379 -0.010613425569608807 -0.016888652889824964 0.0027378806592644874
leaf_weight=25 27 20 34 37
leaf_count=25 27 20 34 37
internal_value=0.00201675 -0.00333756 -0.00752946 -0.00194679
internal_weight=143 116 91 57
internal_count=143 116 91 57
is_linear=0
shrinkage=0.05


Tree=71
num_leaves=5
num_cat=0
split_feature=25 18 9 18
split_gain=5.69535 2.92309 1.61989 0.524002
threshold=4.0714285373687753 1.5000000000000002 22.500000000000004 3.5000000000000004
decision_type=2 2 2 2
left_child=1 -1 3 -3
right_child=-2 2 -4 -5
leaf_value=-0.016276257656964249 0.024708248650574166 -0.0069044863732415258 0.012223407615804011 0.0021440087351948024
leaf_weight=29 23 32 27 32
leaf_count=29 23 32 27 32
internal_value=0.00191591 -0.00245262 0.00195271 -0.00238024
internal_weight=143 120 91 64
internal_count=143 120 91 64
is_linear=0
shrinkage=0.05


Tree=72
num_leaves=5
num_cat=0
split_feature=28 5 26 25
split_gain=6.43686 2.696 1.87991 0.833623
threshold=2.5000000000000004 1.5000000000000002 3.5357142686843877 3.2142857313156132
decision_type=2 2 2 2
left_child=1 -1 3 -3
right_child=-2 2 -4 -5
leaf_value=0.011245139226317407 0.023808130819384973 -0.0070873242941161159 -0.016598075956982726 0.0050982857267372313
leaf_weight=25 27 32 34 25
leaf_count=25 27 32 34 25
internal_value=0.00182011 -0.00329779 -0.0072931 -0.00174276
internal_weight=143 116 91 57
internal_count=143 116 91 57
is_linear=0
shrinkage=0.05


Tree=73
num_leaves=5
num_cat=0
split_feature=25 18 9 18
split_gain=5.22825 2.70511 1.50169 0.50733
threshold=4.0714285373687753 1.5000000000000002 22.500000000000004 3.5000000000000004
decision_type=2 2 2 2
left_child=1 -1 3 -3
right_child=-2 2 -4 -5
leaf_value=-0.015754679980655686 0.02356680581427139 -0.0068421159379795432 0.011670322347156427 0.0020612689870176839
leaf_weight=29 23 32 27 32
leaf_count=29 23 32 27 32
internal_value=0.00172911 -0.00245645 0.00178145 -0.00239042
internal_weight=143 120 91 64
internal_count=143 120 91 64
is_linear=0
shrinkage=0.05


Tree=74
num_leaves=5
num_cat=0
split_feature=28 5 26 25
split_gain=5.88229 2.44918 1.85261 0.730626
threshold=2.5000000000000004 1.5000000000000002 3.5357142686843877 3.2142857313156132
decision_type=2 2 2 2
left_child=1 -1 3 -3
right_child=-2 2 -4 -5
leaf_value=0.010611423861235382 0.022662140950733038 -0.0065514683188666826 -0.01629502055618693 0.0048565426059067251
leaf_weight=25 27 32 34 25
leaf_count=25 27 32 34 25
internal_value=0.00164265 -0.00324981 -0.00705785 -0.00154795
internal_weight=143 116 91 57
internal_count=143 116 91 57
is_linear=0
shrinkage=0.05


Tree=75
num_leaves=6
num_cat=0
split_feature=6 23 3 9 18
split_gain=2.20838 1.3275 2.33877 1.41515 0.600768
threshold=5.5000000000000009 1.0000000180025095e-35 3.6000000238418584 16.500000000000004 3.5000000000000004
decision_type=2 2 2 2 2
left_child=1 -1 4 -4 -3
right_child=-2 2 3 -5 -6
leaf_value=0.0048144407997218275 0.010824218982209761 -0.0069028391144238411 -0.0074051489037546244 -0.024961430501813691 0.0036738876092793612
leaf_weight=24 24 25 22 24 29
leaf_count=24 24 25 22 24 29
internal_value=-0.0030587 -0.00574572 -0.00828016 -0.0165649 -0.00122275
internal_weight=148 124 100 46 54
internal_count=148 124 100 46 54
is_linear=0
shrinkage=0.05


Tree=76
num_leaves=5
num_cat=0
split_feature=20 26 22 18
split_gain=2.34761 1.81483 1.02551 0.786841
threshold=3.5000000000000004 3.6071428060531621 3.5000000000000004 3.5000000000000004
decision_type=2 2 2 2
left_child=1 3 -2 -1
right_child=2 -3 -4 -5
leaf_value=-0.0069603697728422113 -0.004425836366748339 0.014706374534770198 -0.016910774816341442 0.0047994494661688812
leaf_weight=33 38 23 29 25
leaf_count=33 38 23 29 25
internal_value=-0.00290577 0.00282149 -0.00982976 -0.00189148
internal_weight=148 81 67 58
internal_count=148 81 67 58
is_linear=0
shrinkage=0.05


Tree=77
num_leaves=6
num_cat=0
split_feature=20 26 19 18 7
split_gain=2.11871 1.63788 0.956602 0.710124 0.437324
threshold=3.5000000000000004 3.6071428060531621 2.5000000000000004 3.5000000000000004 6.5000000000000009
decision_type=2 2 2 2 2
left_child=1 3 -2 -1 -4
right_child=2 -3 4 -5 -6
leaf_value=-0.0066123509980653503 -0.0013412809969546894 0.0139710557444588 -0.019209090239601212 0.0045594767846632751 -0.0090996516139610958
leaf_weight=33 24 23 20 25 23
leaf_count=33 24 23 20 25 23
internal_value=-0.00276048 0.00268042 -0.00933828 -0.00179691 -0.0138017
internal_weight=148 81 67 58 43
internal_count=148 81 67 58 43
is_linear=0
shrinkage=0.05


Tree=78
num_leaves=6
num_cat=0
split_feature=6 20 18 28 22
split_gain=1.95034 1.64216 1.2941 0.834835 0.628836
threshold=5.5000000000000009 3.5000000000000004 4.5000000000000009 1.0000000180025095e-35 3.5000000000000004
decision_type=2 2 2 2 2
left_child=1 2 3 -1 -3
right_child=-2 4 -4 -5 -6
leaf_value=-0.01224891229532659 0.010424207292574768 -0.0067541389867211837 0.010147781336722388 0.0015827995123496902 -0.017267116244882346
leaf_weight=20 24 33 22 24 25
leaf_count=20 24 33 22 24 25
internal_value=-0.00262246 -0.00514762 0.000246366 -0.00470434 -0.0112856
internal_weight=148 124 66 44 58
internal_count=148 124 66 44 58
is_linear=0
shrinkage=0.05


Tree=79
num_leaves=6
num_cat=0
split_feature=6 20 18 23 23
split_gain=1.76018 1.48205 1.16793 1.27217 1.02449
threshold=5.5000000000000009 3.5000000000000004 4.5000000000000009 2.5000000000000004 3.5000000000000004
decision_type=2 2 2 2 2
left_child=1 2 3 -1 -3
right_child=-2 4 -4 -5 -6
leaf_value=0.004032784630544484 0.009902996853512985 -0.016711241003940815 0.0096403919403779924 -0.012971034497869287 -0.0033490983805117697
leaf_weight=22 24 32 22 22 26
leaf_count=22 24 32 22 22 26
internal_value=-0.00249133 -0.00489024 0.000234047 -0.00446912 -0.0107213
internal_weight=148 124 66 44 58
internal_count=148 124 66 44 58
is_linear=0
shrinkage=0.05


Tree=80
num_leaves=5
num_cat=0
split_feature=11 18 27 23
split_gain=5.59206 2.38669 0.764021 0.799537
threshold=42.500000000000007 4.5000000000000009 3.4366667270660405 2.5000000000000004
decision_type=2 2 2 2
left_child=1 2 3 -1
right_child=-2 -3 -4 -5
leaf_value=0.0039554088032278034 0.026422963812947276 0.0082609127716798524 -0.012486620116978884 -0.008962016269564629
leaf_weight=23 20 38 35 25
leaf_count=23 20 38 35 25
internal_value=0.00193097 -0.0021173 -0.00686877 -0.00277242
internal_weight=141 121 83 48
internal_count=141 121 83 48
is_linear=0
shrinkage=0.05


Tree=81
num_leaves=6
num_cat=0
split_feature=28 18 19 28 25
split_gain=4.87661 2.51706 2.47519 1.32036 0.395231
threshold=2.5000000000000004 4.5000000000000009 3.5000000000000004 1.0000000180025095e-35 3.3095238208770756
decision_type=2 2 2 2 2
left_child=1 3 -3 4 -1
right_child=-2 2 -4 -5 -6
leaf_value=-0.0085818586841924123 0.024706048201769592 0.018894559363632102 -0.0045642270912966609 0.00044511907373464876 -0.017974473624711947
leaf_weight=24 20 23 22 31 21
leaf_count=24 20 23 22 31 21
internal_value=0.00183442 -0.00194602 0.00742582 -0.00749513 -0.0129651
internal_weight=141 121 45 76 45
internal_count=141 121 45 76 45
is_linear=0
shrinkage=0.05


Tree=82
num_leaves=6
num_cat=0
split_feature=11 18 28 27 23
split_gain=5.0605 2.04131 1.09568 0.498236 0.463769
threshold=42.500000000000007 4.5000000000000009 1.0000000180025095e-35 3.4366667270660405 2.5000000000000004
decision_type=2 2 2 2 2
left_child=1 2 3 -1 -4
right_child=-2 -3 4 -5 -6
leaf_value=-0.0068786203625495548 0.025041577201336623 0.00748960854988055 0.0043529677914366837 -0.018039220550563187 -0.0060350842562250121
leaf_weight=20 20 38 21 20 22
leaf_count=20 20 38 21 20 22
internal_value=0.0017427 -0.00210836 -0.00650261 -0.0124589 -0.00096185
internal_weight=141 121 83 40 43
internal_count=141 121 83 40 43
is_linear=0
shrinkage=0.05


Tree=83
num_leaves=6
num_cat=0
split_feature=11 18 28 23 1
split_gain=4.56711 1.84228 0.988854 0.418552 0.283503
threshold=42.500000000000007 4.5000000000000009 1.0000000180025095e-35 2.5000000000000004 11.500000000000002
decision_type=2 2 2 2 2
left_child=1 2 4 -4 -1
right_child=-2 -3 3 -5 -6
leaf_value=-0.016045359298586845 0.023789498293772342 0.0071151282494706968 0.0041353190628190843 -0.0057333299297500744 -0.0076265895538381303
leaf_weight=20 20 38 21 22 20
leaf_count=20 20 38 21 22 20
internal_value=0.00165556 -0.00200294 -0.00617748 -0.000913757 -0.011836
internal_weight=141 121 83 43 40
internal_count=141 121 83 43 40
is_linear=0
shrinkage=0.05


Tree=84
num_leaves=6
num_cat=0
split_feature=28 28 15 4 6
split_gain=4.4215 1.45853 0.922597 0.653218 0.63228
threshold=2.5000000000000004 -2.4999999999999996 0.17992616817355159 1.0000000180025095e-35 2.5000000000000004
decision_type=2 2 2 2 2
left_child=1 -1 3 -3 -4
right_child=-2 2 4 -5 -6
leaf_value=-0.013671981492503125 0.023351035779342055 -0.0011812285132085285 -0.011352956201881171 0.009885762908961624 0.00057444822415709498
leaf_weight=22 20 24 20 30 25
leaf_count=22 20 24 20 30 25
internal_value=0.00157278 -0.00202693 0.000560863 0.0049671 -0.00472662
internal_weight=141 121 99 54 45
internal_count=141 121 99 54 45
is_linear=0
shrinkage=0.05


Tree=85
num_leaves=6
num_cat=0
split_feature=18 12 1 9 9
split_gain=3.55514 3.26968 1.10431 1.13144 0.890585
threshold=4.5000000000000009 -0.25000000000000006 12.500000000000002 16.500000000000004 17.500000000000004
decision_type=2 2 2 2 2
left_child=2 -2 3 -1 -4
right_child=1 -3 4 -5 -6
leaf_value=-0.0035372326327931317 -0.0035880219900891897 0.024660139424959201 -0.0079999147784502178 -0.018669361661498747 0.0058440455812073895
leaf_weight=21 21 20 26 30 21
leaf_count=21 21 20 26 30 21
internal_value=-0.00217109 0.0101916 -0.00734322 -0.0124385 -0.00181432
internal_weight=139 41 98 51 47
internal_count=139 41 98 51 47
is_linear=0
shrinkage=0.05


Tree=86
num_leaves=5
num_cat=0
split_feature=6 18 28 23
split_gain=3.4417 1.29235 0.995593 0.504437
threshold=5.5000000000000009 2.5000000000000004 -1.4999999999999998 3.5000000000000004
decision_type=2 2 2 2
left_child=1 3 -3 -1
right_child=-2 2 -4 -5
leaf_value=-0.0075376858124914375 0.014738328326493503 -0.0081403542601037777 0.0037592560870763968 -0.018395163156164927
leaf_weight=23 25 32 39 20
leaf_count=23 25 32 39 20
internal_value=-0.00206253 -0.00574693 -0.00160395 -0.0125877
internal_weight=139 114 71 43
internal_count=139 114 71 43
is_linear=0
shrinkage=0.05


Tree=87
num_leaves=5
num_cat=0
split_feature=6 9 6 3
split_gain=3.10613 1.1606 1.19029 1.68704
threshold=5.5000000000000009 25.500000000000004 1.5000000000000002 4.2500000000000009
decision_type=2 2 2 2
left_child=1 2 -1 -4
right_child=-2 -3 3 -5
leaf_value=-0.010420646824230276 0.014001411575824022 -0.015776283535259693 0.0075483082983593798 -0.010392417950788513
leaf_weight=34 25 22 38 20
leaf_count=34 25 22 38 20
internal_value=-0.00195941 -0.00545959 -0.00299255 0.00136185
internal_weight=139 114 92 58
internal_count=139 114 92 58
is_linear=0
shrinkage=0.05


Tree=88
num_leaves=6
num_cat=0
split_feature=18 12 1 9 9
split_gain=3.1161 2.90091 1.02892 0.97217 0.764777
threshold=4.5000000000000009 -0.25000000000000006 12.500000000000002 16.500000000000004 17.500000000000004
decision_type=2 2 2 2 2
left_child=2 -2 3 -1 -4
right_child=1 -3 4 -5 -6
leaf_value=-0.0033709290038262101 -0.0032665680672618602 0.02334097403669148 -0.0070989321478499255 -0.017397641694794099 0.0057299889942875049
leaf_weight=21 21 20 26 30 21
leaf_count=21 21 20 26 30 21
internal_value=-0.00186144 0.00971272 -0.00670369 -0.0116219 -0.00136686
internal_weight=139 41 98 51 47
internal_count=139 41 98 51 47
is_linear=0
shrinkage=0.05


Tree=89
num_leaves=6
num_cat=0
split_feature=18 12 1 9 9
split_gain=2.81228 2.61808 0.942585 0.534154 0.412807
threshold=4.5000000000000009 -0.25000000000000006 11.500000000000002 18.500000000000004 19.500000000000004
decision_type=2 2 2 2 2
left_child=2 -2 4 -4 -1
right_child=1 -3 3 -5 -6
leaf_value=-0.0073044042610986674 -0.0031032398221127336 0.0221739251120016 -0.0060499236104078593 0.0039488408898416148 -0.01722966890083626
leaf_weight=22 21 20 34 22 20
leaf_count=22 21 20 34 22 20
internal_value=-0.00176836 0.00922708 -0.0063685 -0.00212184 -0.0120307
internal_weight=139 41 98 56 42
internal_count=139 41 98 56 42
is_linear=0
shrinkage=0.05


Tree=90
num_leaves=5
num_cat=0
split_feature=28 18 23 18
split_gain=3.51149 3.82842 0.908767 1.31252
threshold=-2.4999999999999996 4.5000000000000009 1.5000000000000002 2.5000000000000004
decision_type=2 2 2 2
left_child=-1 2 -2 -4
right_child=1 -3 3 -5
leaf_value=-0.020998374631871347 0.0020666438809712417 0.017329897004254656 -0.013900909380282503 0.00092930842202622451
leaf_weight=23 36 26 37 25
leaf_count=23 36 26 37 25
internal_value=-0.00305501 0.00027319 -0.00425206 -0.00792098
internal_weight=147 124 98 62
internal_count=147 124 98 62
is_linear=0
shrinkage=0.05


Tree=91
num_leaves=6
num_cat=0
split_feature=28 18 20 20 20
split_gain=3.16912 3.49597 2.80514 1.06131 1.79976
threshold=-2.4999999999999996 3.5000000000000004 3.5000000000000004 2.5000000000000004 4.5000000000000009
decision_type=2 2 2 2 2
left_child=-1 3 -3 -2 -5
right_child=1 2 -4 4 -6
leaf_value=-0.019948455586057644 -0.014287791823692345 0.021518464308852951 -0.0031873732840176673 0.0075002356944605707 -0.01147219136543572
leaf_weight=23 27 27 20 25 25
leaf_count=23 27 27 20 25 25
internal_value=-0.00290226 0.000259531 0.0110053 -0.0062996 -0.00198598
internal_weight=147 124 47 77 50
internal_count=147 124 47 77 50
is_linear=0
shrinkage=0.05


Tree=92
num_leaves=5
num_cat=0
split_feature=28 18 23 18
split_gain=2.86013 3.20901 0.814933 1.11823
threshold=-2.4999999999999996 4.5000000000000009 1.5000000000000002 2.5000000000000004
decision_type=2 2 2 2
left_child=-1 2 -2 -4
right_child=1 -3 3 -5
leaf_value=-0.018951033136766892 0.0020871230370074854 0.015862591738382784 -0.012890452128281264 0.00079822461912408484
leaf_weight=23 36 26 37 25
leaf_count=23 36 26 37 25
internal_value=-0.00275715 0.000246554 -0.00389648 -0.00737082
internal_weight=147 124 98 62
internal_count=147 124 98 62
is_linear=0
shrinkage=0.05


Tree=93
num_leaves=5
num_cat=0
split_feature=20 20 18 9
split_gain=2.58557 3.53692 1.93474 0.853722
threshold=3.5000000000000004 2.5000000000000004 3.5000000000000004 14.500000000000002
decision_type=2 2 2 2
left_child=1 2 -1 -2
right_child=3 -3 -4 -5
leaf_value=-0.013310026661147951 -0.0034045114614980714 0.018600449963616063 0.0056183792006103675 -0.014795852159180582
leaf_weight=27 29 26 27 38
leaf_count=27 29 26 27 38
internal_value=-0.00261929 0.00344922 -0.00384582 -0.00986527
internal_weight=147 80 54 67
internal_count=147 80 54 67
is_linear=0
shrinkage=0.05


Tree=94
num_leaves=5
num_cat=0
split_feature=28 18 23 18
split_gain=2.66005 2.80051 0.71457 0.962392
threshold=-2.4999999999999996 4.5000000000000009 1.5000000000000002 2.5000000000000004
decision_type=2 2 2 2
left_child=-1 2 -2 -4
right_child=1 -3 3 -5
leaf_value=-0.018105541097769597 0.002141093823754798 0.014996695634013471 -0.01183590946618367 0.00086313640838488941
leaf_weight=23 36 26 37 25
leaf_count=23 36 26 37 25
internal_value=-0.00248833 0.000408413 -0.00346195 -0.00671533
internal_weight=147 124 98 62
internal_count=147 124 98 62
is_linear=0
shrinkage=0.05


Tree=95
num_leaves=5
num_cat=0
split_feature=28 3 3 19
split_gain=5.62453 3.95858 1.18183 1.64791
threshold=1.0000000180025095e-35 3.6000000238418584 3.1499999761581425 3.5000000000000004
decision_type=2 2 2 2
left_child=2 -2 3 -1
right_child=1 -3 -4 -5
leaf_value=0.0088335557907287567 0.00035597201287081203 0.026943371065759232 -0.013655607629334555 -0.0098416575713566063
leaf_weight=21 28 28 36 27
leaf_count=21 28 28 36 27
internal_value=0.00137543 0.0136497 -0.0068074 -0.00167125
internal_weight=140 56 84 48
internal_count=140 56 84 48
is_linear=0
shrinkage=0.05


Tree=96
num_leaves=5
num_cat=0
split_feature=28 19 25 27
split_gain=5.15712 0.931717 1.96171 0.856059
threshold=1.5000000000000002 3.5000000000000004 3.3095238208770756 3.4366667270660405
decision_type=2 2 2 2
left_child=1 2 -1 -3
right_child=-2 3 -4 -5
leaf_value=-0.0079325487757159873 0.017928156472875604 -0.0025239087486018737 0.010977876005927102 -0.015744298042729497
leaf_weight=32 35 24 24 25
leaf_count=32 35 24 24 25
internal_value=0.00130665 -0.00423385 0.000171919 -0.00926901
internal_weight=140 105 56 49
internal_count=140 105 56 49
is_linear=0
shrinkage=0.05


Tree=97
num_leaves=5
num_cat=0
split_feature=28 26 19 20
split_gain=4.71196 3.60549 0.898304 0.760693
threshold=1.0000000180025095e-35 3.6071428060531621 2.5000000000000004 3.5000000000000004
decision_type=2 2 2 2
left_child=2 -2 -1 -4
right_child=1 -3 3 -5
leaf_value=0.0014743796775851829 0.0030194705533277658 0.029497163113555869 -0.0037831218846674473 -0.015242185667157175
leaf_weight=26 36 20 28 30
leaf_count=26 36 20 28 30
internal_value=0.00124132 0.0124758 -0.00624832 -0.00971022
internal_weight=140 56 84 58
internal_count=140 56 84 58
is_linear=0
shrinkage=0.05


Tree=98
num_leaves=5
num_cat=0
split_feature=28 22 28 14
split_gain=4.33981 1.12933 1.50289 0.817055
threshold=1.5000000000000002 1.5000000000000002 -1.4999999999999998 0.51639395952224743
decision_type=2 2 2 2
left_child=1 -1 -3 -4
right_child=-2 2 3 -5
leaf_value=0.0056229927344247704 0.016426871808777964 -0.015375477014083205 -0.0065818672246920566 0.0064649655576795341
leaf_weight=24 35 31 30 20
leaf_count=24 35 31 30 20
internal_value=0.00117926 -0.00390328 -0.00672588 -0.00136313
internal_weight=140 105 81 50
internal_count=140 105 81 50
is_linear=0
shrinkage=0.05


Tree=99
num_leaves=5
num_cat=0
split_feature=11 14 9 9
split_gain=3.93184 1.49944 1.9321 1.68773
threshold=37.500000000000007 0.51639395952224743 20.500000000000004 15.500000000000002
decision_type=2 2 2 2
left_child=1 3 -3 -1
right_child=-2 2 -4 -5
leaf_value=-0.00027066739577125631 0.016208540281337318 -0.0058178185450809975 0.014403697853863596 -0.01718626614039143
leaf_weight=29 33 27 21 30
leaf_count=29 33 27 21 30
internal_value=0.00112029 -0.00353309 0.00302909 -0.00887182
internal_weight=140 107 48 59
internal_count=140 107 48 59
is_linear=0
shrinkage=0.05


Tree=100
num_leaves=6
num_cat=0
split_feature=9 14 19 14 27
split_gain=3.78091 4.70601 1.79558 0.947843 0.17381
threshold=12.500000000000002 0.29696027934551245 2.5000000000000004 0.51639395952224743 3.4740741252899174
decision_type=2 2 2 2 2
left_child=1 -1 -2 4 -4
right_child=2 -3 3 -5 -6
leaf_value=0.025332336463699385 0.0056280345621484299 -0.0064234611508436502 -0.010995680610649289 -0.0018204031395725906 -0.017508584660078801
leaf_weight=28 27 20 20 24 21
leaf_count=28 27 20 20 24 21
internal_value=0.000725068 0.0121008 -0.00521007 -0.00971205 -0.0143316
internal_weight=140 48 92 65 41
internal_count=140 48 92 65 41
is_linear=0
shrinkage=0.05


Tree=101
num_leaves=5
num_cat=0
split_feature=25 18 28 27
split_gain=3.45638 1.36006 1.34385 0.37248
threshold=4.2142856121063241 1.5000000000000002 1.0000000180025095e-35 3.303846120834351
decision_type=2 2 2 2
left_child=1 -1 3 -3
right_child=-2 2 -4 -5
leaf_value=-0.013326912080325807 0.018883590053089643 0.00055523582175374031 0.0085315278340731895 -0.0073030855188048194
leaf_weight=24 22 25 31 38
leaf_count=24 22 25 31 38
internal_value=0.000688815 -0.00270343 8.9469e-06 -0.0041847
internal_weight=140 118 94 63
internal_count=140 118 94 63
is_linear=0
shrinkage=0.05


Tree=102
num_leaves=5
num_cat=0
split_feature=9 13 14 21
split_gain=3.43923 4.356 1.71341 1.02753
threshold=12.500000000000002 1.0000000180025095e-35 0.51639395952224743 3.5000000000000004
decision_type=2 2 2 2
left_child=1 -1 3 -2
right_child=2 -3 -4 -5
leaf_value=-0.0012261450041218527 -0.0038918494797794017 0.029325928627513348 0.0033130584228815312 -0.017562425781593279
leaf_weight=28 28 20 37 27
leaf_count=28 28 20 37 27
internal_value=0.000654374 0.0115039 -0.00500624 -0.0106029
internal_weight=140 48 92 55
internal_count=140 48 92 55
is_linear=0
shrinkage=0.05


Tree=103
num_leaves=5
num_cat=0
split_feature=28 27 11 11
split_gain=3.24989 0.803958 0.915752 0.300842
threshold=1.5000000000000002 3.6500000953674321 17.500000000000004 34.500000000000007
decision_type=2 2 2 2
left_child=1 2 -1 -4
right_child=-2 -3 3 -5
leaf_value=0.0058329238955463682 0.014072620871422047 -0.012722393893636764 -0.0020434989078873486 -0.0093150353096425539
leaf_weight=28 34 20 33 25
leaf_count=28 34 20 33 25
internal_value=0.000621655 -0.00369281 -0.0015929 -0.00517778
internal_weight=140 106 86 58
internal_count=140 106 86 58
is_linear=0
shrinkage=0.05


Tree=104
num_leaves=5
num_cat=0
split_feature=25 18 19 23
split_gain=3.11791 1.28305 0.794215 0.23681
threshold=4.2142856121063241 1.5000000000000002 2.5000000000000004 1.5000000000000002
decision_type=2 2 2 2
left_child=1 -1 -3 -4
right_child=-2 2 3 -5
leaf_value=-0.01294961023668293 0.017871502448212017 0.0059703205678878091 0.00042639716487863789 -0.0060686271701544886
leaf_weight=24 22 35 23 36
leaf_count=24 22 35 23 36
internal_value=0.000590573 -0.0026313 3.16784e-06 -0.00353667
internal_weight=140 118 94 59
internal_count=140 118 94 59
is_linear=0
shrinkage=0.05


Tree=105
num_leaves=6
num_cat=0
split_feature=25 18 25 1 25
split_gain=6.62154 1.55347 1.81905 1.23845 0.222378
threshold=4.2142856121063241 2.5000000000000004 3.4642857313156132 11.500000000000002 3.0714285373687749
decision_type=2 2 2 2 2
left_child=1 4 3 -3 -1
right_child=-2 2 -4 -5 -6
leaf_value=-0.0079882917703468018 0.026834393162280326 -0.002265757591230795 -0.0079077464886582825 0.014580920563700299 -0.015019771578195302
leaf_weight=22 20 20 39 24 23
leaf_count=22 20 20 39 24 23
internal_value=7.9159e-05 -0.00410135 -4.5484e-05 0.00692334 -0.0115822
internal_weight=148 128 83 44 45
internal_count=148 128 83 44 45
is_linear=0
shrinkage=0.05


Tree=106
num_leaves=6
num_cat=0
split_feature=25 18 25 1 26
split_gain=5.97594 1.402 1.64169 1.1177 0.212141
threshold=4.2142856121063241 2.5000000000000004 3.4642857313156132 11.500000000000002 3.2500000000000004
decision_type=2 2 2 2 2
left_child=1 4 3 -3 -1
right_child=-2 2 -4 -5 -6
leaf_value=-0.0076454900898565749 0.025492672766558828 -0.0021524697588756682 -0.007512359220821125 0.013851874358078931 -0.014513229317328132
leaf_weight=23 20 20 39 24 22
leaf_count=23 20 20 39 24 22
internal_value=7.52008e-05 -0.00389628 -4.32099e-05 0.00657717 -0.0110031
internal_weight=148 128 83 44 45
internal_count=148 128 83 44 45
is_linear=0
shrinkage=0.05


Tree=107
num_leaves=6
num_cat=0
split_feature=25 18 25 1 25
split_gain=5.39329 1.26531 1.48163 1.00872 0.192064
threshold=4.2142856121063241 2.5000000000000004 3.4642857313156132 11.500000000000002 3.0714285373687749
decision_type=2 2 2 2 2
left_child=1 4 3 -3 -1
right_child=-2 2 -4 -5 -6
leaf_value=-0.0071129519979215476 0.024218039233237506 -0.0020448460336774592 -0.0071367410166809963 0.013159280514810235 -0.013647630859328352
leaf_weight=22 20 20 39 24 23
leaf_count=22 20 20 39 24 23
internal_value=7.14408e-05 -0.00370147 -4.10493e-05 0.00624831 -0.0104529
internal_weight=148 128 83 44 45
internal_count=148 128 83 44 45
is_linear=0
shrinkage=0.05


Tree=108
num_leaves=6
num_cat=0
split_feature=25 5 20 28 18
split_gain=4.86744 1.17564 0.729055 0.875641 1.36227
threshold=4.2142856121063241 1.5000000000000002 1.5000000000000002 -1.4999999999999998 2.5000000000000004
decision_type=2 2 2 2 2
left_child=1 -1 -3 -4 -5
right_child=-2 2 3 4 -6
leaf_value=0.005144347239596149 0.023007138296961785 0.0010089270743684701 -0.016319590930826963 -0.012723044181242586 0.0043365996923636308
leaf_weight=30 20 26 25 25 22
leaf_count=30 20 26 25 25 22
internal_value=6.78689e-05 -0.00351639 -0.00616764 -0.00875918 -0.00473768
internal_weight=148 128 98 72 47
internal_count=148 128 98 72 47
is_linear=0
shrinkage=0.05


Tree=109
num_leaves=5
num_cat=0
split_feature=27 25 18 21
split_gain=4.66444 1.70407 1.36167 0.437687
threshold=3.6035714149475102 3.4642857313156132 2.5000000000000004 2.5000000000000004
decision_type=2 2 2 2
left_child=1 2 -1 -3
right_child=-2 3 -4 -5
leaf_value=-0.0077755433171987536 0.016634795966798045 -0.015427571225778335 0.0075028423845235797 -0.0065053630801331676
leaf_weight=25 33 28 35 27
leaf_count=25 33 28 35 27
internal_value=6.44755e-05 -0.00469049 0.00113685 -0.0110476
internal_weight=148 115 60 55
internal_count=148 115 60 55
is_linear=0
shrinkage=0.05


Tree=110
num_leaves=5
num_cat=0
split_feature=27 25 25 14
split_gain=5.0252 1.50335 1.20072 0.79299
threshold=3.6035714149475102 3.4642857313156132 2.928571462631226 -0.78574731945991505
decision_type=2 2 2 2
left_child=1 2 -1 -3
right_child=-2 3 -4 -5
leaf_value=-0.0065752717228692581 0.017323908645448683 -0.0033838167864208425 0.0075479762272580575 -0.01557748736224312
leaf_weight=27 36 24 34 30
leaf_count=27 36 24 34 30
internal_value=0.00102135 -0.00408206 0.0012967 -0.0101581
internal_weight=151 115 61 54
internal_count=151 115 61 54
is_linear=0
shrinkage=0.05


Tree=111
num_leaves=5
num_cat=0
split_feature=23 28 1 18
split_gain=4.85031 0.758989 0.898398 0.755396
threshold=4.5000000000000009 -1.4999999999999998 5.5000000000000009 2.5000000000000004
decision_type=2 2 2 2
left_child=1 -1 -3 -4
right_child=-2 2 3 -5
leaf_value=-0.0099412715169475297 0.016986639130239688 0.0075947707363714775 -0.010360855452849397 0.0011528961586761931
leaf_weight=37 36 21 28 29
leaf_count=37 36 21 28 29
internal_value=0.000970279 -0.00404354 -0.00124589 -0.00450298
internal_weight=151 115 78 57
internal_count=151 115 78 57
is_linear=0
shrinkage=0.05


Tree=112
num_leaves=5
num_cat=0
split_feature=27 25 25 14
split_gain=4.5203 1.3418 1.12259 0.682059
threshold=3.6035714149475102 3.4642857313156132 2.928571462631226 -0.78574731945991505
decision_type=2 2 2 2
left_child=1 2 -1 -3
right_child=-2 3 -4 -5
leaf_value=-0.0064484618017794917 0.016383672259204712 -0.0033761747879907491 0.0072075459421338407 -0.014684850708193456
leaf_weight=27 36 24 34 30
leaf_count=27 36 24 34 30
internal_value=0.000921765 -0.00391848 0.00116308 -0.00965877
internal_weight=151 115 61 54
internal_count=151 115 61 54
is_linear=0
shrinkage=0.05


Tree=113
num_leaves=5
num_cat=0
split_feature=23 28 1 18
split_gain=4.334 0.671315 0.832233 0.695181
threshold=4.5000000000000009 -1.4999999999999998 5.5000000000000009 2.5000000000000004
decision_type=2 2 2 2
left_child=1 -1 -3 -4
right_child=-2 2 3 -5
leaf_value=-0.0094104255813903907 0.016015604526425403 0.0072762118386370802 -0.0099870816671422547 0.0010582437030248473
leaf_weight=37 36 21 28 29
leaf_count=37 36 21 28 29
internal_value=0.000875677 -0.00386378 -0.00123268 -0.00436753
internal_weight=151 115 78 57
internal_count=151 115 78 57
is_linear=0
shrinkage=0.05


Tree=114
num_leaves=6
num_cat=0
split_feature=13 9 6 9 28
split_gain=4.37128 0.78424 1.06217 0.64739 0.262951
threshold=0.68301269412040722 20.500000000000004 2.5000000000000004 14.500000000000002 1.0000000180025095e-35
decision_type=2 2 2 2 2
left_child=1 3 -3 4 -1
right_child=-2 2 -4 -5 -6
leaf_value=-0.0067477643986543021 0.01723720538429916 -0.0069629722367972133 0.0084962742310017349 -0.013934869706546041 0.00044899897250368006
leaf_weight=30 32 20 25 22 22
leaf_count=30 32 20 25 22 22
internal_value=0.000831893 -0.00357962 0.0016255 -0.00674489 -0.00370298
internal_weight=151 119 45 74 52
internal_count=151 119 45 74 52
is_linear=0
shrinkage=0.05


Tree=115
num_leaves=6
num_cat=0
split_feature=28 26 28 17 15
split_gain=4.05298 1.26999 0.530227 0.877214 0.18997
threshold=2.5000000000000004 3.9642857313156132 1.0000000180025095e-35 -0.56174489110708226 -0.40966403484344477
decision_type=2 2 2 2 2
left_child=1 2 3 -1 -5
right_child=-2 -3 -4 4 -6
leaf_value=0.0062569440378519225 0.01972225492533583 -0.013574564047157765 0.0057875895971180105 -0.0027200940742411399 -0.0091525094195579488
leaf_weight=21 26 20 30 22 24
leaf_count=21 26 20 30 22 24
internal_value=0.00186579 -0.00210231 0.000263105 -0.00221054 -0.00607614
internal_weight=143 117 97 67 46
internal_count=143 117 97 67 46
is_linear=0
shrinkage=0.05


Tree=116
num_leaves=6
num_cat=0
split_feature=28 26 25 9 6
split_gain=3.65781 1.14617 0.510825 0.811428 0.316028
threshold=2.5000000000000004 3.9642857313156132 2.7571427822113042 20.500000000000004 3.5000000000000004
decision_type=2 2 2 2 2
left_child=1 2 -1 4 -4
right_child=-2 -3 3 -5 -6
leaf_value=-0.006652726370486476 0.018736142156502374 -0.012895835824310781 0.0019109591397202829 0.010251466527750547 -0.0059353100091573746
leaf_weight=21 26 20 33 22 21
leaf_count=21 26 20 33 22 21
internal_value=0.0017725 -0.00199719 0.00024995 0.00215727 -0.00114037
internal_weight=143 117 97 76 54
internal_count=143 117 97 76 54
is_linear=0
shrinkage=0.05


Tree=117
num_leaves=6
num_cat=0
split_feature=28 26 28 17 1
split_gain=3.30118 1.03442 0.473113 0.772782 0.405011
threshold=2.5000000000000004 3.9642857313156132 1.0000000180025095e-35 -0.56174489110708226 11.500000000000002
decision_type=2 2 2 2 2
left_child=1 2 3 -1 -5
right_child=-2 -3 -4 4 -6
leaf_value=0.005848320769811316 0.017799335453086176 -0.012251044362783433 0.0054559271611894179 -0.010846382619014808 -0.0014274247139692308
leaf_weight=21 26 20 30 21 25
leaf_count=21 26 20 30 21 25
internal_value=0.00168388 -0.00189733 0.000237453 -0.00209918 -0.00572738
internal_weight=143 117 97 67 46
internal_count=143 117 97 67 46
is_linear=0
shrinkage=0.05


Tree=118
num_leaves=6
num_cat=0
split_feature=13 18 23 22 9
split_gain=3.05964 1.5409 0.617369 0.45573 0.00174174
threshold=0.68301269412040722 2.5000000000000004 3.5000000000000004 2.5000000000000004 17.500000000000004
decision_type=2 2 2 2 2
left_child=1 4 3 -3 -1
right_child=-2 2 -4 -5 -6
leaf_value=-0.010020872675813735 0.014447075014135669 -0.0067080386781266758 0.0089057510507039046 0.0032832820583134888 -0.010680747134611011
leaf_weight=20 35 21 22 25 20
leaf_count=20 35 21 22 25 20
internal_value=0.00159969 -0.00256382 0.00201676 -0.00127797 -0.0103508
internal_weight=143 108 68 46 40
internal_count=143 108 68 46 40
is_linear=0
shrinkage=0.05


Tree=119
num_leaves=6
num_cat=0
split_feature=28 26 28 17 1
split_gain=3.02484 1.01531 0.459804 0.688796 0.359818
threshold=2.5000000000000004 3.9642857313156132 1.0000000180025095e-35 -0.56174489110708226 11.500000000000002
decision_type=2 2 2 2 2
left_child=1 2 3 -1 -5
right_child=-2 -3 -4 4 -6
leaf_value=0.0054063129150086929 0.016945910509317541 -0.012165990434587002 0.0053511821043988076 -0.010347224468187918 -0.0014693171214312318
leaf_weight=21 26 20 30 21 25
leaf_count=21 26 20 30 21 25
internal_value=0.0015197 -0.00190835 0.000206633 -0.0020969 -0.00552227
internal_weight=143 117 97 67 46
internal_count=143 117 97 67 46
is_linear=0
shrinkage=0.05


Tree=120
num_leaves=6
num_cat=0
split_feature=28 28 15 23 26
split_gain=3.12242 1.5905 0.855715 0.586015 0.228134
threshold=2.5000000000000004 -2.4999999999999996 0.17992616817355159 3.5000000000000004 3.6071428060531621
decision_type=2 2 2 2 2
left_child=1 -1 3 -3 -4
right_child=-2 2 4 -5 -6
leaf_value=-0.015188841557218917 0.017413147405275834 -0.00046393207810593379 -0.0018961323465666047 0.0096847949326038379 -0.0091041884207654564
leaf_weight=21 23 33 23 25 21
leaf_count=21 23 33 23 25 21
internal_value=0.000503752 -0.00265817 -7.83224e-05 0.00391052 -0.00533634
internal_weight=146 123 102 58 44
internal_count=146 123 102 58 44
is_linear=0
shrinkage=0.05


Tree=121
num_leaves=5
num_cat=0
split_feature=27 18 25 17
split_gain=3.05871 1.21027 1.15655 0.478544
threshold=3.6035714149475102 2.5000000000000004 3.4642857313156132 1.0000000180025095e-35
decision_type=2 2 2 2
left_child=1 -1 -3 -4
right_child=-2 2 3 -5
leaf_value=-0.010664494136801443 0.014709416544064879 0.0067389188422443905 -0.010473633007231085 0.00021270818338962273
leaf_weight=37 30 37 22 20
leaf_count=37 30 37 22 20
internal_value=0.000478565 -0.00320183 0.000293345 -0.0053849
internal_weight=146 116 79 42
internal_count=146 116 79 42
is_linear=0
shrinkage=0.05


Tree=122
num_leaves=6
num_cat=0
split_feature=1 28 14 9 3
split_gain=2.95378 6.2523 1.45068 0.479426 0.335621
threshold=13.500000000000002 1.5000000000000002 0.51639395952224743 19.500000000000004 3.6000000238418584
decision_type=2 2 2 2 2
left_child=2 4 -1 -4 -2
right_child=1 -3 3 -5 -6
leaf_value=-0.013587320297956468 0.0018532201189689502 0.030840256881146208 -0.0054109490053220232 0.0048076776341379936 -0.0068895093320558475
leaf_weight=35 23 21 22 24 21
leaf_count=35 23 21 22 24 21
internal_value=0.000454637 0.00839369 -0.00591621 -7.94916e-05 -0.00231945
internal_weight=146 65 81 46 44
internal_count=146 65 81 46 44
is_linear=0
shrinkage=0.05


Tree=123
num_leaves=6
num_cat=0
split_feature=28 28 27 27 14
split_gain=2.73603 1.39329 0.818567 0.64573 0.230172
threshold=2.5000000000000004 -2.4999999999999996 3.4366667270660405 3.216666698455811 0.70581671595573436
decision_type=2 2 2 2 2
left_child=1 -1 3 -3 -4
right_child=-2 2 4 -5 -6
leaf_value=-0.014256039625477224 0.016260499555779542 -0.0015643233218445227 -0.0083265613997961438 0.0093784321357296523 -0.0014017835957929492
leaf_weight=21 23 26 24 28 24
leaf_count=21 23 26 24 28 24
internal_value=0.000431905 -0.00252791 -0.0001133 0.0041097 -0.00486417
internal_weight=146 123 102 54 48
internal_count=146 123 102 54 48
is_linear=0
shrinkage=0.05


Tree=124
num_leaves=5
num_cat=0
split_feature=27 14 12 1
split_gain=2.7719 0.774989 1.71474 0.444629
threshold=3.6035714149475102 0.51639395952224743 -0.68301269412040699 5.5000000000000009
decision_type=2 2 2 2
left_child=1 2 -1 -3
right_child=-2 3 -4 -5
leaf_value=0.00165250173461548 0.013957536012555165 -0.0027315051131881775 -0.013373473611397622 0.0078116043563932177
leaf_weight=37 30 20 39 20
leaf_count=37 30 20 39 20
internal_value=0.000410309 -0.00309328 -0.0060582 0.00254005
internal_weight=146 116 76 40
internal_count=146 116 76 40
is_linear=0
shrinkage=0.05


Tree=125
num_leaves=6
num_cat=0
split_feature=23 9 28 9 21
split_gain=2.22321 0.79211 1.50568 0.648014 0.322696
threshold=4.5000000000000009 14.500000000000002 -1.4999999999999998 7.5000000000000009 3.5000000000000004
decision_type=2 2 2 2 2
left_child=1 3 -3 -1 -4
right_child=-2 2 4 -5 -6
leaf_value=-0.0053610200176163669 0.011190054271525394 -0.018674428100209861 0.0014852947012210886 0.00640500533208251 -0.0068026371207847471
leaf_weight=22 30 21 24 25 23
leaf_count=22 30 21 24 25 23
internal_value=-0.000931671 -0.00409386 -0.00754377 0.000897504 -0.0025705
internal_weight=145 115 68 47 47
internal_count=145 115 68 47 47
is_linear=0
shrinkage=0.05


Tree=126
num_leaves=5
num_cat=0
split_feature=23 25 18 28
split_gain=2.00645 0.486306 0.39234 0.746995
threshold=4.5000000000000009 4.0714285373687753 2.5000000000000004 -1.4999999999999998
decision_type=2 2 2 2
left_child=1 2 -1 -4
right_child=-2 -3 3 -5
leaf_value=-0.0070141846013645967 0.010630551745804649 -0.010975518724881114 -0.0055628064670600001 0.0052408038616704291
leaf_weight=31 30 20 32 32
leaf_count=31 30 20 32 32
internal_value=-0.000885087 -0.00388917 -0.0023973 -0.000161001
internal_weight=145 115 95 64
internal_count=145 115 95 64
is_linear=0
shrinkage=0.05


Tree=127
num_leaves=7
num_cat=0
split_feature=14 9 20 25 9 15
split_gain=1.86549 1.35917 0.883738 1.25196 0.711662 0.680633
threshold=-0.61559370160102833 14.500000000000002 3.5000000000000004 2.928571462631226 15.500000000000002 0.29696027934551245
decision_type=2 2 2 2 2 2
left_child=1 -1 3 -2 -5 -4
right_child=2 -3 5 4 -6 -7
leaf_value=0.017474102494306861 -0.010276594961231407 -0.00053555741218257354 -0.0038706923347143901 -0.0020960489031858743 0.011242444822564722 -0.016758941020816567
leaf_weight=20 22 22 21 20 20 20
leaf_count=20 22 22 21 20 20 20
internal_value=-0.000840833 0.00804047 -0.00446234 -0.000696083 0.0045732 -0.0101576
internal_weight=145 42 103 62 40 41
internal_count=145 42 103 62 40 41
is_linear=0
shrinkage=0.05


Tree=128
num_leaves=6
num_cat=0
split_feature=23 9 28 18 18
split_gain=1.8104 0.666951 1.32725 0.644281 0.276657
threshold=4.5000000000000009 14.500000000000002 -1.4999999999999998 3.5000000000000004 2.5000000000000004
decision_type=2 2 2 2 2
left_child=1 3 -3 -1 -4
right_child=-2 2 4 -5 -6
leaf_value=-0.005586076563867253 0.01013980437691013 -0.017268323783008827 -0.0064171171702799351 0.006188910375707425 0.0012988982948277576
leaf_weight=21 30 21 21 26 26
leaf_count=21 30 21 21 26 26
internal_value=-0.000798791 -0.00365234 -0.00681798 0.000927746 -0.00214868
internal_weight=145 115 68 47 47
internal_count=145 115 68 47 47
is_linear=0
shrinkage=0.05


Tree=129
num_leaves=5
num_cat=0
split_feature=23 4 17 11
split_gain=1.63389 0.420068 0.841596 0.333544
threshold=4.5000000000000009 1.0000000180025095e-35 1.0000000180025095e-35 24.500000000000004
decision_type=2 2 2 2
left_child=1 2 -1 -3
right_child=-2 3 -4 -5
leaf_value=-0.0006956526854385932 0.0096328147997458771 0.0024239707059626071 -0.01423456756906076 -0.0045294331945436124
leaf_weight=24 30 35 22 34
leaf_count=24 30 35 22 34
internal_value=-0.000758851 -0.00346972 -0.00717079 -0.00100234
internal_weight=145 115 46 69
internal_count=145 115 46 69
is_linear=0
shrinkage=0.05


Tree=130
num_leaves=5
num_cat=0
split_feature=26 18 14 25
split_gain=4.12012 1.22699 1.31993 0.414632
threshold=3.9642857313156132 1.5000000000000002 0.51639395952224743 3.4642857313156132
decision_type=2 2 2 2
left_child=1 -1 3 -3
right_child=-2 2 -4 -5
leaf_value=-0.012025276231377023 0.020312226907565043 0.00081417334066437828 0.0084119507001661192 -0.0074582045291070685
leaf_weight=23 26 28 36 33
leaf_count=23 26 28 36 33
internal_value=0.00226742 -0.00164229 0.000819653 -0.00366105
internal_weight=146 120 97 61
internal_count=146 120 97 61
is_linear=0
shrinkage=0.05


Tree=131
num_leaves=5
num_cat=0
split_feature=26 18 14 13
split_gain=3.71841 1.10736 1.19124 0.409073
threshold=3.9642857313156132 1.5000000000000002 0.51639395952224743 0.25000000000000011
decision_type=2 2 2 2
left_child=1 -1 3 -3
right_child=-2 2 -4 -5
leaf_value=-0.011424012490264748 0.019296615542127537 -6.5874999078611535e-05 0.0079913530802716414 -0.0083914480488747369
leaf_weight=23 26 36 36 25
leaf_count=23 26 36 36 25
internal_value=0.00215405 -0.00156018 0.00077867 -0.003478
internal_weight=146 120 97 61
internal_count=146 120 97 61
is_linear=0
shrinkage=0.05


Tree=132
num_leaves=6
num_cat=0
split_feature=13 18 5 28 7
split_gain=3.37448 1.1308 0.788532 0.483503 0.331787
threshold=0.68301269412040722 1.5000000000000002 1.5000000000000002 -1.4999999999999998 6.5000000000000009
decision_type=2 2 2 2 2
left_child=1 -1 -3 -4 -5
right_child=-2 2 3 4 -6
leaf_value=-0.012807571364655383 0.015093298431334869 0.0078343676999793384 -0.0084035282333691907 0.0051270795008167627 -0.0039804296428337695
leaf_weight=21 37 24 24 20 20
leaf_count=21 37 24 24 20 20
internal_value=0.00204634 -0.00238244 0.000105377 -0.002793 0.000573325
internal_weight=146 109 88 64 40
internal_count=146 109 88 64 40
is_linear=0
shrinkage=0.05


Tree=133
num_leaves=5
num_cat=0
split_feature=26 18 14 13
split_gain=3.14701 0.893603 1.07916 0.403256
threshold=3.9642857313156132 1.5000000000000002 0.51639395952224743 0.25000000000000011
decision_type=2 2 2 2
left_child=1 -1 3 -3
right_child=-2 2 -4 -5
leaf_value=-0.010333741618239363 0.017714577855972146 -3.5612044545511408e-05 0.0074930948955524296 -0.0083017780818045155
leaf_weight=23 26 36 36 25
leaf_count=23 26 36 36 25
internal_value=0.00194403 -0.00147293 0.000628092 -0.00342339
internal_weight=146 120 97 61
internal_count=146 120 97 61
is_linear=0
shrinkage=0.05


Tree=134
num_leaves=5
num_cat=0
split_feature=27 25 25 9
split_gain=2.86636 0.744426 1.00101 0.271106
threshold=3.6035714149475102 3.4642857313156132 2.928571462631226 20.500000000000004
decision_type=2 2 2 2
left_child=1 2 -1 -3
right_child=-2 3 -4 -5
leaf_value=-0.0059318959712982185 0.014093097881413996 -0.0097603206297960793 0.0072477931307409621 -0.0023996958805417475
leaf_weight=25 36 29 34 22
leaf_count=25 36 29 34 22
internal_value=0.00184683 -0.00216105 0.00166318 -0.00658515
internal_weight=146 110 59 51
internal_count=146 110 59 51
is_linear=0
shrinkage=0.05


Tree=135
num_leaves=7
num_cat=0
split_feature=19 13 27 25 14 14
split_gain=3.24759 4.62811 1.11095 1.20941 0.659618 0.141827
threshold=4.5000000000000009 1.0000000180025095e-35 3.6500000953674321 2.928571462631226 0.29696027934551245 -0.70581671595573414
decision_type=2 2 2 2 2 2
left_child=2 -2 3 -1 5 -5
right_child=1 -3 -4 4 -6 -7
leaf_value=-0.012014205834129826 -0.0049168478976935152 0.028316192151131955 -0.014287865064328626 0.0014535471424460412 0.0095973414881154896 -0.0045010132156312463
leaf_weight=20 20 22 21 20 20 20
leaf_count=20 20 22 21 20 20 20
internal_value=0.000806206 0.0124909 -0.00405279 -0.00136608 0.00218329 -0.00152373
internal_weight=143 42 101 80 60 40
internal_count=143 42 101 80 60 40
is_linear=0
shrinkage=0.05


Tree=136
num_leaves=6
num_cat=0
split_feature=19 15 15 25 9
split_gain=2.93095 5.29379 1.03493 0.798783 1.06347
threshold=4.5000000000000009 1.0000000180025095e-35 0.70581671595573436 2.928571462631226 20.500000000000004
decision_type=2 2 2 2 2
left_child=2 -2 3 -1 -5
right_child=1 -3 -4 4 -6
leaf_value=-0.0090765612856061623 -0.0050587515939365738 0.030484042626339941 -0.0129159017582424 -0.0030593365217958177 0.011393878934904934
leaf_weight=22 22 20 24 35 20
leaf_count=22 22 20 24 35 20
internal_value=0.000765896 0.0118664 -0.00385015 -0.00102446 0.00219638
internal_weight=143 42 101 77 55
internal_count=143 42 101 77 55
is_linear=0
shrinkage=0.05


Tree=137
num_leaves=6
num_cat=0
split_feature=28 27 5 5 20
split_gain=2.88278 1.22637 0.36211 0.680427 0.319967
threshold=2.5000000000000004 3.6500000953674321 1.5000000000000002 2.5000000000000004 3.5000000000000004
decision_type=2 2 2 2 2
left_child=1 2 -1 -4 -5
right_child=-2 -3 3 4 -6
leaf_value=0.0059421683289110662 0.015787209384143353 -0.012695811052496234 -0.0090013245713304393 0.0057195418650129197 -0.0022149722333307618
leaf_weight=20 26 24 22 24 27
leaf_count=20 26 24 22 24 27
internal_value=0.000727601 -0.00261898 -1.85056e-05 -0.00165157 0.00151892
internal_weight=143 117 93 73 51
internal_count=143 117 93 73 51
is_linear=0
shrinkage=0.05


Tree=138
num_leaves=6
num_cat=0
split_feature=19 9 15 25 9
split_gain=2.61553 4.75253 0.899582 0.712278 0.963387
threshold=4.5000000000000009 18.500000000000004 0.70581671595573436 2.928571462631226 20.500000000000004
decision_type=2 2 2 2 2
left_child=2 -2 3 -1 -5
right_child=1 -3 -4 4 -6
leaf_value=-0.0086385244545950143 0.028817627574317158 -0.004859150565144691 -0.012121568038128317 -0.0029957844636269979 0.010760548850521447
leaf_weight=22 20 22 24 35 20
leaf_count=22 20 22 24 35 20
internal_value=0.000691221 0.0111774 -0.00366937 -0.00103492 0.00200652
internal_weight=143 42 101 77 55
internal_count=143 42 101 77 55
is_linear=0
shrinkage=0.05


Tree=139
num_leaves=6
num_cat=0
split_feature=28 22 27 9 9
split_gain=2.61474 1.26521 1.68284 0.511056 0.235668
threshold=2.5000000000000004 1.5000000000000002 3.6500000953674321 23.500000000000004 11.500000000000002
decision_type=2 2 2 2 2
left_child=1 -1 3 4 -3
right_child=-2 2 -4 -5 -6
leaf_value=0.0071967721954794041 0.01499908113708863 -0.0027561950751326305 -0.017723747453696672 -0.0083405837696045645 0.0041591735224106481
leaf_weight=26 26 22 21 20 28
leaf_count=26 26 22 21 20 28
internal_value=0.00065666 -0.00253054 -0.00530978 -0.00158559 0.00111641
internal_weight=143 117 91 70 50
internal_count=143 117 91 70 50
is_linear=0
shrinkage=0.05


Tree=140
num_leaves=5
num_cat=0
split_feature=9 19 9 25
split_gain=2.55821 2.39403 2.21114 0.873861
threshold=14.500000000000002 3.5000000000000004 9.5000000000000018 3.0714285373687749
decision_type=2 2 2 2
left_child=2 3 -1 -2
right_child=1 -3 -4 -5
leaf_value=-0.0012613304746885072 -0.0077480598911643028 -0.017393714712400522 0.019690451986971311 0.0062740223109722139
leaf_weight=34 20 35 20 25
leaf_count=34 20 35 20 25
internal_value=-0.0019102 -0.00758613 0.00649859 4.19858e-05
internal_weight=134 80 54 45
internal_count=134 80 54 45
is_linear=0
shrinkage=0.05


Tree=141
num_leaves=5
num_cat=0
split_feature=14 25 20 20
split_gain=2.43816 1.65127 0.6899 0.202239
threshold=-0.61559370160102833 4.0714285373687753 2.5000000000000004 4.5000000000000009
decision_type=2 2 2 2
left_child=-1 2 -2 -4
right_child=1 -3 3 -5
leaf_value=0.0093131381914847433 -0.0075665062759071589 -0.017965640525587582 0.0054179964559374471 -0.0016073796339333057
leaf_weight=36 35 22 21 20
leaf_count=36 35 22 21 20
internal_value=-0.00181469 -0.00590246 -0.00241049 0.00199098
internal_weight=134 98 76 41
internal_count=134 98 76 41
is_linear=0
shrinkage=0.05


Tree=142
num_leaves=5
num_cat=0
split_feature=9 19 9 25
split_gain=2.25141 2.10756 1.98713 0.795846
threshold=14.500000000000002 3.5000000000000004 9.5000000000000018 3.0714285373687749
decision_type=2 2 2 2
left_child=2 3 -1 -2
right_child=1 -3 -4 -5
leaf_value=-0.0011918090780347805 -0.0073256665561348203 -0.016250787973736549 0.018670288263820112 0.0060558632612228401
leaf_weight=34 20 35 20 25
leaf_count=34 20 35 20 25
internal_value=-0.00172396 -0.00704868 0.00616452 0.000108517
internal_weight=134 80 54 45
internal_count=134 80 54 45
is_linear=0
shrinkage=0.05


Tree=143
num_leaves=5
num_cat=0
split_feature=11 26 16 1
split_gain=2.24075 0.750812 0.542407 0.456234
threshold=37.500000000000007 3.4642857313156132 1.0000000180025095e-35 11.500000000000002
decision_type=2 2 2 2
left_child=1 2 3 -1
right_child=-2 -3 -4 -5
leaf_value=-0.011042871488025413 0.01014785168752555 -0.011008639888475752 0.0035936746880627021 -0.00049095526781110538
leaf_weight=20 31 36 26 21
leaf_count=20 31 36 26 21
internal_value=-0.00163776 -0.00518488 -0.0020557 -0.00563823
internal_weight=134 103 67 41
internal_count=134 103 67 41
is_linear=0
shrinkage=0.05


Tree=144
num_leaves=5
num_cat=0
split_feature=14 25 20 20
split_gain=2.08414 1.43943 0.586187 0.192566
threshold=-0.61559370160102833 4.0714285373687753 2.5000000000000004 4.5000000000000009
decision_type=2 2 2 2
left_child=-1 2 -2 -4
right_child=1 -3 3 -5
leaf_value=0.0087324159357295792 -0.0068276387310054684 -0.016598061633042314 0.0053262731448436781 -0.001529029624798568
leaf_weight=36 35 22 21 20
leaf_count=36 35 22 21 20
internal_value=-0.00155587 -0.00533524 -0.00207495 0.00198222
internal_weight=134 98 76 41
internal_count=134 98 76 41
is_linear=0
shrinkage=0.05


Tree=145
num_leaves=5
num_cat=0
split_feature=27 19 15 19
split_gain=3.17663 1.25297 0.781309 0.339382
threshold=3.6035714149475102 2.5000000000000004 1.0000000180025095e-35 4.5000000000000009
decision_type=2 2 2 2
left_child=1 -1 3 -3
right_child=-2 2 -4 -5
leaf_value=0.0062878676497244409 0.015623628621172734 0.0035005276767714395 -0.011778896082458752 -0.0051215818859636783
leaf_weight=35 36 21 28 25
leaf_count=35 36 21 28 25
internal_value=0.00274613 -0.00150699 -0.00519375 -0.0011854
internal_weight=145 109 74 46
internal_count=145 109 74 46
is_linear=0
shrinkage=0.05


Tree=146
num_leaves=6
num_cat=0
split_feature=28 22 15 18 15
split_gain=3.02806 1.11459 1.23845 0.530997 0.704378
threshold=2.5000000000000004 1.5000000000000002 0.61559370160102855 4.5000000000000009 -0.40966403484344477
decision_type=2 2 2 2 2
left_child=1 -1 3 4 -3
right_child=-2 2 -4 -5 -6
leaf_value=0.0076731053406547296 0.020166593852142492 0.0035964280493896114 -0.014167369566857817 0.0061644154823506658 -0.0084560889431654854
leaf_weight=32 21 22 20 23 27
leaf_count=32 21 22 20 23 27
internal_value=0.00260882 -0.000364673 -0.00316042 -0.000102937 -0.00304475
internal_weight=145 124 92 72 49
internal_count=145 124 92 72 49
is_linear=0
shrinkage=0.05


Tree=147
num_leaves=5
num_cat=0
split_feature=27 19 15 19
split_gain=2.99383 1.09867 0.654688 0.311375
threshold=3.6035714149475102 2.5000000000000004 1.0000000180025095e-35 4.5000000000000009
decision_type=2 2 2 2
left_child=1 -1 3 -3
right_child=-2 2 -4 -5
leaf_value=0.0056485999520685124 0.014979861291228897 0.0030547705390268848 -0.011130824691749044 -0.0052039209008216862
leaf_weight=35 36 21 28 25
leaf_count=35 36 21 28 25
internal_value=0.00247838 -0.00165055 -0.00510285 -0.00143365
internal_weight=145 109 74 46
internal_count=145 109 74 46
is_linear=0
shrinkage=0.05


end of trees

feature_importances:
quantity_used_diff=150
quantity_lag_1=116
quantity_rolling_mean_7=55
day_of_month=48
quantity_rolling_mean_30=32
quantity_lag_3=30
quantity_rolling_mean_14=27
quantity_lag_5=26
week_sin=20
quantity_lag_30=19
region=17
day_of_week=15
quantity_lag_14=14
lead_time_days=13
week_cos=13
week_of_year=10
shipping_mode=9
month_cos=9
day_of_week_cos=9
month_sin=5
month=4
quantity_lag_7=4
late_delivery_risk=2
day_of_week_sin=2

parameters:
[boosting: gbdt]
[objective: regression]
[metric: rmse]
[tree_learner: serial]
[device_type: cpu]
[data_sample_strategy: bagging]
[data: ]
[valid: ]
[num_iterations: 500]
[learning_rate: 0.05]
[num_leaves: 31]
[num_threads: 0]
[seed: 42]
[deterministic: 0]
[force_col_wise: 0]
[force_row_wise: 0]
[histogram_pool_size: -1]
[max_depth: -1]
[min_data_in_leaf: 20]
[min_sum_hessian_in_leaf: 0.001]
[bagging_fraction: 0.8]
[pos_bagging_fraction: 1]
[neg_bagging_fraction: 1]
[bagging_freq: 5]
[bagging_seed: 400]
[bagging_by_query: 0]
[feature_fraction: 0.9]
[feature_fraction_bynode: 1]
[feature_fraction_seed: 30056]
[extra_trees: 0]
[extra_seed: 12879]
[early_stopping_round: 0]
[early_stopping_min_delta: 0]
[first_metric_only: 0]
[max_delta_step: 0]
[lambda_l1: 0]
[lambda_l2: 0]
[linear_lambda: 0]
[min_gain_to_split: 0]
[drop_rate: 0.1]
[max_drop: 50]
[skip_drop: 0.5]
[xgboost_dart_mode: 0]
[uniform_drop: 0]
[drop_seed: 17869]
[top_rate: 0.2]
[other_rate: 0.1]
[min_data_per_group: 100]
[max_cat_threshold: 32]
[cat_l2: 10]
[cat_smooth: 10]
[max_cat_to_onehot: 4]
[top_k: 20]
[monotone_constraints: ]
[monotone_constraints_method: basic]
[monotone_penalty: 0]
[feature_contri: ]
[forcedsplits_filename: ]
[refit_decay_rate: 0.9]
[cegb_tradeoff: 1]
[cegb_penalty_split: 0]
[cegb_penalty_feature_lazy: ]
[cegb_penalty_feature_coupled: ]
[path_smooth: 0]
[interaction_constraints: ]
[verbosity: -1]
[saved_feature_importance_type: 0]
[use_quantized_grad: 0]
[num_grad_quant_bins: 4]
[quant_train_renew_leaf: 0]
[stochastic_rounding: 1]
[linear_tree: 0]
[max_bin: 255]
[max_bin_by_feature: ]
[min_data_in_bin: 3]
[bin_construct_sample_cnt: 200000]
[data_random_seed: 175]
[is_enable_sparse: 1]
[enable_bundle: 1]
[use_missing: 1]
[zero_as_missing: 0]
[feature_pre_filter: 1]
[pre_partition: 0]
[two_round: 0]
[header: 0]
[label_column: ]
[weight_column: ]
[group_column: ]
[ignore_column: ]
[categorical_feature: ]
[forcedbins_filename: ]
[precise_float_parser: 0]
[parser_config_file: ]
[objective_seed: 16083]
[num_class: 1]
[is_unbalance: 0]
[scale_pos_weight: 1]
[sigmoid: 1]
[boost_from_average: 1]
[reg_sqrt: 0]
[alpha: 0.9]
[fair_c: 1]
[poisson_max_delta_step: 0.7]
[tweedie_variance_power: 1.5]
[lambdarank_truncation_level: 30]
[lambdarank_norm: 1]
[label_gain: ]
[lambdarank_position_bias_regularization: 0]
[eval_at: ]
[multi_error_top_k: 1]
[auc_mu_weights: ]
[num_machines: 1]
[local_listen_port: 12400]
[time_out: 120]
[machine_list_filename: ]
[machines: ]
[gpu_platform_id: -1]
[gpu_device_id: -1]
[gpu_use_dp: 0]
[num_gpu: 1]

end of parameters

pandas_categorical:null
