tree
version=v4
num_class=1
num_tree_per_iteration=1
label_index=0
max_feature_idx=29
objective=regression
feature_names=material region unit_price lead_time_days late_delivery_risk shipping_mode day_of_week month is_weekend day_of_month quarter week_of_year month_sin month_cos week_sin week_cos day_of_week_sin day_of_week_cos quantity_lag_1 quantity_lag_3 quantity_lag_5 quantity_lag_7 quantity_lag_14 quantity_lag_30 price_lag_7 quantity_rolling_mean_7 quantity_rolling_mean_14 quantity_rolling_mean_30 quantity_used_diff unit_price_diff
feature_infos=none [0:22] none [0:6] [0:1] [0:3] [0:6] [1:12] [0:1] [1:31] [1:4] [1:53] [-1:1] [-1:1] [-1:1] [-1:1] [-0.97492790222167969:0.97492790222167969] [-0.90096884965896606:1] [0:12] [0:12] [0:12] [0:12] [0:12] [0:12] none [2:4.7142858505249023] [2:4.2142858505249023] [2:3.8947367668151855] [-11:11] none
tree_sizes=541 567 570 573 574 570 657 571 573 576 574 574 574 575 570 575 650 576 656 654 655 574 657 576 657 574 574 572 572 574 656 577 655 579 579 657 582 741 663 579 666 663 664 665 660 577 578 579 660 576 581 659 659 579 577 580 574 580 571 573 578 568 578 574 579 663 661 581 666 582 659 573 663 577 667 655 656 658 660 656 663 568 573 572 658 584 661 665 584 665 579 580 661 586 577 664 664 657 660 661 584 671 577 663 664 669 663 666 669 665 580 663

Tree=0
num_leaves=5
num_cat=0
split_feature=28 28 18 18
split_gain=123.525 38.0612 24.5723 18.5143
threshold=-1.4999999999999998 1.5000000000000002 3.5000000000000004 4.5000000000000009
decision_type=2 2 2 2
left_child=3 2 -2 -1
right_child=1 -3 -4 -5
leaf_value=3.2420810303196284 3.3143032530385557 3.4163234549684476 3.3805867778571312 3.3063667451730057
leaf_weight=24 27 33 29 21
leaf_count=24 27 33 29 21
internal_value=3.33959 3.37373 3.34863 3.27208
internal_weight=134 89 56 45
internal_count=134 89 56 45
is_linear=0
shrinkage=1


Tree=1
num_leaves=5
num_cat=0
split_feature=28 28 18 18
split_gain=111.481 34.3502 22.1765 16.7091
threshold=-1.4999999999999998 1.5000000000000002 3.5000000000000004 4.5000000000000009
decision_type=2 2 2 2
left_child=3 2 -2 -1
right_child=1 -3 -4 -5
leaf_value=-0.095437381664911905 -0.0268262736775257 0.070092917978763589 0.036143074878330891 -0.034365956981976829
leaf_weight=24 27 33 29 21
leaf_count=24 27 33 29 21
internal_value=-0.00280057 0.0296282 0.00578285 -0.0669374
internal_weight=134 89 56 45
internal_count=134 89 56 45
is_linear=0
shrinkage=0.05


Tree=2
num_leaves=5
num_cat=0
split_feature=28 28 25 18
split_gain=101.269 26.1657 23.2351 15.08
threshold=1.0000000180025095e-35 -1.4999999999999998 3.3571429252624516 4.5000000000000009
decision_type=2 2 2 2
left_child=1 3 -2 -1
right_child=2 -3 -4 -5
leaf_value=-0.09066551526387534 0.019793339947174336 -0.0059482337321553917 0.085569683849811562 -0.032647658529735744
leaf_weight=24 29 35 25 21
leaf_count=24 29 35 25 21
internal_value=-0.00266054 -0.038372 0.0502454 -0.0635905
internal_weight=134 80 54 45
internal_count=134 80 54 45
is_linear=0
shrinkage=0.05


Tree=3
num_leaves=5
num_cat=0
split_feature=28 28 25 18
split_gain=91.3953 23.6146 20.9696 13.6097
threshold=1.0000000180025095e-35 -1.4999999999999998 3.3571429252624516 4.5000000000000009
decision_type=2 2 2 2
left_child=1 3 -2 -1
right_child=2 -3 -4 -5
leaf_value=-0.086132238308588668 0.018803673057720582 -0.0056508212004389088 0.081291199386119839 -0.031015277050790338
leaf_weight=24 29 35 25 21
leaf_count=24 29 35 25 21
internal_value=-0.00252751 -0.0364534 0.0477331 -0.060411
internal_weight=134 80 54 45
internal_count=134 80 54 45
is_linear=0
shrinkage=0.05


Tree=4
num_leaves=5
num_cat=0
split_feature=28 28 25 18
split_gain=82.4843 21.3122 18.9251 12.2828
threshold=1.0000000180025095e-35 -1.4999999999999998 3.3571429252624516 4.5000000000000009
decision_type=2 2 2 2
left_child=1 3 -2 -1
right_child=2 -3 -4 -5
leaf_value=-0.081825627883275354 0.017863489636059465 -0.0053682805384908409 0.077226639449596401 -0.029464512353851682
leaf_weight=24 29 35 25 21
leaf_count=24 29 35 25 21
internal_value=-0.00240114 -0.0346307 0.0453464 -0.0573904
internal_weight=134 80 54 45
internal_count=134 80 54 45
is_linear=0
shrinkage=0.05


Tree=5
num_leaves=5
num_cat=0
split_feature=28 28 18 6
split_gain=89.6298 31.9657 18.4388 4.36874
threshold=1.5000000000000002 -1.4999999999999998 3.5000000000000004 3.5000000000000004
decision_type=2 2 2 2
left_child=1 3 -3 -1
right_child=-2 2 -4 -5
leaf_value=-0.042494784047206247 0.064793268865660614 -0.02810870702378452 0.026937452678022712 -0.07474653344778788
leaf_weight=21 38 32 29 21
leaf_count=21 38 32 29 21
internal_value=-0.000838411 -0.025052 -0.00193922 -0.0586207
internal_weight=141 103 61 42
internal_count=141 103 61 42
is_linear=0
shrinkage=0.05


Tree=6
num_leaves=6
num_cat=0
split_feature=25 4 21 13 20
split_gain=42.1402 11.8154 11.5948 3.13238 1.4621
threshold=3.5000000000000004 1.0000000180025095e-35 3.5000000000000004 -0.25000000000000006 2.5000000000000004
decision_type=2 2 2 2 2
left_child=1 4 -2 -3 -1
right_child=2 3 -4 -5 -6
leaf_value=0.0057406147941946985 0.054126624943267913 -0.028120052874088287 0.0066645287315953861 -0.054667851328849798 -0.012704066009748549
leaf_weight=22 31 25 22 20 21
leaf_count=22 31 25 22 20 21
internal_value=-0.000796491 -0.0220097 0.0344254 -0.0399191 -0.00326725
internal_weight=141 88 53 45 43
internal_count=141 88 53 45 43
is_linear=0
shrinkage=0.05


Tree=7
num_leaves=5
num_cat=0
split_feature=28 28 18 6
split_gain=79.4605 27.8559 16.2177 3.89708
threshold=1.5000000000000002 -1.4999999999999998 3.5000000000000004 3.5000000000000004
decision_type=2 2 2 2
left_child=1 3 -3 -1
right_child=-2 2 -4 -5
leaf_value=-0.03966125672062238 0.061039678242645772 -0.02652212732937187 0.025102261736475191 -0.070122325775169192
leaf_weight=21 38 32 29 21
leaf_count=21 38 32 29 21
internal_value=-0.000756666 -0.0235553 -0.00197938 -0.0548918
internal_weight=141 103 61 42
internal_count=141 103 61 42
is_linear=0
shrinkage=0.05


Tree=8
num_leaves=5
num_cat=0
split_feature=28 28 18 6
split_gain=71.7131 25.1399 14.6364 3.51712
threshold=1.5000000000000002 -1.4999999999999998 3.5000000000000004 3.5000000000000004
decision_type=2 2 2 2
left_child=1 3 -3 -1
right_child=-2 2 -4 -5
leaf_value=-0.037678194116978425 0.057987695206937043 -0.025196020770817996 0.023847148798663041 -0.066616209729441586
leaf_weight=21 38 32 29 21
leaf_count=21 38 32 29 21
internal_value=-0.000718833 -0.0223776 -0.00188042 -0.0521472
internal_weight=141 103 61 42
internal_count=141 103 61 42
is_linear=0
shrinkage=0.05


Tree=9
num_leaves=5
num_cat=0
split_feature=28 28 18 16
split_gain=64.721 22.6888 13.2094 3.1742
threshold=1.5000000000000002 -1.4999999999999998 3.5000000000000004 -1.0000000180025095e-35
decision_type=2 2 2 2
left_child=1 3 -3 -1
right_child=-2 2 -4 -5
leaf_value=-0.063285398283707245 0.055088310404435584 -0.02393621981609613 0.022654791792918898 -0.035794283449649814
leaf_weight=21 38 32 29 21
leaf_count=21 38 32 29 21
internal_value=-0.000682891 -0.0212587 -0.00178639 -0.0495398
internal_weight=141 103 61 42
internal_count=141 103 61 42
is_linear=0
shrinkage=0.05


Tree=10
num_leaves=5
num_cat=0
split_feature=28 25 18 28
split_gain=78.5748 20.691 15.8406 19.6944
threshold=1.0000000180025095e-35 3.3571429252624516 3.5000000000000004 -2.4999999999999996
decision_type=2 2 2 2
left_child=2 -2 -1 -4
right_child=1 -3 3 -5
leaf_value=-0.068108494250247106 0.0096089226584280697 0.066924779163673523 -0.056640871161256323 0.0052159261964862388
leaf_weight=26 31 32 22 31
leaf_count=26 31 32 22 31
internal_value=-0.00292786 0.0387217 -0.0361421 -0.0204605
internal_weight=142 63 79 53
internal_count=142 63 79 53
is_linear=0
shrinkage=0.05


Tree=11
num_leaves=5
num_cat=0
split_feature=28 25 18 28
split_gain=70.9138 18.6736 14.2961 17.7742
threshold=1.0000000180025095e-35 3.3571429252624516 3.5000000000000004 -2.4999999999999996
decision_type=2 2 2 2
left_child=2 -2 -1 -4
right_child=1 -3 3 -5
leaf_value=-0.064703070006978058 0.0091284769196664142 0.063578539172885945 -0.053808827376501125 0.0049551295215121268
leaf_weight=26 31 32 22 31
leaf_count=26 31 32 22 31
internal_value=-0.00278147 0.0367857 -0.034335 -0.0194375
internal_weight=142 63 79 53
internal_count=142 63 79 53
is_linear=0
shrinkage=0.05


Tree=12
num_leaves=5
num_cat=0
split_feature=28 25 18 28
split_gain=63.9997 16.8529 12.9023 16.0412
threshold=1.0000000180025095e-35 3.3571429252624516 3.5000000000000004 -2.4999999999999996
decision_type=2 2 2 2
left_child=2 -2 -1 -4
right_child=1 -3 3 -5
leaf_value=-0.061467916787100535 0.0086720531265581813 0.060399613378103824 -0.051118386232040153 0.0047073734067981281
leaf_weight=26 31 32 22 31
leaf_count=26 31 32 22 31
internal_value=-0.0026424 0.0349464 -0.0326183 -0.0184656
internal_weight=142 63 79 53
internal_count=142 63 79 53
is_linear=0
shrinkage=0.05


Tree=13
num_leaves=5
num_cat=0
split_feature=28 25 18 18
split_gain=57.7597 15.2098 11.9736 3.43031
threshold=1.0000000180025095e-35 3.3571429252624516 4.5000000000000009 3.5000000000000004
decision_type=2 2 2 2
left_child=2 -2 3 -1
right_child=1 -3 -4 -5
leaf_value=-0.058394520529187643 0.0082384499330674446 0.057379631395451727 -0.0054277259920691625 -0.032180753909051417
leaf_weight=26 31 32 29 24
leaf_count=26 31 32 29 24
internal_value=-0.00251028 0.0331991 -0.0309873 -0.0458119
internal_weight=142 63 79 50
internal_count=142 63 79 50
is_linear=0
shrinkage=0.05


Tree=14
num_leaves=5
num_cat=0
split_feature=25 11 4 9
split_gain=25.423 10.4647 4.69174 1.59889
threshold=3.3571429252624516 14.500000000000002 1.0000000180025095e-35 15.500000000000002
decision_type=2 2 2 2
left_child=2 -2 -1 -3
right_child=1 3 -4 -5
leaf_value=-0.010075379822503876 0.044614898055218732 -0.005503146403602192 -0.035255105144067392 0.014008102929663091
leaf_weight=37 26 21 37 21
leaf_count=37 26 21 37 21
internal_value=-0.00238476 0.0196852 -0.0226652 0.00425248
internal_weight=142 68 74 42
internal_count=142 68 74 42
is_linear=0
shrinkage=0.05


Tree=15
num_leaves=5
num_cat=0
split_feature=28 25 28 4
split_gain=45.8744 12.412 10.3485 3.00483
threshold=1.5000000000000002 3.5000000000000004 -1.4999999999999998 1.0000000180025095e-35
decision_type=2 2 2 2
left_child=1 2 -1 -4
right_child=-2 -3 3 -5
leaf_value=-0.050137088775274258 0.048988963539401693 0.0069529020055932441 0.0020551137998700143 -0.025353071484714745
leaf_weight=31 36 38 20 20
leaf_count=31 36 38 20 20
internal_value=5.24418e-05 -0.0161101 -0.0284536 -0.011649
internal_weight=145 109 71 40
internal_count=145 109 71 40
is_linear=0
shrinkage=0.05


Tree=16
num_leaves=6
num_cat=0
split_feature=28 18 28 19 25
split_gain=41.4016 11.8565 25.4749 8.09949 2.84596
threshold=1.5000000000000002 2.5000000000000004 -1.4999999999999998 3.5000000000000004 3.3571429252624516
decision_type=2 2 2 2 2
left_child=1 -1 3 -3 -4
right_child=-2 2 4 -5 -6
leaf_value=-0.050091441683471211 0.046539515525930462 -0.054123152804095298 0.0055219523963474099 -0.011040291469544173 0.030726278185223541
leaf_weight=20 36 24 21 20 24
leaf_count=20 36 24 21 20 24
internal_value=4.982e-05 -0.0153046 -0.0074873 -0.03454 0.0189643
internal_weight=145 109 89 44 45
internal_count=145 109 89 44 45
is_linear=0
shrinkage=0.05


Tree=17
num_leaves=5
num_cat=0
split_feature=28 25 28 4
split_gain=37.365 10.4264 8.72089 2.56899
threshold=1.5000000000000002 3.5000000000000004 -1.4999999999999998 1.0000000180025095e-35
decision_type=2 2 2 2
left_child=1 2 -1 -4
right_child=-2 -3 3 -5
leaf_value=-0.045757937815881548 0.044212540125267374 0.0065985069037292551 0.0022454065084457401 -0.023097202368080619
leaf_weight=31 36 38 20 20
leaf_count=31 36 38 20 20
internal_value=4.73291e-05 -0.0145393 -0.0258526 -0.0104259
internal_weight=145 109 71 40
internal_count=145 109 71 40
is_linear=0
shrinkage=0.05


Tree=18
num_leaves=6
num_cat=0
split_feature=28 18 28 19 25
split_gain=33.7219 10.8696 21.7052 7.13166 2.45005
threshold=1.5000000000000002 2.5000000000000004 -1.4999999999999998 3.5000000000000004 3.3571429252624516
decision_type=2 2 2 2 2
left_child=1 -1 3 -3 -4
right_child=-2 2 4 -5 -6
leaf_value=-0.047119988016784194 0.042001912949813737 -0.049674478499218827 0.0056163006595202859 -0.0092475093714892865 0.029001908966650565
leaf_weight=20 36 24 21 20 24
leaf_count=20 36 24 21 20 24
internal_value=4.49625e-05 -0.0138124 -0.00632752 -0.0312986 0.0180886
internal_weight=145 109 89 44 45
internal_count=145 109 89 44 45
is_linear=0
shrinkage=0.05


Tree=19
num_leaves=6
num_cat=0
split_feature=28 18 28 19 25
split_gain=30.434 9.80981 19.589 6.43633 2.21117
threshold=1.5000000000000002 2.5000000000000004 -1.4999999999999998 3.5000000000000004 3.3571429252624516
decision_type=2 2 2 2 2
left_child=1 -1 3 -3 -4
right_child=-2 2 4 -5 -6
leaf_value=-0.044763988964259628 0.039901816601761515 -0.047190754255279903 0.0053354861303454362 -0.0087851332873106012 0.027551813365425917
leaf_weight=20 36 24 21 20 24
leaf_count=20 36 24 21 20 24
internal_value=4.27143e-05 -0.0131218 -0.00601115 -0.0297337 0.0171842
internal_weight=145 109 89 44 45
internal_count=145 109 89 44 45
is_linear=0
shrinkage=0.05


Tree=20
num_leaves=6
num_cat=0
split_feature=28 25 18 7 20
split_gain=30.1565 11.5988 8.22442 2.0057 0.9058
threshold=-1.0000000180025095e-35 3.3571429252624516 4.5000000000000009 4.5000000000000009 2.5000000000000004
decision_type=2 2 2 2 2
left_child=2 4 -1 -3 -2
right_child=1 3 -4 -5 -6
leaf_value=-0.042491765831198014 0.0089934710102776688 0.050168906338512897 -0.0057633172306749553 0.027776361480355262 -0.0055242817510258065
leaf_weight=35 21 20 27 20 22
leaf_count=35 21 20 27 20 22
internal_value=-0.000114395 0.0195932 -0.0264971 0.0389726 0.00156578
internal_weight=145 83 62 40 43
internal_count=145 83 62 40 43
is_linear=0
shrinkage=0.05


Tree=21
num_leaves=5
num_cat=0
split_feature=28 18 28 18
split_gain=27.2162 10.759 20.6872 7.42254
threshold=-1.0000000180025095e-35 2.5000000000000004 2.5000000000000004 4.5000000000000009
decision_type=2 2 2 2
left_child=3 2 -2 -1
right_child=1 -3 -4 -5
leaf_value=-0.04036717755453928 -0.028242811620235442 0.039695105701684955 0.037463648499839984 -0.0054751514353685912
leaf_weight=35 25 35 23 27
leaf_count=35 25 35 23 27
internal_value=-0.000108676 0.0186135 0.00324153 -0.0251723
internal_weight=145 83 48 62
internal_count=145 83 48 62
is_linear=0
shrinkage=0.05


Tree=22
num_leaves=6
num_cat=0
split_feature=28 18 11 28 25
split_gain=24.9884 10.1076 9.48979 7.56229 0.796677
threshold=1.0000000180025095e-35 3.5000000000000004 14.500000000000002 -1.4999999999999998 3.1964285373687749
decision_type=2 2 2 2 2
left_child=1 -1 -2 -3 -4
right_child=2 3 4 -5 -6
leaf_value=-0.046601470316881721 0.051805345430038875 -0.023145367399874061 0.0035392261073204944 0.013311876654624938 0.016995185497216882
leaf_weight=23 20 33 22 25 22
leaf_count=23 20 33 22 25 22
internal_value=-0.000103242 -0.0185535 0.0232479 -0.00743104 0.0102672
internal_weight=145 81 64 58 44
internal_count=145 81 64 58 44
is_linear=0
shrinkage=0.05


Tree=23
num_leaves=5
num_cat=0
split_feature=28 18 28 18
split_gain=22.6861 9.61897 17.8343 6.52239
threshold=-1.0000000180025095e-35 2.5000000000000004 2.5000000000000004 4.5000000000000009
decision_type=2 2 2 2
left_child=3 2 -2 -1
right_child=1 -3 -4 -5
leaf_value=-0.037224673096622744 -0.026772527177818119 0.036928517384720701 0.034235151887253817 -0.0045167187371084258
leaf_weight=35 25 35 23 27
leaf_count=35 25 35 23 27
internal_value=-9.80796e-05 0.0169951 0.00246032 -0.0229809
internal_weight=145 83 48 62
internal_count=145 83 48 62
is_linear=0
shrinkage=0.05


Tree=24
num_leaves=6
num_cat=0
split_feature=28 18 11 28 27
split_gain=20.7453 8.78503 8.40956 6.51274 0.802751
threshold=1.0000000180025095e-35 3.5000000000000004 14.500000000000002 -1.4999999999999998 3.3166666030883794
decision_type=2 2 2 2 2
left_child=1 -1 -2 -3 -4
right_child=2 3 4 -5 -6
leaf_value=-0.043052825023946556 0.048066263111541052 -0.02111801542130045 0.0022101119446398861 0.012714847564697266 0.015717276307457891
leaf_weight=23 20 33 22 25 22
leaf_count=23 20 33 22 25 22
internal_value=-9.31758e-05 -0.0169042 0.0211832 -0.00653488 0.00896369
internal_weight=145 81 64 58 44
internal_count=145 81 64 58 44
is_linear=0
shrinkage=0.05


Tree=25
num_leaves=5
num_cat=0
split_feature=28 18 28 19
split_gain=29.4532 5.43503 8.79565 6.06189
threshold=1.5000000000000002 2.5000000000000004 -1.4999999999999998 3.5000000000000004
decision_type=2 2 2 2
left_child=1 -1 3 -3
right_child=-2 2 -4 -5
leaf_value=-0.037864808131707839 0.038231076750283442 -0.038590729021682195 0.011532706097932534 -0.0024724812158161687
leaf_weight=20 36 26 32 21
leaf_count=20 36 26 32 21
internal_value=-0.000497866 -0.0145811 -0.00868651 -0.0224528
internal_weight=135 99 79 47
internal_count=135 99 79 47
is_linear=0
shrinkage=0.05


Tree=26
num_leaves=5
num_cat=0
split_feature=28 18 28 25
split_gain=26.5815 4.90511 8.06353 2.09924
threshold=1.5000000000000002 2.5000000000000004 -2.4999999999999996 3.3571429252624516
decision_type=2 2 2 2
left_child=1 -1 -3 -4
right_child=-2 2 3 -5
leaf_value=-0.035971567509695893 0.036319522556328192 -0.030420814495947624 -0.0056882847614329437 0.014539109583458174
leaf_weight=20 36 27 29 23
leaf_count=20 36 27 29 23
internal_value=-0.000472972 -0.0138521 -0.00825219 0.00325845
internal_weight=135 99 79 52
internal_count=135 99 79 52
is_linear=0
shrinkage=0.05


Tree=27
num_leaves=5
num_cat=0
split_feature=28 18 28 18
split_gain=23.9898 4.42686 7.4228 2.90315
threshold=1.5000000000000002 2.5000000000000004 -1.4999999999999998 4.5000000000000009
decision_type=2 2 2 2
left_child=1 -1 3 -3
right_child=-2 2 -4 -5
leaf_value=-0.034172989251092079 0.034503547027189697 -0.033732874149625953 0.010734800074715167 -0.0088286791779100902
leaf_weight=20 36 22 32 25
leaf_count=20 36 22 32 25
internal_value=-0.000449324 -0.0131595 -0.00783958 -0.020486
internal_weight=135 99 79 47
internal_count=135 99 79 47
is_linear=0
shrinkage=0.05


Tree=28
num_leaves=5
num_cat=0
split_feature=28 18 28 25
split_gain=21.6508 3.99524 6.99105 1.78809
threshold=1.5000000000000002 2.5000000000000004 -2.4999999999999996 3.3571429252624516
decision_type=2 2 2 2
left_child=1 -1 -3 -4
right_child=-2 2 3 -5
leaf_value=-0.032464339837897573 0.03277836912182263 -0.028089389094599973 -0.0049868594919299262 0.013681398170149845
leaf_weight=20 36 27 29 23
leaf_count=20 36 27 29 23
internal_value=-0.000426858 -0.0125015 -0.0074476 0.00327025
internal_weight=135 99 79 52
internal_count=135 99 79 52
is_linear=0
shrinkage=0.05


Tree=29
num_leaves=5
num_cat=0
split_feature=28 18 28 25
split_gain=19.5398 3.60571 6.30942 1.61375
threshold=1.5000000000000002 2.5000000000000004 -2.4999999999999996 3.3571429252624516
decision_type=2 2 2 2
left_child=1 -1 -3 -4
right_child=-2 2 3 -5
leaf_value=-0.030841123308055104 0.031139450613409281 -0.026684919441187824 -0.0047375166403322393 0.012997328617569547
leaf_weight=20 36 27 29 23
leaf_count=20 36 27 29 23
internal_value=-0.000405515 -0.0118764 -0.00707522 0.00310674
internal_weight=135 99 79 52
internal_count=135 99 79 52
is_linear=0
shrinkage=0.05


Tree=30
num_leaves=6
num_cat=0
split_feature=28 28 18 9 27
split_gain=23.8277 7.21059 11.8266 1.80343 0.853629
threshold=2.5000000000000004 -1.4999999999999998 2.5000000000000004 18.500000000000004 3.4142857789993291
decision_type=2 2 2 2 2
left_child=1 3 -3 -1 -4
right_child=-2 2 4 -5 -6
leaf_value=-0.015201449766755104 0.046428838987713272 -0.026326235535520093 0.0087095193685618813 -0.035020425341049717 0.021817743924000991
leaf_weight=24 23 27 27 22 23
leaf_count=24 23 27 27 22 23
internal_value=-0.000282631 -0.0090173 0.000339698 -0.0246801 0.0147393
internal_weight=146 123 77 46 50
internal_count=146 123 77 46 50
is_linear=0
shrinkage=0.05


Tree=31
num_leaves=5
num_cat=0
split_feature=25 15 23 1
split_gain=11.5375 2.4722 1.32188 0.938636
threshold=3.7857142686843877 0.40966403484344488 3.5000000000000004 15.500000000000002
decision_type=2 2 2 2
left_child=1 2 3 -1
right_child=-2 -3 -4 -5
leaf_value=-0.00017613154579885305 0.028585893195122482 0.0031850562836879337 -0.019836447974949174 -0.014515096658752079
leaf_weight=25 28 39 33 21
leaf_count=25 28 39 33 21
internal_value=-0.000268499 -0.0071153 -0.0122003 -0.00672218
internal_weight=146 118 79 46
internal_count=146 118 79 46
is_linear=0
shrinkage=0.05


Tree=32
num_leaves=6
num_cat=0
split_feature=28 28 18 9 25
split_gain=21.1979 6.44675 10.5235 1.63082 0.737037
threshold=2.5000000000000004 -1.4999999999999998 2.5000000000000004 18.500000000000004 3.5000000000000004
decision_type=2 2 2 2 2
left_child=1 3 -3 -1 -4
right_child=-2 2 4 -5 -6
leaf_value=-0.014289975880334774 0.043803320614540064 -0.024800153531961973 0.0085560787735240798 -0.03313667573066513 0.02078559182330289
leaf_weight=24 23 27 28 22 22
leaf_count=24 23 27 28 22 22
internal_value=-0.000255074 -0.00849364 0.000353884 -0.0233036 0.0139371
internal_weight=146 123 77 46 50
internal_count=146 123 77 46 50
is_linear=0
shrinkage=0.05


Tree=33
num_leaves=5
num_cat=0
split_feature=28 28 18 18
split_gain=19.1311 5.96121 10.2171 4.89082
threshold=2.5000000000000004 -1.0000000180025095e-35 2.5000000000000004 4.5000000000000009
decision_type=2 2 2 2
left_child=1 3 -3 -1
right_child=-2 2 -4 -5
leaf_value=-0.029981938813273847 0.041613153939175869 -0.02017414091527462 0.022486350373947063 -0.0024420489557087422
leaf_weight=38 23 25 32 28
leaf_count=38 23 25 32 28
internal_value=-0.000242321 -0.00806895 0.00377561 -0.0182983
internal_weight=146 123 57 66
internal_count=146 123 57 66
is_linear=0
shrinkage=0.05


Tree=34
num_leaves=5
num_cat=0
split_feature=25 23 4 25
split_gain=9.49154 2.05921 1.30043 2.27779
threshold=3.7857142686843877 1.5000000000000002 1.0000000180025095e-35 3.1964285373687749
decision_type=2 2 2 2
left_child=1 -1 -3 -4
right_child=-2 2 3 -5
leaf_value=0.004624840466966553 0.025941014562600423 -0.0034414892314663646 -0.027708979757418012 -0.0060353414259023139
leaf_weight=31 28 38 22 27
leaf_count=31 28 38 22 27
internal_value=-0.000230205 -0.00644032 -0.0103831 -0.0157664
internal_weight=146 118 87 49
internal_count=146 118 87 49
is_linear=0
shrinkage=0.05


Tree=35
num_leaves=6
num_cat=0
split_feature=28 11 28 26 14
split_gain=16.1622 13.9853 7.56719 3.2298 2.62459
threshold=1.5000000000000002 22.500000000000004 -2.4999999999999996 3.5357142686843877 -0.060268338769674454
decision_type=2 2 2 2 2
left_child=2 -2 -1 4 -4
right_child=1 -3 3 -5 -6
leaf_value=-0.033755358470522842 0.058533315419335853 0.0007630978837947955 0.002558757985631625 0.015602732006283032 -0.018058966851696886
leaf_weight=23 20 22 33 21 29
leaf_count=23 20 22 33 21 29
internal_value=0.00202343 0.0282727 -0.00837723 -0.00134474 -0.00708502
internal_weight=148 42 106 83 62
internal_count=148 42 106 83 62
is_linear=0
shrinkage=0.05


Tree=36
num_leaves=5
num_cat=0
split_feature=28 28 18 28
split_gain=14.7976 8.16532 7.06804 5.51188
threshold=2.5000000000000004 -2.4999999999999996 2.5000000000000004 -1.0000000180025095e-35
decision_type=2 2 2 2
left_child=1 -1 -3 -4
right_child=-2 2 3 -5
leaf_value=-0.032067591275857843 0.036990761410444974 -0.019332425262158115 -0.0047621569267528897 0.023310162083038856
leaf_weight=23 25 30 34 36
leaf_count=23 25 30 34 36
internal_value=0.00192226 -0.00520549 0.000972797 0.00967504
internal_weight=148 123 100 70
internal_count=148 123 100 70
is_linear=0
shrinkage=0.05


Tree=37
num_leaves=7
num_cat=0
split_feature=28 11 28 18 28 3
split_gain=13.4179 12.4689 6.11517 4.42096 3.2345 1.26973
threshold=1.5000000000000002 22.500000000000004 -2.4999999999999996 3.5000000000000004 1.0000000180025095e-35 2.3500000238418584
decision_type=2 2 2 2 2 2
left_child=2 -2 -1 4 -4 -5
right_child=1 -3 3 5 -6 -7
leaf_value=-0.030464210782362069 0.054316341839730747 -0.00023218293420293118 -0.027282698256894944 0.019367135278880596 0.00049984465268525214 0.0017639138159297762
leaf_weight=23 20 22 20 20 22 21
leaf_count=23 20 22 20 20 22 21
internal_value=0.00182615 0.0257433 -0.00765047 -0.00132858 -0.0127299 0.0103509
internal_weight=148 42 106 83 42 41
internal_count=148 42 106 83 42 41
is_linear=0
shrinkage=0.05


Tree=38
num_leaves=6
num_cat=0
split_feature=28 28 18 25 28
split_gain=12.3211 6.61168 6.28132 4.57837 2.97136
threshold=2.5000000000000004 -2.4999999999999996 3.5000000000000004 3.5000000000000004 1.0000000180025095e-35
decision_type=2 2 2 2 2
left_child=1 -1 4 -4 -3
right_child=-2 2 3 -5 -6
leaf_value=-0.028941000803657205 0.033734571099281317 -0.025918563231825831 -0.0016627069901336323 0.030242116676400539 -0.0017595179911170688
leaf_weight=23 25 20 22 23 35
leaf_count=23 25 20 22 23 35
internal_value=0.00173484 -0.00476917 0.000790347 0.0146442 -0.0105446
internal_weight=148 123 100 45 55
internal_count=148 123 100 45 55
is_linear=0
shrinkage=0.05


Tree=39
num_leaves=5
num_cat=0
split_feature=28 28 18 28
split_gain=11.1198 5.96704 5.89018 4.73589
threshold=2.5000000000000004 -2.4999999999999996 2.5000000000000004 -1.0000000180025095e-35
decision_type=2 2 2 2
left_child=1 -1 -3 -4
right_child=-2 2 3 -5
leaf_value=-0.027493950335875803 0.032047841470688586 -0.017785458844155073 -0.004687435311429641 0.021333877054146595
leaf_weight=23 25 30 34 36
leaf_count=23 25 30 34 36
internal_value=0.0016481 -0.00453071 0.00075083 0.00869495
internal_weight=148 123 100 70
internal_count=148 123 100 70
is_linear=0
shrinkage=0.05


Tree=40
num_leaves=6
num_cat=0
split_feature=26 19 28 27 13
split_gain=12.0448 3.30147 3.53387 1.42434 0.675595
threshold=3.5857142210006718 4.5000000000000009 -1.0000000180025095e-35 3.1500000953674321 1.0000000180025095e-35
decision_type=2 2 2 2 2
left_child=1 2 4 -4 -1
right_child=-2 -3 3 -5 -6
leaf_value=-0.009807141153141857 0.024687918580391193 -0.027569476302180974 -0.0059336096387017862 0.011205240332142071 -0.022647601042297627
leaf_weight=20 33 21 22 27 21
leaf_count=20 33 21 22 27 21
internal_value=-0.00183332 -0.00971801 -0.00555267 0.00351025 -0.016384
internal_weight=144 111 90 49 41
internal_count=144 111 90 49 41
is_linear=0
shrinkage=0.05


Tree=41
num_leaves=6
num_cat=0
split_feature=25 28 18 9 27
split_gain=11.1661 2.78176 2.62513 0.810773 0.704353
threshold=3.7857142686843877 1.0000000180025095e-35 3.5000000000000004 11.500000000000002 3.216666698455811
decision_type=2 2 2 2 2
left_child=1 2 -1 -4 -3
right_child=-2 4 3 -5 -6
leaf_value=-0.028109378397464753 0.024840945603265878 -0.0056253933254629372 -0.00041168221272528169 -0.013802185554343921 0.0073393331247974527
leaf_weight=25 31 20 20 26 22
leaf_count=25 31 20 20 26 22
internal_value=-0.00174165 -0.00903423 -0.015068 -0.00798023 0.00116565
internal_weight=144 113 71 46 42
internal_count=144 113 71 46 42
is_linear=0
shrinkage=0.05


Tree=42
num_leaves=6
num_cat=0
split_feature=26 19 28 19 13
split_gain=10.3068 3.03188 3.06302 1.34223 0.599679
threshold=3.5857142210006718 4.5000000000000009 -1.0000000180025095e-35 2.5000000000000004 1.0000000180025095e-35
decision_type=2 2 2 2 2
left_child=1 2 4 -4 -1
right_child=-2 -3 3 -5 -6
leaf_value=-0.0088441997021436701 0.022878633112166868 -0.02605532003300531 -0.005686621749456125 0.010950909306605658 -0.020941727910013426
leaf_weight=20 33 21 22 27 21
leaf_count=20 33 21 22 27 21
internal_value=-0.00165457 -0.00894823 -0.00495657 0.003481 -0.0150405
internal_weight=144 111 90 49 41
internal_count=144 111 90 49 41
is_linear=0
shrinkage=0.05


Tree=43
num_leaves=6
num_cat=0
split_feature=25 18 28 3 15
split_gain=9.70729 2.51962 5.69867 0.679679 0.533318
threshold=3.7857142686843877 1.5000000000000002 -1.0000000180025095e-35 2.3500000238418584 -0.060268338769674384
decision_type=2 2 2 2 2
left_child=1 -1 3 -3 -4
right_child=-2 2 4 -5 -6
leaf_value=-0.024471333567053083 0.02321356649007348 -0.0083882704284042129 0.015111392829567194 -0.020069479384939328 0.0035645570885390041
leaf_weight=20 31 20 20 33 20
leaf_count=20 31 20 20 33 20
internal_value=-0.00157184 -0.00837138 -0.00490902 -0.0156615 0.00933797
internal_weight=144 113 93 53 40
internal_count=144 113 93 53 40
is_linear=0
shrinkage=0.05


Tree=44
num_leaves=6
num_cat=0
split_feature=26 19 28 19 13
split_gain=8.83917 2.82617 2.54744 1.14237 0.52012
threshold=3.5857142210006718 4.5000000000000009 -1.0000000180025095e-35 2.5000000000000004 1.0000000180025095e-35
decision_type=2 2 2 2 2
left_child=1 2 4 -4 -1
right_child=-2 -3 3 -5 -6
leaf_value=-0.0078193519357591858 0.021226262126230834 -0.024764237561750981 -0.00515668503516777 0.010192271128848747 -0.01908585436952611
leaf_weight=20 33 21 22 27 21
leaf_count=20 33 21 22 27 21
internal_value=-0.00149325 -0.0082477 -0.00439384 0.0033009 -0.01359
internal_weight=144 111 90 49 41
internal_count=144 111 90 49 41
is_linear=0
shrinkage=0.05


Tree=45
num_leaves=5
num_cat=0
split_feature=28 18 23 18
split_gain=5.47735 6.6062 3.72136 3.51063
threshold=-1.0000000180025095e-35 2.5000000000000004 2.5000000000000004 4.5000000000000009
decision_type=2 2 2 2
left_child=3 2 -2 -1
right_child=1 -3 -4 -5
leaf_value=-0.024794714640954448 0.010073364517163664 0.023221811594290511 -0.018747823755256833 0.00025919144455757405
leaf_weight=29 21 37 24 27
leaf_count=29 21 37 24 27
internal_value=-0.000661222 0.00757073 -0.00529794 -0.0127152
internal_weight=138 82 45 56
internal_count=138 82 45 56
is_linear=0
shrinkage=0.05


Tree=46
num_leaves=5
num_cat=0
split_feature=28 18 23 18
split_gain=4.94331 5.9621 3.35853 3.16834
threshold=-1.0000000180025095e-35 2.5000000000000004 2.5000000000000004 4.5000000000000009
decision_type=2 2 2 2
left_child=3 2 -2 -1
right_child=1 -3 -4 -5
leaf_value=-0.023554978930744635 0.0095696968159505319 0.022060721036600506 -0.017810432380065324 0.00024623160974846951
leaf_weight=29 21 37 24 27
leaf_count=29 21 37 24 27
internal_value=-0.000628161 0.00719219 -0.00503304 -0.0120794
internal_weight=138 82 45 56
internal_count=138 82 45 56
is_linear=0
shrinkage=0.05


Tree=47
num_leaves=5
num_cat=0
split_feature=28 18 28 18
split_gain=4.46134 5.38079 3.05086 2.85943
threshold=-1.0000000180025095e-35 2.5000000000000004 2.5000000000000004 4.5000000000000009
decision_type=2 2 2 2
left_child=3 2 -2 -1
right_child=1 -3 -4 -5
leaf_value=-0.022377229812715588 -0.016425857506692409 0.020957684838936688 0.0097742007812485106 0.00023391997890064012
leaf_weight=29 25 37 20 27
leaf_count=29 25 37 20 27
internal_value=-0.000596753 0.00683258 -0.00478139 -0.0114754
internal_weight=138 82 45 56
internal_count=138 82 45 56
is_linear=0
shrinkage=0.05


Tree=48
num_leaves=6
num_cat=0
split_feature=28 18 28 21 26
split_gain=4.18877 5.72511 3.3891 2.37289 2.17267
threshold=-2.4999999999999996 3.5000000000000004 1.0000000180025095e-35 2.5000000000000004 3.4642857313156132
decision_type=2 2 2 2 2
left_child=-1 2 -2 -4 -3
right_child=1 4 3 -5 -6
leaf_value=-0.020045550295111278 -0.021974264493300803 0.0065223593160044406 -0.011829557027667761 0.0099964966574175793 0.029549164382652163
leaf_weight=23 21 20 20 33 21
leaf_count=23 21 20 20 33 21
internal_value=-0.000566915 0.00332881 -0.00497522 0.00176025 0.0183166
internal_weight=138 115 74 53 41
internal_count=138 115 74 53 41
is_linear=0
shrinkage=0.05


Tree=49
num_leaves=5
num_cat=0
split_feature=28 18 23 18
split_gain=3.84155 4.6305 3.0765 2.53181
threshold=-1.0000000180025095e-35 2.5000000000000004 2.5000000000000004 4.5000000000000009
decision_type=2 2 2 2
left_child=3 2 -2 -1
right_child=1 -3 -4 -5
leaf_value=-0.020891622378458753 0.0095577279815361616 0.019458770661337957 -0.016647590287417795 0.00038480785410178623
leaf_weight=29 21 37 24 27
leaf_count=29 21 37 24 27
internal_value=-0.00053857 0.00635542 -0.00441844 -0.0106333
internal_weight=138 82 45 56
internal_count=138 82 45 56
is_linear=0
shrinkage=0.05


Tree=50
num_leaves=5
num_cat=0
split_feature=20 17 11 26
split_gain=5.94809 2.25676 2.32011 0.530447
threshold=4.5000000000000009 1.0000000180025095e-35 12.500000000000002 3.1071428060531621
decision_type=2 2 2 2
left_child=1 2 -1 -4
right_child=-2 -3 3 -5
leaf_value=0.015052227105479689 0.021111822507477233 -0.014363639379921668 0.0018943662126548588 -0.0081656400325683578
leaf_weight=20 28 39 20 38
leaf_count=20 28 39 20 38
internal_value=0.000410942 -0.00454311 0.000367148 -0.00469667
internal_weight=145 117 78 58
internal_count=145 117 78 58
is_linear=0
shrinkage=0.05


Tree=51
num_leaves=6
num_cat=0
split_feature=25 18 28 18 1
split_gain=6.39926 3.11017 3.85046 1.2935 1.31956
threshold=3.7857142686843877 1.5000000000000002 1.0000000180025095e-35 3.5000000000000004 12.500000000000002
decision_type=2 2 2 2 2
left_child=1 -1 3 -3 -5
right_child=-2 2 -4 4 -6
leaf_value=-0.022178007325246222 0.02186201360974727 -0.018302127505303363 0.013917266847177721 -0.011916043277067896 0.0050369399153472241
leaf_weight=21 28 20 30 22 24
leaf_count=21 28 20 30 22 24
internal_value=0.000390395 -0.00474811 -0.000935322 -0.0076865 -0.00307101
internal_weight=145 117 96 66 46
internal_count=145 117 96 66 46
is_linear=0
shrinkage=0.05


Tree=52
num_leaves=6
num_cat=0
split_feature=25 18 28 18 1
split_gain=5.77533 2.80692 3.47504 1.16739 1.1909
threshold=3.7857142686843877 1.5000000000000002 1.0000000180025095e-35 3.5000000000000004 12.500000000000002
decision_type=2 2 2 2 2
left_child=1 -1 3 -3 -5
right_child=-2 2 -4 4 -6
leaf_value=-0.021069106761188734 0.020768913125253419 -0.017387021344620734 0.013221403239294889 -0.0113202410093932 0.0047850928657377761
leaf_weight=21 28 20 30 22 24
leaf_count=21 28 20 30 22 24
internal_value=0.000370875 -0.00451071 -0.000888556 -0.00730217 -0.00291746
internal_weight=145 117 96 66 46
internal_count=145 117 96 66 46
is_linear=0
shrinkage=0.05


Tree=53
num_leaves=5
num_cat=0
split_feature=28 18 28 19
split_gain=5.79983 3.69515 3.03879 1.69428
threshold=2.5000000000000004 2.5000000000000004 -1.0000000180025095e-35 3.5000000000000004
decision_type=2 2 2 2
left_child=1 -1 3 -3
right_child=-2 2 -4 -5
leaf_value=-0.019664046959148657 0.022805668219613533 -0.012224870427560651 0.013247498514829203 0.0052106614732606851
leaf_weight=29 24 38 32 22
leaf_count=29 24 38 32 22
internal_value=0.000352332 -0.00410122 0.00080445 -0.00583184
internal_weight=145 121 92 60
internal_count=145 121 92 60
is_linear=0
shrinkage=0.05


Tree=54
num_leaves=5
num_cat=0
split_feature=28 18 28 19
split_gain=5.23435 3.33488 2.7425 1.52909
threshold=2.5000000000000004 2.5000000000000004 -1.0000000180025095e-35 3.5000000000000004
decision_type=2 2 2 2
left_child=1 -1 3 -3
right_child=-2 2 -4 -5
leaf_value=-0.018680844706451073 0.021665384247050196 -0.011613627034852185 0.012585123366443442 0.00495012858459218
leaf_weight=29 24 38 32 22
leaf_count=29 24 38 32 22
internal_value=0.000334715 -0.00389616 0.000764228 -0.00554025
internal_weight=145 121 92 60
internal_count=145 121 92 60
is_linear=0
shrinkage=0.05


Tree=55
num_leaves=5
num_cat=0
split_feature=28 18 28 27
split_gain=8.77282 2.90462 1.45416 0.678636
threshold=2.5000000000000004 4.5000000000000009 1.0000000180025095e-35 3.3833333253860478
decision_type=2 2 2 2
left_child=1 2 3 -1
right_child=-2 -3 -4 -5
leaf_value=-0.00910514981865331 0.030755930529399352 0.0089989571890328086 -0.00071377795415394235 -0.021089588655602367
leaf_weight=27 22 32 33 21
leaf_count=27 22 32 33 21
internal_value=0.00186905 -0.00375494 -0.00879352 -0.0143483
internal_weight=135 113 81 48
internal_count=135 113 81 48
is_linear=0
shrinkage=0.05


Tree=56
num_leaves=5
num_cat=0
split_feature=28 18 28 18
split_gain=7.91747 2.83289 3.39924 2.16488
threshold=2.5000000000000004 2.5000000000000004 -2.4999999999999996 3.5000000000000004
decision_type=2 2 2 2
left_child=1 -1 -3 -4
right_child=-2 2 3 -5
leaf_value=-0.017360754234583251 0.029218133420429448 -0.014085719626970018 -0.0043683396571356321 0.015269683979244698
leaf_weight=28 22 26 23 36
leaf_count=28 22 26 23 36
internal_value=0.0017756 -0.00356719 0.000976566 0.00761418
internal_weight=135 113 85 59
internal_count=135 113 85 59
is_linear=0
shrinkage=0.05


Tree=57
num_leaves=5
num_cat=0
split_feature=28 18 28 27
split_gain=7.14552 2.57137 1.38156 0.612988
threshold=2.5000000000000004 4.5000000000000009 1.0000000180025095e-35 3.3833333253860478
decision_type=2 2 2 2
left_child=1 2 3 -1
right_child=-2 -3 -4 -5
leaf_value=-0.0085608063806796933 0.02775722738694061 0.0086111461510881785 -0.00025410644540732559 -0.01995084527214723
leaf_weight=27 22 32 33 21
leaf_count=27 22 32 33 21
internal_value=0.00168682 -0.00338884 -0.00812957 -0.0135439
internal_weight=135 113 81 48
internal_count=135 113 81 48
is_linear=0
shrinkage=0.05


Tree=58
num_leaves=5
num_cat=0
split_feature=28 18 28 18
split_gain=6.44883 2.5283 3.17424 1.89692
threshold=2.5000000000000004 2.5000000000000004 -2.4999999999999996 3.5000000000000004
decision_type=2 2 2 2
left_child=1 -1 -3 -4
right_child=-2 2 3 -5
leaf_value=-0.0162503195444255 0.026369365406307306 -0.013482095272495196 -0.0037291359601785306 0.014653392301018663
leaf_weight=28 22 26 23 36
leaf_count=28 22 26 23 36
internal_value=0.00160248 -0.00321939 0.00107315 0.00748732
internal_weight=135 113 85 59
internal_count=135 113 85 59
is_linear=0
shrinkage=0.05


Tree=59
num_leaves=5
num_cat=0
split_feature=28 18 28 18
split_gain=5.82007 2.28179 2.86475 1.71197
threshold=2.5000000000000004 2.5000000000000004 -2.4999999999999996 3.5000000000000004
decision_type=2 2 2 2
left_child=1 -1 -3 -4
right_child=-2 2 3 -5
leaf_value=-0.015437803711808688 0.025050897422161975 -0.012807990488811181 -0.0035426792648175494 0.01392072257003747
leaf_weight=28 22 26 23 36
leaf_count=28 22 26 23 36
internal_value=0.00152235 -0.00305842 0.00101949 0.00711296
internal_weight=135 113 85 59
internal_count=135 113 85 59
is_linear=0
shrinkage=0.05


Tree=60
num_leaves=5
num_cat=0
split_feature=9 11 14 15
split_gain=2.41567 3.55559 1.48433 1.13631
threshold=21.500000000000004 14.500000000000002 1.0000000180025095e-35 -0.40966403484344477
decision_type=2 2 2 2
left_child=1 -1 -2 -3
right_child=2 3 -4 -5
leaf_value=0.019888307310640813 -0.0013052894146225993 0.0036918579958952393 -0.02010452278579275 -0.0090209340327419337
leaf_weight=25 21 39 21 32
leaf_count=25 21 39 21 32
internal_value=-0.00070352 0.00367209 -0.0107049 -0.00203785
internal_weight=138 96 42 71
internal_count=138 96 42 71
is_linear=0
shrinkage=0.05


Tree=61
num_leaves=5
num_cat=0
split_feature=18 1 6 11
split_gain=4.17259 2.09044 1.404 1.25682
threshold=1.5000000000000002 14.500000000000002 3.5000000000000004 16.500000000000004
decision_type=2 2 2 2
left_child=-1 3 -3 -2
right_child=1 2 -4 -5
leaf_value=-0.02063250087878921 -0.012040946989630659 0.019048382192850113 0.0027463045959718463 0.0025015424435528427
leaf_weight=22 24 25 28 39
leaf_count=22 24 25 28 39
internal_value=-0.000668344 0.00311796 0.010436 -0.00303845
internal_weight=138 116 53 63
internal_count=138 116 53 63
is_linear=0
shrinkage=0.05


Tree=62
num_leaves=5
num_cat=0
split_feature=18 28 18 9
split_gain=3.76576 2.59835 3.47265 1.26136
threshold=1.5000000000000002 -1.0000000180025095e-35 4.5000000000000009 13.500000000000002
decision_type=2 2 2 2
left_child=-1 2 -2 -3
right_child=1 3 -4 -5
leaf_value=-0.019600875650278547 -0.015094298622429822 0.0035514948566237256 0.0084103069764872394 0.018981215808218203
leaf_weight=22 33 27 30 26
leaf_count=22 33 27 30 26
internal_value=-0.000634927 0.00296206 -0.00390163 0.0111208
internal_weight=138 116 63 53
internal_count=138 116 63 53
is_linear=0
shrinkage=0.05


Tree=63
num_leaves=5
num_cat=0
split_feature=9 11 7 15
split_gain=2.19736 3.44793 1.29821 0.991676
threshold=21.500000000000004 14.500000000000002 6.5000000000000009 -0.40966403484344477
decision_type=2 2 2 2
left_child=1 -1 -2 -3
right_child=2 3 -4 -5
leaf_value=0.019538852363824844 -0.019361563008278612 0.003299842181448371 -0.0017604540885341438 -0.0085763389826752252
leaf_weight=25 20 39 22 32
leaf_count=25 20 39 22 32
internal_value=-0.000603181 0.00357002 -0.0101419 -0.0020528
internal_weight=138 96 42 71
internal_count=138 96 42 71
is_linear=0
shrinkage=0.05


Tree=64
num_leaves=5
num_cat=0
split_feature=18 28 18 22
split_gain=3.39095 2.38299 3.18473 1.02467
threshold=1.5000000000000002 -1.0000000180025095e-35 4.5000000000000009 3.5000000000000004
decision_type=2 2 2 2
left_child=-1 2 -2 -3
right_child=1 3 -4 -5
leaf_value=-0.018570375307039779 -0.014451459194462973 0.0050216202726005577 0.0080576784070581203 0.019235582261656725
leaf_weight=22 33 32 30 21
leaf_count=22 33 32 30 21
internal_value=-0.000573022 0.00284027 -0.00373282 0.0106536
internal_weight=138 116 63 53
internal_count=138 116 63 53
is_linear=0
shrinkage=0.05


Tree=65
num_leaves=6
num_cat=0
split_feature=16 18 16 26 1
split_gain=8.58181 2.85246 1.86147 2.14034 0.57216
threshold=-0.87837970256805409 1.5000000000000002 1.0000000180025095e-35 3.2321428060531621 11.500000000000002
decision_type=2 2 2 2 2
left_child=-1 -2 3 -3 -4
right_child=1 2 4 -5 -6
leaf_value=0.026598165514271545 -0.022185821582873664 0.0030356928728343478 -0.00066208411451606532 -0.017776901947023967 0.011154615893028678
leaf_weight=23 24 21 21 30 20
leaf_count=23 24 21 21 30 20
internal_value=-0.00130267 -0.00683473 -0.0028301 -0.00920701 0.00510216
internal_weight=139 116 92 51 41
internal_count=139 116 92 51 41
is_linear=0
shrinkage=0.05


Tree=66
num_leaves=6
num_cat=0
split_feature=16 18 16 26 9
split_gain=7.74509 2.57435 1.67997 1.93166 0.602787
threshold=-0.87837970256805409 1.5000000000000002 1.0000000180025095e-35 3.2321428060531621 15.500000000000002
decision_type=2 2 2 2 2
left_child=-1 -2 3 -3 -4
right_child=1 2 4 -5 -6
leaf_value=0.025268257006435941 -0.02107653037334482 0.0028839082501473882 0.011059384399559349 -0.0168880572107931 -0.0010694553931118987
leaf_weight=23 24 21 20 30 21
leaf_count=23 24 21 20 30 21
internal_value=-0.00123753 -0.00649299 -0.00268859 -0.00874666 0.00484705
internal_weight=139 116 92 51 41
internal_count=139 116 92 51 41
is_linear=0
shrinkage=0.05


Tree=67
num_leaves=5
num_cat=0
split_feature=16 11 26 14
split_gain=6.98994 2.30805 1.4762 1.45998
threshold=-0.87837970256805409 14.500000000000002 3.1785713434219365 -0.29696027934551233
decision_type=2 2 2 2
left_child=-1 -2 -3 -4
right_child=1 2 3 -5
leaf_value=0.024004844314945137 0.0072875948976725341 -0.00055355944566364435 -0.0072575483987748161 -0.022675282268651897
leaf_weight=23 25 29 34 28
leaf_count=23 25 29 34 28
internal_value=-0.00117566 -0.00616834 -0.00986503 -0.0142204
internal_weight=139 116 91 62
internal_count=139 116 91 62
is_linear=0
shrinkage=0.05


Tree=68
num_leaves=6
num_cat=0
split_feature=16 18 28 18 25
split_gain=6.30842 2.26184 1.62133 1.19175 0.789902
threshold=-0.87837970256805409 1.5000000000000002 -1.0000000180025095e-35 4.5000000000000009 3.5000000000000004
decision_type=2 2 2 2 2
left_child=-1 -2 3 -3 -4
right_child=1 2 4 -5 -6
leaf_value=0.022804601347509206 -0.019529666534314552 -0.014099604933107912 0.012300442755222322 0.0014591037831269205 -0.0017521531961392613
leaf_weight=23 24 32 20 20 20
leaf_count=23 24 32 20 20 20
internal_value=-0.00111688 -0.00585993 -0.00229391 -0.00811549 0.00527414
internal_weight=139 116 92 52 40
internal_count=139 116 92 52 40
is_linear=0
shrinkage=0.05


Tree=69
num_leaves=5
num_cat=0
split_feature=16 11 18 28
split_gain=5.69335 2.06652 2.25009 1.45596
threshold=-0.87837970256805409 14.500000000000002 1.5000000000000002 -1.0000000180025095e-35
decision_type=2 2 2 2
left_child=-1 -2 -3 -4
right_child=1 2 3 -5
leaf_value=0.021664372666323883 0.0071655165692791345 -0.023878564201295378 -0.011564366825807252 0.002791374907687758
leaf_weight=23 25 20 38 33
leaf_count=23 25 20 38 33
internal_value=-0.00106103 -0.00556693 -0.00906486 -0.00489198
internal_weight=139 116 91 71
internal_count=139 116 91 71
is_linear=0
shrinkage=0.05


Tree=70
num_leaves=6
num_cat=0
split_feature=25 19 20 1 20
split_gain=6.96543 3.36279 1.87586 0.993312 1.02842
threshold=3.928571462631226 4.5000000000000009 4.5000000000000009 11.500000000000002 2.5000000000000004
decision_type=2 2 2 2 2
left_child=1 2 3 -1 -5
right_child=-2 -3 -4 4 -6
leaf_value=-0.0088690655266067814 0.027822423452467084 -0.019299319871844581 0.014577711503952743 0.0097844957163982574 -0.0051677391823867101
leaf_weight=35 21 26 20 23 23
leaf_count=35 21 26 20 23 23
internal_value=0.00114737 -0.00326346 0.000864578 -0.00252138 0.00230838
internal_weight=148 127 101 81 46
internal_count=148 127 101 81 46
is_linear=0
shrinkage=0.05


Tree=71
num_leaves=5
num_cat=0
split_feature=25 19 27 26
split_gain=6.2863 3.03492 2.20661 0.770163
threshold=3.928571462631226 4.5000000000000009 3.4500000476837163 3.1071428060531621
decision_type=2 2 2 2
left_child=1 2 3 -1
right_child=-2 -3 -4 -5
leaf_value=0.0014565398465051797 0.026431301347024386 -0.018334353894617659 0.011926898999410051 -0.0090498231766695109
leaf_weight=33 21 26 31 37
leaf_count=33 21 26 31 37
internal_value=0.00109 -0.00310029 0.000821349 -0.00409682
internal_weight=148 127 101 70
internal_count=148 127 101 70
is_linear=0
shrinkage=0.05


Tree=72
num_leaves=6
num_cat=0
split_feature=25 19 27 28 26
split_gain=5.67339 2.73901 1.99146 0.785283 0.57793
threshold=3.928571462631226 4.5000000000000009 3.4500000476837163 -1.0000000180025095e-35 3.1071428060531621
decision_type=2 2 2 2 2
left_child=1 2 3 -1 -5
right_child=-2 -3 -4 4 -6
leaf_value=-0.010378023380014513 0.025109736834253583 -0.017417635970811647 0.011330554017331452 0.0060242968950081962 -0.005719431962352247
leaf_weight=28 21 26 31 22 20
leaf_count=28 21 26 31 22 20
internal_value=0.0010355 -0.00294528 0.000780281 -0.00389198 0.000432045
internal_weight=148 127 101 70 42
internal_count=148 127 101 70 42
is_linear=0
shrinkage=0.05


Tree=73
num_leaves=5
num_cat=0
split_feature=25 19 27 1
split_gain=5.12023 2.47196 1.7973 0.721938
threshold=3.928571462631226 4.5000000000000009 3.4500000476837163 12.500000000000002
decision_type=2 2 2 2
left_child=1 2 3 -1
right_child=-2 -3 -4 -5
leaf_value=-0.0092307298386003819 0.023854250247989383 -0.016546754236333071 0.010764026159660952 0.00096227723253449718
leaf_weight=32 21 26 31 38
leaf_count=32 21 26 31 38
internal_value=0.000983727 -0.00279801 0.000741267 -0.00369738
internal_weight=148 127 101 70
internal_count=148 127 101 70
is_linear=0
shrinkage=0.05


Tree=74
num_leaves=6
num_cat=0
split_feature=25 19 20 26 28
split_gain=4.62101 2.23094 1.62355 0.756207 0.509451
threshold=3.928571462631226 4.5000000000000009 4.5000000000000009 3.1785713434219365 1.0000000180025095e-35
decision_type=2 2 2 2 2
left_child=1 2 3 -1 -5
right_child=-2 -3 -4 4 -6
leaf_value=0.0028225043725625086 0.022661537836704937 -0.015719416572784001 0.013461836371570828 -0.011787407223406869 -0.00098235124722123135
leaf_weight=37 21 26 20 24 20
leaf_count=37 21 26 20 24 20
internal_value=0.000934541 -0.00265811 0.000704204 -0.00244583 -0.00687602
internal_weight=148 127 101 81 44
internal_count=148 127 101 81 44
is_linear=0
shrinkage=0.05


Tree=75
num_leaves=6
num_cat=0
split_feature=28 18 19 25 26
split_gain=2.53494 2.39781 2.72796 1.8924 1.71248
threshold=-2.4999999999999996 3.5000000000000004 4.5000000000000009 3.1964285373687749 3.4642857313156132
decision_type=2 2 2 2 2
left_child=-1 2 3 -2 -3
right_child=1 4 -4 -5 -6
leaf_value=-0.015977842304045739 -0.0048632979064303292 0.0024931730624909204 -0.019301339997909964 0.014519599827472121 0.021530775233571019
leaf_weight=23 34 27 20 20 21
leaf_count=23 34 27 20 20 21
internal_value=-0.00075183 0.00211865 -0.00352685 0.00231555 0.0108221
internal_weight=145 122 74 54 48
internal_count=145 122 74 54 48
is_linear=0
shrinkage=0.05


Tree=76
num_leaves=6
num_cat=0
split_feature=28 18 19 25 26
split_gain=2.28779 2.16402 2.46199 1.70789 1.54552
threshold=-2.4999999999999996 3.5000000000000004 4.5000000000000009 3.1964285373687749 3.4642857313156132
decision_type=2 2 2 2 2
left_child=-1 2 3 -2 -3
right_child=1 4 -4 -5 -6
leaf_value=-0.015178950373893199 -0.0046201329267419435 0.0023685144708940277 -0.018336273333989083 0.013793620559190459 0.020454236669909389
leaf_weight=23 34 27 20 20 21
leaf_count=23 34 27 20 20 21
internal_value=-0.000714238 0.00201272 -0.00335051 0.00219978 0.010281
internal_weight=145 122 74 54 48
internal_count=145 122 74 54 48
is_linear=0
shrinkage=0.05


Tree=77
num_leaves=6
num_cat=0
split_feature=28 18 19 25 26
split_gain=2.06473 1.95303 2.22194 1.54137 1.39483
threshold=-2.4999999999999996 3.5000000000000004 4.5000000000000009 3.1964285373687749 3.4642857313156132
decision_type=2 2 2 2 2
left_child=-1 2 3 -2 -3
right_child=1 4 -4 -5 -6
leaf_value=-0.014420002974245861 -0.0043891263413516918 0.0022500888190094244 -0.017419459591619672 0.013103938698768617 0.019431524461002225
leaf_weight=23 34 27 20 20 21
leaf_count=23 34 27 20 20 21
internal_value=-0.000678527 0.00191208 -0.00318298 0.00208979 0.00976697
internal_weight=145 122 74 54 48
internal_count=145 122 74 54 48
is_linear=0
shrinkage=0.05


Tree=78
num_leaves=6
num_cat=0
split_feature=28 20 18 28 27
split_gain=1.86342 1.80418 4.11874 1.34503 0.428285
threshold=-2.4999999999999996 4.5000000000000009 1.5000000000000002 -1.0000000180025095e-35 3.269696950912476
decision_type=2 2 2 2 2
left_child=-1 2 -2 -4 -5
right_child=1 -3 3 4 -6
leaf_value=-0.013699002774513287 -0.020716873308022819 0.014779860345747279 -0.0029339566180068589 0.014819025473021295 0.004814614416100085
leaf_weight=23 21 22 36 23 20
leaf_count=23 21 22 36 23 20
internal_value=-0.0006446 0.00181648 -0.00103547 0.0041963 0.0101658
internal_weight=145 122 100 79 43
internal_count=145 122 100 79 43
is_linear=0
shrinkage=0.05


Tree=79
num_leaves=6
num_cat=0
split_feature=28 18 19 11 26
split_gain=1.68173 1.72135 1.95585 1.28096 1.23037
threshold=-2.4999999999999996 3.5000000000000004 4.5000000000000009 20.500000000000004 3.4642857313156132
decision_type=2 2 2 2 2
left_child=-1 2 3 -2 -3
right_child=1 4 -4 -5 -6
leaf_value=-0.013014052662512529 0.011176939158890904 0.0020400915536339637 -0.016414529737085105 -0.004495936108287424 0.018176902302851281
leaf_weight=23 22 27 20 32 21
leaf_count=23 22 27 20 32 21
internal_value=-0.00061237 0.00172565 -0.00305767 0.00188931 0.00909995
internal_weight=145 122 74 54 48
internal_count=145 122 74 54 48
is_linear=0
shrinkage=0.05


Tree=80
num_leaves=6
num_cat=0
split_feature=25 3 25 20 16
split_gain=3.63675 0.730774 0.688925 0.37126 0.328104
threshold=3.928571462631226 3.6000000238418584 3.3571429252624516 2.5000000000000004 1.0000000180025095e-35
decision_type=2 2 2 2 2
left_child=1 2 3 -1 -3
right_child=-2 4 -4 -5 -6
leaf_value=0.0019167791087446467 0.02178102703765035 -0.0021447823205519292 0.0065730025714917763 -0.0074850979571541151 -0.010983328512381941
leaf_weight=21 20 21 37 21 21
leaf_count=21 20 21 37 21 21
internal_value=0.00202976 -0.00123491 0.00159831 -0.00278416 -0.00656406
internal_weight=141 121 79 42 42
internal_count=141 121 79 42 42
is_linear=0
shrinkage=0.05


Tree=81
num_leaves=5
num_cat=0
split_feature=28 9 18 27
split_gain=4.6063 1.6257 2.29765 1.57959
threshold=1.5000000000000002 23.500000000000004 4.5000000000000009 3.4500000476837163
decision_type=2 2 2 2
left_child=1 2 3 -1
right_child=-2 -3 -4 -5
leaf_value=0.0010001533263776865 0.01736231902614236 -0.014208235620306091 0.013511221094623858 -0.016525309439748528
leaf_weight=36 36 26 23 20
leaf_count=36 36 26 23 20
internal_value=0.00192827 -0.0033634 0.00020579 -0.00525894
internal_weight=141 105 79 56
internal_count=141 105 79 56
is_linear=0
shrinkage=0.05


Tree=82
num_leaves=5
num_cat=0
split_feature=28 9 18 27
split_gain=4.15718 1.4672 2.07363 1.42558
threshold=1.5000000000000002 23.500000000000004 4.5000000000000009 3.4500000476837163
decision_type=2 2 2 2
left_child=1 2 3 -1
right_child=-2 -3 -4 -5
leaf_value=0.00095014567357591467 0.016494203327844539 -0.013497823611116753 0.012835659880353057 -0.015699043907225135
leaf_weight=36 36 26 23 20
leaf_count=36 36 26 23 20
internal_value=0.00183186 -0.00319523 0.000195501 -0.00499599
internal_weight=141 105 79 56
internal_count=141 105 79 56
is_linear=0
shrinkage=0.05


Tree=83
num_leaves=5
num_cat=0
split_feature=28 9 18 26
split_gain=3.75186 1.32415 1.87145 1.04282
threshold=1.5000000000000002 23.500000000000004 4.5000000000000009 3.3214286565780644
decision_type=2 2 2 2
left_child=1 2 3 -1
right_child=-2 -3 -4 -5
leaf_value=0.0011627775093074888 0.015669493056419823 -0.012822932208207653 0.01219387702319933 -0.012624822306679563
leaf_weight=32 36 26 23 24
leaf_count=32 36 26 23 24
internal_value=0.00174027 -0.00303547 0.000185726 -0.00474619
internal_weight=141 105 79 56
internal_count=141 105 79 56
is_linear=0
shrinkage=0.05


Tree=84
num_leaves=6
num_cat=0
split_feature=28 28 20 14 6
split_gain=3.38605 1.26782 0.70856 0.615115 0.349527
threshold=1.5000000000000002 -2.4999999999999996 3.5000000000000004 -0.17992616817355153 3.5000000000000004
decision_type=2 2 2 2 2
left_child=1 -1 4 -4 -3
right_child=-2 2 3 -5 -6
leaf_value=-0.012977158464491368 0.01488601813196308 0.009456594332586974 0.0015728017571382223 -0.01082795117981732 0.0002207226535704519
leaf_weight=24 36 20 20 20 21
leaf_count=24 36 20 20 20 21
internal_value=0.00165325 -0.00288369 0.000106964 -0.00462757 0.00472603
internal_weight=141 105 81 40 41
internal_count=141 105 81 40 41
is_linear=0
shrinkage=0.05


Tree=85
num_leaves=5
num_cat=0
split_feature=28 18 25 28
split_gain=4.92798 1.54254 0.648926 0.335084
threshold=2.5000000000000004 4.5000000000000009 3.3571429252624516 -1.0000000180025095e-35
decision_type=2 2 2 2
left_child=1 2 3 -1
right_child=-2 -3 -4 -5
leaf_value=-0.0071924360262023077 0.023958463668823246 0.0064150356038501768 -0.01208144226261685 0.00042656582569883722
leaf_weight=27 20 33 31 31
leaf_count=27 20 33 31 31
internal_value=0.000953299 -0.00281804 -0.00624154 -0.00312021
internal_weight=142 122 89 58
internal_count=142 122 89 58
is_linear=0
shrinkage=0.05


Tree=86
num_leaves=6
num_cat=0
split_feature=28 18 26 17 25
split_gain=4.4475 1.39214 0.905014 0.398561 0.163157
threshold=2.5000000000000004 4.5000000000000009 3.4642857313156132 -0.56174489110708226 2.928571462631226
decision_type=2 2 2 2 2
left_child=1 2 3 -1 -5
right_child=-2 -3 -4 4 -6
leaf_value=0.0026080068010328849 0.022760541170137004 0.0060942833622296654 -0.014227082573537095 -0.0089690745261032136 -0.0027942078086831
leaf_weight=22 20 33 24 20 23
leaf_count=22 20 33 24 20 23
internal_value=0.000905634 -0.00267714 -0.00592946 -0.00286572 -0.00566624
internal_weight=142 122 89 65 43
internal_count=142 122 89 65 43
is_linear=0
shrinkage=0.05


Tree=87
num_leaves=6
num_cat=0
split_feature=28 14 20 6 4
split_gain=4.01387 0.783973 1.38406 0.653533 0.204324
threshold=2.5000000000000004 0.29696027934551245 2.5000000000000004 2.5000000000000004 1.0000000180025095e-35
decision_type=2 2 2 2 2
left_child=1 3 -3 -1 -5
right_child=-2 2 -4 4 -6
leaf_value=-0.0050037802068580847 0.021622513337060809 0.0024227662743734465 -0.014432042438922259 0.0013414544307372789 0.0082365983254497951
leaf_weight=29 20 21 29 22 21
leaf_count=29 20 21 29 22 21
internal_value=0.000860353 -0.00254328 -0.00735302 0.000796819 0.00470885
internal_weight=142 122 50 72 43
internal_count=142 122 50 72 43
is_linear=0
shrinkage=0.05


Tree=88
num_leaves=5
num_cat=0
split_feature=28 18 26 28
split_gain=3.62252 1.25293 0.790105 0.343191
threshold=2.5000000000000004 4.5000000000000009 3.4642857313156132 -1.0000000180025095e-35
decision_type=2 2 2 2
left_child=1 2 3 -1
right_child=-2 -3 -4 -5
leaf_value=-0.0068153208678787842 0.020541388485580684 0.0059051986670855322 -0.01325452225379801 0.00052161549243169862
leaf_weight=28 20 33 24 37
leaf_count=28 20 33 24 37
internal_value=0.000817335 -0.00241612 -0.00550155 -0.00263891
internal_weight=142 122 89 65
internal_count=142 122 89 65
is_linear=0
shrinkage=0.05


Tree=89
num_leaves=6
num_cat=0
split_feature=28 18 26 17 25
split_gain=3.26932 1.13077 0.713069 0.334402 0.144326
threshold=2.5000000000000004 4.5000000000000009 3.4642857313156132 -0.56174489110708226 2.928571462631226
decision_type=2 2 2 2 2
left_child=1 2 3 -1 -5
right_child=-2 -3 -4 4 -6
leaf_value=0.0025068769167939375 0.019514318108558654 0.0056099386151992918 -0.012591796333435924 -0.0081785881030373275 -0.0023709685771989273
leaf_weight=22 20 33 24 20 23
leaf_count=22 20 33 24 20 23
internal_value=0.000776468 -0.00229531 -0.00522647 -0.00250697 -0.00507219
internal_weight=142 122 89 65 43
internal_count=142 122 89 65 43
is_linear=0
shrinkage=0.05


Tree=90
num_leaves=5
num_cat=0
split_feature=16 18 25 27
split_gain=2.86003 1.96912 0.816035 0.544837
threshold=-0.87837970256805409 4.5000000000000009 3.3571429252624516 3.1500000953674321
decision_type=2 2 2 2
left_child=-1 2 3 -2
right_child=1 -3 -4 -5
leaf_value=0.018040808668846022 -0.0061921560000628238 0.01073428135779169 -0.010120484092308639 0.0037286382746852692
leaf_weight=23 25 27 39 31
leaf_count=23 25 27 39 31
internal_value=0.00186793 -0.00118106 -0.00456753 -0.000700288
internal_weight=145 122 95 56
internal_count=145 122 95 56
is_linear=0
shrinkage=0.05


Tree=91
num_leaves=5
num_cat=0
split_feature=16 18 25 27
split_gain=2.58118 1.77713 0.736472 0.491715
threshold=-0.87837970256805409 4.5000000000000009 3.3571429252624516 3.1500000953674321
decision_type=2 2 2 2
left_child=-1 2 3 -2
right_child=1 -3 -4 -5
leaf_value=0.017138767552197631 -0.0058825483806431295 0.010197567105017326 -0.0096144597631138886 0.003542206387576317
leaf_weight=23 25 27 39 31
leaf_count=23 25 27 39 31
internal_value=0.00177453 -0.00112201 -0.00433915 -0.000665273
internal_weight=145 122 95 56
internal_count=145 122 95 56
is_linear=0
shrinkage=0.05


Tree=92
num_leaves=6
num_cat=0
split_feature=27 18 19 28 4
split_gain=2.34359 1.09824 1.92113 1.16217 1.03095
threshold=3.6366667747497563 2.5000000000000004 3.5000000000000004 -1.4999999999999998 1.0000000180025095e-35
decision_type=2 2 2 2 2
left_child=1 4 3 -3 -1
right_child=-2 2 -4 -5 -6
leaf_value=-0.015312592073210649 0.017132240833182419 -0.012082523318088574 0.011551801302566139 0.0036458943422379288 0.00017564160410653461
leaf_weight=21 21 23 34 24 22
leaf_count=21 21 23 34 24 22
internal_value=0.0016858 -0.000930126 0.00249833 -0.00405099 -0.00738838
internal_weight=145 124 81 47 43
internal_count=145 124 81 47 43
is_linear=0
shrinkage=0.05


Tree=93
num_leaves=5
num_cat=0
split_feature=16 18 23 17
split_gain=2.34059 1.53488 0.757468 0.537776
threshold=-0.87837970256805409 4.5000000000000009 3.5000000000000004 1.0000000180025095e-35
decision_type=2 2 2 2
left_child=-1 2 3 -2
right_child=1 -3 -4 -5
leaf_value=0.016232195202990071 0.0032081216444364855 0.0093630776568143469 -0.0096146644975401863 -0.0068599702413415621
leaf_weight=23 36 27 38 21
leaf_count=23 36 27 38 21
internal_value=0.00160151 -0.00115673 -0.00414657 -0.000501175
internal_weight=145 122 95 57
internal_count=145 122 95 57
is_linear=0
shrinkage=0.05


Tree=94
num_leaves=5
num_cat=0
split_feature=20 18 28 21
split_gain=2.2369 2.0809 1.10959 0.948153
threshold=4.5000000000000009 2.5000000000000004 -1.0000000180025095e-35 3.5000000000000004
decision_type=2 2 2 2
left_child=1 -1 3 -3
right_child=-2 2 -4 -5
leaf_value=-0.011641244786615308 0.012531046098364251 0.004404744987342773 0.011455978486686946 -0.0098492263793013984
leaf_weight=37 35 28 25 20
leaf_count=37 35 28 25 20
internal_value=0.00152144 -0.00198162 0.00291435 -0.00153441
internal_weight=145 110 73 48
internal_count=145 110 73 48
is_linear=0
shrinkage=0.05


Tree=95
num_leaves=6
num_cat=0
split_feature=28 6 18 18 28
split_gain=3.232 1.32179 1.59011 0.759772 0.578123
threshold=2.5000000000000004 4.5000000000000009 4.5000000000000009 2.5000000000000004 -1.0000000180025095e-35
decision_type=2 2 2 2 2
left_child=1 2 3 -1 -5
right_child=-2 -3 -4 4 -6
leaf_value=-0.011405497682946068 0.017305639448265235 -0.011137879597406615 0.011468288314063102 -0.0054901580195291901 0.0054844637828258182
leaf_weight=21 24 34 24 24 24
leaf_count=21 24 34 24 24 24
internal_value=0.000478372 -0.00270158 0.000382654 -0.00347322 -2.84712e-06
internal_weight=151 127 93 69 48
internal_count=151 127 93 69 48
is_linear=0
shrinkage=0.05


Tree=96
num_leaves=6
num_cat=0
split_feature=28 6 18 18 28
split_gain=2.91688 1.19292 1.43507 0.685694 0.521756
threshold=2.5000000000000004 4.5000000000000009 4.5000000000000009 2.5000000000000004 -1.0000000180025095e-35
decision_type=2 2 2 2 2
left_child=1 2 3 -1 -5
right_child=-2 -3 -4 4 -6
leaf_value=-0.010835222864434833 0.016440356460710369 -0.010580985367243343 0.01089487408801991 -0.0052156501566059891 0.0052102405184996318
leaf_weight=21 24 34 24 24 24
leaf_count=21 24 34 24 24 24
internal_value=0.000454454 -0.0025665 0.000363521 -0.00329956 -2.70482e-06
internal_weight=151 127 93 69 48
internal_count=151 127 93 69 48
is_linear=0
shrinkage=0.05


Tree=97
num_leaves=6
num_cat=0
split_feature=16 18 9 7 11
split_gain=2.73621 2.22019 1.24895 2.13343 1.03434
threshold=-0.87837970256805409 1.5000000000000002 18.500000000000004 6.5000000000000009 22.500000000000004
decision_type=2 2 2 2 2
left_child=-1 -2 4 -4 -3
right_child=1 2 3 -5 -6
leaf_value=0.017177994220678339 -0.015664578422904016 0.013817045936593787 -0.016486956161150541 0.00466895805618081 0.00017512141952686239
leaf_weight=21 25 24 22 26 33
leaf_count=21 25 24 22 26 33
internal_value=0.000431731 -0.00227343 0.000914933 -0.0050275 0.00591909
internal_weight=151 130 105 48 57
internal_count=151 130 105 48 57
is_linear=0
shrinkage=0.05


Tree=98
num_leaves=6
num_cat=0
split_feature=28 6 18 18 27
split_gain=2.78815 1.14685 1.26865 0.56654 0.476693
threshold=2.5000000000000004 4.5000000000000009 4.5000000000000009 2.5000000000000004 3.3499999046325688
decision_type=2 2 2 2 2
left_child=1 2 3 -1 -5
right_child=-2 -3 -4 4 -6
leaf_value=-0.0099643464510639507 0.016039311466738582 -0.010401614684858085 0.010231399375576683 0.0048648474553677568 -0.0051006401175982324
leaf_weight=21 24 34 24 24 24
leaf_count=21 24 34 24 24 24
internal_value=0.000410145 -0.0025434 0.000329498 -0.00311464 -0.000117896
internal_weight=151 127 93 69 48
internal_count=151 127 93 69 48
is_linear=0
shrinkage=0.05


Tree=99
num_leaves=6
num_cat=0
split_feature=16 18 1 22 1
split_gain=2.57982 2.06812 1.14378 1.80433 0.694175
threshold=-0.87837970256805409 1.5000000000000002 12.500000000000002 3.5000000000000004 18.500000000000004
decision_type=2 2 2 2 2
left_child=-1 -2 3 -3 -4
right_child=1 2 4 -5 -6
leaf_value=0.016650312685496396 -0.015161493167281152 -0.013052368068643514 0.01094363662103812 0.0060823783791751013 -0.00033756387792527678
leaf_weight=21 25 28 30 22 25
leaf_count=21 25 28 30 22 25
internal_value=0.000389637 -0.00223709 0.000840153 -0.00463308 0.00581582
internal_weight=151 130 105 50 55
internal_count=151 130 105 50 55
is_linear=0
shrinkage=0.05


Tree=100
num_leaves=5
num_cat=0
split_feature=28 28 18 14
split_gain=2.82824 0.745048 0.756149 0.554525
threshold=2.5000000000000004 -1.4999999999999998 3.5000000000000004 0.29696027934551245
decision_type=2 2 2 2
left_child=1 -1 3 -3
right_child=-2 2 -4 -5
leaf_value=-0.0085261827991463448 0.017046311036461877 0.0007077176256903581 0.0065047848262890645 -0.010193051006644964
leaf_weight=39 21 28 28 20
leaf_count=39 21 28 28 20
internal_value=0.000173092 -0.00290811 -2.51441e-05 -0.00383427
internal_weight=136 115 76 48
internal_count=136 115 76 48
is_linear=0
shrinkage=0.05


Tree=101
num_leaves=6
num_cat=0
split_feature=28 11 28 22 1
split_gain=2.55249 0.688521 0.916346 0.184583 0.0276289
threshold=2.5000000000000004 16.500000000000004 -1.0000000180025095e-35 3.5000000000000004 15.500000000000002
decision_type=2 2 2 2 2
left_child=1 -1 4 -4 -3
right_child=-2 2 3 -5 -6
leaf_value=-0.0091312170787263783 0.016193994436235655 -0.0072036656783893704 0.0075231380738841839 0.0010192693304270507 -0.0045755062528769486
leaf_weight=31 21 20 24 20 20
leaf_count=31 21 20 24 20 20
internal_value=0.000164437 -0.0027627 -0.000412414 0.00456683 -0.00588959
internal_weight=136 115 84 44 40
internal_count=136 115 84 44 40
is_linear=0
shrinkage=0.05


Tree=102
num_leaves=5
num_cat=0
split_feature=16 23 7 9
split_gain=2.34476 1.72123 1.74303 1.22012
threshold=-0.87837970256805409 2.5000000000000004 6.5000000000000009 20.500000000000004
decision_type=2 2 2 2
left_child=-1 3 -3 -2
right_child=1 2 -4 -5
leaf_value=0.015101031205532226 0.010571053212042899 -0.018857462191954256 -0.0017314842072291637 -0.0051429545905973227
leaf_weight=22 30 24 39 21
leaf_count=22 30 24 39 21
internal_value=0.000156215 -0.00272787 -0.00825567 0.00410058
internal_weight=136 114 63 51
internal_count=136 114 63 51
is_linear=0
shrinkage=0.05


Tree=103
num_leaves=6
num_cat=0
split_feature=28 16 11 28 25
split_gain=2.34438 0.755543 2.04301 1.22033 0.164542
threshold=2.5000000000000004 0.6078576147556306 16.500000000000004 -1.4999999999999998 3.1964285373687749
decision_type=2 2 2 2 2
left_child=1 2 -1 -4 -5
right_child=-2 -3 3 4 -6
leaf_value=-0.017709010447699413 0.015510615883838563 0.0046597462940823151 -0.010286666599235364 0.0013054416292685679 0.0074206547642296011
leaf_weight=23 21 27 21 22 22
leaf_count=23 21 27 21 22 22
internal_value=0.000148404 -0.00265687 -0.00490174 -0.000369937 0.00436305
internal_weight=136 115 88 65 44
internal_count=136 115 88 65 44
is_linear=0
shrinkage=0.05


Tree=104
num_leaves=6
num_cat=0
split_feature=16 18 23 14 22
split_gain=2.15823 1.72498 0.831807 1.60812 0.82319
threshold=-0.87837970256805409 1.5000000000000002 2.5000000000000004 -0.060268338769674454 2.5000000000000004
decision_type=2 2 2 2 2
left_child=-1 -2 4 -4 -3
right_child=1 2 3 -5 -6
leaf_value=0.014479033314538273 -0.015959951095283031 -0.0013554078526794911 0.0028544474414295773 -0.01511338010430336 0.012818425695877524
leaf_weight=22 20 21 33 20 20
leaf_count=22 20 21 33 20 20
internal_value=0.000140984 -0.00262601 0.000211001 -0.00392586 0.00555866
internal_weight=136 114 94 53 41
internal_count=136 114 94 53 41
is_linear=0
shrinkage=0.05


Tree=105
num_leaves=6
num_cat=0
split_feature=28 23 18 28 26
split_gain=2.53605 0.946415 0.876488 0.599094 0.291637
threshold=2.5000000000000004 1.5000000000000002 4.5000000000000009 1.0000000180025095e-35 3.279220819473267
decision_type=2 2 2 2 2
left_child=1 -1 3 4 -3
right_child=-2 2 -4 -5 -6
leaf_value=-0.0095311588950847334 0.014797087541470924 -0.0026621654956778956 0.008554070459848101 0.0026127261045420995 -0.011098587410524489
leaf_weight=38 24 21 22 29 20
leaf_count=38 24 21 22 29 20
internal_value=-0.000136185 -0.0028931 -0.000151289 -0.00288726 -0.00677749
internal_weight=154 130 92 70 41
internal_count=154 130 92 70 41
is_linear=0
shrinkage=0.05


Tree=106
num_leaves=6
num_cat=0
split_feature=23 9 17 25 1
split_gain=2.08726 0.838076 0.891381 0.464575 0.39028
threshold=4.5000000000000009 6.5000000000000009 -0.56174489110708226 3.5000000000000004 11.500000000000002
decision_type=2 2 2 2 2
left_child=1 -1 -3 4 -4
right_child=-2 2 3 -5 -6
leaf_value=0.0045505609529625088 0.0114656018258463 0.0013462853928407036 -0.01055485581047833 -0.014661891745742074 -0.00067709788447245956
leaf_weight=28 31 33 20 22 20
leaf_count=28 31 33 20 22 20
internal_value=-0.000129376 -0.00305169 -0.00529235 -0.00882582 -0.00561598
internal_weight=154 123 95 62 40
internal_count=154 123 95 62 40
is_linear=0
shrinkage=0.05


Tree=107
num_leaves=6
num_cat=0
split_feature=28 18 6 19 5
split_gain=2.28203 0.866314 1.29271 0.613868 0.116494
threshold=2.5000000000000004 2.5000000000000004 4.5000000000000009 3.5000000000000004 2.5000000000000004
decision_type=2 2 2 2 2
left_child=1 -1 3 4 -3
right_child=-2 2 -4 -5 -6
leaf_value=-0.0098809964722022421 0.014042748324573041 -0.0033967449422925714 -0.0092636845716885449 0.0088559510957064297 0.0019998683221638205
leaf_weight=32 24 20 29 29 20
leaf_count=32 24 20 29 29 20
internal_value=-0.000122907 -0.00273811 -0.000405733 0.00331717 -0.000698438
internal_weight=154 130 98 69 40
internal_count=154 130 98 69 40
is_linear=0
shrinkage=0.05


Tree=108
num_leaves=6
num_cat=0
split_feature=28 23 18 28 26
split_gain=2.05954 0.810247 0.784093 0.551196 0.271301
threshold=2.5000000000000004 1.5000000000000002 4.5000000000000009 1.0000000180025095e-35 3.279220819473267
decision_type=2 2 2 2 2
left_child=1 -1 3 4 -3
right_child=-2 2 -4 -5 -6
leaf_value=-0.0087431918265984242 0.013340610700349012 -0.0024142613978169504 0.0081694589250467034 0.002623497778228645 -0.010551238236948849
leaf_weight=38 24 21 22 29 20
leaf_count=38 24 21 22 29 20
internal_value=-0.000116762 -0.0026012 -6.42905e-05 -0.00265204 -0.00638352
internal_weight=154 130 92 70 41
internal_count=154 130 92 70 41
is_linear=0
shrinkage=0.05


Tree=109
num_leaves=6
num_cat=0
split_feature=20 18 28 1 22
split_gain=2.00485 3.52806 1.50586 0.54676 0.443107
threshold=4.5000000000000009 1.5000000000000002 -1.0000000180025095e-35 14.500000000000002 3.5000000000000004
decision_type=2 2 2 2 2
left_child=1 -1 3 -3 -4
right_child=-2 2 4 -5 -6
leaf_value=-0.021282390953803604 0.01040845830791763 -0.0091640648649384589 0.0031434981233399851 0.00096102888540675253 0.013319553709588944
leaf_weight=22 35 30 23 24 20
leaf_count=22 35 30 23 24 20
internal_value=-0.000110924 -0.00320486 0.000895199 -0.00466402 0.00787655
internal_weight=154 119 97 54 43
internal_count=154 119 97 54 43
is_linear=0
shrinkage=0.05


Tree=110
num_leaves=5
num_cat=0
split_feature=11 28 18 25
split_gain=2.3758 3.67663 0.883786 0.47183
threshold=22.500000000000004 1.0000000180025095e-35 2.5000000000000004 3.3571429252624516
decision_type=2 2 2 2
left_child=1 -1 -2 -4
right_child=2 -3 3 -5
leaf_value=-0.0028516988111530537 -0.012755258773596815 0.021305959618517334 0.0025212672689268667 -0.0067109443023800862
leaf_weight=36 26 28 31 25
leaf_count=36 26 28 31 25
internal_value=0.000497635 0.00771728 -0.00513721 -0.00160026
internal_weight=146 64 82 56
internal_count=146 64 82 56
is_linear=0
shrinkage=0.05


Tree=111
num_leaves=6
num_cat=0
split_feature=28 6 18 25 27
split_gain=2.14721 1.15187 0.884079 0.667833 0.161283
threshold=2.5000000000000004 4.5000000000000009 4.5000000000000009 3.3571429252624516 3.1833333969116215
decision_type=2 2 2 2 2
left_child=1 2 3 4 -1
right_child=-2 -3 -4 -5 -6
leaf_value=-0.0010226228462886951 0.014143916592001916 -0.0095804208916347687 0.010181545318919235 -0.0084640076810804498 0.0052511941827833655
leaf_weight=21 24 37 20 24 20
leaf_count=21 24 37 20 24 20
internal_value=0.000472753 -0.00221666 0.000988747 -0.00183981 0.00203778
internal_weight=146 122 85 65 41
internal_count=146 122 85 65 41
is_linear=0
shrinkage=0.05


end of trees

feature_importances:
quantity_used_diff=147
quantity_lag_1=108
quantity_rolling_mean_7=48
quantity_lag_3=22
quantity_rolling_mean_14=22
day_of_week_sin=17
quantity_rolling_mean_30=17
week_of_year=16
day_of_month=14
region=12
quantity_lag_5=12
day_of_week=11
quantity_lag_30=11
late_delivery_risk=7
week_sin=7
day_of_week_cos=5
quantity_lag_14=5
month=4
month_cos=4
week_cos=4
lead_time_days=3
quantity_lag_7=3
shipping_mode=1

parameters:
[boosting: gbdt]
[objective: regression]
[metric: rmse]
[tree_learner: serial]
[device_type: cpu]
[data_sample_strategy: bagging]
[data: ]
[valid: ]
[num_iterations: 500]
[learning_rate: 0.05]
[num_leaves: 31]
[num_threads: 0]
[seed: 42]
[deterministic: 0]
[force_col_wise: 0]
[force_row_wise: 0]
[histogram_pool_size: -1]
[max_depth: -1]
[min_data_in_leaf: 20]
[min_sum_hessian_in_leaf: 0.001]
[bagging_fraction: 0.8]
[pos_bagging_fraction: 1]
[neg_bagging_fraction: 1]
[bagging_freq: 5]
[bagging_seed: 400]
[bagging_by_query: 0]
[feature_fraction: 0.9]
[feature_fraction_bynode: 1]
[feature_fraction_seed: 30056]
[extra_trees: 0]
[extra_seed: 12879]
[early_stopping_round: 0]
[early_stopping_min_delta: 0]
[first_metric_only: 0]
[max_delta_step: 0]
[lambda_l1: 0]
[lambda_l2: 0]
[linear_lambda: 0]
[min_gain_to_split: 0]
[drop_rate: 0.1]
[max_drop: 50]
[skip_drop: 0.5]
[xgboost_dart_mode: 0]
[uniform_drop: 0]
[drop_seed: 17869]
[top_rate: 0.2]
[other_rate: 0.1]
[min_data_per_group: 100]
[max_cat_threshold: 32]
[cat_l2: 10]
[cat_smooth: 10]
[max_cat_to_onehot: 4]
[top_k: 20]
[monotone_constraints: ]
[monotone_constraints_method: basic]
[monotone_penalty: 0]
[feature_contri: ]
[forcedsplits_filename: ]
[refit_decay_rate: 0.9]
[cegb_tradeoff: 1]
[cegb_penalty_split: 0]
[cegb_penalty_feature_lazy: ]
[cegb_penalty_feature_coupled: ]
[path_smooth: 0]
[interaction_constraints: ]
[verbosity: -1]
[saved_feature_importance_type: 0]
[use_quantized_grad: 0]
[num_grad_quant_bins: 4]
[quant_train_renew_leaf: 0]
[stochastic_rounding: 1]
[linear_tree: 0]
[max_bin: 255]
[max_bin_by_feature: ]
[min_data_in_bin: 3]
[bin_construct_sample_cnt: 200000]
[data_random_seed: 175]
[is_enable_sparse: 1]
[enable_bundle: 1]
[use_missing: 1]
[zero_as_missing: 0]
[feature_pre_filter: 1]
[pre_partition: 0]
[two_round: 0]
[header: 0]
[label_column: ]
[weight_column: ]
[group_column: ]
[ignore_column: ]
[categorical_feature: ]
[forcedbins_filename: ]
[precise_float_parser: 0]
[parser_config_file: ]
[objective_seed: 16083]
[num_class: 1]
[is_unbalance: 0]
[scale_pos_weight: 1]
[sigmoid: 1]
[boost_from_average: 1]
[reg_sqrt: 0]
[alpha: 0.9]
[fair_c: 1]
[poisson_max_delta_step: 0.7]
[tweedie_variance_power: 1.5]
[lambdarank_truncation_level: 30]
[lambdarank_norm: 1]
[label_gain: ]
[lambdarank_position_bias_regularization: 0]
[eval_at: ]
[multi_error_top_k: 1]
[auc_mu_weights: ]
[num_machines: 1]
[local_listen_port: 12400]
[time_out: 120]
[machine_list_filename: ]
[machines: ]
[gpu_platform_id: -1]
[gpu_device_id: -1]
[gpu_use_dp: 0]
[num_gpu: 1]

end of parameters

pandas_categorical:null
